#include "neural_network.h"
#include <stdio.h>
#include <math.h>

const float weights_fc1[] = {
0.18967145681381226, 0.1615603268146515, -0.21536189317703247, -0.2614695727825165, 0.2639310359954834, 0.006209540646523237, 0.0381368026137352, -0.19641830027103424, 0.26346421241760254, 0.28672999143600464, 0.3194505274295807, -0.10800950229167938, -0.4785081148147583, 0.06747337430715561, -0.26387447118759155, -0.2672669589519501, -0.18440008163452148,
0.1038392186164856, -0.40769949555397034, -0.47242316603660583, 0.2007165253162384, -0.24495674669742584, -0.2907395660877228, -0.5053679943084717, 0.27348965406417847, -0.24697759747505188, 0.22460666298866272, 0.12075364589691162, -0.1255767047405243, -0.1692458689212799, 0.04256566986441612, -0.13683663308620453, 0.038186125457286835, -0.08956825733184814,
0.034294888377189636, 0.233438640832901, 0.6262100338935852, 0.1349664181470871, 0.09511014819145203, 0.12130019813776016, -0.642572820186615, -0.12833574414253235, 0.5941579341888428, -0.08763080835342407, 0.20476704835891724, -0.23074370622634888, 0.3712085485458374, -0.1957673281431198, -0.18561705946922302, -0.028211886063218117, 0.027349596843123436,
-0.24847178161144257, -0.25756895542144775, 0.10725750029087067, -0.021254420280456543, 0.22210292518138885, 0.00639124633744359, -0.9648780226707458, 0.2662394940853119, 0.2519799470901489, 0.06033483147621155, 0.33127492666244507, -0.12598444521427155, -0.0985385924577713, -0.15179184079170227, -0.3100875914096832, 0.07036816328763962, -0.2038046419620514,
0.12427982687950134, -0.23906594514846802, 0.07479260116815567, -0.12051598727703094, -0.3408883810043335, 0.24938297271728516, -0.46769919991493225, 0.13082075119018555, -0.3244020342826843, -0.2056989073753357, -0.34101027250289917, 0.299020379781723, -0.12429484724998474, -0.11332085728645325, 0.08036385476589203, 0.04019485041499138, -0.0194585882127285,
0.16217215359210968, 0.029575837776064873, 0.03209317848086357, -0.14192378520965576, -0.022646555677056313, -0.08804275840520859, 0.27401989698410034, -0.13131935894489288, 0.4089738428592682, -0.3080826699733734, -0.024375030770897865, -0.20912332832813263, -0.07799302041530609, -0.3641602694988251, -0.09079661220312119, 0.07322460412979126, -0.2696278393268585,
-0.22377246618270874, 0.13793641328811646, 0.19046813249588013, -0.19490239024162292, 0.23352652788162231, -0.02877861261367798, 0.7403417825698853, -0.8462168574333191, 0.27197912335395813, 0.05951550602912903, 0.05217299982905388, 0.21568544209003448, 0.007097898982465267, -0.2360798865556717, -0.029507357627153397, 0.1489773988723755, -0.00458871852606535,
0.8373456597328186, 0.14349061250686646, -0.007135646417737007, 0.037800610065460205, 0.5727556943893433, -0.050402119755744934, 0.37777456641197205, 0.16298988461494446, -0.2024201601743698, 0.020106570795178413, 0.24666324257850647, 0.09526414424180984, 0.11407467722892761, -0.044017232954502106, -0.16025567054748535, -0.19056753814220428, 0.1440587043762207,
-0.015467899851500988, -0.46739116311073303, -0.006481952033936977, 0.27183499932289124, 0.07004109025001526, 0.00589227769523859, -0.4957667589187622, 0.41075780987739563, 0.40183717012405396, -0.1526375412940979, -0.5215539336204529, 0.26388615369796753, 0.24233847856521606, 0.09652166068553925, -0.24651974439620972, 0.1443839818239212, -0.05148297920823097,
0.11451464146375656, -0.27900218963623047, 0.3677808940410614, 0.2456529140472412, -0.3027833104133606, -0.3268892168998718, 0.41948577761650085, 0.32784584164619446, -0.20214539766311646, -0.15068741142749786, -0.2518306374549866, 0.22443051636219025, -0.384250670671463, 0.005973238497972488, 0.18753580749034882, -0.006839390378445387, 0.07338680326938629,
0.028977764770388603, -0.06371141225099564, 0.11026368290185928, -0.2979084551334381, 0.18812687695026398, 0.37740978598594666, 0.9517566561698914, -0.04591857269406319, 0.10324938595294952, 0.361269474029541, 0.05003650486469269, -0.4552251100540161, -0.1840669810771942, -0.2744615077972412, -0.10116397589445114, 0.21142952144145966, -0.08453512191772461,
0.09325457364320755, -0.11015482991933823, 0.2552143633365631, -0.02631670981645584, 0.24247245490550995, -0.18024812638759613, -0.2652323544025421, 0.6385208368301392, -0.22184114158153534, 0.11753027886152267, -0.2371998429298401, -0.25477808713912964, 0.06341104954481125, -0.1964424103498459, -0.1700112521648407, -0.05558055639266968, -0.3395012617111206,
-0.12260861694812775, 0.2817627489566803, -0.1286543756723404, 0.24329587817192078, -0.007046509068459272, -0.7587885856628418, -1.3144770860671997, 0.4455263316631317, 0.04159187525510788, -0.09883388876914978, -0.06490141153335571, 0.02959761768579483, -0.49950334429740906, -0.2541813254356384, 0.09660942852497101, -0.21464698016643524, -0.08674482256174088,
0.023431282490491867, 0.08283796906471252, 0.6702064275741577, -0.05063294619321823, -0.017025772482156754, 0.6357837319374084, 1.2961701154708862, -0.31319430470466614, 0.19094115495681763, -0.07967142760753632, 0.08897238969802856, -0.11107957363128662, 0.17792092263698578, -0.08430618792772293, -0.13111014664173126, -0.03824470192193985, 0.01760750450193882,
-0.05177104100584984, -0.2825283408164978, 0.13155758380889893, -0.4172559380531311, -0.0781213641166687, 0.37879449129104614, 0.9071201682090759, 0.6997555494308472, 0.23790769279003143, -0.09767542034387589, 0.12310824543237686, -0.6267099380493164, -0.26419445872306824, -0.028813516721129417, 0.19742117822170258, 0.02180694043636322, -0.27029165625572205,
0.01698562689125538, 0.05061257630586624, 0.06934330612421036, -0.7202373743057251, 0.5060656070709229, 0.43389374017715454, 1.5931062698364258, 0.276536226272583, 0.3784085214138031, -0.1782330423593521, 0.010175173170864582, -0.2809959948062897, -0.1585184782743454, 0.10119916498661041, -0.1982671022415161, 0.017332002520561218, 0.052699606865644455,
0.06824769079685211, -0.07384775578975677, 0.18537361919879913, -0.16971147060394287, 0.39762258529663086, 0.3971607983112335, 0.6509847640991211, -0.8742966055870056, 0.3674115240573883, -0.11649049073457718, 0.3747605085372925, -0.07538735121488571, -0.12229443341493607, -0.07670111209154129, -0.2078414112329483, -0.14839765429496765, 0.19665688276290894,
-0.057865358889102936, 0.3735104203224182, 0.08313511312007904, 0.1143588274717331, 0.4001288414001465, -0.0360390730202198, 1.1393557786941528, -0.9998425841331482, -0.1526588648557663, -0.010231729596853256, -0.2717655301094055, 0.04243140295147896, -0.24168036878108978, -0.3545586168766022, -0.017402319237589836, -0.10900609195232391, 0.002718530595302582,
-0.008725670166313648, 0.21512733399868011, -0.2485916018486023, -0.13876326382160187, 0.6031635999679565, -0.6388383507728577, -0.10503744333982468, -0.08047400414943695, -0.14581085741519928, -0.07772187143564224, -0.2562348544597626, 0.1761985421180725, -0.35764580965042114, -0.2794657349586487, -0.06634262949228287, 0.019288957118988037, -0.04457563906908035,
0.011824289336800575, -0.2333126962184906, -0.5577177405357361, 0.2680167853832245, -0.08341381698846817, -0.06465141475200653, -1.3729485273361206, 0.5142465829849243, -0.7156856060028076, 0.07823880761861801, 0.041490063071250916, 0.3050673007965088, -0.17381249368190765, 0.02626139484345913, 0.06786669790744781, 0.12612292170524597, -0.07361341267824173,
-0.10468527674674988, 0.06563545018434525, 0.1812741756439209, -0.03816167637705803, -0.43321356177330017, 0.1841556578874588, -0.7546488642692566, 1.6966221332550049, -0.12944304943084717, 0.10460494458675385, -0.11425330489873886, -0.11708253622055054, -0.115805484354496, -0.031214257702231407, 0.022329134866595268, 0.2427733689546585, -0.16899721324443817,
0.3597739338874817, -0.12470918893814087, 0.2921454608440399, 0.034334562718868256, -0.21053478121757507, 0.13599954545497894, -0.03735557571053505, -0.20230591297149658, -0.579582929611206, 0.41434118151664734, 0.33513930439949036, 0.26295530796051025, 0.129896342754364, -0.2144475132226944, -0.0721195712685585, 0.0073888180777430534, -0.056127242743968964,
0.02193637192249298, 0.17465096712112427, 0.2605501413345337, 0.31903988122940063, 0.11770499497652054, 0.4917505979537964, -0.7998917102813721, -1.024343490600586, 0.13876812160015106, 0.013163921423256397, 0.060215581208467484, -0.2821807861328125, -0.8923093676567078, -0.06547192484140396, -0.08887157589197159, -0.04136902093887329, -0.008281142450869083,
0.15438300371170044, 0.23051252961158752, 0.37459778785705566, -0.3841201364994049, 0.13626261055469513, 0.23332785069942474, 1.7543530464172363, 0.6095010638237, -0.3527775704860687, 0.04069521278142929, 0.18020161986351013, 0.03343992307782173, -0.027912065386772156, 0.02622494287788868, -0.040924329310655594, 0.16761496663093567, 0.059407781809568405,
-0.012764286249876022, -0.0421576164662838, 0.69571453332901, 0.006393492221832275, -0.10762330144643784, 0.7134299874305725, -0.10941021144390106, -0.8246429562568665, 0.047829702496528625, 0.005982833448797464, -0.06472110748291016, -0.12986984848976135, -0.5046610832214355, -0.0047103893011808395, -0.13250227272510529, 0.0681738555431366, 0.07570819556713104,
0.10063952952623367, 0.26361632347106934, 0.17927739024162292, 0.04043877497315407, 0.2879829406738281, 0.07657316327095032, -0.3304831087589264, -0.608371913433075, -0.17387071251869202, -0.1105276495218277, 0.1494334489107132, 0.017595097422599792, -0.06029520183801651, -0.3658336102962494, -0.1851155012845993, 0.057643916457891464, -0.037344593554735184,
-0.1090274304151535, -0.29602134227752686, -0.1754704713821411, -0.3278213143348694, -0.3477479815483093, 0.09426452219486237, 0.09243082255125046, -0.48371049761772156, -0.2238517701625824, -0.11841971427202225, -0.06564012914896011, 0.13203705847263336, 0.037986915558576584, -0.3579501509666443, -0.008322980254888535, -0.21890023350715637, 0.10772175341844559,
0.24098168313503265, 0.10464775562286377, -0.2654096186161041, 0.24547190964221954, 0.23299188911914825, -0.2303726077079773, -0.37912213802337646, -0.06601257622241974, -0.2623562514781952, 0.32025691866874695, -0.21163541078567505, 0.0994233712553978, 0.03538186103105545, -0.32987233996391296, -0.11842846125364304, 0.06253061443567276, -0.06025881692767143,
-0.06838079541921616, 0.02631569467484951, 0.127800852060318, -0.0690981075167656, 0.26177069544792175, 0.12679734826087952, 0.0039048350881785154, 0.18967880308628082, -0.1702229529619217, 0.07024776190519333, -0.06198921427130699, 0.26432621479034424, 0.20432670414447784, -0.18445470929145813, -0.17289412021636963, -0.15177194774150848, -0.32263609766960144,
-0.22887781262397766, -0.11862950026988983, 0.2853754758834839, 0.0870940312743187, 0.0002222568291472271, 0.25327247381210327, -1.6450575590133667, 0.017262598499655724, -0.14658276736736298, -0.2174476981163025, -0.05688551813364029, -0.14314758777618408, -0.18940389156341553, -0.2958258092403412, -0.07746227830648422, -0.010762849822640419, 0.10161549597978592,
0.2587152123451233, 0.3296867311000824, -0.5863069295883179, 0.13476023077964783, 0.2333846092224121, -0.36849379539489746, -0.6527113318443298, -0.9916207790374756, 0.009820505045354366, -0.3627642095088959, -0.3352692425251007, -0.04041850566864014, 0.0025266390293836594, -0.12685605883598328, -0.23369964957237244, 0.03641558811068535, -0.010985265485942364,
0.24924376606941223, -0.17171154916286469, -0.11632505804300308, 0.2111278921365738, -0.06832634657621384, -0.3126757740974426, -0.3141590654850006, 0.3627019226551056, 0.2732504904270172, 0.20318514108657837, -0.3248537480831146, -0.022892335429787636, 0.09996268153190613, -0.28490251302719116, -0.12123699486255646, 0.08082957565784454, 0.027478134259581566,
-0.23053355515003204, 0.14046494662761688, 0.5077488422393799, -0.29664331674575806, 0.10807012766599655, -0.21700015664100647, 1.2064032554626465, 1.1762694120407104, -0.034986548125743866, -0.16244174540042877, -0.04013331979513168, 0.09354247897863388, -0.2003159523010254, 0.034264735877513885, -0.09743992239236832, -0.08845629543066025, 0.043550554662942886,
0.22658246755599976, -0.18172258138656616, -0.06990011036396027, -0.17134325206279755, 0.09599441289901733, 0.045625463128089905, -0.08232519775629044, 0.07612094283103943, 0.1860128939151764, -0.19686907529830933, 0.10311146825551987, -0.021780194714665413, 0.19446586072444916, -0.16000069677829742, -0.2479413002729416, 0.17941346764564514, -0.24696961045265198,
0.057785019278526306, -0.07240219414234161, -0.1653430014848709, -0.05517899990081787, -0.005068320780992508, 0.013876644894480705, -0.33653825521469116, -0.3393649756908417, -0.9328370690345764, 0.44377684593200684, -0.05180821567773819, 0.3542897403240204, 0.12447740137577057, 0.16704009473323822, -0.1716756522655487, 0.01032809168100357, 0.030128972604870796,
0.12475031614303589, -0.3290781080722809, -0.01675831526517868, 0.19853679835796356, 0.3895997107028961, -0.8994763493537903, -0.09485449641942978, -0.802370548248291, -0.09915764629840851, -0.14830192923545837, -0.1330409049987793, -0.46915188431739807, 0.191370889544487, -0.07140009850263596, 0.04870978370308876, 0.3077397644519806, -0.005255980882793665,
-0.02536928653717041, 0.0359947495162487, -0.06242530047893524, -0.2142895758152008, 0.17857392132282257, -0.5895689725875854, -0.11809232085943222, 0.9889481067657471, -0.1979970484972, 0.5727675557136536, 0.14331203699111938, 0.1127210482954979, -0.009253652766346931, 0.05714220181107521, -0.07501920312643051, 0.28978875279426575, 0.02093387208878994,
-0.23633542656898499, 0.08428528904914856, -0.28375381231307983, -0.10678903013467789, 0.05572908744215965, -0.5992811322212219, 0.426690012216568, 1.315475344657898, -0.08156297355890274, -0.2637694776058197, -0.02788475714623928, -0.14387910068035126, -0.2318146675825119, -0.19676609337329865, 0.07300634682178497, -0.17679384350776672, 0.06101815402507782,
-0.13359542191028595, -0.2808363735675812, 0.04689018428325653, -0.24398542940616608, 0.23404714465141296, -0.07255356758832932, -0.5742905735969543, 0.04802059009671211, -0.008719506673514843, -0.23876702785491943, 0.19342544674873352, -0.45363372564315796, 0.3597724437713623, -0.18657852709293365, -0.031358763575553894, -0.08658115565776825, -0.24420788884162903,
-0.1301654428243637, -0.7355510592460632, 0.13651065528392792, -0.06267262250185013, -0.1468447744846344, 0.26027634739875793, -0.11478891968727112, -0.07500254362821579, -0.07782105356454849, 0.23093357682228088, -0.06418972462415695, 0.3872987627983093, 0.04919055849313736, -0.26289746165275574, -0.01836179383099079, -0.08307237178087234, 0.1489754468202591,
0.0843091830611229, 0.24273638427257538, -0.05558779090642929, 0.2913891673088074, 0.05204601213335991, -0.25863781571388245, 0.23702695965766907, -0.5847282409667969, -0.3197826147079468, 0.0885419249534607, -0.046336621046066284, -0.27315858006477356, -0.06224781274795532, -0.2677948772907257, -0.08324741572141647, 0.05767486244440079, 0.0013760779984295368,
-0.10499176383018494, -0.22563208639621735, -0.08184055238962173, 0.21576112508773804, -0.33448952436447144, -0.25638794898986816, -1.3486207723617554, 0.5943378806114197, 0.41092395782470703, -0.05894119665026665, -0.03796370327472687, -0.21756020188331604, -0.11455979943275452, -0.06351343542337418, -0.12098005414009094, -0.02193472720682621, -0.10512376576662064,
0.2721811532974243, 0.053807470947504044, 0.24678105115890503, 0.010511489585042, 0.05846194550395012, 0.24104508757591248, -0.34531259536743164, 0.8575219511985779, 0.33956021070480347, 0.1881060153245926, 0.2794343829154968, -0.0835113450884819, 0.14444057643413544, -0.34151309728622437, -0.0713338851928711, 0.1775578260421753, -0.07956069707870483,
-0.17323268949985504, 0.02482113055884838, -0.0633011907339096, -0.28767797350883484, -0.10620574653148651, -0.8753634691238403, 0.059929538518190384, 0.18212029337882996, -0.16569884121418, -0.4460318386554718, 0.3300187587738037, -0.3318762183189392, 0.24448774755001068, -0.008614562451839447, 0.04498114809393883, 0.05836280435323715, 0.14386765658855438,
0.21302077174186707, -0.06049636751413345, 0.365517258644104, -0.00707577308639884, -0.08937948197126389, 0.333865761756897, 0.24965457618236542, 0.8859055638313293, -0.2792128622531891, 0.06589976698160172, 0.39419978857040405, -0.1658094823360443, 0.0802401453256607, -0.17695413529872894, -0.24576063454151154, -0.04009799286723137, -0.1988428384065628,
0.0447261817753315, -0.40978971123695374, 0.17985622584819794, 0.0020987398456782103, -0.20613993704319, -0.3975861966609955, 0.20375919342041016, -0.1860416680574417, 0.052953701466321945, -0.34252825379371643, -0.2402089238166809, -0.20908145606517792, 0.40859487652778625, -0.09839098900556564, -0.1703493595123291, 0.09379450231790543, 0.013714906759560108,
0.3022685647010803, -0.02037002332508564, -0.23008494079113007, 0.3382241725921631, 0.02033841423690319, -0.02334578149020672, 0.32128360867500305, 0.24787110090255737, -0.5525490641593933, -0.07831045985221863, 0.2560237646102905, 0.5033684968948364, -0.24891714751720428, -0.10760733485221863, -0.020890945568680763, -0.014269203878939152, 0.07780658453702927,
0.2108907252550125, -0.08192624151706696, -0.29205816984176636, 0.0652909055352211, 0.42159393429756165, 0.1491522341966629, -0.1903570294380188, 0.2815023958683014, -0.025480829179286957, -0.5626192688941956, 0.07779063284397125, -0.009196102619171143, -1.233279824256897, -0.054545238614082336, -0.028837239369750023, -0.13778138160705566, 0.1295212060213089,
0.026567280292510986, 0.3131319582462311, -0.12409152090549469, 0.22084850072860718, 0.3525196611881256, 0.23412318527698517, -0.5904152989387512, 0.32092899084091187, 0.5371655821800232, -0.2758488655090332, -0.07425205409526825, -0.05510798096656799, 0.1594482660293579, -0.3104977309703827, -0.1747293919324875, 0.02837105095386505, -0.1650315225124359,
0.18314240872859955, -0.1547972708940506, 0.39532965421676636, -0.2871443033218384, 0.11489544808864594, 0.4224824011325836, 0.45838668942451477, 0.06067932769656181, -0.5219547152519226, -0.32046759128570557, 0.06513175368309021, -0.5051214694976807, 0.483376145362854, 0.06604646146297455, 0.10819270461797714, -0.3103325664997101, -0.23968294262886047,
0.10913505405187607, -0.11803128570318222, -0.4279850423336029, -0.3156733810901642, 0.16897842288017273, -0.3610336482524872, -0.3726736009120941, 0.25398877263069153, -0.10026702284812927, 0.005996139720082283, 0.15541818737983704, -0.48480865359306335, -0.4579579830169678, -0.14112867414951324, -0.2197292447090149, 0.20183825492858887, -0.24043524265289307,
0.1365683674812317, -0.2854611575603485, 0.5104843378067017, 0.1981774866580963, 0.12811344861984253, 0.38602373003959656, 0.29565706849098206, -0.3943549692630768, -0.06058254837989807, -0.5076584815979004, 0.22996215522289276, 0.26042473316192627, 0.29527825117111206, -0.11822870373725891, -0.14511604607105255, -0.06201504170894623, 0.12016487866640091,
0.23529104888439178, -0.27953556180000305, -0.24769900739192963, 0.1326674222946167, 0.30004027485847473, 0.18008436262607574, 0.49309802055358887, 0.0821419358253479, 0.06921212375164032, -0.13220573961734772, -0.05543401092290878, -0.23260268568992615, -0.10731277614831924, -0.19934619963169098, -0.22806714475154877, 0.08562494069337845, -0.20296204090118408,
0.11721240729093552, 0.11963051557540894, -0.21605828404426575, -0.6532353758811951, -0.06156465783715248, -0.41254082322120667, 0.49787408113479614, -0.17612206935882568, 0.1705564707517624, 0.27107667922973633, 0.49811017513275146, 0.1394265741109848, -0.03158058226108551, -0.2357018142938614, 0.011335316114127636, 0.05180925503373146, -0.10119874775409698,
-0.12404167652130127, 0.3224527835845947, 0.17058323323726654, -0.381595253944397, 1.2339303493499756, -0.47560542821884155, 0.38517120480537415, -0.4145963191986084, 0.05928042158484459, -0.23342253267765045, 0.09624028205871582, -0.05460784584283829, 0.1312122792005539, -0.12422454357147217, -0.15897510945796967, -0.07499666512012482, 0.07455981522798538,
-0.12753510475158691, -0.018173234537243843, 0.10079992562532425, -0.045122791081666946, -0.27742141485214233, -0.22281794250011444, 0.046759288758039474, -0.29569271206855774, 0.42925533652305603, -0.21086852252483368, 0.3560372292995453, -0.5201340317726135, 0.24463902413845062, -0.21840117871761322, 0.0023371910210698843, -0.05223703011870384, -0.1039007157087326,
0.09778454154729843, -0.42859289050102234, 0.5763533115386963, 0.15345235168933868, -0.25450095534324646, 0.1560678631067276, -0.9136176109313965, -0.43079549074172974, -0.7721917629241943, 0.006073454394936562, 0.09923114627599716, -0.3436540365219116, 0.00811400543898344, 0.19213436543941498, -0.04606497660279274, 0.01313850563019514, -0.027004243806004524,
0.33498236536979675, 0.1818796843290329, -0.23051509261131287, -0.16728273034095764, 0.09543409198522568, -0.3682529330253601, 0.09511744976043701, -0.49344751238822937, 0.24478788673877716, 0.07482969015836716, 0.4248672127723694, -0.5717564225196838, 0.21716828644275665, -0.00724003417417407, -0.08604755252599716, 0.14532026648521423, 0.03981151059269905,
0.14876358211040497, -0.22970682382583618, 0.036665674299001694, 0.10477583855390549, 0.11609192192554474, 0.46814173460006714, -0.44906556606292725, -1.0953279733657837, -0.396857887506485, -0.28912022709846497, -0.06799948215484619, -0.4759877622127533, -0.07057295739650726, -0.13641521334648132, 0.04563542827963829, -0.0877910628914833, 0.22387012839317322,
0.1529516875743866, -0.1207309141755104, 1.1280711889266968, 0.19180327653884888, -0.3631126880645752, 0.5952236652374268, -0.15160071849822998, -0.18765181303024292, -0.1922055035829544, -0.021426469087600708, -0.117291659116745, 0.0660850927233696, -0.21885329484939575, -0.13044357299804688, -0.18327663838863373, 0.01690547540783882, -0.047167737036943436,
0.05855695530772209, 0.016234299167990685, 0.4758108854293823, -0.20903271436691284, 0.06277026236057281, 0.0029638088308274746, 0.15390335023403168, -0.06277049332857132, -0.4417080879211426, 0.23151825368404388, 0.12316735088825226, -0.1356283575296402, -0.07800736278295517, 0.019431602209806442, -0.2636180520057678, 0.17442508041858673, -0.06810586154460907,
-0.046461500227451324, -0.061416979879140854, -0.48855918645858765, -0.011369699612259865, 0.10160458832979202, -0.09506849199533463, 0.22537097334861755, -0.2578060030937195, -0.19850154221057892, -0.6202791929244995, 0.3223334550857544, 0.0812111347913742, -0.25571954250335693, -0.09223321825265884, -0.23128126561641693, 0.1754675954580307, -0.11404190212488174,
0.010397503152489662, -0.316718727350235, -0.2878365218639374, -0.04532748833298683, -0.06683237105607986, -0.6915707588195801, -0.07468979805707932, 0.5567940473556519, 0.12953506410121918, -0.09206847846508026, 0.5951892733573914, 0.29710015654563904, 0.30727455019950867, 0.08006952702999115, -0.13350950181484222, 0.19364973902702332, 0.09605484455823898,
0.12152112275362015, -0.20194143056869507, 0.2295517921447754, -0.22800607979297638, -0.022114278748631477, 0.03719775006175041, -0.11831089109182358, 0.6356712579727173, 0.1960243582725525, 0.07389193028211594, -0.1787736415863037, -0.17795510590076447, -0.1924736648797989, -0.008120675571262836, -0.21304506063461304, -0.011665014550089836, -0.12047971040010452,
0.3459456264972687, -0.058769408613443375, 0.38788679242134094, 0.08689095079898834, -0.20212388038635254, -0.38520556688308716, 0.01116739958524704, 0.4864059388637543, 0.0017866282723844051, 0.04765782505273819, -0.1937173455953598, -0.16595688462257385, 0.14197522401809692, -0.1747496873140335, -0.4529297947883606, -0.33096519112586975, -0.040086641907691956,
0.10785926878452301, 0.24384137988090515, -0.8190488815307617, -0.11325889080762863, -0.12187918275594711, -0.5548081994056702, -0.04479145258665085, 0.09169335663318634, 0.21522504091262817, 0.048966534435749054, -0.03549801558256149, -0.049039483070373535, -0.3947190046310425, 0.0305496696382761, 0.05548061430454254, -0.019809775054454803, 0.00928973127156496,
-0.16174821555614471, -0.15273018181324005, 0.24183586239814758, -0.12695936858654022, 0.04445387050509453, 0.16206654906272888, 0.7505717873573303, -0.12715883553028107, 0.25157034397125244, 0.3164084255695343, 0.06699690222740173, -0.5223935842514038, -0.17880509793758392, -0.28901898860931396, -0.2682226598262787, -0.15911981463432312, -0.25894516706466675,
0.0854601338505745, -0.09193779528141022, 0.08480078727006912, -0.09682713449001312, 0.06688360869884491, -0.03909795731306076, 1.3044681549072266, 0.7669042944908142, 0.03548894822597504, -0.21781262755393982, 0.12360752373933792, 0.13321392238140106, -0.17957092821598053, -0.27108678221702576, -0.10541253536939621, -0.003689923556521535, 0.059004057198762894,
-0.037418264895677567, -0.12412217259407043, -0.05304143577814102, 0.06084497272968292, 0.015128729864954948, -0.4417058825492859, -0.12433275580406189, 0.7039455771446228, -0.04784923419356346, -0.23749154806137085, 0.5050972700119019, -0.03566708043217659, -0.2645505666732788, -0.06671477854251862, -0.32645153999328613, -0.08700627833604813, 0.06330117583274841,
-0.015100964345037937, 0.11519648134708405, 0.23598356544971466, -0.19295468926429749, -0.0888897031545639, 0.04265924170613289, 0.43495163321495056, -0.6774083971977234, -0.1013612374663353, -0.32927781343460083, 0.2359420210123062, 0.3853749632835388, 0.11007977277040482, 0.14230869710445404, -0.07113122940063477, -0.02726101502776146, -0.15031158924102783,
0.16360868513584137, -0.27633583545684814, -0.2082028090953827, -0.1189008504152298, 0.6310392022132874, 0.2846069633960724, 0.8342809677124023, 0.08894627541303635, -0.2762862741947174, 0.4897148609161377, -0.2781309485435486, 0.09162923693656921, 0.3543842136859894, -0.029673194512724876, -0.0304229985922575, -0.058550380170345306, 0.01055079698562622,
0.22022438049316406, -0.23618945479393005, 0.28293442726135254, 0.08477214723825455, -0.2915993928909302, 0.0597212091088295, -1.343885064125061, 0.17160527408123016, -0.2650042474269867, -0.05176807940006256, 0.044294923543930054, 0.09233725816011429, 0.43735116720199585, -0.11029860377311707, -0.11382565647363663, -0.13461565971374512, 0.00968453660607338,
0.13898086547851562, -0.11435996741056442, 0.21324431896209717, -0.08999618142843246, -0.11922628432512283, 0.18180422484874725, 0.23297150433063507, 0.13443131744861603, -0.07724518328905106, -0.14437957108020782, 0.04900389909744263, -0.0040551405400037766, -0.014184344559907913, -0.27005964517593384, -0.27298659086227417, -0.11426547914743423, -0.2205972671508789,
-0.27732986211776733, -0.015131422318518162, -0.15432347357273102, -0.3356304168701172, 0.01829995959997177, 0.2910239100456238, 1.12305748462677, 0.14342767000198364, 0.2654019594192505, 0.13866643607616425, 0.09167609363794327, -0.2377869337797165, -0.2602883577346802, -0.27748608589172363, -0.30687466263771057, 0.07923317700624466, -0.0017569201299920678,
0.13959522545337677, -0.4532855749130249, -0.5805405974388123, 0.16403581202030182, -0.07368317246437073, 0.05772463604807854, 0.0010090225841850042, 0.6587558388710022, 0.29914289712905884, 0.29765430092811584, -0.14569087326526642, -0.35430485010147095, -0.2008596807718277, -0.09486031532287598, -0.11320383846759796, 0.03718668222427368, 0.16749779880046844,
0.07142955809831619, 0.1951034814119339, -0.33351078629493713, -0.31174373626708984, 0.2949354946613312, -1.099426031112671, -0.012441580183804035, -0.38338351249694824, 0.4570772349834442, -0.1753300577402115, -0.08110298216342926, -0.1593329906463623, -0.02509128302335739, 0.1313934326171875, -0.1455056220293045, 0.028179828077554703, -0.03254472091794014,
0.13942870497703552, 0.032034799456596375, 0.3520054519176483, -0.02715749479830265, 0.519712507724762, 0.01859295554459095, -0.7057902216911316, 0.14855629205703735, 0.16750963032245636, 0.11749806255102158, 0.19429881870746613, 0.11176589131355286, -0.647864818572998, -0.2282520830631256, -0.0646599754691124, -0.08273380249738693, -0.24271276593208313,
0.2353646159172058, -0.03502587601542473, -0.3607907295227051, -0.1211734488606453, 0.2379406988620758, -0.03149135783314705, -0.8451517820358276, 0.3437398076057434, -0.1906171292066574, 0.2763717770576477, 0.5927363634109497, -0.21775197982788086, -0.13968025147914886, -0.050469767302274704, -0.12167464196681976, 0.15160159766674042, -0.09281224757432938,
-0.027115747332572937, -0.1357683539390564, 0.1183570921421051, -0.09384986013174057, 0.1364506483078003, -0.2333778738975525, 0.03006668947637081, 0.00035476655466482043, 0.015619021840393543, -0.07502155750989914, -0.026600033044815063, 0.09455286711454391, 0.10241785645484924, -0.38416558504104614, -0.20920471847057343, 0.08656404167413712, -0.05899703502655029,
-0.025996306911110878, 0.31799471378326416, 0.6029372215270996, 0.12965178489685059, 0.19469431042671204, 0.554425835609436, 0.22322140634059906, -1.3757541179656982, 0.345037579536438, 0.024192683398723602, 0.03232333064079285, 0.14971573650836945, 0.04239487648010254, -0.07654132694005966, -0.13715188205242157, -0.05938929691910744, 0.0238400436937809,
0.30736735463142395, -0.5823296904563904, 0.1328798234462738, -0.04184897616505623, -0.11015181988477707, -0.026617225259542465, 0.2787412405014038, 0.14254622161388397, 0.04288426786661148, 0.2928096354007721, -0.31763970851898193, -0.19529156386852264, 0.44498977065086365, -0.14629000425338745, -0.09550176560878754, -0.17399246990680695, 0.017417484894394875,
0.024243945255875587, 0.04465767741203308, -0.07834381610155106, 0.20106318593025208, 0.34976649284362793, 0.2857745885848999, -0.7523581385612488, 0.5843229293823242, -0.19109244644641876, 0.11811015009880066, 0.47865739464759827, 0.06036002188920975, -0.1750604212284088, -0.2074391394853592, 0.02565760537981987, -0.0037302598357200623, -0.20889003574848175,
0.029577763751149178, -0.13063888251781464, 0.7097371816635132, -0.133106529712677, 0.05372103303670883, -0.1836467683315277, -0.8187417984008789, -1.0438610315322876, -0.30348047614097595, -0.008883555419743061, -0.13487005233764648, -0.1287962645292282, 0.23332609236240387, -0.025866728276014328, -0.021326381713151932, -0.021270211786031723, -0.0722191110253334,
-0.09230729192495346, 0.05915091559290886, 0.46477368474006653, 0.17948366701602936, 0.5400279760360718, 0.928055465221405, -0.6176381707191467, 0.2757919132709503, -0.12603527307510376, 0.23804190754890442, -0.07512765377759933, 3.9507584006059915e-05, -0.20838353037834167, -0.2022397220134735, -0.13862743973731995, 0.1365084946155548, -0.059322889894247055,
0.3105382025241852, -0.4447975158691406, 0.7550364136695862, 0.254356324672699, -0.06372818350791931, 0.6132200360298157, -0.9866489171981812, -0.25549253821372986, -0.24319368600845337, 0.08199691772460938, 0.0040215495973825455, -0.36469659209251404, 0.0629899874329567, -0.186582550406456, 0.05218423530459404, 0.07808896154165268, 0.02260313555598259,
0.028460035100579262, -0.11860401928424835, 0.30681100487709045, -0.04925119876861572, 0.07810208201408386, -0.0685165598988533, -1.4824074506759644, -1.055162787437439, -0.08935736864805222, 0.061231307685375214, 0.06290315836668015, 0.17875036597251892, 0.11288134008646011, 0.035430438816547394, -0.09730570763349533, 0.07674296945333481, -0.11435136198997498,
-0.11914866417646408, 0.20077548921108246, 0.027067214250564575, -0.3131704330444336, -0.12266214191913605, -0.053276561200618744, -0.8119702935218811, -0.12983070313930511, -0.5372591614723206, -0.17890408635139465, 0.379799485206604, 0.02234124206006527, -0.5564412474632263, -0.2091638594865799, 0.03623798117041588, 0.08728840947151184, 0.1576220989227295,
0.18556693196296692, 0.44533947110176086, 0.06414758414030075, 0.433278352022171, 0.16601306200027466, 0.3420673608779907, 0.4563658833503723, -0.2690732777118683, -0.3100337088108063, -0.4093603491783142, -0.396714448928833, -0.06822135299444199, -0.07098447531461716, 0.05577337369322777, -0.12965834140777588, -0.024411099031567574, -0.09625367075204849,
0.4179777204990387, -0.37559157609939575, -0.10692769289016724, 0.21752598881721497, -0.11674901098012924, -0.06445919722318649, 0.0685456246137619, 0.38594895601272583, -0.06275457888841629, 0.18735486268997192, -0.22520552575588226, -0.5277923345565796, -0.21938718855381012, -0.15321467816829681, -0.18026277422904968, 0.0370757058262825, 0.11305205523967743,
0.2537083923816681, -0.3179899752140045, 0.05552143231034279, -0.05121590569615364, -0.323853462934494, 0.1447630077600479, -0.09695307165384293, 1.269308090209961, 0.2768542766571045, -0.4342517554759979, -0.009551361203193665, 0.31616896390914917, -0.5301757454872131, -0.1626238226890564, -0.07330439239740372, 0.0010355495614930987, 0.15855297446250916,
0.33368396759033203, 0.4350520074367523, 0.35259175300598145, 0.17616714537143707, 0.13727617263793945, 0.4591520428657532, -0.5186503529548645, -0.39294588565826416, -0.008562412112951279, -0.004045320209115744, -0.029851458966732025, 0.01714460551738739, -0.1616525799036026, -0.23906412720680237, 0.05386614426970482, 0.1239403709769249, 0.18419042229652405,
0.026315702125430107, -0.05080842599272728, 0.05762876570224762, -0.7769595384597778, 1.0592751502990723, -0.12329023331403732, 1.4754430055618286, -0.6899787783622742, 0.16608011722564697, -0.07946064323186874, 0.01635313220322132, 0.09225736558437347, -0.07089675217866898, -0.20150141417980194, -0.3074118494987488, 0.09341929852962494, -0.17974397540092468,
0.2908529043197632, -0.021854793652892113, 0.13615480065345764, -0.06507133692502975, -0.07168042659759521, -0.4622328579425812, -0.3999411463737488, 0.06235325708985329, -0.15820245444774628, -0.08749689161777496, 0.3821926414966583, -0.2141094207763672, -0.26274093985557556, -0.22986824810504913, -0.1393054723739624, -0.010057768784463406, -0.04633338749408722,
0.7026565670967102, -0.05339121073484421, 0.06397606432437897, 0.13218186795711517, -5.182515087653883e-05, 0.20265105366706848, 0.007165380287915468, 0.25567057728767395, 0.08876823633909225, 0.3475746810436249, 0.1633702963590622, -0.0755535438656807, 0.14164260029792786, -0.18446899950504303, -0.03395790979266167, -0.018850311636924744, -0.05577569827437401,
0.3434361517429352, -0.06563332676887512, -0.3585968613624573, 0.21169090270996094, 0.17493775486946106, 0.10354652255773544, 0.22029881179332733, 0.0089988112449646, -0.24429115653038025, 0.10757354646921158, -0.49784210324287415, 0.1797538697719574, -0.103926882147789, -0.2933996319770813, 0.04491260647773743, -0.0670427456498146, -0.01946592517197132,
0.026319187134504318, -0.20397931337356567, -0.027751870453357697, -0.5238166451454163, -0.34926149249076843, -0.12491042166948318, -0.46468934416770935, 0.7924575209617615, -0.16705049574375153, 0.07814338803291321, -0.10484454035758972, 0.2666800022125244, 0.5312352776527405, 0.0780453160405159, -0.24117346107959747, 0.19737952947616577, 0.11086369305849075,
0.49421268701553345, 0.2988152801990509, -0.10021451860666275, 0.2636971175670624, 0.18869388103485107, -0.38764679431915283, -1.2847621440887451, -0.1363881677389145, 0.048068318516016006, -0.09014859795570374, -0.132123202085495, 0.17747029662132263, -0.2660190165042877, 0.02842564694583416, 0.05291306599974632, 0.07121609151363373, 0.12846657633781433,
0.08295966684818268, -0.29912182688713074, 0.3526105582714081, 0.09875523298978806, -0.021212464198470116, 0.6614956855773926, 0.317176878452301, -0.09818898886442184, 0.2812921106815338, -0.27004796266555786, -0.32042771577835083, -0.04515695199370384, -0.294660747051239, 0.2071199268102646, 0.14265941083431244, 0.032682135701179504, -0.27311214804649353,
-0.002115100622177124, -0.19461855292320251, -0.4059692323207855, -0.1197257712483406, -0.3101295530796051, 0.23610323667526245, -0.3138686716556549, -0.4872359037399292, -0.57851243019104, 0.27064767479896545, -0.0826973021030426, -0.6413741707801819, 0.05324612557888031, -0.1636458784341812, -0.2112262099981308, -0.24447721242904663, -0.06947138160467148,
0.014602583833038807, 0.277588427066803, 0.01838625594973564, 0.0471668504178524, 0.14088144898414612, 0.03155778720974922, 0.678277313709259, -0.33627209067344666, -0.6118949055671692, -0.326728880405426, 0.10538434237241745, -0.2833283543586731, 0.14917148649692535, 0.116970956325531, -0.29788991808891296, -0.04315396770834923, 0.06746765971183777,
-0.07372075319290161, 0.1629854291677475, 0.19195985794067383, -0.5586245059967041, 0.32708683609962463, 0.13216817378997803, 0.7816957831382751, -0.42786604166030884, 0.37531498074531555, 0.06496361643075943, 0.13315585255622864, -0.3939970135688782, -0.11290180683135986, -0.35308903455734253, -0.3803788125514984, -0.04939388856291771, -0.033304646611213684,
-0.21904878318309784, -0.2510449290275574, 0.05778247117996216, -0.21417948603630066, -0.08237354457378387, 0.06810925900936127, -0.4131271243095398, -0.12004929780960083, -0.3077673017978668, -0.2135191261768341, -0.4130121171474457, -0.15949147939682007, -0.5338008999824524, -0.08083993196487427, -0.06715591251850128, 0.14949676394462585, -0.1101788803935051,
0.06939417123794556, -0.011028215289115906, -0.11240921169519424, -0.04549374803900719, 0.13777968287467957, 0.07789985835552216, 0.1386442631483078, 0.024967554956674576, 0.09207437932491302, 0.1284489631652832, -0.2518137991428375, -0.15302149951457977, -0.20860078930854797, -0.141592338681221, -0.494878888130188, -0.2698042690753937, -0.04359966889023781,
0.1904347985982895, -0.18291985988616943, -0.0768512561917305, -0.24943572282791138, 0.3171600103378296, -0.0808444544672966, 0.8161801695823669, -0.44521352648735046, -0.43610844016075134, 0.5469262599945068, 0.2652408182621002, 0.4262361228466034, 0.04372161254286766, 0.03693423792719841, 0.04897041991353035, -0.24619750678539276, -0.17801742255687714,
0.38906946778297424, 0.30104467272758484, -0.7018284797668457, 0.013742312788963318, -0.211594358086586, -0.2329944670200348, 0.3195006549358368, -0.0152742899954319, -0.12943598628044128, 0.2442014068365097, -0.24408407509326935, -0.34376075863838196, -0.4303702116012573, -0.16054806113243103, 0.13977690041065216, 0.18159045279026031, -0.033046167343854904,
0.019932027906179428, -0.7303568720817566, -0.01659751683473587, -0.13617634773254395, 0.06283464282751083, 0.021800067275762558, 0.2463226169347763, 0.26099687814712524, 0.00806914921849966, 0.2770979404449463, 0.25046566128730774, 0.5634261965751648, -0.17452093958854675, -0.08577534556388855, -0.14552471041679382, -0.020592626184225082, -0.08531902730464935,
0.1780831664800644, 0.12752211093902588, -0.6292980909347534, 0.21330805122852325, -0.1313013881444931, -0.5969873666763306, -1.2033172845840454, -0.31501102447509766, -0.5194961428642273, -0.2348831743001938, 0.4106006324291229, 0.06614123284816742, 0.084413081407547, -0.0654599666595459, -0.16409927606582642, 0.01272160466760397, 0.1889904886484146,
0.08490119874477386, -0.18560048937797546, -0.24213728308677673, -0.04619981721043587, 0.10817134380340576, -0.7359716296195984, 0.6500456929206848, 1.1560271978378296, 0.2568465769290924, 0.022906599566340446, -0.04713359475135803, 0.002475674031302333, -0.09893453866243362, 0.02688949555158615, -0.2967037856578827, -0.131598100066185, -0.011451172642409801,
-0.08847380429506302, -0.16707491874694824, -0.1304793804883957, 0.02004040963947773, -0.1302650421857834, -0.6142850518226624, -0.7349002361297607, 1.1699713468551636, 0.10698720812797546, -0.06768835335969925, -0.15035462379455566, 0.27733805775642395, 0.2891709506511688, -0.033689357340335846, -0.1974768489599228, -0.19447657465934753, -0.006591384764760733,
-0.06835630536079407, -0.06755536049604416, 0.0468616783618927, 0.07315250486135483, 0.33421993255615234, 0.26457369327545166, 0.7682653665542603, 1.1976547241210938, 0.23302963376045227, 0.17680448293685913, -0.007757724262773991, 0.20531964302062988, -0.3139372169971466, -0.3102889060974121, -0.22542446851730347, 0.15054261684417725, -0.04939744994044304,
0.35695621371269226, -0.5034115314483643, 0.3927658498287201, 0.15739403665065765, -0.3228570818901062, 0.34675362706184387, -0.8763524293899536, 0.09232289344072342, -0.38651952147483826, -0.17774420976638794, -0.011360755190253258, 0.24116377532482147, 0.17087674140930176, -0.14431774616241455, 0.12335032969713211, -0.3518030345439911, 0.11511283367872238,
-0.03590764105319977, -0.40589049458503723, 0.18827728927135468, -0.08831176161766052, -0.36912691593170166, 0.3395444452762604, -0.028131170198321342, -0.5110484957695007, -0.3870154023170471, 0.09978452324867249, -0.11404743045568466, 0.11030741035938263, 0.13096721470355988, -0.25642433762550354, -0.15990819036960602, 0.009643311612308025, -0.11613503843545914,
0.13636848330497742, 0.2127019762992859, -0.036603473126888275, -0.2253887951374054, -0.18027175962924957, 0.04724693298339844, 0.36177757382392883, 0.05360778793692589, 0.12327835708856583, -0.5249289274215698, 0.16131997108459473, -0.15305759012699127, -0.13552741706371307, -0.39370521903038025, -0.2851403057575226, -0.04649882763624191, 0.0039039021357893944,
0.07019541412591934, 0.012692183256149292, 0.3503539562225342, -0.1711866557598114, 0.15727782249450684, -0.15582823753356934, -0.30017855763435364, -0.11974883824586868, -0.13041578233242035, -0.15018139779567719, -0.023286640644073486, -0.24781431257724762, -0.12099145352840424, -0.2428281307220459, -0.41221439838409424, 0.11784316599369049, -0.07242623716592789,
0.035935383290052414, 0.2678295969963074, 0.09931766986846924, -0.2355169802904129, 0.11543034017086029, -0.5115220546722412, -0.25482413172721863, 0.42141881585121155, -0.5797478556632996, -0.19546443223953247, 0.05188874155282974, -0.029459256678819656, -0.10889124870300293, 0.1281239092350006, 0.14606325328350067, -0.12904833257198334, 0.06890266388654709,
0.2093801200389862, -0.07798569649457932, 0.041183970868587494, 0.0021431792993098497, -0.0604868121445179, 0.04593435302376747, -0.11857026070356369, 0.18196724355220795, 0.04184388741850853, -0.10328622907400131, -0.006985832471400499, -0.07440919429063797, -0.093216672539711, -0.38210180401802063, -0.14286309480667114, 0.09573205560445786, -0.14433270692825317,
-0.07120386511087418, -0.14582344889640808, -0.1068897545337677, 0.03739840164780617, 0.17930130660533905, -0.4488598704338074, 0.6092157363891602, 0.203080952167511, -0.24097660183906555, -0.08579657971858978, -0.2895369827747345, -0.16963224112987518, -0.2987842559814453, 0.10404065996408463, 0.08002901822328568, 0.008603603579103947, -0.36747854948043823,
0.23413462936878204, 0.1603124737739563, -0.002068992704153061, -0.4399159550666809, 0.1267768144607544, -0.23389190435409546, 0.9978351593017578, 0.07404676079750061, -0.22694671154022217, 0.03718365728855133, 0.14820879697799683, 0.06422627717256546, -0.12369881570339203, -0.23842108249664307, 0.06400743871927261, -0.06458910554647446, -0.0012816424714401364,
0.19768476486206055, -0.2670072019100189, 0.12364120036363602, 0.2602197825908661, 0.2821101248264313, -0.16241750121116638, 0.8295087218284607, -0.7212448716163635, -0.5668519139289856, 0.10737654566764832, -0.1608891487121582, -0.21635062992572784, 0.18102113902568817, -0.30153194069862366, -0.0794803574681282, -0.10616898536682129, 0.2455727458000183,
0.10279210656881332, 0.18121355772018433, -0.05655019357800484, 0.27674415707588196, -0.016621047630906105, -0.6173878908157349, -0.5981739163398743, -0.20095102488994598, -0.27472853660583496, 0.2637277841567993, -0.06444226950407028, -0.4166668653488159, -0.6673741340637207, -0.07945884764194489, 0.023444825783371925, 0.055588699877262115, -0.059917185455560684
};

const float biases_fc1[] = {
-0.11282932758331299, -0.0850183367729187, -0.05656122788786888, -0.19017934799194336, -0.04099340736865997, -0.1238785982131958, 0.03542826697230339, -0.03386233001947403, -0.004217952489852905, 0.08846940100193024, -0.15627101063728333, -0.11950133740901947, -0.023986930027604103, -0.029339870437979698, -0.10909553617238998, 0.0130965206772089, -0.02600354328751564, -0.09803619980812073, -0.050147563219070435, -0.08465281128883362, 0.006896051578223705, -0.10139976441860199, -0.12390550225973129, -0.14597691595554352, -0.002867885632440448, -0.1864023357629776, -0.09626816213130951, -0.048034679144620895, -0.13019971549510956, -0.12100540846586227, -0.11413462460041046, -0.021691758185625076, -0.046719737350940704, -0.08467889577150345, -0.031026437878608704, -0.1443197876214981, 0.03503027185797691, -0.07854659855365753, -0.09343874454498291, -0.08714918047189713, -0.14491142332553864, -0.0665222778916359, -0.16764013469219208, 0.061148036271333694, -0.2424701452255249, -0.04530396685004234, -0.01052600983530283, -0.027928678318858147, -0.09048093855381012, -0.09403844177722931, -0.16037428379058838, -0.013955608941614628, -0.09350773692131042, -0.13133148849010468, -0.10344421118497849, 0.06276030838489532, -0.10934962332248688, 0.054597798734903336, -0.145267054438591, -0.24875634908676147, -0.09463383257389069, -0.07977130264043808, -0.008042046800255775, -0.045869238674640656, -0.26834866404533386, -0.14085371792316437, -0.1976466327905655, -0.19862297177314758, -0.12986424565315247, -0.013600876554846764, -0.022369202226400375, -0.06837970018386841, -0.2028316855430603, -0.19062361121177673, -0.06441592425107956, -0.028242697939276695, -0.23180904984474182, -0.19963207840919495, -0.06792180240154266, -0.12591686844825745, -0.07561196386814117, -0.24245448410511017, -0.05086445063352585, -0.1784009486436844, -0.17853865027427673, -0.08716686815023422, -0.021948320791125298, -0.06572961062192917, -0.052762094885110855, -0.033153433352708817, 0.008435904048383236, -0.09831172227859497, -0.1171903908252716, -0.0710926502943039, -0.12106598913669586, -0.060119424015283585, -0.08823563158512115, -0.17589259147644043, -0.08432739973068237, -0.03162054717540741, -0.1902872771024704, -0.11922148615121841, -0.13252295553684235, -0.04993841424584389, -0.014235432259738445, 0.006909482646733522, -0.09818436205387115, -0.19369375705718994, -0.08499710261821747, -0.16874906420707703, -0.13409647345542908, -0.15306596457958221, -0.1596522182226181, -0.18360035121440887, 0.08802881836891174, -0.08609757572412491, -0.08299253135919571, -0.21193623542785645, -0.1611383855342865, -0.02754317782819271
};

const float weights_fc2[] = {
-0.10782027989625931, -0.3774107098579407, 0.06930942833423615, -0.09788040816783905, -0.21059873700141907, 0.09555774927139282, -0.3134855031967163, -0.08956614136695862, -0.40595635771751404, 0.18928097188472748, -0.07027149945497513, -0.2306395173072815, 0.09434133768081665, 0.05584682151675224, -0.4694921672344208, 0.04100213199853897, 0.005103844217956066, -0.5095045566558838, -0.17253147065639496, 0.017820198088884354, 0.4360058605670929, -0.1717994064092636, -0.04698795825242996, -0.3004865050315857, 0.6181408166885376, -0.08895594626665115, 0.0867772325873375, -0.015482057817280293, -0.05208668112754822, -0.09385765343904495, -0.6606436371803284, 0.13201621174812317, 0.11929377168416977, -0.03470708057284355, -0.3394313156604767, -0.0007225223234854639, 0.19381755590438843, 0.28917422890663147, -0.18445026874542236, 0.025075245648622513, -0.056070778518915176, 0.19953085482120514, 0.2518252730369568, -0.09004679322242737, 0.09826714545488358, -0.2111789584159851, -0.32334741950035095, -0.28508707880973816, 0.03263886272907257, 0.005775787401944399, -0.28879475593566895, 0.3441460132598877, -0.07805365324020386, -0.45180290937423706, -0.20695854723453522, -0.07649783790111542, 0.10701125115156174, -0.10858302563428879, -0.33780354261398315, 0.23913004994392395, 0.1443292200565338, -0.0005175518454052508, -0.19676806032657623, -0.2505897879600525, 0.24707068502902985, -0.06269800662994385, -0.025998618453741074, -0.2297986000776291, 0.1650427132844925, -0.2543468177318573, -0.5183160305023193, 0.11843512952327728, -0.0431753545999527, -0.21886670589447021, -0.15575100481510162, -0.1380247324705124, -0.0808999314904213, -0.5781485438346863, -0.10755841434001923, -0.3066380023956299, 0.0956803485751152, -0.07448115199804306, -0.1972004920244217, -0.21408359706401825, -0.06437529623508453, -0.5774052143096924, -0.33340269327163696, 0.310680091381073, -0.06253080815076828, -0.013172458857297897, 0.4692416787147522, -0.40849390625953674, 0.0027379593811929226, 0.17582829296588898, -0.21821700036525726, -0.27146437764167786, 0.14255419373512268, 0.11750909686088562, 0.08081454038619995, 0.057044774293899536, -0.1767941117286682, -0.11118264496326447, -0.047382280230522156, -0.13101240992546082, 0.25640493631362915, -0.19176895916461945, -0.059794120490550995, 0.001800604979507625, -0.2633277177810669, -0.4251851737499237, -0.18997924029827118, -0.2291431427001953, -0.2948928773403168, -0.03391484543681145, -0.16583509743213654, -0.09938846528530121, -0.35369086265563965, 0.04030067101120949, -0.13926474750041962, 0.03526029735803604,
-0.2937051057815552, -0.2799331843852997, -0.017557872459292412, -0.08075343817472458, 0.04661799222230911, -0.199185311794281, 0.14519906044006348, -0.008685781620442867, 0.060460224747657776, -0.0958762913942337, -0.21188423037528992, 0.21946877241134644, -0.040647249668836594, 0.2898401618003845, 0.08537855744361877, -0.4882776737213135, -0.16229061782360077, 0.009775339625775814, 0.10493268072605133, -0.15449635684490204, -0.4898115396499634, -0.22928325831890106, 0.052960507571697235, 0.16771143674850464, -0.14084762334823608, 0.1511945277452469, 0.08970002084970474, -0.25905925035476685, -0.02583145909011364, -0.17509877681732178, 0.20929399132728577, -0.17420952022075653, 0.14837263524532318, -0.22446660697460175, -0.5843126177787781, -0.14296506345272064, -0.17028793692588806, 0.09120526909828186, 0.014095734804868698, 0.043965741991996765, -0.019007103517651558, 0.15245483815670013, -0.055667951703071594, -0.05907909572124481, 0.024507664144039154, 0.09827253967523575, -0.04559296369552612, 0.0016813090769574046, 0.23009274899959564, 0.08158780634403229, -0.22322379052639008, 0.01415582001209259, -0.09658833593130112, -0.43580368161201477, -0.11551997810602188, -0.0899343490600586, 0.009361010044813156, -0.4053601324558258, 0.11406473815441132, -0.15354031324386597, 0.22292795777320862, 0.48505139350891113, -0.18262024223804474, 0.01617778278887272, -0.024250902235507965, -0.14336878061294556, -0.0030730159487575293, -0.030204422771930695, 0.18225747346878052, 0.31895846128463745, 0.12062951177358627, -0.2035515159368515, -0.038266152143478394, 0.1738351583480835, -0.07347941398620605, 0.21672749519348145, -0.10986905544996262, -0.11321698129177094, 0.026642246171832085, -0.023471901193261147, -0.15715406835079193, -0.09882350265979767, -0.11216945946216583, -0.44000574946403503, 0.01848842389881611, -0.04737691581249237, -0.03697913512587547, 0.08661974966526031, -0.07926630228757858, 0.06909932941198349, 0.06402122229337692, 0.0014791351277381182, -0.26137179136276245, 0.2580816447734833, -0.15573109686374664, 0.1222393810749054, -0.11485403031110764, -0.09517702460289001, -0.2585628926753998, 0.1591913104057312, -0.2583591341972351, 0.022720668464899063, 0.17342111468315125, -0.15361952781677246, -0.3610213100910187, -0.13417698442935944, 0.19197160005569458, -0.22830085456371307, 0.041633252054452896, -0.2750023901462555, -0.030956022441387177, -0.15889321267604828, 0.29214778542518616, -0.023856686428189278, 0.10201134532690048, 0.08871009945869446, 0.02249886281788349, -0.1916554719209671, 0.020681871101260185, -0.5244055986404419,
-0.1871807724237442, -0.20689617097377777, -0.15942488610744476, 0.013196557760238647, 0.0771893560886383, -0.46705716848373413, -0.45002293586730957, -0.23595020174980164, -0.09070240706205368, -0.2858373820781708, 0.09491457790136337, -0.009244590997695923, 0.33845141530036926, -0.14137831330299377, -0.18282334506511688, -0.2782121002674103, -0.15447014570236206, -0.37331193685531616, -0.20653846859931946, -0.12126464396715164, -0.32027482986450195, -0.7107717394828796, 0.08193179219961166, 0.03617372736334801, -0.19021619856357574, -0.14317885041236877, -0.07501523941755295, -0.1692609041929245, 0.01635444164276123, 0.015584440901875496, 0.057570189237594604, 0.055751997977495193, -0.4561229348182678, 0.14184650778770447, -0.48835983872413635, 0.07646495848894119, -0.1327764391899109, 0.1544381082057953, 0.0066441926173865795, -0.2006184160709381, 0.07568708062171936, 0.21054741740226746, -0.25105053186416626, 0.14559823274612427, -0.09051302820444107, -0.15589776635169983, -0.021420679986476898, -0.026355523616075516, -0.17283006012439728, 0.21424657106399536, -0.17096570134162903, 0.17211632430553436, 0.05282077193260193, -0.10013224184513092, 0.22936849296092987, 0.07789746671915054, 0.1263846904039383, 0.33926501870155334, 0.21272465586662292, -0.08649126440286636, 0.2162514328956604, 0.21247079968452454, 0.12340441346168518, -0.4318530559539795, 0.028462911024689674, 0.199623703956604, -0.395835816860199, -0.245022252202034, 0.3415147662162781, -0.5102508068084717, -0.1447739154100418, -0.08876499533653259, -0.10399928689002991, -0.33318617939949036, -0.371740460395813, -0.045209720730781555, 0.1911740005016327, 0.20535285770893097, 0.009714006446301937, -0.7180297374725342, -0.25062295794487, -0.23682153224945068, 0.08791869878768921, -0.08495335280895233, 0.013852090574800968, -0.05601666495203972, 0.19731903076171875, -0.4621492326259613, -0.24476788938045502, 0.14409568905830383, -0.04978369548916817, -0.45088037848472595, 0.08919371664524078, 0.1127609834074974, -0.10543064773082733, -0.38120150566101074, -0.03352515026926994, -0.09253101795911789, 0.03282869607210159, -0.029099075123667717, -0.2987299859523773, -0.31787824630737305, 0.12244235724210739, -0.19292959570884705, -0.4315522015094757, -0.3011963367462158, 0.22554558515548706, 0.0036677641328424215, -0.19110393524169922, -0.268253356218338, 0.1026558205485344, -0.3285335898399353, 0.0904182493686676, -0.02572740614414215, 0.13421696424484253, 0.0883825346827507, -0.6080771088600159, 0.18609118461608887, -0.2435668557882309, -0.15430860221385956,
-0.18211346864700317, -0.5081952810287476, 0.37202179431915283, 0.3525533378124237, -0.4511895477771759, -0.108207568526268, 0.2748291790485382, -0.1520160287618637, 0.0922592282295227, -0.2656237483024597, -0.12711681425571442, -0.34155356884002686, 0.0809314101934433, -0.494242399930954, -0.21550996601581573, -0.1876305192708969, 0.1336299180984497, -0.048388779163360596, -0.5761584043502808, -0.5050483345985413, -0.40709424018859863, 0.006801004521548748, 0.029383884742856026, -0.4412583112716675, -0.2623118758201599, -0.1439729630947113, 0.24193277955055237, -0.06903970241546631, 0.04094952344894409, 0.0914909839630127, 0.1499825268983841, -0.38930967450141907, 0.07328423857688904, -0.09340496361255646, -0.4584614336490631, 0.2922234833240509, -0.11990988999605179, 0.013366150669753551, 0.00827852264046669, -0.27109837532043457, 0.13227270543575287, 0.018393125385046005, -0.09746558219194412, 0.17646615207195282, -0.3358989655971527, -0.0644025057554245, -0.24300959706306458, 0.028920002281665802, 0.36262911558151245, -0.10482626408338547, -0.03961826488375664, 0.1727229803800583, -0.11278096586465836, -0.1518222540616989, 0.13768310844898224, -0.06779327243566513, -0.008273318409919739, 0.12427618354558945, -0.15575939416885376, -0.0034200584050267935, -0.07517848908901215, 0.14052988588809967, 0.3044971227645874, -0.08264017105102539, 0.010466208681464195, 0.1292392909526825, -0.3809252977371216, 0.08677169680595398, -0.027610937133431435, -0.13132117688655853, -0.28606390953063965, -0.015488811768591404, -0.11331214755773544, -0.06421966105699539, -0.10712369531393051, 0.28384286165237427, 0.20040948688983917, -0.4438714385032654, -0.22291158139705658, 0.26403647661209106, -0.2708554267883301, -0.24902628362178802, 0.20770259201526642, 0.008516158908605576, -0.17989325523376465, 0.21498216688632965, -0.08671484887599945, -0.0783919170498848, -0.18054527044296265, 0.20918257534503937, 0.158448725938797, -0.24805627763271332, -0.05138292908668518, -0.23641031980514526, -0.4794166386127472, -0.20379678905010223, 0.256212443113327, -0.1648094803094864, -0.5536034107208252, -0.09239765256643295, -0.2420961707830429, -0.4583152234554291, -0.00548935541883111, -0.36856967210769653, -0.021565668284893036, -0.0677805095911026, 0.21420176327228546, 0.3857247829437256, 0.21322910487651825, -0.1592550426721573, 0.00976509042084217, -0.03369860723614693, 0.01337074302136898, -0.059256661683321, -0.2536099851131439, -0.062393706291913986, 0.020883379504084587, -0.19410398602485657, 0.15595245361328125, -0.20816978812217712,
0.017577800899744034, 0.02162526547908783, -0.22665245831012726, -0.2609572410583496, -0.29823583364486694, -0.08313322067260742, -0.11438389867544174, 0.331883043050766, -0.010190092027187347, 0.10004878789186478, 0.16492967307567596, 0.018318193033337593, -0.46130478382110596, -0.23663587868213654, -0.18697385489940643, 0.11834976822137833, 0.07294665277004242, 0.22371983528137207, 0.16050902009010315, 0.00024137060972861946, -0.18753154575824738, 0.003924279939383268, -0.06814145296812057, 0.1558493673801422, 0.2731150686740875, -0.14295350015163422, -0.26525798439979553, -0.09777127951383591, 0.09493884444236755, -0.19703109562397003, -0.280212938785553, -0.08060751855373383, -0.2719672620296478, 0.018658926710486412, 0.004028989002108574, 0.20949462056159973, 0.5137889981269836, 0.07299574464559555, 0.08768230676651001, 0.13681229948997498, 0.09605933725833893, -0.45376813411712646, -0.09718222171068192, -0.2037651091814041, -0.19559957087039948, -0.21146515011787415, 0.08187990635633469, 0.1581750214099884, -0.10237319767475128, -0.34338292479515076, 0.1075630933046341, -0.17021746933460236, 0.14131318032741547, -0.14804695546627045, -0.3295159935951233, -0.2556206285953522, -0.12377455085515976, -0.07198478281497955, -0.1387334167957306, 0.10948247462511063, -0.08368321508169174, 0.22186161577701569, -0.14230594038963318, -0.03908992558717728, -0.1906157284975052, 0.03863324224948883, 0.2785954475402832, 0.5075051188468933, -0.1849697083234787, -0.5625884532928467, 0.0934879332780838, -0.7517526745796204, -0.2008192539215088, -0.07355945557355881, 0.47478845715522766, 0.14796088635921478, 0.1775675117969513, -0.18570922315120697, -0.20788554847240448, 0.07921027392148972, -0.018881188705563545, 0.06331975758075714, -0.21330371499061584, -0.12328685075044632, 0.054367538541555405, -0.16630393266677856, 0.0035431443247944117, -0.23514240980148315, 0.10147885233163834, -0.48545756936073303, 0.07191436737775803, 0.074504554271698, 0.13596193492412567, 0.23791995644569397, 0.07855936884880066, 0.1327013522386551, 0.3698292672634125, -0.1483668088912964, -0.15167923271656036, -0.4223192036151886, -0.22596018016338348, 0.3007573187351227, -0.08585238456726074, 0.21331264078617096, 0.034926727414131165, -0.13106702268123627, -0.6296193599700928, 0.34823739528656006, -0.2439185231924057, 0.05310630425810814, 0.26822176575660706, -0.310150682926178, -0.20651695132255554, 0.013284951448440552, -0.4756098687648773, -0.11624785512685776, 0.11911235004663467, -0.35396602749824524, 0.05992933362722397, -0.26752519607543945,
-0.28537875413894653, -0.011912103742361069, 0.05099552124738693, -0.032783180475234985, -0.17173567414283752, -0.08017148822546005, 0.03724725544452667, 0.1332608461380005, -0.1881035566329956, -0.21256637573242188, -0.14459511637687683, -0.005847805179655552, -0.0900304764509201, 0.1734565645456314, -0.29456058144569397, -0.18013392388820648, -0.004011135548353195, 0.20625509321689606, -9.639591735322028e-05, -0.3883662521839142, -0.2669737935066223, 0.22118157148361206, 0.33284562826156616, -0.23485328257083893, 0.2725711464881897, 0.024469034746289253, 0.05011126399040222, 0.011726279743015766, -0.35359203815460205, -0.07311681658029556, -0.07866978645324707, -0.016934257000684738, -0.3379051983356476, -0.27500513195991516, 0.03956913203001022, 0.13586172461509705, -0.11885222047567368, -0.2711730897426605, 0.19354663789272308, -0.006536352913826704, 0.1689767986536026, -0.31367841362953186, 0.2727367877960205, -0.27950769662857056, 0.13094699382781982, -0.049576856195926666, 0.12645965814590454, -0.08225046098232269, -0.0994565561413765, -0.16358616948127747, -0.034799277782440186, 0.0399552658200264, -0.04514971747994423, -0.2575964331626892, -0.008464156650006771, -0.20887865126132965, 0.09037411212921143, -0.014409422874450684, 0.18063725531101227, 0.2877228856086731, 0.0279622171074152, -0.0640076994895935, -0.2855488657951355, 0.19853687286376953, -0.11670145392417908, -0.0009654219611547887, 0.1435418725013733, -0.011601025238633156, 0.16111315786838531, -0.11729829758405685, 0.18127840757369995, 0.19733770191669464, -0.08575965464115143, -0.3896675109863281, -0.20408549904823303, 0.009074835106730461, -0.2514984607696533, -0.3802999258041382, 0.055093180388212204, 0.09160885214805603, -0.15261414647102356, -0.007816946133971214, 0.08631971478462219, 0.03507755696773529, 0.20219330489635468, 0.033067185431718826, 0.03609364479780197, 0.2425594925880432, 0.17440754175186157, -0.43165865540504456, 0.12594355642795563, -0.04191939905285835, 0.05695836991071701, -0.005841890815645456, 0.04113477095961571, -0.12879925966262817, 0.050633665174245834, -0.10629325360059738, 0.11318071186542511, 0.07350695878267288, 0.09135332703590393, 0.014261468313634396, 0.13015633821487427, 0.11145517230033875, 0.22266972064971924, -0.3978050649166107, -0.001484343083575368, -0.03823347017168999, -0.10146337747573853, 0.10464686900377274, 0.014525664038956165, -0.06713508069515228, 0.3621513247489929, 0.1431005448102951, 0.08479379117488861, -0.12268301844596863, 0.05595264956355095, -0.2879570424556732, 0.47272613644599915, 0.19986942410469055,
-0.03254973888397217, -0.16350311040878296, -0.5300276279449463, -0.2903672754764557, -0.18567664921283722, 0.16260118782520294, 0.11824184656143188, 0.041227638721466064, -0.08177894353866577, 0.18943224847316742, 0.14422233402729034, -0.10455789417028427, -0.2748662829399109, 0.19314084947109222, 0.04257616773247719, 0.07827837020158768, 0.17927803099155426, -0.08717752248048782, -0.26047125458717346, -0.1224321573972702, -0.49833354353904724, -0.22069001197814941, 0.26151221990585327, 0.14709240198135376, 0.035392019897699356, -0.10700592398643494, -0.05269264057278633, -0.590582013130188, -0.0028423103503882885, -0.2696484923362732, -0.15665113925933838, -0.08675035834312439, 0.03329257294535637, -0.03581404313445091, 0.22277101874351501, -0.12695325911045074, -0.20765234529972076, 0.02345857582986355, -0.22764679789543152, -0.12907706201076508, -0.43312597274780273, 0.06511189043521881, -0.3232358992099762, -0.27287766337394714, -0.40612444281578064, -0.189308762550354, -0.2667490839958191, 0.06509354710578918, -0.5334252715110779, 0.11844874918460846, -0.018799075856804848, 0.07013169676065445, 0.04788913577795029, 0.26041078567504883, 0.12029541283845901, -0.3904426097869873, -0.1990523338317871, -0.21802368760108948, 0.2649833559989929, 0.25811412930488586, 0.1472904235124588, 0.30924683809280396, -0.1851591318845749, -0.5971760153770447, -0.21922622621059418, 0.1301998496055603, -0.3490525782108307, 0.13857340812683105, 0.04156014695763588, 0.1883820742368698, 0.23511146008968353, 0.0047236173413693905, -0.11537229269742966, 0.12524259090423584, -0.5067669153213501, -0.22306232154369354, -0.32453837990760803, -0.09282910823822021, 0.030236348509788513, 0.2810858190059662, -0.1313251554965973, -0.44543665647506714, -0.3313077986240387, -0.41392549872398376, 0.10288973152637482, -0.03961753845214844, -0.14543797075748444, 0.0680335983633995, -0.17722247540950775, -0.039955854415893555, -0.14217609167099, 0.11441180855035782, -0.6144527792930603, 0.0491047203540802, 0.04863821715116501, -0.10197237879037857, 0.1650034785270691, 0.092913419008255, 0.07331547141075134, -0.018416019156575203, -0.07158104330301285, -0.06332346051931381, 0.1530308723449707, 0.28294846415519714, -0.1874227523803711, 0.010952623561024666, 0.10472112149000168, 0.2158169448375702, -0.16680391132831573, -0.03139996528625488, 0.31991493701934814, -0.2278762012720108, 0.09800270199775696, -0.3210074305534363, -0.5152089595794678, 0.08607307821512222, 0.10769884288311005, -0.12439043074846268, -0.18833892047405243, -0.24177443981170654,
0.18542198836803436, 0.20681272447109222, 0.010150759480893612, 0.06316434592008591, 0.47162723541259766, -0.11480717360973358, -0.2900865077972412, 0.03756312280893326, -0.13517723977565765, 0.026219919323921204, 0.07974887639284134, -0.15858113765716553, 0.20601756870746613, -0.3208058178424835, -0.14231474697589874, -0.5412402153015137, -0.3886251449584961, -0.04950050264596939, -0.18179140985012054, 0.11732363700866699, 0.31810852885246277, -0.03197944164276123, -0.02436654642224312, -0.19447855651378632, 0.30213817954063416, 0.03364399075508118, -0.11204980313777924, -0.08517744392156601, 0.07072549313306808, 0.3790527880191803, -0.2932829260826111, -0.27028629183769226, -0.10386994481086731, -0.13436932861804962, -0.07719605416059494, -0.3573308289051056, 0.1025611013174057, -0.20784525573253632, 0.15183573961257935, 0.05058107152581215, -0.294888973236084, 0.2913016080856323, 0.1324148178100586, 0.11090107262134552, 0.027417674660682678, -0.054169993847608566, -0.2801501452922821, 0.33216479420661926, 0.2151312232017517, -0.17240826785564423, 0.17204266786575317, -0.1784687042236328, -0.33915889263153076, 0.08293467015028, -0.3758443295955658, 0.13998697698116302, -0.12331066280603409, -0.04859607294201851, -0.04552321135997772, 0.32750433683395386, -0.2875306010246277, -0.0924539566040039, -0.32894113659858704, 0.11098714917898178, 0.30921152234077454, 0.00995393842458725, -0.007730117067694664, -0.027103444561362267, 0.07546932995319366, 0.0744449570775032, -0.11367318034172058, 0.11605871468782425, 0.06708424538373947, -0.34325188398361206, -0.24086421728134155, -0.06958018243312836, 0.14730803668498993, -0.013681462034583092, -0.02966611087322235, 0.1741074025630951, 0.28513026237487793, 0.16193954646587372, 0.10867313295602798, 0.17444607615470886, 0.18811140954494476, 0.1326909363269806, 0.07283277064561844, -0.08527081459760666, -0.016873707994818687, 0.11721730977296829, -0.07934050261974335, -0.4014880061149597, 0.12999501824378967, 0.17498716711997986, -0.13918517529964447, -0.04406968131661415, -0.0424974299967289, 0.12728746235370636, -0.016368061304092407, -0.536970317363739, -0.02434026077389717, 0.02239900268614292, 0.06021762639284134, -0.2161284238100052, -0.22917434573173523, 0.08113651722669601, -0.30519410967826843, -0.09853116422891617, 0.13089486956596375, 0.07985185086727142, 0.45102348923683167, 0.18043546378612518, 0.08821717649698257, -0.2546725273132324, 0.07759157568216324, -0.0711025521159172, -0.10238321870565414, 0.02798675186932087, -0.17055070400238037, -0.21388979256153107,
0.1648610234260559, 0.23658780753612518, -0.032864078879356384, 0.06336656957864761, -0.16701404750347137, -0.2964944839477539, 0.3821549117565155, 0.2267315834760666, -0.3071967363357544, -0.48133713006973267, 0.04689856246113777, 0.2583487927913666, 0.05201023072004318, -0.41527506709098816, 0.22241683304309845, -0.09902136772871017, -0.08895592391490936, 0.2579333484172821, -0.03531214967370033, -0.06334744393825531, 0.08628754317760468, 0.19310446083545685, 0.16892263293266296, -0.4238314926624298, -0.24000489711761475, 0.06157289072871208, -0.27132296562194824, 0.1266593188047409, -0.17293451726436615, 0.015859076753258705, -0.023855866864323616, 0.14243099093437195, -0.4814335107803345, -0.09909513592720032, 0.2832610607147217, 0.126352459192276, 0.17650409042835236, 0.2079698145389557, -0.10319110751152039, -0.1580076366662979, 0.0297821294516325, -0.07646173983812332, 0.10952471941709518, -0.0029194271191954613, 0.015019983053207397, -0.033663395792245865, 0.13277283310890198, 0.08265198767185211, -0.2853440046310425, -0.461935430765152, 0.1929267942905426, 0.230978325009346, 0.023697715252637863, -0.038710594177246094, 0.06830207258462906, -0.00970583874732256, 0.03190556913614273, -0.03963527828454971, -0.057044316083192825, -0.39245879650115967, -0.1794290989637375, -0.15023300051689148, 0.11351823061704636, 0.1487727165222168, -0.13452303409576416, 0.1160486713051796, 0.004699681419879198, 0.009763656184077263, -0.11617486923933029, -0.5670512914657593, 0.3615829646587372, -0.4014357328414917, -0.14342652261257172, -0.32416126132011414, 0.06874340772628784, 0.10619303584098816, 0.2589379847049713, -0.27341267466545105, 0.12675486505031586, 0.06356371939182281, -0.17485062777996063, 0.20272623002529144, -0.1780393421649933, 0.07093017548322678, -0.0721655935049057, 0.05717641860246658, -0.40713876485824585, -0.33373481035232544, 0.08215918391942978, -0.19575616717338562, -0.2860521376132965, -0.44745397567749023, -0.28079769015312195, 0.2923745810985565, 0.2415638267993927, -0.16375157237052917, 0.12602707743644714, -0.40391749143600464, 0.28629744052886963, -0.22429722547531128, 0.125682532787323, -0.08781558275222778, -0.13094019889831543, 0.3828102946281433, 0.06611838191747665, 0.3823903203010559, -0.1306845098733902, 0.054457709193229675, -0.029518134891986847, -0.28926560282707214, -0.2566125988960266, -0.2063465416431427, 0.024578163400292397, -0.34348028898239136, -0.20739740133285522, -0.02374228462576866, 0.22028878331184387, -0.10366453230381012, -0.04787247255444527, -0.0980651006102562,
-0.3498364984989166, 0.0250222310423851, -0.34105274081230164, -0.10318275541067123, -0.0980406180024147, -0.013838623650372028, 0.11790482699871063, -0.06559615582227707, -0.2545291781425476, -0.04533950611948967, -0.03506627678871155, -0.19782547652721405, -0.0911070927977562, -0.1521284133195877, -0.1820855289697647, -0.0598202608525753, 0.099846251308918, -0.12994177639484406, -0.06477057188749313, -0.05316688492894173, 0.07559133321046829, -0.29493391513824463, 0.17069591581821442, -0.5366054177284241, 0.13078394532203674, -0.11663268506526947, 0.19155223667621613, 0.12196623533964157, 0.21547675132751465, -0.13190758228302002, 0.2195429652929306, -0.19819633662700653, -0.16855978965759277, 0.20345871150493622, 0.026200683787465096, 0.3995315134525299, -0.16750338673591614, -0.12899474799633026, 0.18068784475326538, 0.033389557152986526, -0.20096497237682343, -0.10301946103572845, -0.23393937945365906, -0.05649721622467041, -0.24027389287948608, 0.1165972352027893, 0.16732512414455414, 0.23065230250358582, -0.009761297143995762, 0.13581843674182892, -0.06046738848090172, 0.020010216161608696, 0.1715015470981598, -0.06175685301423073, 0.18825891613960266, -0.17717570066452026, -0.034360215067863464, 0.19044657051563263, 0.3933544456958771, -0.6846473813056946, -0.035667192190885544, 0.21554046869277954, 0.40543678402900696, 0.22279411554336548, -0.0516156330704689, -0.06145754083991051, -0.06334514915943146, 0.5511907935142517, -0.31517812609672546, 0.1165589764714241, -0.08710131794214249, -0.3212341368198395, -0.2983962893486023, -0.21397665143013, -0.3815709054470062, -0.006449154112488031, 0.06884703040122986, 0.29651588201522827, -0.14986392855644226, 0.021827902644872665, -0.18270348012447357, 0.07923326641321182, 0.286110520362854, -0.2337583601474762, -0.15687796473503113, 0.052024681121110916, 0.11495216190814972, -0.025235334411263466, -0.10997051745653152, 0.1920023113489151, 0.08924967050552368, 0.23626728355884552, -0.2113732248544693, 0.08457612246274948, -0.08934369683265686, 0.15253114700317383, 0.22634178400039673, -0.32395124435424805, -0.06925061345100403, -0.18227431178092957, -0.08691946417093277, 0.27378061413764954, 0.008379939012229443, -0.07896575331687927, -0.6235400438308716, 0.20180004835128784, 0.1456366628408432, 0.1839635670185089, -0.1611914485692978, -0.19995324313640594, -0.027085237205028534, 0.11119946092367172, 0.06808705627918243, 0.12866000831127167, 0.08537529408931732, 0.16043990850448608, 0.18572187423706055, 0.07282637059688568, 0.14206662774085999, 0.007627475541085005,
0.0463462695479393, 0.15205124020576477, -0.08230044692754745, 0.02718893624842167, -0.24490667879581451, -0.3526877462863922, -0.22416317462921143, 0.09477278590202332, -0.4629528224468231, -0.3102244436740875, -0.06829898059368134, 0.0033386126160621643, -0.0077932714484632015, -0.5774784684181213, 0.08782076090574265, -0.00856233760714531, 0.448729932308197, -0.008543569594621658, 0.17606447637081146, -0.05177302286028862, -0.03428772836923599, 0.011717271991074085, -0.045414891093969345, -0.3417024612426758, -0.20419923961162567, -0.13797229528427124, -0.0063704028725624084, 0.006751434877514839, -0.18446142971515656, -0.289213627576828, -0.19279241561889648, -0.11927290260791779, -0.1340429186820984, -0.0666159987449646, -0.4146431088447571, -0.1163773164153099, -0.053321950137615204, -0.1920555979013443, -0.02451193891465664, 0.1680101454257965, 0.048469699919223785, -0.10627096891403198, 0.006334626115858555, 0.133572056889534, 0.18904197216033936, -0.41290900111198425, 0.23968130350112915, -0.26359787583351135, -0.14933931827545166, -0.1575465053319931, -0.041929252445697784, 0.3483714461326599, -0.12677186727523804, -0.11201272159814835, 0.14524658024311066, 0.19318753480911255, 0.03649558871984482, 0.1520044356584549, 0.05112660676240921, -0.09610289335250854, -0.061655111610889435, 0.26294222474098206, 0.2982923984527588, 0.004189236089587212, 0.1560526192188263, -0.09143085777759552, -0.08298393338918686, 0.16406136751174927, -0.07919330149888992, -0.012820896692574024, -0.2975503206253052, -0.0821579322218895, 0.1164170354604721, 0.012816628441214561, 0.04043468087911606, 0.023379238322377205, 0.01960034854710102, 0.007714579347521067, -0.006415735464543104, -0.0832241028547287, -0.11971886456012726, 0.0928480327129364, -0.10465489327907562, -0.1584952026605606, -0.2660057246685028, 0.24866457283496857, -0.25714951753616333, -0.6563214063644409, -0.23675839602947235, -0.11716548353433609, -0.10416778177022934, 0.008019945584237576, 0.18313713371753693, 0.05900884419679642, 0.21261101961135864, 0.042577020823955536, -0.11935772001743317, -0.22227570414543152, 0.20081429183483124, -0.4221459925174713, -0.1577061265707016, 0.21475104987621307, 0.26633089780807495, 0.16105207800865173, 0.10472849756479263, 0.4387036859989166, -0.05502373352646828, -0.22249771654605865, -0.19481536746025085, -0.1588195562362671, -0.03112414851784706, 0.18539156019687653, -0.07646147906780243, -0.28647932410240173, -0.08909495919942856, 0.01334371417760849, -0.03443600609898567, -0.17589323222637177, 0.19138798117637634, 0.1283988058567047,
-0.22133640944957733, -0.431944876909256, -0.09525980055332184, 0.17042438685894012, -0.1180465817451477, -0.08271106332540512, -0.04697548598051071, 0.22108769416809082, -0.2547633945941925, -0.08961079269647598, -0.009153466671705246, -0.08811540901660919, -0.26711180806159973, 0.3382558226585388, -0.3379196226596832, -0.2591589689254761, 0.06163633614778519, 0.05894629657268524, 0.036813583225011826, -0.03455553203821182, -0.3490488529205322, 0.39530062675476074, -0.2998517155647278, 0.10602608323097229, 0.07459122687578201, -0.1517513543367386, -0.20450060069561005, 0.061606019735336304, 0.06046931818127632, -0.16644816100597382, -0.1670241504907608, -0.12016259133815765, -0.08433062583208084, 0.02255338244140148, 0.18555313348770142, -0.0796947106719017, -0.22824886441230774, -0.27110692858695984, -0.4562605619430542, -0.14927920699119568, 0.04901552572846413, -0.3055427372455597, 0.06312122195959091, -0.2095126509666443, 0.21577145159244537, -0.23045656085014343, 0.10446295887231827, -0.14919878542423248, -0.2089783400297165, -0.3928501307964325, -0.08900725841522217, 0.04760589078068733, -0.23534682393074036, -0.08830844610929489, 0.043791159987449646, -0.037354324012994766, -0.01864751987159252, 0.30661270022392273, -0.1368633508682251, 0.08549799025058746, 0.00702751474454999, -0.0036996237467974424, 0.027565328404307365, -0.07902202755212784, -0.13116484880447388, -0.147340327501297, -0.2254011631011963, 0.04388868436217308, -0.30085644125938416, 0.4232204258441925, 0.21834589540958405, -0.0490928590297699, -0.11545306444168091, -0.28229883313179016, -0.08280662447214127, 0.12802639603614807, -0.1392185240983963, -0.017688896507024765, 0.3127930164337158, 0.1829039454460144, 0.0024717876221984625, 0.19541271030902863, -0.18249066174030304, 0.14630915224552155, 0.015042689628899097, -0.10815585404634476, 0.017409130930900574, 0.05919794365763664, 0.16791558265686035, 0.28610825538635254, 0.01290533784776926, 0.13130053877830505, 0.15579020977020264, -0.1979951113462448, 0.1106879934668541, -0.05479442700743675, -0.1887790858745575, -0.3190808892250061, 0.048189450055360794, 0.20546311140060425, -0.6036850810050964, -0.11709050089120865, 0.011968690901994705, -0.0019418842857703567, -0.14969073235988617, 0.30679839849472046, 0.32570597529411316, -0.11842937022447586, -0.4046315550804138, 0.13786160945892334, 0.2751356363296509, 0.00642321677878499, -0.38914966583251953, 0.047249313443899155, -0.11111397296190262, -0.0020679105073213577, -0.14044085144996643, -0.18184106051921844, -0.18929129838943481, -0.15589308738708496,
-0.3808716833591461, -0.08368299901485443, -0.3344966769218445, 0.2469346672296524, -0.1726629137992859, -0.05039520561695099, -0.07289057224988937, -0.19599241018295288, 0.10175278037786484, 0.032570283859968185, 0.22870461642742157, 0.17574453353881836, -0.08884736895561218, 0.07780103385448456, -0.1789708435535431, -0.1506149023771286, -0.28833022713661194, -0.0795876607298851, -0.0813942402601242, 0.2986097037792206, 0.01995585486292839, -0.22120915353298187, 0.16786856949329376, -0.4634316563606262, -0.01785246469080448, -0.04339735582470894, 0.2505095899105072, -0.2707705795764923, 0.01509886421263218, 0.48569339513778687, 0.03485284000635147, -0.22335673868656158, 0.03387628123164177, -0.09132690727710724, 0.32247278094291687, -0.2396925836801529, -0.45222195982933044, 0.00896156020462513, 0.12475741654634476, 0.016102373600006104, -0.07729784399271011, -0.06948211044073105, -0.3046950399875641, -0.3660227358341217, -0.20371587574481964, -0.1766766458749771, -0.5421755313873291, -0.23811766505241394, -0.3567041754722595, -0.2041398286819458, 0.010355151258409023, 0.09012661129236221, -0.027401888743042946, 0.013257704675197601, -0.5380561351776123, 0.003973524551838636, 0.22295065224170685, -0.1166800856590271, 0.33375072479248047, -0.004453721456229687, -0.3665323257446289, 0.012794780544936657, -0.20474901795387268, 0.19273819029331207, -0.2634212076663971, -0.10363255441188812, -0.09731264412403107, -0.4079926311969757, -0.4024543762207031, 0.04648192226886749, 0.01948249712586403, -0.07719047367572784, 0.19521260261535645, 0.07582367956638336, -0.5775151252746582, -0.4991988241672516, -0.35601112246513367, -0.07932097464799881, 0.017620954662561417, -0.011300001293420792, -0.011530779302120209, -0.09613747894763947, 0.4194018244743347, -0.17132821679115295, 0.12548360228538513, 0.2912415862083435, 0.4195510447025299, -0.039891742169857025, -0.07597066462039948, 0.18387256562709808, 0.019211988896131516, -0.6218116879463196, -0.09430403262376785, -0.11239227652549744, -0.3645816445350647, 0.04629799351096153, -0.2095630019903183, -0.0968703106045723, -0.21512749791145325, -0.021830828860402107, -0.3589356243610382, -0.07934708893299103, 0.04567265883088112, 0.0430600680410862, -0.3092316687107086, -0.015604588203132153, 0.2465442419052124, 0.044266894459724426, -0.09531911462545395, 0.0185114536434412, 0.3568650782108307, 0.07877828180789948, 0.08753170073032379, 0.029390646144747734, 0.21972735226154327, 0.16194459795951843, -0.20438826084136963, -0.047373171895742416, 0.13100959360599518, -0.1544870287179947,
-0.3326205015182495, 0.033140912652015686, -0.2277064323425293, 0.011656126007437706, -0.06658083200454712, -0.10979502648115158, -0.12715020775794983, -0.07170570641756058, 0.294620543718338, 0.15683016180992126, -0.3849671185016632, 0.11071718484163284, -0.2635982036590576, -0.23514242470264435, 0.039936959743499756, -0.13888920843601227, -0.08165079355239868, -0.3105972111225128, 0.106968954205513, -0.007409354206174612, -0.011144120246171951, -0.2233557552099228, -0.2861945331096649, 0.04652052000164986, -0.15335100889205933, -0.1815221756696701, 0.013294154778122902, -0.10146670043468475, -0.35256704688072205, -0.04229852557182312, 0.05213997885584831, 0.08202441036701202, -0.17591792345046997, -0.039129193872213364, -0.045706313103437424, 0.17541402578353882, 0.08446186780929565, 0.09872586280107498, 0.30401167273521423, -0.030629867687821388, -0.18819034099578857, 0.06952492892742157, -0.24387194216251373, 0.1636812686920166, 0.11867545545101166, 0.04131805896759033, -0.2006586641073227, -0.7768160700798035, -0.4058838188648224, 0.26525557041168213, -0.09059275686740875, -0.2840994596481323, -0.13415448367595673, -0.041898299008607864, -0.20533671975135803, 0.20972347259521484, -0.03205566480755806, -0.20897653698921204, 0.05407951772212982, -0.1261674165725708, -0.017981402575969696, -0.25465646386146545, 0.0038816197775304317, -0.2382417619228363, -0.2594763934612274, -0.13319523632526398, -0.12531466782093048, -0.020726043730974197, 0.06756975501775742, -0.20469093322753906, -0.006360108032822609, -0.18733888864517212, 0.10623227804899216, 0.003966360818594694, 0.21333521604537964, -0.3705609142780304, -0.3008837401866913, 0.12122028321027756, -0.0675237774848938, -0.12448495626449585, -0.2185557633638382, -0.016800343990325928, -0.2133978307247162, 0.008871147409081459, 0.13824597001075745, -0.24039095640182495, 0.02205900475382805, -0.10185230523347855, 0.06575295329093933, 0.32234156131744385, -0.3537047207355499, -0.5648170709609985, 0.03545057028532028, -0.006640709470957518, -0.5949960947036743, -0.396038293838501, -0.11310697346925735, -0.48045986890792847, 0.05369019880890846, 0.009396303445100784, -0.15933756530284882, -0.11048399657011032, 0.010902293026447296, -0.46858590841293335, -0.4677433371543884, 0.13339447975158691, 0.1035790890455246, 0.10826090723276138, -0.13101787865161896, 0.134439617395401, 0.0768062025308609, -0.2726382613182068, 0.02615450881421566, -0.07147988677024841, -0.06201343238353729, -0.23667985200881958, -0.016450848430395126, -0.06664267182350159, 0.09328222274780273, -0.0006874128594063222,
-0.03734121099114418, -0.23964177072048187, -0.014550400897860527, -0.2565712332725525, 0.20266097784042358, 0.04622058942914009, 0.035137757658958435, 0.059778884053230286, 0.17636004090309143, -0.019122088328003883, 0.037330400198698044, -0.22684921324253082, -0.31184202432632446, -0.28038227558135986, -0.13282884657382965, 0.11186162382364273, -0.20295071601867676, 0.23723605275154114, -0.14674772322177887, -0.3119831085205078, -0.030503414571285248, -0.2519090175628662, 0.006821135990321636, -0.05374394357204437, -0.3218020498752594, -0.00023374147713184357, -0.048392441123723984, 0.0037360014393925667, -0.14899709820747375, -0.20392093062400818, 0.15903960168361664, -0.050403252243995667, -0.18412666022777557, 0.054570723325014114, 0.03431566059589386, 0.20072197914123535, -0.21661901473999023, -0.23675070703029633, -0.5750315189361572, -0.016877662390470505, -0.2509903609752655, -0.0931180864572525, -0.003632503794506192, -0.2163902074098587, -0.19928120076656342, 0.0810149610042572, -0.386642187833786, -0.0503627173602581, -0.148020401597023, 0.07540060579776764, -0.18351876735687256, 0.02976004220545292, -0.08070319145917892, -0.07942171394824982, -0.20341672003269196, -0.08883872628211975, -0.09994778782129288, -0.12808871269226074, -0.05334535613656044, -0.37381166219711304, -0.3649083077907562, -0.4108331501483917, -0.02131912298500538, 0.07310494780540466, 0.12400545924901962, -0.2654494643211365, -0.48133042454719543, -0.13793478906154633, -0.1190168708562851, -0.0372362844645977, 0.40350639820098877, -0.3045302927494049, 0.010199123062193394, -0.07251954823732376, 0.1986495852470398, 0.040035199373960495, 0.10000612586736679, -0.11028570681810379, 0.023679835721850395, -0.011445680633187294, 0.05781438946723938, 0.10727694630622864, -0.30074718594551086, 0.3045143485069275, 0.14922036230564117, 0.048094842582941055, -0.21679680049419403, 0.17197567224502563, 0.056227345019578934, -0.06019961088895798, 0.1371593028306961, -0.16524638235569, 0.23466238379478455, 0.13379518687725067, 0.21398936212062836, 0.3959672451019287, 0.017594654113054276, 0.060853127390146255, -0.42209646105766296, -0.20283743739128113, -0.26347365975379944, 0.04014799743890762, 0.019077522680163383, -0.2942815124988556, -0.031847141683101654, 0.02002181112766266, -0.19013626873493195, 0.18821361660957336, 0.05220687761902809, 0.5358394980430603, -0.1624784916639328, -0.2891175448894501, 0.09900916367769241, -0.03781001269817352, 0.1998167634010315, -0.005924536846578121, 0.10229513049125671, -0.28361907601356506, 0.044993020594120026, 0.10689519345760345,
-0.04919770359992981, 0.03478853031992912, -0.06803835183382034, -0.2590392529964447, -0.03539760410785675, 0.2464139461517334, 0.3921453356742859, -0.3243839144706726, -0.09600963443517685, -0.06957998126745224, -0.11616037040948868, 0.06453400105237961, 0.18271788954734802, 0.053464967757463455, -0.10457463562488556, -0.024653460830450058, -0.0841604471206665, 0.00710914796218276, 0.18339379131793976, -0.11214669793844223, -0.08972279727458954, -0.5014033913612366, -0.6299358606338501, 0.2293911725282669, -0.4203440546989441, -0.17441068589687347, -0.32239633798599243, -0.3926391303539276, -0.25540441274642944, -0.09994272887706757, 0.14017623662948608, 0.08467461913824081, 0.020454704761505127, -0.1279199868440628, 0.16399025917053223, -0.04465753212571144, -0.12978976964950562, 0.07262106984853745, 0.05198721960186958, 0.0013044095830991864, -0.06594126671552658, -0.4163516163825989, -0.23424029350280762, 0.050565626472234726, -0.034187112003564835, -0.25340718030929565, -0.2428724765777588, -0.5243145227432251, 0.17867086827754974, 0.057080257683992386, -0.24031254649162292, 0.05654578655958176, -0.11294914782047272, -0.13201865553855896, 0.224277064204216, 0.08731131255626678, -0.27518945932388306, 0.14483235776424408, 0.008868043310940266, -0.3998987078666687, -0.2121995985507965, -0.07400631904602051, -0.17624245584011078, -0.04947631061077118, 0.29529833793640137, -0.4087332487106323, -0.18660207092761993, 0.015421838499605656, -0.48635998368263245, 0.195453941822052, 0.22813640534877777, -0.2561596930027008, -0.1205102950334549, -0.054457515478134155, 0.08926310390233994, 0.26549723744392395, -0.21402661502361298, -0.2432686686515808, -0.04054354503750801, -0.17414255440235138, -0.25172334909439087, -0.5105224251747131, 0.02876884676516056, -0.12687550485134125, -0.06463736295700073, 0.010596909560263157, -0.07528605312108994, 0.051722269505262375, 0.033846426755189896, -0.31013190746307373, 0.23221877217292786, -0.09478829056024551, 0.3037875294685364, -0.088620126247406, -0.3442649245262146, 0.07595417648553848, 0.06014179438352585, 0.03781711682677269, -0.008471790701150894, 0.23849663138389587, -0.3484288156032562, -0.1600881814956665, -0.15881703794002533, -0.10448695719242096, -0.3055690824985504, -0.23172049224376678, 0.17758363485336304, 0.08630626648664474, 0.31691211462020874, -0.17627397179603577, -0.05160491168498993, -0.3891698122024536, -0.25648194551467896, -0.08185712993144989, 0.1552577018737793, -0.14888475835323334, 0.020010460168123245, 0.22378553450107574, 0.3718361258506775, -0.00725567014887929,
-0.3500980734825134, 0.16438396275043488, -0.17150834202766418, -0.09440085291862488, -0.09740012139081955, -0.23992671072483063, -0.10973995178937912, 0.3101139962673187, -0.07917559146881104, -0.19937345385551453, 0.1860840767621994, -0.27896028757095337, -0.4294791519641876, 0.22097569704055786, 0.27869856357574463, 0.2876659333705902, 0.10942275822162628, 0.12143539637327194, -0.026578053832054138, -0.2858867347240448, 0.07644419372081757, -0.34411951899528503, -0.3767947852611542, 0.1266883760690689, 0.1285657286643982, 0.18533733487129211, 0.2749596834182739, 0.008064718917012215, 0.04433825984597206, -0.37425416707992554, -0.3987410366535187, -0.03820471465587616, -0.0646417960524559, -0.015982789918780327, -0.28396138548851013, -0.1583554893732071, -0.2860761284828186, -0.06558866798877716, -0.24541103839874268, -0.3176897466182709, 0.08424805849790573, -0.5132198333740234, -0.10962022095918655, 0.10547037422657013, -0.2088831216096878, 0.08895693719387054, 0.0295081976801157, -0.079928919672966, -0.28073880076408386, 0.2475437968969345, 0.07670652866363525, -0.14932800829410553, 0.20250879228115082, 0.028171434998512268, 0.1168227568268776, 0.1868131160736084, -0.06192026659846306, 0.06740737706422806, -0.1376960277557373, 0.12527474761009216, -0.04051065072417259, -0.30672943592071533, -0.3921484053134918, 0.3670820891857147, -0.09233371913433075, -0.4387762248516083, 0.0019794420804828405, 0.040111102163791656, -0.15288697183132172, 0.10266800969839096, 0.2922065556049347, -0.005899464245885611, 0.13381549715995789, 0.19578823447227478, 0.05170078203082085, -0.06224518269300461, -0.10302141308784485, -0.11177769303321838, -0.10272684693336487, -0.47452449798583984, 0.13492819666862488, -0.254445344209671, -0.29906657338142395, -0.006710937712341547, -0.06837295740842819, -0.3651576638221741, -0.1626727283000946, -0.3487674295902252, -0.032736945897340775, -0.2865056097507477, -0.03499572351574898, 0.31544029712677, -0.12495806813240051, 0.19011157751083374, 0.03628078103065491, 0.1645756959915161, 0.06576967239379883, -0.20530594885349274, 0.013059495016932487, -0.07085663825273514, 0.3230769634246826, -0.08164753764867783, 0.1281319409608841, 0.01799090951681137, -0.037763409316539764, -0.36252298951148987, -0.09315784275531769, 0.16421657800674438, -0.1323581337928772, -0.22778010368347168, -0.027660716325044632, -0.06019286811351776, 0.1887091100215912, -0.06389927864074707, -0.00357852247543633, -0.14837796986103058, -0.18818460404872894, 0.16009467840194702, 0.07651644945144653, -0.10591230541467667,
-0.45028889179229736, 0.014192302711308002, -0.08630594611167908, -0.26422983407974243, 0.14792102575302124, -0.029177041724324226, -0.010703952983021736, -0.4236085116863251, 0.041637782007455826, 0.32364246249198914, -0.14993472397327423, -0.21931450068950653, -0.0502232126891613, -0.014441651292145252, 0.10532420873641968, -0.12514904141426086, -0.3995780944824219, 0.30679401755332947, 0.02729974314570427, 0.30583178997039795, -0.018458232283592224, 0.2993496060371399, -0.03547552600502968, 0.028971467167139053, 0.13108256459236145, -0.0903601348400116, 0.2553146779537201, 0.08517815172672272, 0.0015529220690950751, 0.11122679710388184, -0.03093280829489231, -0.11137378215789795, -0.03564775735139847, -0.024166781455278397, 0.27157336473464966, 0.008560813963413239, -0.18579736351966858, -0.3748326301574707, 0.10205501317977905, 0.1652761995792389, 0.1099073588848114, -0.04364994540810585, -0.40474408864974976, 0.014809145592153072, 0.1019853949546814, 0.042278461158275604, -0.10351551324129105, -0.2578537166118622, -0.09401433169841766, 0.2151484489440918, -0.3669487535953522, 0.012384969741106033, 0.06686822324991226, -0.20543113350868225, 0.1396060287952423, -0.28654545545578003, 0.31622087955474854, -0.39985644817352295, -0.009023863822221756, 0.04761382192373276, -0.08814933151006699, 0.03981752321124077, 0.04365815222263336, -0.1390664279460907, 0.023663371801376343, 0.021590573713183403, -0.16152462363243103, 0.1023937463760376, 0.009479864500463009, 0.2007775902748108, 0.09859881550073624, 0.22370512783527374, -0.11234007030725479, -0.10110147297382355, -0.05170012637972832, -0.0618901327252388, -0.28163495659828186, -0.15148107707500458, 0.28581503033638, -0.04424702003598213, -0.37096086144447327, -0.015490134246647358, 0.14004813134670258, 0.11545883119106293, -0.05099852383136749, 0.12753908336162567, 0.08169033378362656, 0.0966983363032341, -0.05947670713067055, -0.11370617896318436, 0.13932020962238312, -0.07185094058513641, -0.2294217348098755, -0.3479181230068207, 0.07718369364738464, 0.11245347559452057, 0.45385807752609253, 0.03419386222958565, 0.142902672290802, 0.05247485637664795, -0.3661792278289795, 0.2339695245027542, 0.21133345365524292, 0.2073231190443039, 0.016833364963531494, 0.019769765436649323, -0.11409416049718857, 0.020895030349493027, -0.1396419256925583, -0.1510528028011322, 0.17525595426559448, 0.3578895628452301, -0.02963276207447052, -0.1384803056716919, -0.02480771765112877, -0.033762358129024506, 0.011516817845404148, 0.17602267861366272, 0.02236173488199711, -0.12069402635097504,
-0.08321236073970795, -0.09362082928419113, -0.04773959890007973, 0.16519774496555328, 0.05530314892530441, 0.02974141575396061, -0.471058189868927, 0.12498507648706436, 0.20656901597976685, -0.6167930364608765, -0.015116933733224869, -0.24791058897972107, -0.27943727374076843, -0.1295493096113205, 0.10144399851560593, 0.11485287547111511, 0.08252479135990143, 0.0261413361877203, -0.0981224924325943, -0.34874406456947327, -0.2360665500164032, -0.14470994472503662, -0.09915970265865326, -0.09726765006780624, -0.07979073375463486, -0.5110185146331787, -0.2843538224697113, 0.11471051722764969, -0.2278262823820114, 0.42058125138282776, 0.030547238886356354, -0.0822211429476738, -0.04809970036149025, 0.12083540856838226, -0.499325156211853, 0.28225427865982056, -0.0941513329744339, 0.17198102176189423, 0.25618433952331543, -0.2053515762090683, -0.31395649909973145, 0.16750125586986542, 0.002025472465902567, 0.005622034426778555, -0.06642629951238632, 0.08010642230510712, -0.22986115515232086, 0.280518501996994, 0.0344778373837471, 0.34545189142227173, 0.044436242431402206, 0.11036853492259979, 0.38128742575645447, -0.3256013095378876, -0.14087146520614624, 0.3627966344356537, -0.021925294771790504, 0.18031957745552063, 0.2525050938129425, -0.2650938630104065, -0.38971754908561707, 0.18887324631214142, -0.2639312446117401, -0.1818653643131256, -0.08148479461669922, 0.043326277285814285, 0.03807185962796211, -0.0857318639755249, -0.19957205653190613, -0.03194141387939453, -0.039963316172361374, -0.26363417506217957, 0.0133486557751894, -0.05410675331950188, -0.3154342770576477, -0.12280593067407608, 0.3110824525356293, -0.06627006828784943, -0.22102732956409454, -0.09692570567131042, 0.0449969619512558, -0.350035697221756, -0.19888409972190857, 0.04939615726470947, -0.04971601814031601, 0.09826140105724335, -0.45210468769073486, -0.040010273456573486, 0.14987385272979736, -0.40637221932411194, 0.11641064286231995, 0.09856653958559036, -0.15026400983333588, -0.048857755959033966, 0.2735286355018616, -0.3220967948436737, 0.028865955770015717, -0.10905257612466812, -0.029979655519127846, 0.2067001760005951, 0.02345450222492218, 0.019752295687794685, 0.26549237966537476, -0.31605008244514465, -0.2791730463504791, -0.1888006031513214, -0.542810320854187, -0.07953689992427826, -0.254455029964447, -0.5205673575401306, -0.23580023646354675, -0.35039496421813965, -0.009044373407959938, -0.09782660007476807, -0.18293854594230652, 0.13545018434524536, 0.005701417103409767, 0.01604529283940792, 0.3263547122478485, -0.18712206184864044,
0.19754335284233093, -0.1513354331254959, -0.19205798208713531, 0.017281856387853622, -0.09623365104198456, -0.05166487768292427, -0.3270028829574585, 0.023229476064443588, 0.1902296394109726, 0.05641850829124451, -0.34287917613983154, -0.2505839169025421, 0.045238181948661804, -0.01771462894976139, -0.11477449536323547, -0.15684522688388824, -0.029516613110899925, 0.06510404497385025, 0.1771349161863327, -0.0032393026631325483, -0.7191389799118042, 0.07755367457866669, 0.0233951136469841, -0.1142999604344368, -0.13338810205459595, -0.255298376083374, 0.043035224080085754, 0.1532711386680603, -0.14648301899433136, -0.049657102674245834, 0.19696684181690216, 0.018926776945590973, -0.33454498648643494, -0.0650731772184372, 0.16519661247730255, 0.40131810307502747, -0.5187123417854309, 0.040091387927532196, -0.000316524354275316, 0.23397411406040192, 0.24785561859607697, -0.1466490775346756, -0.2944987416267395, -0.19116157293319702, -0.13076063990592957, 0.12680132687091827, -0.17859148979187012, 0.1801731139421463, -0.1713593304157257, -0.16608993709087372, 0.07517106086015701, -0.08362927287817001, -0.0015599806793034077, -0.2349487990140915, 0.23670656979084015, -0.23881836235523224, 0.21865369379520416, 0.4177035987377167, 0.05284355953335762, -0.12992796301841736, -0.06388106197118759, 0.13327524065971375, -0.03194426745176315, -0.11381631344556808, 0.01794322580099106, 0.037226416170597076, -0.31439122557640076, 0.038845859467983246, -0.051791463047266006, -0.18025630712509155, 0.03479320555925369, -0.00580263789743185, 0.025783507153391838, 0.020977985113859177, -0.08272666484117508, 0.3896157741546631, -0.1287461221218109, 0.19322554767131805, -0.02269173413515091, 0.02195090986788273, -0.24287213385105133, -0.3722408413887024, 0.40765082836151123, -0.0987929105758667, 0.1909893900156021, 0.12323629856109619, -0.2919241786003113, -0.056463807821273804, 0.0067009818740189075, -0.25575828552246094, -0.17750786244869232, 0.3706592619419098, 0.20129714906215668, -0.06745029985904694, 0.04226761311292648, -0.5399168133735657, -0.09280908107757568, -0.14624008536338806, 0.20679348707199097, 0.12912730872631073, 0.13412664830684662, 0.015998993068933487, 0.09285960346460342, -0.19508232176303864, -0.14485041797161102, -0.23767288029193878, 0.5100719332695007, -0.03414482995867729, 0.10518179088830948, -0.11088795214891434, 0.0761166661977768, 0.16681115329265594, -0.09288793057203293, 0.13252773880958557, -0.19450363516807556, 0.12270447611808777, -0.0878782644867897, -0.28908640146255493, 0.13475936651229858, 0.19159376621246338,
