#include "neural_network.h"
#include <stdio.h>
#include <math.h>

const float weights_fc1[] = {
-0.19598504900932312, 0.2968224287033081, -0.9578776955604553, -0.1710428148508072, 0.2590632438659668, 0.17407484352588654, -1.183692216873169, 0.4059922695159912, 0.8156337738037109, 0.10956907272338867, 0.06952038407325745, 0.4187152683734894, -0.20337408781051636, 1.7979023456573486, -1.3940552473068237, 0.6027123928070068, 0.3168233633041382, -0.15136678516864777, -0.07761930674314499, -0.041547153145074844,
0.3016228675842285, -0.35882458090782166, 0.3603919446468353, -0.49683183431625366, 0.22557365894317627, -0.9308462142944336, 0.05342794582247734, 0.13472266495227814, -0.7627668380737305, -0.05987295135855675, -0.08852460235357285, -0.5020643472671509, -0.1349804550409317, -1.1939940452575684, 3.1824443340301514, 0.2674444317817688, -0.1392403244972229, -0.02120179310441017, -0.0657615140080452, -0.06615621596574783,
-0.07904592156410217, -0.47465550899505615, 1.9998836517333984, -0.029752317816019058, 0.09729979932308197, 0.45749109983444214, -0.3032711446285248, 0.5191268920898438, 0.7247819304466248, 0.12536771595478058, -0.10979721695184708, 0.275160014629364, -0.380018413066864, 1.4721624851226807, -0.4412606358528137, 0.33129048347473145, 0.2758280038833618, 0.22717373073101044, 0.022733181715011597, 0.10696052759885788,
0.6619186401367188, 0.3937247395515442, 0.17408978939056396, 0.05301419645547867, 1.6534944772720337, -0.30767470598220825, -0.34305599331855774, 0.37259477376937866, 1.0438024997711182, 0.06637096405029297, -0.1144358217716217, -0.3735389709472656, 0.0010841322364285588, 0.02341286465525627, -0.35361406207084656, -0.6925333142280579, -0.2981785833835602, 0.12010356783866882, 0.04953329265117645, -0.03725172206759453,
0.3522142171859741, 0.06472381204366684, -0.21288618445396423, -1.0267407894134521, 0.24008023738861084, 0.07701615244150162, 0.009746842086315155, 1.2634929418563843, 0.06341185420751572, -0.6095534563064575, 0.03344959393143654, -0.39271530508995056, -0.24366070330142975, 0.3757011592388153, -0.16416169703006744, 0.05087502673268318, -0.7604634761810303, -0.8261324167251587, 0.12886720895767212, -0.4615307152271271,
-0.49785056710243225, -0.39113113284111023, 1.7972427606582642, -0.19471384584903717, 0.37620973587036133, 0.5296015739440918, 0.9134392738342285, 0.12401676923036575, -0.33569252490997314, -0.006984182167798281, 0.39064064621925354, 0.17412377893924713, -1.2180886268615723, 0.07766319066286087, -1.4378594160079956, 0.7074185609817505, -0.39871689677238464, -0.23579953610897064, -0.08691569417715073, -0.5844820737838745,
0.6470146775245667, -1.3709787130355835, -0.7044958472251892, -0.6264994740486145, 0.09214276075363159, 0.046029333025217056, 0.1112968772649765, -0.5651170015335083, 0.5385481715202332, 0.27419042587280273, -0.07618197053670883, 0.1754067838191986, -0.21345952153205872, -1.2301286458969116, 1.7586451768875122, 0.7681662440299988, -0.20959481596946716, -0.2436317801475525, -0.2274087369441986, -0.31613993644714355,
2.1271445751190186, -0.7771736979484558, -0.42310407757759094, 0.21213175356388092, 0.21688957512378693, 0.6199422478675842, -0.5117472410202026, -1.2293559312820435, 0.567747175693512, 0.10528494417667389, 0.038135021924972534, 0.48896634578704834, -0.12135687470436096, -0.5739558339118958, -0.32786887884140015, -0.03486378490924835, -0.11356783658266068, 0.20650745928287506, 0.2444620281457901, -0.29129400849342346,
0.46551546454429626, 0.6753926873207092, -0.4296729862689972, -0.23685818910598755, 0.09452422708272934, 0.08455733954906464, -0.2807770073413849, 1.4734529256820679, -0.24039675295352936, 0.045079056173563004, -0.2589152455329895, -0.3066377341747284, -1.098562240600586, 1.3333921432495117, 0.23074324429035187, 1.18778657913208, 0.33735597133636475, 0.16066931188106537, 0.11162688583135605, 0.16393235325813293,
0.45739272236824036, -0.8895304203033447, 0.5605934262275696, -0.47328224778175354, -0.4425182640552521, -0.546834409236908, 0.7393767833709717, -0.6110104918479919, -0.7764389514923096, -0.05195144936442375, 0.22599396109580994, -0.9549229741096497, 0.2528878450393677, -0.24049609899520874, 0.021906765177845955, 0.037901248782873154, -0.3648926019668579, -0.35033857822418213, 0.2053200900554657, -0.47257789969444275,
0.24532321095466614, -0.4354354441165924, -0.3502359688282013, -0.6111871004104614, -0.06359878182411194, 0.016613051295280457, 0.09133833646774292, 0.5305346846580505, 0.2112402766942978, 0.3146357238292694, 0.4760921001434326, 0.12065327167510986, -0.08167415857315063, -0.13770951330661774, -0.4130641222000122, 1.6521519422531128, -0.9409147500991821, -0.641025960445404, 0.3029446005821228, -0.9054869413375854,
-0.4569568932056427, 1.5140364170074463, -0.4995844066143036, 0.07114940136671066, 0.6074241399765015, -0.6375402808189392, -0.844780683517456, 0.2654902935028076, -0.257210910320282, -0.007784587796777487, -0.11862682551145554, 0.18378357589244843, -0.8959609270095825, 0.7416090965270996, -0.1343434602022171, -0.891004204750061, 0.16265448927879333, -0.03712590038776398, -0.3267292082309723, -0.18870703876018524,
0.7863162159919739, -0.5833773612976074, 0.3455376625061035, -0.26726433634757996, 0.29805049300193787, -0.5507491827011108, -0.23250579833984375, 0.721640408039093, 0.5415823459625244, 0.0223128329962492, -0.6899012327194214, -0.17910559475421906, 0.3566693961620331, 0.02950703166425228, 0.31497904658317566, -0.05360811576247215, -1.044640302658081, -0.4303189814090729, -0.08379808813333511, -0.7474812865257263,
0.5590455532073975, -0.42759159207344055, 0.5075454115867615, 0.04265180602669716, 0.8294028639793396, 0.10942799597978592, 0.32809558510780334, -0.30005624890327454, -0.013327750377357006, 0.1281086504459381, -0.7119929194450378, -0.0536663644015789, -0.5849874019622803, -0.9851787090301514, 1.883314847946167, 0.39132776856422424, -0.5457943677902222, -0.3194185197353363, 0.05269325524568558, -0.8344175815582275,
0.2321699857711792, -0.3895283639431, -0.5404632687568665, -0.4581579864025116, 0.19403180480003357, 1.0310693979263306, 0.3961029052734375, -0.3692254424095154, -0.544972836971283, 0.48532211780548096, 0.2673305869102478, 0.20193050801753998, 0.602775514125824, -0.8924670815467834, 1.754848837852478, -0.041673168540000916, -0.4860258996486664, -0.4678068459033966, 0.1524537056684494, -0.3339247703552246,
-0.32059669494628906, 1.1413755416870117, -1.5209200382232666, 0.1558990478515625, 0.0835970789194107, -0.012065895833075047, -0.6841343641281128, -1.0041612386703491, -0.8327946066856384, -0.2244030386209488, 0.14607512950897217, -0.3310575783252716, -1.3155637979507446, 1.2190028429031372, -0.5557124614715576, -0.8485028147697449, -0.4752861261367798, -0.17444978654384613, -0.17404022812843323, -0.3520047664642334,
-0.30619585514068604, -0.1416892260313034, 1.3535664081573486, -0.2448706328868866, 0.3205181956291199, 0.7022751569747925, -0.17849627137184143, 0.11859895288944244, 0.9500331282615662, 0.12062032520771027, -0.10524645447731018, 0.2506169378757477, -1.4357255697250366, -1.118096947669983, -1.1725229024887085, -0.6752879023551941, -0.2860960066318512, -0.2739734351634979, 0.03724692016839981, -0.25879132747650146,
0.5235739350318909, 0.7158190608024597, 1.1728483438491821, -0.012191536836326122, -0.008398632518947124, 0.26256653666496277, -0.5953255891799927, 1.6834832429885864, -0.21135832369327545, -0.09245767444372177, 0.1738114356994629, 0.06515111774206161, -1.2074718475341797, 0.9602775573730469, 0.803984522819519, -0.08884218335151672, -0.19703567028045654, -0.3933233618736267, 0.07961225509643555, 0.011061631143093109,
0.10110320895910263, -0.28640425205230713, -1.692975640296936, 0.18161539733409882, -0.07985389232635498, -1.2625590562820435, -0.5364742279052734, 0.5556331276893616, -0.4441662132740021, -0.08864636719226837, -0.7730977535247803, -0.635793149471283, 0.658248782157898, -0.2212875932455063, 0.5920307636260986, -1.2726163864135742, -0.29458948969841003, -0.10011386126279831, 0.08214721828699112, -0.26370418071746826,
1.0846773386001587, -1.2831001281738281, -0.3762727677822113, -0.31159451603889465, 0.09074623882770538, 0.24959301948547363, 0.5351194739341736, -0.18511582911014557, 0.18785135447978973, -0.1762983202934265, -0.3553420305252075, -0.8027879595756531, 0.35979458689689636, 0.44533050060272217, -0.49630188941955566, 0.35840824246406555, -1.0123100280761719, -0.7709400653839111, -0.42855504155158997, -0.7488638758659363,
0.11314189434051514, -1.592310905456543, 1.7187104225158691, 0.054506778717041016, -0.3425174057483673, 0.07953177392482758, 0.9989181160926819, -0.12240839749574661, -0.6947521567344666, 0.024502480402588844, -0.1497921645641327, -0.45867910981178284, 0.1353408396244049, -1.3781213760375977, 0.5187740325927734, -0.412941575050354, -0.2385929524898529, -0.08493403345346451, 0.31555771827697754, -0.12387603521347046,
0.7460240125656128, 0.43561872839927673, -1.5886385440826416, 0.17531657218933105, 0.1036519855260849, -0.9422791600227356, -0.4151391088962555, -0.482768177986145, 0.2074299156665802, 0.09974391013383865, -0.29817473888397217, -0.20495447516441345, -1.207209825515747, -0.7297255992889404, -0.8639253973960876, -1.0367047786712646, -0.1059897243976593, -0.06767059862613678, 0.22268305718898773, 0.07397887855768204,
0.6777171492576599, 0.14045298099517822, 1.4014993906021118, -0.17034149169921875, -0.16667324304580688, 0.4079911708831787, 0.030042801052331924, 0.43569710850715637, -0.39608508348464966, 0.18705035746097565, -0.23986437916755676, 0.2734479606151581, -0.9287346005439758, 1.3533915281295776, -0.6117106676101685, 0.9674338102340698, 0.04720119759440422, -0.3495749831199646, 0.017996657639741898, -0.31160613894462585,
0.24978405237197876, -0.6044316291809082, -0.7534002065658569, -0.07577446848154068, 0.9311478137969971, -0.262464702129364, 0.2332616150379181, -0.6762942671775818, 0.6464657783508301, 0.12526081502437592, -0.01913570798933506, 0.62745201587677, 0.48011764883995056, -1.2649134397506714, 1.2403812408447266, 0.1345422863960266, 0.2986105978488922, 0.0001243154692929238, 0.031359922140836716, -0.13651663064956665,
0.23217272758483887, -0.46324285864830017, 1.8171576261520386, 0.12962254881858826, -0.31799519062042236, -0.6396391987800598, 0.5317050814628601, 0.778081476688385, -0.1850859820842743, 0.05484999343752861, -0.44746553897857666, -0.09890427440404892, 0.293840616941452, 0.31886428594589233, -0.6121861934661865, 0.16388054192066193, -0.620499312877655, -0.30770984292030334, -0.00015630303823854774, -0.7477825880050659,
-0.2638570964336395, -0.6422450542449951, -2.071566104888916, -0.20590639114379883, 0.14436034858226776, -0.8532417416572571, 0.37826693058013916, -1.3180636167526245, -0.1766258031129837, 0.1691097617149353, 0.3530367314815521, -0.46379411220550537, -0.3070654273033142, -0.4623492956161499, -0.348423570394516, 1.3171497583389282, -0.10725920647382736, 0.07925597578287125, 0.10069560259580612, -0.07850188761949539,
1.0098499059677124, -0.3442573845386505, 1.6297638416290283, 0.0896419957280159, -0.007814777083694935, 0.021143071353435516, -0.4205548167228699, -0.08603933453559875, -1.7947546243667603, 0.005453940015286207, 0.021280556917190552, -0.9987337589263916, 0.5128796696662903, -0.34464091062545776, 0.5769950747489929, -0.6694461703300476, -0.001895337481983006, -0.005834405310451984, -0.08201716840267181, -0.1446162909269333,
0.0016905919183045626, 0.11010956764221191, 1.4736368656158447, 0.1141284853219986, 0.12698842585086823, 0.4852282404899597, -0.14850538969039917, -2.0139920711517334, -0.7208796739578247, -0.08151422441005707, -0.04700963571667671, -0.10088295489549637, 0.3683220446109772, -0.7600682973861694, 1.1952296495437622, -0.5298081636428833, 0.030646368861198425, -0.021901631727814674, -0.18821509182453156, -0.21978618204593658,
0.2641197144985199, -0.3341723382472992, -1.2130235433578491, -0.1804507076740265, 0.5327821969985962, -1.272294521331787, 0.7864097952842712, -0.02828221023082733, -0.04448895528912544, -0.2196994572877884, 0.09947274625301361, -0.1906430572271347, -0.9083484411239624, 1.0742475986480713, 0.5908533930778503, -0.7466704845428467, -0.023962154984474182, -0.2925848960876465, 0.12294018268585205, -0.34290364384651184,
0.5711337924003601, -0.06482624262571335, 2.1599552631378174, 0.010892696678638458, -0.20752263069152832, 0.43707603216171265, -0.36349618434906006, 1.5946451425552368, 1.0657191276550293, 0.069005586206913, 0.15847212076187134, 0.2388416975736618, -1.0208412408828735, 0.6232679486274719, -0.1909411996603012, 1.4379926919937134, -0.2040872722864151, 0.05956443399190903, 0.007101469673216343, -0.37160322070121765,
-0.10282537341117859, 0.9975335001945496, 0.28157973289489746, -0.03914131969213486, 0.22623175382614136, -0.2528076767921448, -0.1175229549407959, -1.326654076576233, 0.9456983804702759, 0.20157794654369354, -0.5982921719551086, 0.16798798739910126, 0.6524695754051208, -1.214818000793457, 0.7476107478141785, -0.2094966322183609, 0.06725894659757614, -0.18823720514774323, 0.29509422183036804, -0.033882495015859604,
-0.001279724296182394, -1.6068423986434937, -0.8098450303077698, 0.2320510447025299, -0.35804277658462524, -0.13620981574058533, -0.8567532896995544, -1.6910994052886963, -0.34789255261421204, -0.062297675758600235, -0.11072205007076263, 0.5285773873329163, 0.4844377040863037, -0.1922960728406906, -0.47486990690231323, -1.00180184841156, 0.08084432780742645, 0.19184672832489014, 0.27095091342926025, -0.14540216326713562,
0.12327111512422562, 0.35066601634025574, 0.48783472180366516, -0.22687649726867676, -0.24541456997394562, -0.42165040969848633, -0.18823431432247162, 0.7671746611595154, -0.05560450628399849, 0.05222531780600548, -0.016663827002048492, 0.11055947095155716, 0.4051998257637024, 1.739071011543274, -0.9233207106590271, -1.9295165538787842, -0.14521799981594086, -0.2782510221004486, 0.16831479966640472, -0.5847160816192627,
-0.24008168280124664, 0.7160381078720093, 1.1098823547363281, -0.02287459187209606, 0.07853589951992035, 0.20779559016227722, 1.4996392726898193, -0.5667628049850464, 1.2255955934524536, 0.1577937752008438, 0.1253439337015152, 0.3567352592945099, -1.2754998207092285, -0.3176009953022003, 0.07779127359390259, 1.616457223892212, 0.004829350858926773, 0.1809079349040985, 0.17244760692119598, -0.18066945672035217,
0.1564491093158722, 0.4950560927391052, 1.8123613595962524, -0.11511120945215225, 0.4669753909111023, 0.9606863260269165, -0.4339437782764435, -2.1906843185424805, 0.18550564348697662, 0.05443362146615982, -0.11436305940151215, -0.6241607666015625, -0.20634852349758148, 0.07302562892436981, -0.46488285064697266, -0.2305096834897995, -0.22904618084430695, -0.15790647268295288, 0.1467101275920868, -0.3123759627342224,
-0.23656296730041504, 1.4776679277420044, -1.1724350452423096, 0.2461182028055191, 0.1572405844926834, -0.7162067294120789, -0.5649341940879822, -0.273880273103714, -0.8064290285110474, 0.2843267023563385, -0.10211894661188126, 0.16718727350234985, 0.3461511731147766, -0.17320024967193604, 0.7130783796310425, 0.0029241912998259068, -0.5881083607673645, -0.7991508841514587, 0.1808481216430664, -0.3699316084384918,
0.9656330943107605, 0.12952014803886414, -0.1559862494468689, -0.4215863347053528, 0.294658362865448, 0.09130346775054932, 0.4174785912036896, 0.3672935664653778, -0.5104080438613892, 0.10669656097888947, 0.17146597802639008, -0.24615228176116943, 0.009485330432653427, 0.03402732312679291, 0.27572324872016907, 0.3010993003845215, -0.9474967122077942, -1.1935486793518066, -0.10672915726900101, -0.8483439087867737,
0.05627197027206421, 1.5700098276138306, -0.6194009780883789, 0.014165757223963737, 0.8676851987838745, -0.4130120277404785, 0.03680703416466713, -0.17210732400417328, -1.1961843967437744, 0.08172867447137833, -0.276897132396698, -0.09066569805145264, 0.9082511067390442, 0.7356473803520203, -0.1183289885520935, -0.29019561409950256, -0.7050919532775879, -0.25414299964904785, -0.23669447004795074, -0.3536633253097534,
0.0942046269774437, -0.13711164891719818, 0.8977920413017273, -0.0043446714989840984, 0.7078144550323486, 0.9504305720329285, -0.3071649670600891, 0.7952942252159119, 0.37008488178253174, 0.3870866894721985, 0.4294499456882477, -0.22598780691623688, -0.13210514187812805, 1.13279128074646, -1.766656517982483, -0.43949028849601746, -0.6427727341651917, -0.3623040020465851, 0.01275971345603466, -0.808168888092041,
0.6568163633346558, 0.5208195447921753, -0.22327353060245514, -0.7299751043319702, 0.714279055595398, 0.5411946177482605, 0.005423001945018768, 0.520100474357605, 0.25898244976997375, -0.5932838916778564, 0.49067923426628113, 0.4687451422214508, -0.28337010741233826, 0.3503911793231964, 0.320873886346817, -0.7118094563484192, -0.851653516292572, -0.6607822179794312, 0.11116424947977066, -0.7834201455116272,
-0.3768261969089508, 0.1441405862569809, 0.31909820437431335, -0.45579665899276733, -0.2957489490509033, 0.8067479133605957, 0.04090449586510658, -0.9717505574226379, -0.47315073013305664, -0.15472495555877686, -0.3474334478378296, -0.6601207256317139, 0.3413584530353546, -1.1060633659362793, -0.3585701584815979, -1.0958962440490723, -0.45226138830184937, 0.17170988023281097, 0.30460458993911743, 0.3448185920715332,
0.7350522875785828, 0.024275384843349457, 1.1289561986923218, -0.369949072599411, 0.6260446310043335, -0.7644550204277039, -0.564037024974823, 0.27111735939979553, -0.7632678747177124, -0.31250423192977905, 0.1208152174949646, 0.28123852610588074, 0.96939617395401, 1.6878138780593872, 0.6242973804473877, -0.7540469169616699, -0.5087010860443115, -0.6985587477684021, -0.1872374713420868, -0.8550593256950378,
0.11012452840805054, 1.2631269693374634, 1.56753408908844, 0.08073640614748001, 0.18079699575901031, 0.18278057873249054, 0.7321550846099854, 1.2556334733963013, -0.9232763648033142, 0.0020688672084361315, 0.04052995145320892, -0.3509967625141144, -1.1154905557632446, -0.16000577807426453, 0.28461864590644836, 1.2047679424285889, -0.4671155512332916, -0.556368350982666, -0.06152050942182541, -0.8744727373123169,
0.20918968319892883, -0.04583092778921127, -0.02611229009926319, -0.4115437865257263, 0.7339415550231934, -0.5077745318412781, -0.7330750823020935, -0.9706099629402161, -0.42250317335128784, 0.05815330892801285, -0.07107298821210861, 0.6606157422065735, -1.5159460306167603, 0.1441851258277893, -1.0584075450897217, -1.2441624402999878, -0.8621422648429871, -0.6362345814704895, -0.13868673145771027, -0.5061354637145996,
0.8541194200515747, -0.4502025842666626, 0.23867709934711456, -0.42222607135772705, -0.07247242331504822, -0.12138839811086655, -0.18575921654701233, 0.29892846941947937, 0.028730755671858788, -0.46553823351860046, 0.6167815327644348, -1.008272647857666, -0.6006577610969543, -0.7276006937026978, -0.5250954627990723, -0.04791702330112457, -0.5961768627166748, -0.6135350465774536, 0.1778389811515808, -0.6519401669502258,
0.0687471330165863, 0.2203240692615509, 0.4139661490917206, -0.090826615691185, 0.08327721804380417, -0.02238108031451702, -0.4159504771232605, -1.3404300212860107, 1.092928171157837, -0.29122310876846313, -0.36353936791419983, 0.32234641909599304, 1.1420702934265137, -0.14255376160144806, 0.14083506166934967, -1.3347314596176147, -0.24234291911125183, -0.1713894009590149, -0.07589749246835709, -0.41808998584747314,
0.0983869880437851, -0.7465405464172363, 1.885606288909912, -0.0755128487944603, -0.34722191095352173, 0.8401529788970947, -0.22349826991558075, 1.0400657653808594, 0.7700732350349426, 0.033441487699747086, 0.11768677830696106, -0.09677645564079285, -0.7461919188499451, 0.8545430302619934, -0.8419200778007507, -0.13526903092861176, -0.0343027263879776, 0.14199985563755035, -0.2785772681236267, 0.34508052468299866,
-0.15810948610305786, 0.35236719250679016, -1.694202184677124, -0.0016580915544182062, 0.07994015514850616, -0.15839122235774994, -1.240679144859314, 0.10156789422035217, 0.8004469275474548, -0.14908140897750854, -0.1464184820652008, 0.017304763197898865, 0.9668075442314148, 0.181929349899292, 0.8023682236671448, -1.2054518461227417, 0.633901834487915, 0.40455156564712524, 0.1699230819940567, 0.4017240107059479,
-0.2096472829580307, 0.9664282202720642, 0.3920084238052368, -0.01951855979859829, 0.0767609030008316, 0.08250806480646133, -0.8330705761909485, 0.44758933782577515, 0.7937307953834534, -0.24033711850643158, -0.1629866659641266, -0.13809369504451752, 1.922383189201355, 0.9327954649925232, 0.5042873024940491, -0.7962028980255127, -0.09343530237674713, -0.43480968475341797, 0.050006769597530365, -0.2355155199766159,
0.4117099940776825, -0.7145227193832397, 1.1448580026626587, 0.18897971510887146, -0.17589135468006134, 0.26876240968704224, 1.0352939367294312, 0.9863634705543518, -1.4998961687088013, 0.13613320887088776, -0.04861804470419884, -0.08231189101934433, -1.0162163972854614, -0.9418773055076599, 0.8714649677276611, 0.14970269799232483, -0.6910600662231445, -0.6600871086120605, 0.19077038764953613, -0.5560398697853088,
0.11049415171146393, -0.9562856554985046, -1.4892549514770508, 0.07533781230449677, -0.09617017954587936, -0.2715674042701721, 0.07195821404457092, -0.9323835372924805, -1.6375880241394043, -0.07846447825431824, -0.142795592546463, 0.17090855538845062, 0.5786471366882324, -0.6537151336669922, 0.7271885275840759, -1.081667423248291, -0.02941628359258175, -0.043403223156929016, -0.23754273355007172, -0.30273979902267456,
1.5954949855804443, -0.3626881539821625, -0.18580561876296997, 0.4215608835220337, 0.2912437915802002, -0.2147810310125351, 0.021341687068343163, -0.4747640788555145, -0.9602165222167969, 0.007980933412909508, -0.10886292159557343, 0.17182165384292603, 0.021124303340911865, -0.5677986741065979, -0.22009843587875366, -0.36536574363708496, -0.5383919477462769, -0.3316635489463806, 0.18180616199970245, -0.0686996579170227,
0.2704463303089142, -1.3641444444656372, -0.054395753890275955, 0.23301605880260468, -0.26044803857803345, 0.04950498044490814, -0.8580336570739746, -1.785014033317566, -0.9854577779769897, -0.07583295553922653, -0.1362611949443817, -0.03524673357605934, 0.6860827803611755, -0.637570858001709, -0.6553824543952942, -0.41260722279548645, -0.3113463521003723, -0.04920122027397156, 0.06916274130344391, -0.011319559998810291,
5.411449456005357e-05, 0.3908272683620453, -0.5018949508666992, -0.12961186468601227, 0.08504115045070648, -0.12968184053897858, -0.42811477184295654, 1.0841577053070068, 0.36589133739471436, -0.03316321223974228, 0.005582298617810011, -0.49932655692100525, -0.08417321741580963, 1.4537322521209717, -0.8676539659500122, 0.49764174222946167, 0.8127069473266602, 0.42423081398010254, 0.17188532650470734, 0.39490413665771484,
0.2599939703941345, 0.6156705617904663, 0.19074542820453644, -0.2484680414199829, 0.2656202018260956, 1.0714763402938843, 0.08721629530191422, 0.7388607859611511, 0.9712679386138916, 0.011307777836918831, 0.14596350491046906, -0.10306037217378616, 0.01450461894273758, -0.1893385499715805, -0.6838933229446411, -0.4022722840309143, -1.0389642715454102, -0.9623709917068481, -0.22519932687282562, -0.7532152533531189,
0.6952153444290161, -0.44013598561286926, 0.8203877806663513, 0.26584798097610474, -0.017606094479560852, -0.22677265107631683, 1.1859159469604492, 0.6018691062927246, -0.11259721964597702, 0.019468940794467926, -0.06149189919233322, -0.020452585071325302, -0.552700400352478, -0.562598466873169, 0.13412922620773315, -0.12065229564905167, -0.7932255864143372, -0.5986318588256836, 0.0986802875995636, -0.9371971487998962,
0.7754786610603333, -0.8218926191329956, 1.1702027320861816, 0.16455985605716705, -0.07795993983745575, 0.7197563052177429, 0.9353158473968506, -0.9195177555084229, 0.5130521059036255, 0.18669474124908447, -0.0712839663028717, 0.0730619728565216, 0.08278652280569077, -0.8743802309036255, 0.22754089534282684, 1.1229281425476074, -0.5240491032600403, -0.2631763517856598, -0.1812673807144165, -0.40844565629959106,
-0.07915809005498886, 1.1910302639007568, 0.32167741656303406, -0.010374684818089008, 0.1077185571193695, 0.43175971508026123, -0.5532751679420471, -0.6175501942634583, 1.5012868642807007, -0.03951184079051018, 0.16419272124767303, 0.39074933528900146, 1.376936674118042, -0.4044199287891388, -0.09339193999767303, 0.9035159945487976, 0.04702106863260269, 0.07861100137233734, 0.0004056710167787969, 0.3939266800880432,
0.3003978729248047, 0.5477659106254578, 1.9765559434890747, -0.3034643530845642, -0.04816156253218651, -0.975412130355835, 0.17844903469085693, -0.7800894975662231, -0.20423699915409088, 0.4167052209377289, -0.3722244203090668, 0.4619086980819702, 0.6030460596084595, 0.4238852560520172, 0.03650479391217232, -0.3844905495643616, -0.25465482473373413, -0.6022297739982605, 0.34122222661972046, -0.37322574853897095,
-0.16026483476161957, 0.5542042851448059, -1.0318095684051514, -0.15485648810863495, 0.38884490728378296, 0.13416354358196259, 1.4750713109970093, -0.46780797839164734, 1.1771376132965088, 0.14156818389892578, -0.13500288128852844, -0.3915897309780121, -0.2202150523662567, -0.8547667264938354, 0.6387441158294678, -0.3391733467578888, 0.23222985863685608, -0.007635644171386957, 0.007238839752972126, 0.21465300023555756,
0.2738516330718994, -1.4209721088409424, 0.43688639998435974, -0.36426761746406555, -0.26551127433776855, -1.3817185163497925, -0.25622379779815674, 0.04544537886977196, -0.1569259613752365, -0.2204299420118332, -0.5405565500259399, 1.0308003425598145, -0.05138769745826721, 0.16696710884571075, 0.4484868049621582, -0.1645839363336563, -1.0942440032958984, -0.3888912796974182, 0.1698954552412033, -0.7499203681945801,
0.33157527446746826, -0.5415374040603638, -0.6911567449569702, -0.47696906328201294, 0.14974412322044373, 0.5988633036613464, -0.21674783527851105, 0.972673237323761, -0.15935173630714417, 0.5627610683441162, -0.08317196369171143, -0.9372639656066895, 0.5970349907875061, -0.5034343600273132, 0.5884759426116943, 0.5973044633865356, -0.6292154788970947, -0.4600811004638672, 0.21074391901493073, -0.6138073205947876,
0.7544311285018921, -1.5560463666915894, 0.3912763297557831, -0.025892045348882675, -0.20827743411064148, 0.6505533456802368, -0.1825641691684723, -0.3950798809528351, 0.35176339745521545, 0.24495986104011536, -0.4836675822734833, -0.20384255051612854, 0.7192109823226929, -0.36632081866264343, 0.10348476469516754, -2.055631637573242, -0.5121317505836487, -0.36227259039878845, -0.12174414843320847, -0.16851723194122314,
-0.5486425161361694, -0.3124988377094269, -0.3508400321006775, 0.12271502614021301, 0.11573740839958191, 1.1370965242385864, 0.5861330032348633, 0.38740476965904236, 0.23660564422607422, 0.29964154958724976, -0.5064958333969116, -0.5739040970802307, -0.7060958743095398, -1.1468356847763062, 1.018454670906067, 0.8044980764389038, -0.4534268081188202, -0.8102746605873108, 0.10224772244691849, -0.3284275531768799
};

const float biases_fc1[] = {
0.03227420151233673, -0.06527591496706009, 0.16173450648784637, -0.10610580444335938, -0.6868333220481873, -0.2967730164527893, -0.381689190864563, -0.027106331661343575, 0.24218404293060303, -0.4130379855632782, -0.8353187441825867, 0.006593598984181881, -0.8490123748779297, -0.5093230605125427, -0.453787237405777, -0.4377205967903137, -0.18153642117977142, -0.18738782405853271, -0.10544493794441223, -0.7770677208900452, -0.08990181982517242, -0.15869812667369843, -0.30479809641838074, -0.19319310784339905, -0.3776842951774597, -0.12907041609287262, -0.10386784374713898, -0.07436928898096085, -0.2474668174982071, -0.1849324107170105, 0.1690966933965683, 0.018648093566298485, -0.4238048791885376, 0.013265632092952728, -0.24032852053642273, -0.587483823299408, -0.7867403030395508, -0.4549289345741272, -0.5130199193954468, -0.7876107692718506, -0.04933379590511322, -0.5557883977890015, -0.5963740348815918, -0.5393520593643188, -0.6512413024902344, -0.29647621512413025, 0.10916925221681595, 0.26224425435066223, -0.10212147235870361, -0.351755827665329, -0.11390763521194458, -0.2745993435382843, -0.131502166390419, 0.3386368155479431, -0.8459666967391968, -0.4708385467529297, -0.30212870240211487, 0.1383363902568817, -0.2914092242717743, 0.19502732157707214, -0.7665418386459351, -0.47958123683929443, -0.26187244057655334, -0.5210502743721008
};

const float weights_fc2[] = {
-0.3621165156364441, -0.13797008991241455, -0.4411064386367798, -0.711021900177002, 0.03056180104613304, -0.22115056216716766, 0.27041319012641907, 0.31997862458229065, -0.05594528093934059, -0.22513948380947113, 0.014962499029934406, 0.014473235234618187, 0.1946677267551422, -0.029095333069562912, -0.3569038510322571, -0.2701214551925659, -0.017027169466018677, 0.08065950870513916, -0.17519865930080414, -0.672632098197937, -0.42175912857055664, -0.22884492576122284, -0.12561964988708496, -0.4368056058883667, 0.11938071250915527, -0.3897254168987274, -0.26688674092292786, -0.3102591037750244, 0.058974020183086395, -0.5412325263023376, -0.006234940607100725, -0.2012367695569992, -0.028940273448824883, -0.6160255074501038, -0.2548375427722931, -0.18245650827884674, 0.15385307371616364, 0.08423455059528351, 0.2248450368642807, -0.15908542275428772, 0.23516161739826202, -0.5907242894172668, -0.004089380614459515, 0.27004531025886536, 0.029862573370337486, -0.20165173709392548, 0.06525629013776779, -0.3359003961086273, 0.027073778212070465, -0.5368146896362305, -0.06682022660970688, 0.012401174753904343, -0.016583479940891266, -0.5099496245384216, 0.10781384259462357, -0.49902501702308655, 0.1426965594291687, -0.31196004152297974, -0.3215581476688385, -0.5428911447525024, -0.5035231709480286, 0.020324958488345146, 0.05396244302392006, -0.4193476438522339,
-0.7770064473152161, 0.15120850503444672, -0.005168751813471317, -0.30014246702194214, -0.010579995810985565, -0.9039129018783569, 0.2321522980928421, -0.9459174871444702, 0.2349611520767212, 0.5336347818374634, -0.4959692060947418, 0.12135116755962372, -0.28253403306007385, 0.15725597739219666, -0.5124466419219971, -0.13867197930812836, 0.39710891246795654, -0.22369180619716644, -0.30128875374794006, 0.03080892376601696, 0.2641443908214569, 0.040292080491781235, -0.4647819995880127, 0.5472261309623718, 0.11836117506027222, 0.3191734552383423, -0.14703775942325592, -0.037114039063453674, -0.44176751375198364, 0.08112114667892456, 0.0976080596446991, -0.5473355650901794, -0.21336093544960022, 0.29154154658317566, -0.14773918688297272, 0.1362786442041397, -0.4563924968242645, 0.12159236520528793, -0.19788071513175964, -0.6956650018692017, -0.10586390644311905, -0.7085497379302979, -0.3746340274810791, -0.5129023194313049, 0.6988899111747742, -0.7200931310653687, 0.339112788438797, -0.14697033166885376, -0.42025667428970337, -0.10739642381668091, -0.35339486598968506, -0.9471157193183899, -0.9781680107116699, -0.11402254551649094, -0.1437874585390091, -0.19804614782333374, 0.39487823843955994, -0.1442481130361557, 0.29349178075790405, 0.5258198380470276, -1.8865065574645996, 0.7313786149024963, 0.12985460460186005, 0.6135596036911011,
0.2730480134487152, 0.1783318817615509, 0.19700050354003906, 0.32449743151664734, -0.6889522671699524, -0.4230964481830597, 0.6605499982833862, 0.006142687052488327, -0.2196142077445984, -0.23144221305847168, -0.10348247736692429, -0.07298160344362259, 0.16221930086612701, -0.4779968559741974, 0.10974376648664474, -0.495785117149353, 0.3598450720310211, 0.13927145302295685, 0.21031184494495392, -0.4376991093158722, 0.6535060405731201, -0.1650153398513794, 0.05979465693235397, 0.2552381157875061, -0.8806814551353455, -0.634113073348999, -0.12931813299655914, -0.7101449370384216, 0.05370736122131348, -0.3062247335910797, 0.006114782765507698, -0.731120228767395, 0.3197258412837982, -0.4238720238208771, 0.13183367252349854, -0.5210252404212952, -0.6055331230163574, 0.05959080159664154, 0.9147722721099854, -0.6847600340843201, -0.34187644720077515, -0.2663443982601166, -0.581000566482544, 0.0905391126871109, 0.35233017802238464, 0.4700327217578888, -0.051205456256866455, 0.4032260477542877, 0.7123359441757202, -0.23820093274116516, 0.38001248240470886, 0.5446345806121826, -0.4439637362957001, -0.384878009557724, 0.3040089011192322, -0.7873193621635437, -0.10843157768249512, 0.4123012125492096, 0.34513261914253235, 0.2850332260131836, 0.3727049231529236, -0.4796603322029114, 0.5475093722343445, -0.3570762574672699,
0.041296690702438354, 0.13001951575279236, 0.4496329426765442, 0.00022055073350202292, -0.4971575140953064, 0.3052727282047272, -0.7254263758659363, 0.3661493957042694, 0.08704952150583267, -0.3448409140110016, 0.5629157423973083, 0.10155172646045685, -0.332752525806427, -0.5790144801139832, -0.3053114116191864, 0.07219001650810242, -0.07832835614681244, 0.4178343117237091, -0.7127477526664734, -0.7132404446601868, -0.5257261991500854, -0.42128750681877136, 0.36160004138946533, -0.31509023904800415, -1.080676555633545, 0.5560560822486877, 0.43687525391578674, -0.8809148073196411, -0.2599829435348511, -0.42570292949676514, -0.7852208018302917, -1.0599857568740845, 0.3322876989841461, -0.963940441608429, -0.3731060326099396, -1.1115061044692993, -0.4527803063392639, -0.2730560898780823, -0.8508957624435425, -0.08492270112037659, -0.3971259593963623, -0.17267049849033356, 0.255292147397995, -0.8365459442138672, 0.006593775469809771, -0.235702246427536, -0.2934332489967346, -0.820044219493866, -0.13069051504135132, -0.1343589425086975, -0.5583124160766602, -0.8290108442306519, -0.5744374394416809, 0.24157112836837769, -0.392061322927475, -0.20737160742282867, -1.2876821756362915, -0.5442724823951721, -0.8316497206687927, -0.34842056035995483, 0.03958902880549431, -0.8060139417648315, 0.033696576952934265, -1.027613639831543,
-0.7644626498222351, -0.159605473279953, -0.2597079277038574, -0.4821230471134186, 0.1637084037065506, -0.5084876418113708, 0.2074197381734848, -0.26507189869880676, -0.34209370613098145, -0.5585787296295166, 0.2756594717502594, -0.6668516993522644, -0.3911258578300476, 0.14754442870616913, -0.11646164953708649, -0.39711305499076843, -0.8009912371635437, -0.6303088068962097, -0.017253713682293892, -0.29354172945022583, 0.21368379890918732, -0.48416247963905334, 0.3218684792518616, -0.7122824788093567, 0.3293634355068207, -0.15512263774871826, -0.4598653316497803, 0.16238172352313995, 0.10629961639642715, -0.031112004071474075, -0.4717768430709839, -0.18869414925575256, -0.034120701253414154, -0.0896686464548111, -0.4776129722595215, -0.7594810128211975, 0.5227184891700745, -0.2700164318084717, -0.5332226753234863, 0.2945825755596161, -0.1191328689455986, 0.026329439133405685, -0.9721807241439819, 0.5250459313392639, 0.031164849177002907, -0.36917272210121155, -0.03515051677823067, -0.40702536702156067, -0.5018457770347595, -0.9117816090583801, -0.02342756651341915, -0.5190365314483643, 0.054770246148109436, -0.6118963360786438, -0.4847164452075958, -0.2515549063682556, -0.009980368427932262, -0.6574404835700989, 0.067936472594738, -0.23119911551475525, 0.1843290776014328, -0.49700915813446045, -0.3641723394393921, -0.13182121515274048,
0.7472797632217407, 0.14890657365322113, 0.4646991491317749, -0.836431086063385, 0.13473646342754364, 0.03474521264433861, -0.37383580207824707, -0.28271788358688354, 0.33738797903060913, 0.19992870092391968, 0.13212792575359344, 0.4114384055137634, 0.24698320031166077, -0.2283921241760254, -0.6985615491867065, -0.15700283646583557, 0.322983980178833, -0.5100948214530945, -0.49883466958999634, 0.014989810064435005, -0.6806271076202393, -1.1980619430541992, 0.4200499951839447, -1.5631120204925537, -0.25364160537719727, -0.16912215948104858, -0.38227084279060364, -0.41086193919181824, 0.28876450657844543, -0.2868605852127075, -0.6107274293899536, -0.7457408905029297, 0.5653172731399536, -0.09801370650529861, -0.19141064584255219, -0.20092523097991943, -0.1355781853199005, 0.12652260065078735, -0.6643010377883911, -0.21210502088069916, -0.15697617828845978, -0.11260788142681122, -0.562845766544342, 0.6646901965141296, -0.5544235110282898, -0.06893601268529892, 0.6522196531295776, -0.7310876250267029, -0.36739015579223633, -1.1785151958465576, -0.3756253719329834, -1.3153133392333984, -1.117533802986145, 0.1656695157289505, -0.3411921262741089, -0.0035089163575321436, -0.7216406464576721, -0.11995840817689896, -0.22542458772659302, -0.07039683312177658, 0.05541275441646576, -0.16204023361206055, -0.8808140754699707, -0.4943140149116516,
0.18060047924518585, -0.13718879222869873, 0.0009213004377670586, -0.14132274687290192, 0.11009923368692398, -0.3028331696987152, -0.5167118310928345, 0.15466444194316864, -0.6753301024436951, -1.1135334968566895, 0.05455169454216957, 0.045638930052518845, -0.3439359664916992, 0.07957429438829422, 0.11200021207332611, -0.3358877897262573, -0.14802376925945282, 0.030027927830815315, -0.5004639625549316, -0.17016613483428955, -0.24946404993534088, -0.5271853804588318, -0.5832115411758423, 0.08302836865186691, -0.4150540232658386, 0.08927277475595474, -0.8214614987373352, -0.030158109962940216, -0.2882712781429291, -0.3965756595134735, -0.09908264130353928, 0.0692465677857399, -0.5923058390617371, 0.07300382852554321, -0.15915696322917938, 0.40732720494270325, -0.13728748261928558, -0.25693729519844055, 0.024151982739567757, -0.42692285776138306, 0.20080454647541046, -0.11072338372468948, -0.27681630849838257, -0.03188587725162506, -0.2174067497253418, -0.3895736336708069, 0.20749300718307495, -0.9245016574859619, 0.04004044830799103, -0.7042661309242249, -0.357278436422348, -0.22482414543628693, -0.013716851361095905, -0.3059549927711487, 0.34896814823150635, -0.3152870535850525, 0.05211420729756355, 0.022972149774432182, 0.5058916807174683, 0.01972954161465168, -0.03268015384674072, -0.028787599876523018, -0.31354495882987976, -0.2418254315853119,
-0.13650375604629517, -0.2784617245197296, 0.2673801779747009, -0.1570330262184143, -0.1302194446325302, 0.11995238810777664, 0.4724924564361572, 0.47687840461730957, -0.27719658613204956, 0.20002150535583496, 0.25048744678497314, -0.04949217662215233, -0.3207572102546692, -0.4569317102432251, -0.22031241655349731, -0.5970104336738586, 0.2584339678287506, -0.3827804923057556, 0.20827457308769226, -0.021811271086335182, -0.5695623159408569, -0.0831005871295929, -0.5270755290985107, -0.1758178025484085, 0.3729955852031708, -0.6815849542617798, -0.5143885612487793, -0.5719285011291504, -0.05098197981715202, 0.12208127230405807, -0.512241780757904, 0.08250253647565842, -0.6150462031364441, -0.10100363940000534, -0.1639428436756134, -7.50539475120604e-05, -0.0008950631017796695, -0.1563020795583725, -0.22190719842910767, -0.028373992070555687, -0.7504349946975708, 0.129557803273201, -0.4445866644382477, -0.27111077308654785, -0.5972017645835876, -0.30654919147491455, -0.4185279309749603, -0.5037111043930054, -0.6430187821388245, -0.054381757974624634, -0.21347402036190033, -0.1977590024471283, -0.31380966305732727, -0.7944231033325195, -0.27303576469421387, 0.09457025676965714, 0.21053458750247955, 0.142230823636055, -0.1735764890909195, -0.4770388603210449, -0.047511033713817596, -0.006703689694404602, 0.09785798192024231, -0.5121841430664062,
-0.3050769865512848, 0.7233825922012329, 0.01764463633298874, 0.011141164228320122, -0.40667667984962463, -0.4985046088695526, 0.19972559809684753, 0.39455464482307434, -0.25920477509498596, 0.7041685581207275, -0.18145789206027985, -1.142971396446228, -0.4139324426651001, 0.004647897556424141, 0.21773917973041534, -0.6792756915092468, 0.09795720875263214, -0.34208983182907104, -0.7517014741897583, -0.2635972797870636, 0.48861369490623474, -0.9496830701828003, -0.6189929842948914, 0.36921820044517517, -1.0391162633895874, -0.06384067982435226, 0.4522749185562134, 0.3949063718318939, -1.026637077331543, -1.4026411771774292, -0.011306731030344963, -0.4740930199623108, -0.520905077457428, -0.4885612726211548, -0.3822935223579407, -0.28221550583839417, -0.11374400556087494, -0.6975913047790527, -0.052556999027729034, 0.1906295269727707, 0.03640183433890343, 0.12303593009710312, -0.6687350273132324, -0.49158287048339844, 0.0916585698723793, -0.4950718581676483, -0.15591435134410858, -0.21183282136917114, -1.1822640895843506, -0.25392282009124756, 0.3479158878326416, -0.8922303915023804, -0.06526577472686768, -0.049880050122737885, -0.3822135329246521, -0.634822428226471, 0.23451699316501617, -1.5758386850357056, -0.008853972889482975, -0.539069652557373, -0.5856168866157532, 0.07387900352478027, -1.0529234409332275, -0.41823750734329224,
-0.3319411873817444, -0.42941051721572876, -0.1703614741563797, 0.31861045956611633, -0.22355040907859802, -0.6999242901802063, -0.1571822166442871, -0.6805802583694458, -0.8917614817619324, 0.01250393781810999, -0.8848652839660645, -0.3960559070110321, -0.3020543158054352, -0.08715243637561798, -0.0817076563835144, -0.5191172957420349, -0.631972074508667, -0.8964950442314148, 0.09786612540483475, 0.24882806837558746, 0.3639315068721771, -0.5690068602561951, -0.8137297630310059, -0.20338967442512512, 0.2570357620716095, -0.799250066280365, -1.0746188163757324, -0.5212324857711792, -0.0987539291381836, -0.7138547301292419, 0.25552085041999817, -0.5829153060913086, 0.6463487148284912, -0.6448120474815369, -0.28389105200767517, -0.13983134925365448, 0.3449084162712097, 0.11656908690929413, -0.44320225715637207, -0.22764115035533905, -0.3703298270702362, 0.38628605008125305, -1.0837434530258179, 0.020229173824191093, -0.6684091687202454, 0.10023649036884308, -0.48577895760536194, -0.18523618578910828, 0.22955617308616638, -0.17743298411369324, 0.5471157431602478, -0.23500138521194458, -0.5903393030166626, -0.5158640146255493, -0.17003828287124634, 0.3065476715564728, 0.05536452308297157, 0.14744089543819427, -0.3766138553619385, -0.19644947350025177, 0.4045955538749695, -0.948025107383728, -0.07038941234350204, -0.9554056525230408,
-0.3721020221710205, -0.4709732234477997, -0.26235806941986084, 0.5183460116386414, -0.4372393488883972, -0.6163551211357117, 0.44656944274902344, -0.06223456934094429, -0.8844261169433594, -0.5789938569068909, -0.33684220910072327, -0.1847284585237503, -1.0841264724731445, -0.32763394713401794, -0.716170072555542, -0.34662264585494995, -0.8331237435340881, -0.08221206068992615, 0.3434896171092987, -0.09596236050128937, -0.9611710906028748, -0.4980092942714691, -0.09593349695205688, -0.4986903965473175, 0.05491039156913757, -0.375172883272171, -0.33184579014778137, -0.09978857636451721, 0.2644696533679962, 0.17449060082435608, 0.10605677217245102, -1.432099461555481, -0.038117457181215286, -0.09809744358062744, 0.1832583248615265, -0.14172931015491486, -0.4482715427875519, 0.18986952304840088, -0.25470635294914246, -0.6349494457244873, -0.5915813446044922, -0.8274921178817749, -0.4172826409339905, 0.17585499584674835, -0.5406417846679688, -0.024056823924183846, -0.641065776348114, -0.24026906490325928, 0.11534841358661652, -0.5933202505111694, -0.17237570881843567, 0.5380011796951294, 0.13115961849689484, -0.15175674855709076, -0.6513439416885376, -1.1638497114181519, 0.15547674894332886, -0.7844282984733582, -0.017951644957065582, -0.5064057111740112, -0.17087113857269287, -0.1524195522069931, -0.3839169442653656, -0.5512624382972717,
-0.7515392899513245, -0.17028366029262543, -0.8567918539047241, -0.2423018366098404, -0.24123717844486237, -0.558318555355072, 0.19154757261276245, -0.15340907871723175, -0.2405843883752823, -0.34037166833877563, -0.03533092886209488, -0.20419436693191528, 0.17211630940437317, 0.10380320250988007, 0.07428323477506638, -0.29323679208755493, 0.09476710855960846, -0.24867646396160126, -0.29221105575561523, 0.2623414993286133, 0.09613088518381119, -0.8207654356956482, -0.8823556900024414, 0.06940151751041412, -0.22242288291454315, -0.20979543030261993, -0.4006234407424927, -0.04315716400742531, -0.4073249399662018, -0.3980293273925781, 0.057133857160806656, -0.6934973001480103, 0.04058929905295372, 0.14062023162841797, -0.1763337403535843, -0.004419017117470503, 0.0011886018328368664, -0.19839335978031158, -0.5511898398399353, -0.18039363622665405, -0.2207765132188797, -0.4435189664363861, -0.25423941016197205, 0.16695377230644226, -0.41028401255607605, 0.14837689697742462, -0.37586379051208496, -0.408006876707077, -0.6115553975105286, -0.29596981406211853, -0.3423844277858734, -0.4102928042411804, -0.07718223333358765, -0.8054723739624023, -0.268246054649353, -0.23740831017494202, 0.4246986508369446, -0.06798035651445389, -0.3896175026893616, -0.0885792002081871, -0.3795408606529236, -0.47193434834480286, -0.035969723016023636, 0.006949930917471647,
-0.3467901945114136, 0.7526866793632507, -0.15750467777252197, -0.25826582312583923, -0.11283959448337555, 0.060559067875146866, -0.18992279469966888, 0.4951019883155823, 0.02513415366411209, -0.09268221259117126, -0.05979030206799507, -0.408223420381546, -0.5767463445663452, 0.747789204120636, 0.24021916091442108, 0.21960246562957764, -0.20240026712417603, -0.4433688521385193, -0.3159853518009186, -0.2759672701358795, 0.06453531235456467, -0.5037210583686829, 0.3614753782749176, -0.1490997076034546, -1.170470952987671, 0.5859377384185791, -0.6500939130783081, -1.0028904676437378, -0.14686153829097748, -0.8683011531829834, 0.15063737332820892, -0.39737191796302795, 0.024272335693240166, -0.1499536782503128, -0.6572771072387695, -0.7893555760383606, 0.12268292903900146, 0.05292616784572601, -1.559714913368225, -0.03967779129743576, 0.07426732033491135, 0.5573248267173767, -0.6696086525917053, 1.0838156938552856, -0.7446274161338806, 0.6861480474472046, -0.6258820295333862, -0.9888962507247925, 0.23003089427947998, 0.4516798257827759, 0.5696947574615479, -0.29695191979408264, -0.8344257473945618, -0.1807127445936203, 0.0454912967979908, -1.8436431884765625, 0.11055690795183182, -1.1381815671920776, 0.28128936886787415, -0.47321251034736633, 0.38216450810432434, -0.08982133865356445, 0.3559153079986572, 0.540553867816925,
-0.2044530212879181, -0.0786522850394249, -0.44336286187171936, -0.4934972822666168, -0.24822673201560974, -0.037355806678533554, 0.014459286816418171, -0.04853067919611931, -0.6160387396812439, -0.2994309663772583, -0.42624765634536743, 0.10375035554170609, -0.1828155219554901, 0.44223397970199585, -0.008411449380218983, 0.24879303574562073, -0.4433843493461609, -0.11813884973526001, 0.010646890848875046, -0.021289611235260963, -0.39521679282188416, -0.4697546362876892, -0.12395995110273361, 0.0514276959002018, -0.6398036479949951, -0.3611465394496918, 0.19642215967178345, -0.4821588099002838, -0.395099401473999, -0.46547597646713257, -0.12203622609376907, -0.09911502152681351, 0.12108326703310013, -0.2510818541049957, 0.11778226494789124, -0.015615100972354412, -0.08323035389184952, -0.4177214205265045, 0.1580352783203125, -0.23088380694389343, -0.5932789444923401, -0.2756219506263733, -0.26897314190864563, -0.1768755167722702, -0.10953608900308609, -0.19037552177906036, -0.21960321068763733, -0.12783282995224, 0.052221786230802536, -0.46533140540122986, -0.04463924467563629, -0.12801490724086761, 0.19212602078914642, -0.35430774092674255, -0.6138333082199097, -0.586563229560852, -0.2913967967033386, -0.13533253967761993, -0.17451277375221252, -0.05291010066866875, -0.019108355045318604, 0.16109108924865723, 0.045923419296741486, -0.5594610571861267,
0.03735610470175743, -0.07404617220163345, -0.5263864398002625, -0.2629900276660919, -0.16787800192832947, -0.7982231974601746, -0.144586443901062, 0.4929293096065521, -0.44662076234817505, -0.13318918645381927, 0.05705780163407326, 0.1320883333683014, 0.24813635647296906, 0.20500005781650543, 0.470524400472641, -0.02480415068566799, -0.10094678401947021, 0.3016085922718048, -0.5022470355033875, -0.41462716460227966, -0.31797927618026733, -0.9358257055282593, -0.10368330031633377, 0.05772222578525543, -0.5229033827781677, 0.006965826731175184, -0.08477684110403061, -0.22961865365505219, -0.5757028460502625, -0.5055588483810425, -1.0445834398269653, -0.07115132361650467, 0.07535691559314728, -0.07618533819913864, 0.30761054158210754, 0.1578597128391266, 0.22949250042438507, -0.6466175317764282, 0.0840708464384079, 0.05733979493379593, -0.5907437801361084, -0.43505045771598816, 0.35612723231315613, -0.7830069661140442, -0.009812440723180771, -0.6828457713127136, -0.4579373300075531, -0.7174762487411499, -0.5093698501586914, -0.07982496917247772, -0.02144044078886509, -0.8958500623703003, -0.4300285279750824, -1.6812528371810913, -0.8037047982215881, -0.909112811088562, -0.3022507131099701, 0.29668641090393066, -0.10134458541870117, -0.6805273294448853, -0.6794232130050659, 0.0015500910812988877, -0.8597169518470764, -0.4957718849182129,
-0.029305584728717804, 0.30283406376838684, 0.3700930178165436, -0.10525812208652496, -0.05427497252821922, -0.1986590325832367, -0.12949199974536896, -0.5141794681549072, 0.3881043791770935, 0.24644950032234192, 0.11821039021015167, -0.08115833252668381, 0.11982433497905731, 0.2256217747926712, -0.6440793871879578, 0.21073618531227112, -0.16692286729812622, -0.4087289273738861, 0.30007049441337585, -0.3094976544380188, -0.5206599831581116, -0.37334364652633667, -0.01061983685940504, -0.6232389807701111, 0.155223086476326, 0.4238552153110504, -0.26938146352767944, -0.23154014348983765, -0.48038509488105774, -1.01805579662323, -0.2801726460456848, -0.5249343514442444, -0.5812060236930847, -0.10173067450523376, -0.40312859416007996, -0.10436517745256424, -0.05539008229970932, -1.6899775266647339, -0.2290002405643463, -0.32460716366767883, 0.17108353972434998, -0.3223347067832947, -0.32315757870674133, -0.29577749967575073, -1.1615560054779053, -0.35782235860824585, -0.7151579856872559, -0.0858081579208374, -1.2539093494415283, -0.5158572793006897, -0.3732912242412567, -0.42633020877838135, -0.5794798135757446, 0.19364222884178162, -0.06476146727800369, -0.011789197102189064, -0.7534325122833252, 0.30274447798728943, -0.3772423267364502, -0.5745579600334167, 0.057495273649692535, 0.23138298094272614, 0.10430488735437393, -0.6188385486602783,
-0.30635368824005127, -0.06771973520517349, -0.29698941111564636, -0.6190469861030579, -0.6920034885406494, -0.28652018308639526, -0.13683933019638062, 0.37423548102378845, -0.25338125228881836, -0.5994607210159302, 0.14317592978477478, -0.3206677734851837, -0.34871503710746765, -0.411302387714386, 0.10770250856876373, 0.2524665594100952, -0.0741288885474205, -0.1268562227487564, 0.34241414070129395, 0.03504062443971634, -0.21201126277446747, -0.44863012433052063, -0.8298183083534241, -0.23758989572525024, 0.11874151229858398, -0.11210158467292786, -0.3717733919620514, -0.7958856821060181, 0.4674985706806183, -0.28017401695251465, -0.7793712615966797, -0.687057375907898, -0.13197404146194458, -0.2545504570007324, -0.3549134433269501, 0.19304867088794708, 0.3100464344024658, -0.3939933776855469, 0.12391330301761627, 0.20542564988136292, -0.09321044385433197, -0.6688126921653748, 0.21843409538269043, 0.27779513597488403, -0.11374542117118835, -0.5748888850212097, -0.7067897915840149, -0.623222291469574, -0.5825516581535339, -0.3245416283607483, -0.671410858631134, 0.08628106117248535, -0.14105361700057983, -0.11481553316116333, -0.8619610667228699, -0.1568710058927536, -0.742870569229126, -0.01193969789892435, -0.19625526666641235, -0.2016064077615738, -0.06312182545661926, 0.08233288675546646, 0.3144412934780121, -0.39472365379333496,
-0.13867336511611938, 0.5237441658973694, -0.9470697641372681, -1.060971975326538, -0.16641175746917725, 0.27339473366737366, -0.3951852321624756, 0.21006880700588226, 0.14051727950572968, -0.5438089370727539, -0.19538581371307373, -0.31064558029174805, -0.08804330974817276, -0.24556535482406616, -0.10476403683423996, -0.5171286463737488, -0.6844883561134338, -1.027585506439209, 0.06595822423696518, -0.13797326385974884, -0.08842496573925018, -0.5061641335487366, -0.9423725605010986, -0.233171746134758, -0.888181209564209, -0.6847372055053711, -0.001060251030139625, 0.1646709144115448, -0.0025874474085867405, -0.4031737744808197, -0.594938337802887, 0.32871320843696594, 0.20808295905590057, -0.08156150579452515, -0.28659966588020325, -0.5477425456047058, 0.061357080936431885, -0.05566496029496193, -0.10148217529058456, -0.9463263154029846, 0.23099660873413086, 0.9408599138259888, 0.20950134098529816, 0.15775001049041748, -0.6983140707015991, 0.5599955320358276, -0.15062692761421204, -0.6486871838569641, -0.42649373412132263, -0.5793851613998413, 0.3145420551300049, 0.3888780474662781, 0.3847018778324127, -0.5131843686103821, -0.19942277669906616, -0.2217600792646408, 0.1863078773021698, -0.1365155279636383, 0.03227199614048004, -0.14915916323661804, -0.002138573909178376, -0.18750342726707458, -0.2840389311313629, -1.4093842506408691,
-0.4932458996772766, -0.13315053284168243, 0.3046271502971649, 0.20164258778095245, -0.6298774480819702, -0.0044586509466171265, 0.07895612716674805, 0.3018524646759033, 0.31686076521873474, -0.08707806468009949, 0.20590008795261383, -0.529265284538269, 0.1737005114555359, -0.7278282642364502, -0.7791590094566345, 0.23207788169384003, -0.7683490514755249, -0.051451120525598526, 0.28701695799827576, -0.23107731342315674, -0.1790790557861328, 0.15325535833835602, 0.040308307856321335, -1.0396462678909302, 0.3232389986515045, 0.15558315813541412, 0.3770320415496826, 0.4059833288192749, 0.16354972124099731, -0.15771542489528656, -0.835165798664093, -0.4614391624927521, -0.6724966168403625, -0.36556875705718994, -0.9733341336250305, -0.9081034064292908, 0.3110235631465912, -0.12854810059070587, -0.39622926712036133, -0.5101962685585022, -1.9347752332687378, 0.2897334098815918, 0.16851215064525604, -1.0529465675354004, -0.010798177681863308, -0.6112362742424011, -0.02389923296868801, 0.39906346797943115, -0.28731033205986023, -0.02686752751469612, 0.12522445619106293, -0.07164105772972107, -0.46276989579200745, 0.40195897221565247, 0.282412588596344, -0.07469405978918076, -0.7387722730636597, -0.9303709864616394, -0.0664077177643776, -0.12859144806861877, 0.7726261019706726, -0.476753830909729, 0.3201465904712677, -0.04816384240984917,
0.0715859979391098, -0.11629411578178406, -0.15845943987369537, 0.035751741379499435, -0.2836099863052368, -0.09767689555883408, -0.33238428831100464, 0.03648629039525986, 0.18882185220718384, -0.2489003688097, -0.9719480276107788, 0.32709801197052, -0.18718428909778595, -0.9886351227760315, -0.5172696709632874, 0.2725430428981781, -0.22817179560661316, -0.07943572849035263, 0.3956979811191559, -0.22213755548000336, -1.1982700824737549, 0.05509277805685997, 0.06212012842297554, 0.08288831263780594, -0.38819602131843567, 0.29667791724205017, -0.19293230772018433, -0.4135299026966095, 0.41423314809799194, -1.0698895454406738, -0.08709587901830673, 0.13563793897628784, 0.19055971503257751, 0.13502109050750732, -0.9561659097671509, -0.06024522706866264, 0.030943267047405243, 0.21157552301883698, 0.06177002564072609, -0.6678274273872375, -0.6895290613174438, 0.41407090425491333, -0.35116660594940186, 0.16331225633621216, -0.2863767147064209, -0.565078616142273, -0.09027957916259766, 0.33206433057785034, -0.4949319064617157, -0.8245387077331543, 0.5707402229309082, -0.12552706897258759, -0.13826259970664978, 0.6003772020339966, -0.8197742700576782, -1.3603920936584473, -0.4141625463962555, -0.06880713254213333, 0.3665831387042999, 0.07297712564468384, -0.860639750957489, -0.44798892736434937, -0.7287627458572388, 0.3281426727771759,
-0.40093913674354553, 0.3210473358631134, -0.64625084400177, -0.6854970455169678, 0.12429660558700562, -0.42901864647865295, -0.2684635818004608, 0.2770451009273529, -0.5572949647903442, 0.19368605315685272, -0.11906229704618454, 0.035661470144987106, -0.046818166971206665, -0.10378771275281906, 0.021148057654500008, -1.3332066535949707, -0.5554900765419006, -0.2111477106809616, -0.6768662929534912, -0.23346136510372162, -0.13326933979988098, -0.7631496787071228, -0.4313534200191498, -0.7268873453140259, -0.7885793447494507, -0.6363779306411743, -0.32773590087890625, 0.04275355860590935, -1.1360230445861816, -0.348376601934433, -0.29925867915153503, -0.4026682376861572, -0.15630626678466797, -1.3219993114471436, -0.28236785531044006, -0.0734172835946083, 0.10560019314289093, 0.22390009462833405, -0.4162799119949341, -0.28444960713386536, -0.3123350441455841, 0.18717464804649353, -0.6163737773895264, -0.47179868817329407, -1.059781551361084, 0.2767222821712494, -0.033659450709819794, -0.08750612288713455, 0.6453889012336731, -0.8301637172698975, 0.08424062281847, -0.5644901990890503, -0.3800748884677887, -0.24691855907440186, -0.3074580430984497, -0.7679276466369629, -0.09982546418905258, -0.49051204323768616, -0.6886758804321289, -0.30551615357398987, -0.6098512411117554, -0.03411409631371498, 0.6589571833610535, 0.21154996752738953,
-0.968327522277832, 0.3550766408443451, -0.35903993248939514, 0.04725213721394539, 0.30692988634109497, -0.09189383685588837, -0.2229662388563156, 0.09203771501779556, -0.13550738990306854, -0.5084217190742493, -0.45023491978645325, -0.5062372088432312, -0.5104163885116577, -0.3756912052631378, -0.6162287592887878, 0.31595879793167114, -0.582363486289978, -0.9036217331886292, -0.07703200727701187, -0.2040330171585083, 0.3913536071777344, -0.46548035740852356, -1.1550418138504028, 0.424705445766449, 0.07036930322647095, 0.3037256896495819, 0.30688461661338806, 0.5267900824546814, -0.1690770834684372, -0.6740004420280457, -0.13534186780452728, -0.18061521649360657, -0.08035705983638763, -0.1697189211845398, -0.3489284813404083, 0.29962974786758423, 0.18504853546619415, -0.43503040075302124, -0.9490894079208374, 0.5979353785514832, 0.32241344451904297, 0.7196317911148071, 0.3778951168060303, -1.0048226118087769, -0.3469467759132385, -1.0382676124572754, -0.04592761769890785, 0.5189966559410095, -0.2188127040863037, -0.7254346609115601, -0.22107651829719543, -0.3470229506492615, -0.30039751529693604, 0.3149348795413971, -0.1716025322675705, -0.5312789082527161, -0.7264983654022217, 0.08774210512638092, -0.7083576917648315, 0.13116952776908875, -0.6723600625991821, -0.034696560353040695, -0.08490448445081711, -0.10411253571510315,
-0.17053939402103424, 0.16902588307857513, 0.011139665730297565, -0.12814947962760925, 0.02361021190881729, -0.15790708363056183, -0.09758676588535309, -0.28715622425079346, -0.21476826071739197, 0.8172782063484192, 0.0547558069229126, -0.46832144260406494, -0.18958434462547302, 0.2048013061285019, 0.2057761698961258, 0.04087863117456436, -0.6688508987426758, -0.5718065500259399, -0.2006738781929016, -0.07211961597204208, -0.22666123509407043, -0.12326298654079437, -0.27776506543159485, -0.4378759264945984, 0.11553138494491577, 0.1417231261730194, 0.4526839554309845, 0.027009939774870872, 0.14836053550243378, -0.3129488229751587, -0.781446635723114, 0.6572685241699219, -0.22176305949687958, -0.8690581917762756, -0.6623562574386597, 0.17628277838230133, 0.40089550614356995, -0.7278335094451904, -0.8972722291946411, -0.18523380160331726, 0.10046280920505524, 0.05464319884777069, -0.5908716917037964, 0.5144838094711304, 0.2177448719739914, -0.3974149823188782, -0.021823350340127945, 0.2108830213546753, 0.21567340195178986, -0.8751567602157593, 0.3149218261241913, 0.44398099184036255, 0.3725444972515106, 0.29582706093788147, -0.10895717889070511, -0.30400288105010986, 0.0845012441277504, -0.35972049832344055, -0.2518369257450104, -1.2136884927749634, -0.2830182909965515, -0.12175577878952026, 0.4038331210613251, -0.4234192669391632,
-0.2848721146583557, -0.30784153938293457, 0.15964700281620026, 0.3699609041213989, 0.16571414470672607, 0.735115110874176, -0.30499371886253357, 0.29589709639549255, -1.1475098133087158, 0.5412134528160095, 0.3791888356208801, 0.3465937376022339, -0.20117519795894623, -0.4799831509590149, -0.1594974249601364, 0.05050162971019745, -0.573392927646637, -0.4019545018672943, -1.6970876455307007, 0.25433349609375, -0.0367194339632988, -0.5208540558815002, -0.20455433428287506, 0.45571190118789673, -0.17220112681388855, -1.4021105766296387, -0.4682561457157135, 0.07549721002578735, -0.16961976885795593, -0.3812271058559418, -0.09406610578298569, -0.11108015477657318, -0.500505805015564, 0.7379715442657471, -0.3216043710708618, 0.03168737143278122, 0.424839049577713, 0.056223444640636444, -1.157521367073059, 0.31148970127105713, -0.3460484743118286, -0.3901952803134918, -0.1431088000535965, 0.32493337988853455, -0.309430867433548, -0.36255931854248047, -0.10827960819005966, -0.32927703857421875, -0.12188000231981277, -0.6766120791435242, -0.12722603976726532, 0.18927784264087677, 0.02973422035574913, -0.14142777025699615, 0.932428777217865, -0.07207322120666504, -0.007331937085837126, 0.41444551944732666, -0.9034168124198914, 0.30942967534065247, -0.9212357401847839, -1.2666432857513428, -0.059309493750333786, -0.009022770449519157,
-1.3637008666992188, 0.06572025269269943, -0.98992919921875, -0.4998351037502289, 0.16169670224189758, -0.5619817972183228, -0.10504411906003952, -0.2016793042421341, -1.5653858184814453, -0.35514333844184875, 0.26443248987197876, -1.1753684282302856, 0.530413806438446, -0.14740312099456787, -0.1941356509923935, -0.6809158325195312, -0.46674975752830505, -0.5854130983352661, 0.0031126677058637142, 0.43119922280311584, 0.369198203086853, -0.8375377655029297, -0.43031615018844604, -0.7690887451171875, -0.20257744193077087, -0.5129170417785645, -0.578687310218811, -0.5419981479644775, -0.0021980812307447195, -0.9845510721206665, 0.0012352941557765007, -1.089322566986084, -0.09309815615415573, -0.4945484399795532, 0.16836953163146973, -0.6492336988449097, -0.6881531476974487, -0.01980682648718357, -0.6282671689987183, 0.010580484755337238, 0.053995367139577866, 0.47207286953926086, -0.41610828042030334, 0.1859891414642334, -0.028537830337882042, 0.5696396231651306, -0.4445033669471741, -0.4226267635822296, -0.022963721305131912, -0.7413697838783264, -0.31935304403305054, -0.9604039192199707, -0.2503969371318817, -1.119022011756897, 0.3143005967140198, -0.7645334601402283, 0.1082601249217987, -1.011662483215332, 0.32255229353904724, 0.06870165467262268, 1.0442482233047485, -0.9086848497390747, 0.5509093999862671, 0.04777031019330025,
0.15583109855651855, -0.4267118275165558, 0.24439235031604767, -0.7936321496963501, 1.0101357698440552, 0.25414150953292847, -0.18468433618545532, 0.2566817104816437, -0.0017354892333969474, 0.41855818033218384, -0.4763663113117218, -0.026639040559530258, 0.3915311396121979, -0.3487725555896759, -0.4762806296348572, -0.07766932249069214, -0.31862756609916687, 0.701228141784668, -0.068995900452137, -0.35006260871887207, -0.7890843152999878, -0.04586437717080116, 0.34292155504226685, -0.49945980310440063, -0.3831324577331543, -0.48773911595344543, -0.26578637957572937, -0.6433814764022827, -0.503533661365509, -0.21472160518169403, -0.26106610894203186, -0.04637918993830681, 0.4818093776702881, -0.06852439790964127, -0.8432942628860474, -0.31186550855636597, -0.3502958118915558, -0.0881408229470253, -0.24936287105083466, 0.16132284700870514, 0.49134403467178345, 0.14286386966705322, 0.4685664772987366, 0.0008452548645436764, 0.3524590730667114, 0.23769080638885498, 0.42083144187927246, 0.12994562089443207, 0.1684388965368271, -0.3851178288459778, -0.1348680555820465, -0.5397594571113586, -0.6296930313110352, 0.29229313135147095, 0.3213464319705963, -0.3799609839916229, -0.961810290813446, -0.39277851581573486, -0.09629538655281067, -0.609291136264801, -0.06984438002109528, 0.3263659179210663, 0.28206825256347656, -0.587792694568634,
-0.3271431028842926, 0.1958063691854477, -0.1512463390827179, -0.0821758434176445, -0.49026915431022644, -0.1080043688416481, 0.3646649122238159, -0.17198465764522552, 0.3961596190929413, -0.238825723528862, -0.10711837559938431, -0.17190559208393097, -0.25850018858909607, -0.14459621906280518, -0.12543626129627228, -0.04393044486641884, -0.2074175477027893, 0.13950711488723755, -1.0008541345596313, 0.2938978374004364, -0.4726234972476959, -0.004413642920553684, 0.23699329793453217, -0.2656799256801605, -0.07902376353740692, -0.16672901809215546, -1.0530050992965698, -0.47003641724586487, -0.20157819986343384, -0.1885792315006256, -0.2695234715938568, -0.2975170910358429, -0.7462136149406433, 0.2636977434158325, -0.08179192245006561, -1.4409416913986206, -0.05744774639606476, 0.3430270254611969, -0.036997269839048386, 0.0334399975836277, -0.018446415662765503, -0.9143157601356506, 0.28159892559051514, -0.3199235200881958, -0.3635229170322418, -0.44930315017700195, -0.1870727688074112, -0.5634074807167053, -0.7563011646270752, 0.03247510641813278, -0.9018615484237671, -0.48369717597961426, -0.5394048094749451, 0.23778438568115234, -0.3182850182056427, 0.02305091917514801, 0.3231249153614044, 0.1412958949804306, -0.9144100546836853, -0.11519282311201096, -0.27231264114379883, -0.16162627935409546, 0.030290983617305756, -0.10673440992832184,
-0.6568134427070618, -0.27937978506088257, -0.12133007496595383, -0.41703715920448303, -0.009651945903897285, 0.335740864276886, -0.4113946557044983, -0.17786213755607605, -0.005553213879466057, 0.19547231495380402, -0.21404173970222473, -0.5871868133544922, -0.11854447424411774, -0.574579656124115, -0.781773030757904, 0.13163283467292786, -0.2815171480178833, 0.15263450145721436, -0.6609326004981995, -1.0923737287521362, -0.6764989495277405, -0.29107019305229187, 0.14911890029907227, -0.05606050416827202, -0.1555240899324417, 0.20490245521068573, -0.2073267549276352, -0.5736079812049866, -0.24991440773010254, -0.4154833257198334, -0.6601407527923584, -0.7299363613128662, -0.6333155035972595, -0.02048158273100853, -1.2772704362869263, -1.0459215641021729, -0.0702473521232605, -0.9492003917694092, -0.015443723648786545, -1.0022680759429932, -0.5829723477363586, -0.5113111138343811, -0.16767235100269318, -0.218483105301857, -0.22707174718379974, 0.03990354388952255, 0.1801239550113678, -1.5601091384887695, -0.7792835235595703, -0.6237147450447083, -0.6670188903808594, -0.3050289452075958, -0.9199812412261963, -0.335583359003067, -0.4709213972091675, 0.1981615424156189, -0.19683997333049774, -0.33990779519081116, -0.2633938193321228, -0.6361607313156128, 0.07167024910449982, -0.6868163347244263, -0.48079484701156616, -1.2193520069122314,
-0.32361477613449097, 1.0792888402938843, -0.27956268191337585, 0.18243305385112762, -0.6841204166412354, 0.3639124929904938, 0.7207676768302917, -0.5845062732696533, 0.17327378690242767, -1.008151650428772, 0.48463940620422363, -0.1325555145740509, -0.06425017863512039, -0.8916590213775635, 0.33016347885131836, -0.42611318826675415, -0.3194197118282318, 0.34693506360054016, -0.19749721884727478, 0.0768003910779953, 0.11632294952869415, -0.11636228859424591, -0.3124617338180542, -0.17094820737838745, -0.37124982476234436, 0.12888038158416748, 0.4494284987449646, -0.42423197627067566, 0.05671399459242821, -0.6614500880241394, 0.11745646595954895, -0.622352659702301, -0.49963217973709106, -0.9388149976730347, -0.4500032961368561, 0.13087373971939087, -0.02884780243039131, 0.14893579483032227, -0.5324385166168213, -1.0320426225662231, -0.8022406697273254, 0.0547238327562809, 0.004214562010020018, -0.18686522543430328, -0.8492916822433472, -0.37407612800598145, -0.3637889325618744, -0.11900951713323593, -0.21452642977237701, 0.2129349410533905, 0.26563480496406555, 0.3539796769618988, -0.6352890133857727, 0.18679866194725037, -0.3957809805870056, 0.18619517982006073, -0.6085101962089539, -0.6937620043754578, 0.7269720435142517, -0.025701340287923813, -0.7873278260231018, -0.3448004126548767, -0.6685286164283752, 0.2694804072380066,
-0.10864263027906418, -0.03318784758448601, -0.3841204345226288, -0.1785069853067398, -0.15472279489040375, -0.1536187082529068, -0.31199151277542114, -0.3562812805175781, -0.5253817439079285, 0.6416352987289429, -0.2625748813152313, 0.3002575933933258, -0.06145455688238144, 0.0627417266368866, -0.2488899677991867, 0.29921644926071167, -0.31303712725639343, 0.15218207240104675, 0.42214906215667725, -0.24474851787090302, -0.13995325565338135, -0.19350360333919525, 0.006217737216502428, -0.8653549551963806, -0.2498193085193634, -0.5375052690505981, -0.5534617304801941, 0.0895640179514885, -0.5258302688598633, 0.07794000208377838, -0.2133093774318695, -0.5955398082733154, 0.04982355609536171, 0.3834221363067627, -0.6321806311607361, -0.17536817491054535, 0.046324171125888824, -0.08908405154943466, -0.5383537411689758, 0.418754518032074, -0.5163765549659729, 0.18326762318611145, 0.42931678891181946, 0.016707221046090126, 0.039566125720739365, -0.5740417242050171, 0.450543612241745, -0.025873707607388496, -0.06961434334516525, -0.7657632231712341, -0.49577394127845764, -0.1463257521390915, -0.5582001209259033, -0.13188478350639343, -0.1518862098455429, 0.244651660323143, -0.3795469105243683, 0.3227127492427826, -0.04576777294278145, 0.4471547305583954, -0.15894101560115814, -0.2851426899433136, -0.19894449412822723, -0.24793092906475067,
-0.24715861678123474, -0.4324992597103119, -0.32800596952438354, 0.11667647957801819, -0.0186447836458683, -0.24482470750808716, -0.25625380873680115, 0.300331175327301, 0.06752854585647583, -0.5097870230674744, -0.3870299458503723, 0.09547657519578934, -0.11866217106580734, -0.42186328768730164, -0.31815677881240845, -0.21978725492954254, -0.357039213180542, -0.07568041235208511, -0.26753705739974976, -0.6179051399230957, -0.6035440564155579, -0.8900611996650696, -0.29667797684669495, 0.05494748428463936, 0.5261498689651489, 0.42905956506729126, -0.2209841012954712, -0.40715891122817993, -0.4431404173374176, -0.16249507665634155, -0.2441898137331009, -0.5906811952590942, -0.3450826406478882, -0.6944311261177063, 0.3859559893608093, 0.09169851988554001, -0.3716714680194855, 0.2142832726240158, -0.30259549617767334, -0.08239999413490295, -0.4922320544719696, -0.5194715261459351, 0.06162520498037338, -0.5785517692565918, -0.9667507410049438, -0.07105866074562073, -0.5435638427734375, 0.06281276047229767, -0.2306939959526062, -0.21365593373775482, -0.7181982398033142, -0.5949537754058838, -0.9270079135894775, 0.11481273174285889, -0.3679187297821045, -0.6838918328285217, 0.09433937817811966, -0.16526462137699127, -0.0001664545852690935, 0.2827720046043396, -0.4576668441295624, -0.4565865099430084, -0.3604235053062439, -0.031037067994475365,
-0.7295929789543152, 0.330550879240036, 0.034381281584501266, -0.18941733241081238, -0.12466376274824142, -0.6552659869194031, -0.7341489195823669, 0.4859358072280884, -0.7223342657089233, -0.027166759595274925, 0.10510963201522827, -0.660525918006897, -0.3171859681606293, 0.7261995077133179, -0.22881607711315155, -1.0839402675628662, -0.40036192536354065, -0.7390246987342834, -0.08810260146856308, -0.10916748642921448, -0.09634429961442947, -1.3591597080230713, -0.2371697723865509, 0.4128973186016083, 0.41139546036720276, -1.1850322484970093, -0.7328911423683167, -0.36788174510002136, 0.25844740867614746, -0.8891659379005432, 0.16897857189178467, -1.0970314741134644, 0.3647085428237915, -0.7403478026390076, 0.11239505559206009, -0.6069149374961853, -0.6456857323646545, -0.1773381531238556, -0.3689481019973755, -0.48122552037239075, -0.21779613196849823, 0.6417321562767029, -0.9996051788330078, -0.08527921140193939, -0.3577203154563904, 0.3337002396583557, -0.1286032497882843, 0.1221722885966301, -0.1801704317331314, -0.3629505932331085, 0.3660542070865631, -0.9067394733428955, -0.6432687640190125, -0.32639163732528687, -0.5143270492553711, -0.2981105446815491, 0.2045949250459671, -0.15087354183197021, 0.011680090799927711, -0.5156853795051575, -0.13192425668239594, -0.7585925459861755, -0.09181515872478485, -0.28404954075813293,
-0.6101852059364319, -0.14295148849487305, -0.6374825835227966, -0.13126058876514435, -0.6712571978569031, -0.5499469041824341, -0.24244597554206848, 0.4416113495826721, -0.25789859890937805, -0.16586947441101074, -0.3343363106250763, -0.11252409964799881, -0.1576744168996811, -0.8080781698226929, -0.3235531449317932, 0.17227022349834442, 0.008455834351480007, -0.09986219555139542, 0.3928889036178589, 0.5241535902023315, -0.7466904520988464, 0.18227429687976837, -0.17472943663597107, -0.23615334928035736, 0.20270247757434845, -0.6275777816772461, 0.12854188680648804, -0.17102544009685516, -0.6051808595657349, 0.1620960384607315, -0.08671681582927704, -0.10004948079586029, -0.4720703959465027, -0.23196624219417572, -0.059307072311639786, -0.41595813632011414, 0.13628241419792175, 0.061335500329732895, -0.1364462524652481, -0.28397223353385925, -0.5296453833580017, -0.34882521629333496, -0.7876818180084229, 0.274006724357605, -0.43411073088645935, -0.6864315271377563, -0.8127618432044983, -0.4307069778442383, -0.4625643193721771, -0.6616873741149902, -0.12221505492925644, 0.3825773596763611, -0.35730740427970886, -0.3438088297843933, 0.026287920773029327, -0.3703434467315674, -0.4655388295650482, -0.6389707326889038, -0.7692732810974121, -0.5492110848426819, 0.04081284627318382, 0.3906565308570862, -0.04328843951225281, -0.21608304977416992,
-0.6011033058166504, -0.6448677182197571, -0.6438366174697876, -0.44318637251853943, -0.027254944667220116, -0.15757089853286743, 0.44777145981788635, -0.2481977790594101, -0.1643175184726715, -0.5508185029029846, 0.41857197880744934, -0.044061772525310516, -0.5517696738243103, -0.46466559171676636, 0.11746913194656372, -0.179049551486969, 0.03480495139956474, -0.12840956449508667, -0.28747931122779846, -0.05427946522831917, -0.23800793290138245, -0.26989585161209106, -0.5094775557518005, -0.11758636683225632, -0.6937362551689148, 0.07440793514251709, -0.11503463238477707, 0.007312329486012459, 0.4059515595436096, -1.2788922786712646, -0.8246788382530212, -0.4144119918346405, -0.6160390973091125, -0.25587084889411926, -0.2723778188228607, -0.22140079736709595, -0.29234278202056885, -0.5246896147727966, -0.044791415333747864, -0.15169379115104675, -0.6868172287940979, -1.0473943948745728, -0.45126062631607056, 0.2901366949081421, -0.39088255167007446, -0.0661609098315239, -1.2255147695541382, -0.6714571714401245, -0.5836758613586426, -0.621746838092804, -0.28426018357276917, -0.34027817845344543, -0.4491245150566101, -0.002422567456960678, -0.010537995025515556, -0.43097028136253357, -0.0796220451593399, -0.6346502304077148, -0.5175905823707581, 0.5866647362709045, -0.18772557377815247, -0.19928252696990967, 0.23963762819766998, -0.4351634681224823,
-0.3363964557647705, -0.194649338722229, -0.21192581951618195, 0.2046637088060379, -0.7456765174865723, -0.6464740633964539, -0.2050873339176178, 0.0031555485911667347, -0.4748609662055969, -0.6527623534202576, 0.059835661202669144, -0.7180443406105042, 0.5451153516769409, 0.11259207129478455, -0.05526489391922951, 0.03895504027605057, -0.2815364897251129, -0.38871678709983826, 0.18580949306488037, -0.7624720931053162, 0.5423616766929626, -0.2709901034832001, -0.9606916904449463, 0.2847959101200104, -0.0040130410343408585, -0.31375253200531006, 0.17368315160274506, 0.3943482041358948, -0.2012544721364975, -0.20984920859336853, 0.532884418964386, 0.1588459461927414, 0.0751795545220375, -0.14322228729724884, 0.6070694327354431, -2.2030357285984792e-05, -0.21472173929214478, -0.38656821846961975, -1.1481597423553467, -0.12354405224323273, 0.5096580386161804, 0.004623066168278456, 0.27555015683174133, 0.0019535142928361893, -0.19739027321338654, 0.7079021334648132, -0.03270953148603439, -0.03401532024145126, 0.12717823684215546, 0.47282764315605164, 0.10342987626791, 0.20851153135299683, 0.09272632002830505, -0.7096151113510132, -0.792151153087616, 0.043975796550512314, -0.18643268942832947, -0.5177879333496094, 0.3054904341697693, -0.1449439972639084, -0.060057710856199265, -0.7181330323219299, 0.22974137961864471, 0.1073131412267685,
-0.00032522427500225604, -0.5182333588600159, -0.2644928991794586, -0.6687597632408142, -0.10391674190759659, -0.45613333582878113, -0.3886092007160187, -0.2237493097782135, -0.34604644775390625, -0.21663527190685272, 0.0059431167319417, -0.9766523241996765, -0.06609422713518143, -0.617808997631073, -0.5312038064002991, -0.8102274537086487, -1.1249676942825317, -0.7128790616989136, -0.6001450419425964, -0.26626381278038025, -0.3116624653339386, -0.2401527315378189, -0.38545191287994385, 0.1676030158996582, -0.10996086150407791, 0.44997018575668335, -0.4906098246574402, -0.6749586462974548, -0.722943127155304, -0.35840415954589844, -0.23716552555561066, -0.12064894288778305, -0.4490540027618408, -0.5409672856330872, -1.1658892631530762, -0.5793440341949463, 0.1980353444814682, 0.11226657778024673, -0.5421818494796753, -0.3876087963581085, -0.3726680278778076, -0.12611520290374756, -0.30242887139320374, -0.7660541534423828, -0.1372203528881073, -0.17861519753932953, -0.5973568558692932, -0.3741634488105774, 0.07469692081212997, -0.040853846818208694, -0.432301789522171, -0.30942898988723755, 0.1012813150882721, 0.11515825986862183, -0.4386935830116272, -0.8530229926109314, 0.09211906790733337, -0.310044527053833, -0.004306864459067583, -0.3838658034801483, -0.18314307928085327, -0.45658010244369507, -0.979722261428833, -0.3381769359111786,
-0.044003307819366455, 0.11423122882843018, -0.34694600105285645, -0.11244861036539078, -0.25164172053337097, 0.1623625010251999, 0.03239792212843895, -0.5318445563316345, -0.08466770499944687, 0.32952359318733215, -0.5228590369224548, 0.32295915484428406, 0.013076940551400185, -0.29073554277420044, -0.6646081805229187, -0.3454885482788086, -0.030435295775532722, -0.1081952378153801, 0.12152605503797531, -0.307511568069458, -0.17815405130386353, -0.012231007218360901, -0.06120675429701805, -0.8208291530609131, -0.5310872793197632, -0.636863112449646, -0.2096155434846878, -0.9805021286010742, -0.7760108709335327, -0.3494785726070404, -0.4190366566181183, 0.22536222636699677, -0.27087825536727905, 0.48128461837768555, -0.53515625, 0.30741363763809204, 0.0643085241317749, -0.6849490404129028, 0.1153629943728447, -0.5462896227836609, -0.4627826511859894, -0.11105053871870041, -0.4944832921028137, -0.48102107644081116, -1.118747353553772, -0.15315383672714233, -0.5547214150428772, -1.1631529331207275, -1.158474087715149, -0.6578136086463928, 0.11941560357809067, -0.48263952136039734, -0.5369620323181152, -0.31030088663101196, -0.5425189733505249, -0.6220178008079529, -0.48767662048339844, -0.0718793198466301, -0.0919003114104271, -0.9033673405647278, -0.128215029835701, 0.19765545427799225, -0.42237967252731323, -0.8158391118049622,
-1.1897414922714233, -0.10437479615211487, -0.5528189539909363, 0.3260175883769989, -0.39547082781791687, -0.2255944311618805, -0.552651047706604, -0.5294787287712097, -0.6350651383399963, -0.5772257447242737, 0.350515753030777, -0.5309789180755615, 0.47345542907714844, -0.3365902602672577, 0.04456777125597, -0.5879780054092407, 0.14203716814517975, -0.5457719564437866, -0.6407036185264587, -0.22577674686908722, 0.08311460167169571, -0.11992503702640533, -0.2831476330757141, -0.6767271757125854, -0.20219004154205322, -0.5984583497047424, -0.16757680475711823, -0.003504947293549776, -0.1805374175310135, -0.18894575536251068, -0.07130946964025497, -0.7938629984855652, -0.24850794672966003, -0.37711817026138306, -0.4283396899700165, -0.6594704389572144, -0.1764601618051529, 0.09867443889379501, -0.057722434401512146, 0.12738941609859467, 0.014287036843597889, -0.045980602502822876, -0.3492089807987213, -0.05891704186797142, -0.1431245058774948, 0.15748120844364166, -0.2301938384771347, 0.009311724454164505, -0.4987547993659973, -0.12256643176078796, 0.11650485545396805, -0.16526903212070465, -0.8781185150146484, 0.006585453636944294, 0.2670462131500244, -0.23560956120491028, -0.4755142033100128, -0.8212859034538269, -0.358681857585907, -0.03769223019480705, -1.1963298320770264, -0.1455897092819214, 0.5462594628334045, 0.012175342068076134,
-0.02653413452208042, 0.373209685087204, 0.34272316098213196, -0.15015649795532227, 0.09880707412958145, 0.3534815013408661, -0.4456380009651184, -0.8802523612976074, 0.4344172775745392, -0.1326879858970642, 0.3754628598690033, -0.8142537474632263, 0.09256193041801453, -0.5696755051612854, 0.5760743618011475, -0.44681715965270996, -0.1173107773065567, 0.16060319542884827, -0.6313943266868591, -0.5225194096565247, 0.11532893776893616, -0.7451164722442627, 0.11027535796165466, -0.22158850729465485, -0.2395612597465515, -0.14212901890277863, -0.5619021058082581, -0.0179990716278553, 0.03156610578298569, 0.06904954463243484, -0.9328241944313049, -0.3995417058467865, -0.6625739336013794, 1.0382472276687622, -0.9863557815551758, -0.1311989277601242, -0.04599644988775253, -0.3726770877838135, -0.4556913673877716, -0.015770986676216125, -0.31686750054359436, -0.905417263507843, -0.029701124876737595, -0.16971850395202637, -0.10918711870908737, -1.5424739122390747, -0.18714050948619843, 0.036333851516246796, -0.3788435161113739, -0.03979259356856346, -0.4991982877254486, -0.4909651577472687, -0.5603814125061035, 0.21186403930187225, -0.19983118772506714, -0.3098149299621582, 0.6787447333335876, 0.17367400228977203, -0.5907183885574341, -0.04142219200730324, -0.8291162252426147, -0.29011306166648865, -0.5205766558647156, -0.0010662309359759092,
-0.7689688205718994, -0.02008228376507759, -0.6008721590042114, -0.3696949779987335, 0.49477505683898926, -0.08894596248865128, -0.3683727979660034, -0.4376825988292694, 0.10154936462640762, -0.8405290842056274, 0.07055427879095078, -0.3386875092983246, 0.5022801756858826, -0.8749256730079651, -0.23354940116405487, -0.26105281710624695, -0.3521447777748108, -0.28432396054267883, -0.49342700839042664, -0.3388534188270569, -0.34654876589775085, 0.019990861415863037, 0.06330734491348267, -0.32767823338508606, -0.646290123462677, 0.1901765614748001, -0.1371140480041504, -0.717053234577179, -0.47090497612953186, -0.30720534920692444, -0.1931692510843277, -1.1074750423431396, -0.3624030351638794, -0.030639607459306717, -0.6510778069496155, -0.25716355443000793, -0.5543543100357056, 0.06932104378938675, 0.14833100140094757, -0.5082902312278748, 0.008951361291110516, -0.24489553272724152, 0.3682223856449127, -0.23854023218154907, -0.4648270308971405, -0.4693158268928528, -0.012454887852072716, -1.4627289772033691, -0.40348488092422485, -1.1562309265136719, -0.4306981563568115, -0.23416373133659363, -0.28596487641334534, 0.11571979522705078, 0.2268558144569397, -0.3498411774635315, -1.028124451637268, -0.15475422143936157, -0.4112011194229126, -0.9289076328277588, 0.12614360451698303, -0.15978042781352997, -0.3112340271472931, 0.23240168392658234,
0.16130056977272034, 0.46529555320739746, -0.02784191630780697, 0.3088746666908264, -1.2432563304901123, -0.8522887825965881, -0.0035157694946974516, 0.037224963307380676, 0.341947078704834, -0.324447363615036, 0.11110643297433853, 0.04442332684993744, 0.032027073204517365, -0.000475648877909407, 0.4325931668281555, 0.08970654010772705, -0.4253595173358917, 0.19351790845394135, 0.23044775426387787, 0.3501726984977722, -0.5119953155517578, 0.17314058542251587, -0.299259752035141, 0.27147233486175537, -0.3201381266117096, 0.13474714756011963, -0.3172527551651001, 0.06596553325653076, 0.04941268637776375, -0.27578625082969666, 0.5174036622047424, -0.48930054903030396, 0.31716108322143555, 0.11895296722650528, -0.112633116543293, 0.06424125283956528, 0.09505599737167358, -0.17948585748672485, -0.4589312672615051, -0.5503179430961609, -0.07031713426113129, 0.1715153008699417, 0.34494251012802124, -0.050723847001791, -0.6336691379547119, 0.0961911752820015, -1.3147850036621094, 0.3590185344219208, -0.10061800479888916, -0.027053724974393845, 0.32317879796028137, 0.006345183588564396, -0.639244794845581, 0.18960382044315338, -1.0842829942703247, -0.9385280013084412, -0.14739960432052612, 0.09235786646604538, 0.17521411180496216, 0.3507852554321289, 0.11150334030389786, -0.3277127146720886, -0.04697815701365471, 0.12078175693750381,
0.1751423478126526, -0.2515522837638855, -0.26684558391571045, 0.0035711999516934156, -0.17202453315258026, -0.16674140095710754, 0.1560850441455841, -0.2828713059425354, -0.2136046439409256, -0.45927566289901733, -0.17937631905078888, -0.035134486854076385, 0.16827106475830078, -0.31706011295318604, 0.2711885869503021, -0.2656611502170563, -0.5418833494186401, -0.2422255128622055, -0.2807897627353668, -0.1610497087240219, -0.22984305024147034, -0.11058352887630463, -0.22846317291259766, -0.3969882130622864, -0.3473089635372162, -0.2935720384120941, -0.6801672577857971, -0.19630850851535797, 0.07526564598083496, -0.27188634872436523, -0.304141104221344, -0.06639399379491806, 0.05391034483909607, -0.04073301702737808, -0.007719424553215504, 0.04655361920595169, -0.030631208792328835, -0.08958778530359268, 0.11958387494087219, -0.48673945665359497, 0.12144673615694046, 0.17530545592308044, -0.45667001605033875, 0.028642529621720314, -0.27341681718826294, 0.005928334780037403, -0.6404160857200623, -0.5179219841957092, -0.5289974808692932, -0.15874984860420227, -0.09910277277231216, 0.024243995547294617, -0.3356596827507019, -0.2818489968776703, -0.1686350703239441, 0.05814698338508606, -0.10486646741628647, -0.5228549242019653, 0.19389569759368896, 0.04427715018391609, 0.07828908413648605, -0.20833726227283478, -0.23157837986946106, -0.3199729919433594,
0.02745058387517929, -0.32135406136512756, -0.40918174386024475, 0.39173105359077454, -0.5121511816978455, -0.08338741213083267, 0.29492974281311035, -0.0453336238861084, -0.7615872621536255, 0.10131420940160751, 0.006984347943216562, 0.04361860826611519, -0.4812302589416504, -0.05465587228536606, -0.2895717918872833, 0.24632203578948975, 0.06447252631187439, 0.011316555552184582, 0.03645237162709236, -0.41422104835510254, 0.11153372377157211, -0.006926287896931171, -0.5988048315048218, -0.4271226227283478, -0.08733231574296951, -0.8492361307144165, -0.0541461817920208, -0.5315036773681641, -0.3737223148345947, -0.2183288037776947, -0.32380932569503784, -0.09184596687555313, -0.4312759339809418, -0.21851585805416107, 0.22369252145290375, 0.14935104548931122, 0.037948884069919586, -0.5714250206947327, 0.07842885702848434, 0.09953991323709488, 0.3660171627998352, -0.34131380915641785, 0.0501348115503788, -0.04887291416525841, -0.2475881427526474, 0.35072895884513855, -0.2923400104045868, -0.4344326853752136, -0.28931093215942383, -0.47063764929771423, -0.7268348336219788, -0.3548647165298462, 0.2505960166454315, -0.6539793014526367, -0.37051019072532654, -0.23426131904125214, -0.3568740785121918, -0.0409252755343914, -0.08368580043315887, -0.2722925543785095, -0.10738392919301987, 0.04494541510939598, -0.04795954003930092, 0.25387248396873474,
-0.22558726370334625, 0.4898346960544586, -0.19869355857372284, -0.005335526540875435, 0.2456752061843872, 0.5117583274841309, -0.5353661179542542, -0.3477804958820343, -0.099974624812603, -0.011108086444437504, -0.05448417738080025, -0.44103196263313293, -0.125092014670372, 0.07293766736984253, -0.025657430291175842, -0.5391005873680115, -0.19210384786128998, -0.2750200927257538, 0.021284617483615875, 0.036467045545578, 0.42125052213668823, -0.6132766604423523, -0.504940927028656, -0.2821834087371826, 0.13550609350204468, -0.23024359345436096, -0.08777729421854019, -0.01618414744734764, 0.32425037026405334, 0.035376258194446564, 0.21049928665161133, -0.17765222489833832, -0.43932417035102844, 0.11727126687765121, -0.2245190143585205, 0.024518657475709915, -0.5729109644889832, 0.1760445237159729, -0.4893001914024353, 0.5528690814971924, 0.5049919486045837, 0.15879248082637787, 0.4255516827106476, 0.14622794091701508, -0.13286298513412476, 0.48224949836730957, -0.0028523681685328484, -0.8130845427513123, -0.23901721835136414, 0.8716846108436584, 0.19310182332992554, 0.4862036406993866, -0.07763700187206268, -0.4936223030090332, -0.43362829089164734, 0.5293159484863281, -0.16199161112308502, -0.4165075421333313, -0.12170656025409698, -0.03594820946455002, -0.17678368091583252, -0.20134732127189636, -0.16226236522197723, 0.15159443020820618,
0.20253422856330872, -0.23729081451892853, -0.055422477424144745, -0.48363620042800903, 0.10349761694669724, -0.48899632692337036, -0.1771240085363388, -0.5568380951881409, -0.23977483808994293, -0.4320722818374634, -0.24486826360225677, -0.6542863845825195, -0.3901713192462921, -0.048168595880270004, -0.6539871096611023, -0.36057618260383606, -0.20405171811580658, -0.5459495186805725, 0.21409177780151367, 0.25319236516952515, -0.02617642469704151, -0.30100157856941223, -0.6644336581230164, -0.15005172789096832, -0.5260753035545349, -0.8157112002372742, -0.17614492774009705, -0.08555444329977036, -0.3932909667491913, -0.10189298540353775, 0.048431769013404846, 0.20108503103256226, 0.0991450846195221, -0.26949232816696167, -0.15748979151248932, 0.18913815915584564, -0.11376354843378067, 0.03290625661611557, -0.3076387047767639, -0.023937320336699486, 0.09491412341594696, 0.012033811770379543, -0.11855164170265198, 0.04322918877005577, 0.02635355293750763, 0.2669527530670166, -0.28421536087989807, -0.2022412270307541, -0.279087096452713, 0.030584396794438362, -0.05512160062789917, 0.04534485563635826, -0.39240795373916626, -0.258664071559906, -0.5119701623916626, -0.00614866754040122, 0.16738522052764893, -0.16945314407348633, -0.47463878989219666, -0.419590562582016, -0.4434681534767151, -0.2607199549674988, -0.07203805446624756, 0.163127601146698,
-1.0089250802993774, 0.7593851685523987, 0.6801818609237671, 0.17396345734596252, -0.29340606927871704, -0.6500086188316345, -0.07908795028924942, -0.4769549071788788, -0.13801723718643188, 0.44041377305984497, -0.036452364176511765, 0.3537966012954712, -0.7868659496307373, 0.3295787274837494, -1.8444868326187134, 0.12692034244537354, -0.2329079657793045, -0.44552552700042725, -1.6127586364746094, -0.5006230473518372, 0.47529277205467224, -0.4877197742462158, -0.3970560133457184, -0.102267786860466, -0.26093968749046326, -0.1550896018743515, -0.6153475642204285, 0.8587325215339661, 0.41520005464553833, -0.8331512212753296, 0.34734851121902466, -0.2375444620847702, -0.5485238432884216, 0.16544747352600098, 0.21684689819812775, -0.8013260364532471, -0.12905244529247284, 0.7964078783988953, -0.7866277694702148, -0.9647703170776367, -0.19145821034908295, 0.19660255312919617, -0.21016554534435272, -0.35914725065231323, -0.9819641709327698, 0.18321776390075684, -0.9041940569877625, -0.3250464200973511, -0.3915346562862396, -0.9669601321220398, -0.6447401642799377, -0.20817187428474426, -0.08370746672153473, -0.04692654311656952, -0.5582823753356934, 0.04735274240374565, -0.01597071997821331, -0.3774714767932892, -0.7045215368270874, 0.3554645776748657, -0.5834515690803528, -2.2133376598358154, -0.0355926975607872, 0.5736438035964966,
-0.05323473736643791, -0.31861433386802673, 0.13351017236709595, -0.383586585521698, -0.26392126083374023, -0.06163782626390457, 0.40357327461242676, 0.12745817005634308, 0.2338481992483139, -0.5299333930015564, 0.46728822588920593, 0.10655166208744049, -0.5040579438209534, 0.424282431602478, -0.19131812453269958, -0.09972051531076431, -0.011155080050230026, 0.39204928278923035, -0.24198684096336365, -0.7389342784881592, -0.7776107788085938, 0.06354843825101852, 0.09422194212675095, 0.14335763454437256, -1.7678383588790894, -0.34448710083961487, -0.48062580823898315, 0.2822738289833069, -0.6593006253242493, 0.026172518730163574, -0.35282912850379944, -0.07128142565488815, 0.17493362724781036, 0.5256262421607971, -0.5907825827598572, 0.05810466781258583, -0.11675690859556198, 0.018034866079688072, -0.14894519746303558, -0.865330159664154, -0.6580330729484558, -0.4047272503376007, 0.09317368268966675, 0.03719577565789223, -0.4395607113838196, -0.2725095748901367, -0.252995103597641, 0.3738032579421997, -0.3874497413635254, 0.056267015635967255, -0.2833056151866913, -0.4763588011264801, -0.25157761573791504, 0.2680244743824005, 0.5994547605514526, -0.9616990089416504, -0.8111528754234314, -0.16148503124713898, 0.1471034735441208, 0.17108911275863647, -0.07732614129781723, 0.25932157039642334, -0.9782044291496277, -0.49631911516189575,
0.42596957087516785, 1.2307796478271484, -0.017174379900097847, 0.08055969327688217, -0.08429742604494095, -0.5240247249603271, -0.3693917691707611, 0.25497594475746155, 0.2202315479516983, -1.592612862586975, -0.34328803420066833, 0.061763983219861984, 0.24798423051834106, 0.14532452821731567, -0.18765470385551453, 0.5728387832641602, -0.5261734127998352, 0.22463686764240265, -0.37488293647766113, 0.23171783983707428, -1.0328004360198975, -0.95284503698349, 0.2145291566848755, 0.4325493276119232, -0.2944168150424957, 0.0724399983882904, 0.2333645224571228, -0.646978497505188, 0.018272163346409798, 0.3768378794193268, -0.5882400274276733, -0.1594194769859314, 0.1464088261127472, 0.39995720982551575, -1.030978798866272, 0.46127545833587646, 0.01888420432806015, -0.8548520803451538, -0.17922325432300568, -1.0982005596160889, 0.037233009934425354, -0.14283481240272522, 0.06537993997335434, -0.9377214908599854, -0.2665238678455353, -0.01850380003452301, -0.47118857502937317, -0.32279837131500244, -0.6486303210258484, 0.6156129837036133, -0.5140251517295837, -0.678094744682312, -1.526490330696106, -0.1288863718509674, -0.9332837462425232, -0.8033813238143921, 0.04590949788689613, 0.04340772703289986, -0.02974909171462059, -0.77724689245224, -0.7417969107627869, -0.07099377363920212, -0.4373801648616791, 0.03278772905468941,
-0.10451284050941467, 0.7985129356384277, -0.3852085769176483, 0.3387760818004608, -0.11670836806297302, -0.3162592053413391, 0.08983751386404037, 0.231523334980011, -0.8593738079071045, -0.21776056289672852, 0.08192536234855652, -0.19386430084705353, -0.7648553252220154, -0.6076012253761292, 0.344889760017395, -0.2960363030433655, -1.065187692642212, -0.6211022138595581, 0.13635915517807007, -1.0711753368377686, 0.14647749066352844, 0.40094947814941406, -0.03914947062730789, -0.7503073215484619, -0.09060928970575333, -0.5927435159683228, 0.045523885637521744, 0.269412100315094, -0.3647741377353668, -0.33896535634994507, -0.3804069459438324, 0.4452306032180786, 0.013330393470823765, -0.2818750739097595, 0.138479083776474, -0.2818312644958496, 0.6903864741325378, 0.046761348843574524, -0.08204307407140732, -0.9631323218345642, 0.3194374740123749, 0.5271820425987244, -0.5950871109962463, -0.8659626841545105, 0.04586714133620262, -0.8097711205482483, -0.26100942492485046, 0.19854377210140228, -0.3702971041202545, 0.09481611102819443, 0.5328459739685059, 0.5949902534484863, 0.6277109384536743, -0.6104216575622559, -0.00032512619509361684, 0.09553763270378113, 0.24954573810100555, 0.029379237443208694, -0.8754127025604248, -0.6435099840164185, 0.31174761056900024, -0.6949400901794434, -0.15373016893863678, -0.2118958830833435,
-0.13601280748844147, -0.23088303208351135, -0.203415185213089, -0.2547573447227478, -0.32202982902526855, 0.02430674061179161, -0.622290313243866, -0.11590715497732162, -0.08963935077190399, -0.015293647535145283, 0.32054680585861206, -0.15400975942611694, 0.0505363866686821, -0.6004757285118103, -0.21773187816143036, -0.003031429834663868, -0.379553884267807, -0.1666829138994217, -0.3156188428401947, -0.38607335090637207, -0.03315897658467293, -0.33778977394104004, -0.2827254831790924, -0.08096035569906235, 0.21095842123031616, -0.03584185615181923, -0.4030466675758362, 0.1432989090681076, -0.1339046061038971, -0.34470391273498535, 0.03851998224854469, -0.5912945866584778, -0.0112850246950984, -0.2472834289073944, 0.25686973333358765, -0.021083783358335495, -0.2385825663805008, 0.28626441955566406, -0.04958152025938034, 0.31850937008857727, -0.043157756328582764, -0.32522204518318176, 0.12150537222623825, 0.03669924661517143, 0.00037948807585053146, -0.5117239356040955, -0.4837597906589508, -0.42791029810905457, -0.32103514671325684, -0.3691323399543762, -0.302766889333725, -0.09692250937223434, -0.20943938195705414, -0.4536362886428833, -0.27011430263519287, -0.03568470478057861, -0.03493311256170273, -0.08017203211784363, -0.21049770712852478, 0.11282067000865936, -0.563987672328949, 0.14077264070510864, -0.3617682456970215, 0.15446802973747253,
0.22471891343593597, 0.3876434564590454, -0.08473263680934906, -1.0327892303466797, -0.46201109886169434, -0.5604100227355957, 0.2629460096359253, -0.16420593857765198, 0.002800531219691038, 0.2251266986131668, -0.6436927914619446, -0.17446281015872955, 0.055238544940948486, -0.36617445945739746, -0.9160407185554504, -0.5077283382415771, 0.08572980016469955, 0.70929354429245, -0.17482642829418182, -0.49412062764167786, -0.022090017795562744, -0.35772207379341125, 0.15288639068603516, -0.7572979927062988, -0.09555954486131668, 0.0351017601788044, 0.18283149600028992, -0.10112662613391876, -1.040479063987732, 0.3924986720085144, -0.5376878380775452, -0.4810716509819031, -0.6654143929481506, -0.03249857574701309, -0.10932864248752594, -0.13646312057971954, -0.2855460047721863, 0.13636963069438934, -0.1425303965806961, -0.6015225052833557, -0.20115156471729279, -0.4643678367137909, 0.7333835363388062, 0.2154436707496643, 0.06715170294046402, -0.15100768208503723, 0.043049465864896774, -0.04448811709880829, 0.27780604362487793, 0.5632413029670715, -0.17603762447834015, -0.22512736916542053, -0.33191540837287903, 0.19064867496490479, -0.14684094488620758, 0.17602990567684174, -0.4098539650440216, -0.4727385342121124, -0.9702875018119812, 0.37707430124282837, -0.3597261607646942, 0.1942928433418274, -0.28940311074256897, -0.02981463260948658,
-0.13382503390312195, -0.1426781862974167, -0.34470605850219727, -0.029758796095848083, -0.04506392776966095, -1.2203541994094849, 1.0786374807357788, -1.7547590732574463, -0.28802064061164856, -0.571374773979187, -0.20325598120689392, -0.046551864594221115, -0.4217267334461212, -0.24575656652450562, -0.36221006512641907, -0.10149648040533066, -0.5800186991691589, -0.8490319848060608, -0.4911563992500305, -0.38835978507995605, 0.15923629701137543, -0.39606720209121704, -0.3114420473575592, 0.11201167106628418, -0.16194652020931244, 0.11164574325084686, -0.5016846060752869, -0.4778083562850952, 0.007866240106523037, -0.3651126027107239, -0.14065372943878174, -0.06436756253242493, 0.0487273707985878, 0.07940459251403809, -0.794956624507904, -0.3185340464115143, -0.31776922941207886, -0.04614746570587158, -0.9253596663475037, 0.4352727234363556, -0.2767128646373749, -0.24813047051429749, -0.5267157554626465, -0.5072621703147888, -0.5778513550758362, 0.269763320684433, -0.7234594225883484, 0.3127366006374359, 0.9096854329109192, -0.9846104383468628, -0.359379380941391, -0.04325428232550621, -0.5226210355758667, -0.5093058347702026, -0.2690869867801666, 0.15034817159175873, 0.008841568604111671, 0.7472792863845825, 0.11596080660820007, 0.36510545015335083, 0.3555724322795868, -0.4851638972759247, -0.2851733863353729, -0.741166889667511,
