#include "neural_network.h"
#include <stdio.h>
#include <math.h>

const float weights_fc1[] = {
-0.009922610595822334, 0.2613665759563446, -0.08798528462648392, -0.35023707151412964, -0.06222108379006386, -0.007249896414577961, -0.2282744199037552, 0.3589378595352173, 0.456827849149704, -0.2809978425502777, -0.010206627659499645, -0.10604456812143326, 0.39001768827438354, -0.07691355049610138, 0.14559055864810944, -0.5252398252487183, -0.7164984941482544, -0.17730574309825897, -0.08770530670881271, 0.05900966376066208,
-0.43749287724494934, -0.09770529717206955, -0.20979911088943481, 0.2728070020675659, -0.04824967682361603, -0.12306522578001022, 0.5779428482055664, 0.047352664172649384, -0.7856342196464539, 0.20782071352005005, -0.11164802312850952, 0.08274553716182709, 0.15500979125499725, -0.41873157024383545, 0.7960138320922852, 0.13511846959590912, 0.18172726035118103, -0.008615831844508648, 0.29891130328178406, -0.0017352672293782234,
-0.37706872820854187, -0.8529351949691772, 0.10160050541162491, 0.10745493322610855, -0.3086516559123993, 0.27249863743782043, 0.2228861302137375, -0.14326004683971405, -0.06530678272247314, -0.10152365267276764, -0.08919676393270493, -0.029965605586767197, 0.008435867726802826, -0.022812211886048317, -0.23756930232048035, -0.6616146564483643, -0.11112665385007858, 0.11013708263635635, 0.3316439688205719, -0.19772818684577942,
0.11936702579259872, -0.13246382772922516, -0.14595818519592285, 0.4260672926902771, -0.05066091567277908, 0.029556963592767715, -0.5619001388549805, -0.002750118961557746, 0.6459245681762695, 0.0177626833319664, 0.049468301236629486, -0.25212544202804565, 0.48949477076530457, -0.21904242038726807, 0.3597429692745209, -0.05134514346718788, 0.11549413949251175, -0.06023061275482178, -0.06566468626260757, 0.21551047265529633,
0.17264366149902344, -0.10934370011091232, 0.8636220097541809, 0.10275229811668396, 0.20314569771289825, 0.10447061061859131, -0.36308038234710693, 0.03468655049800873, 0.24374420940876007, -0.06152953952550888, -0.12477939575910568, 0.06727965921163559, 0.111970916390419, -0.10795985162258148, -0.09873248636722565, -0.5167152285575867, -0.15744945406913757, 0.017232755199074745, -0.09214714169502258, 0.02330147475004196,
-0.18054436147212982, -0.358786404132843, 0.443299800157547, -0.07770674675703049, 0.039491716772317886, 0.19918443262577057, -0.1816389411687851, 0.4710160195827484, -0.08423517644405365, -0.02451319247484207, 0.07570338249206543, 0.17136837542057037, -0.23836122453212738, 0.08000209182500839, -0.7276011109352112, 0.0947859063744545, 0.26928436756134033, 0.032641299068927765, -0.12573198974132538, -0.13480739295482635,
0.558096706867218, -0.6714680790901184, -0.2880766689777374, -0.08577287942171097, -0.15744230151176453, -0.34386369585990906, 0.5326201915740967, 0.34924182295799255, -0.004771184641867876, 0.09304172545671463, 0.011044918559491634, -0.07379186898469925, -0.4137617349624634, -0.13113929331302643, 0.3874998390674591, -0.13098189234733582, -0.1627056896686554, 0.0036612828262150288, -0.06136716529726982, -0.00932313222438097,
-0.2023361623287201, 0.21530957520008087, 0.37260159850120544, 0.10863849520683289, 0.13908587396144867, 0.555035412311554, 0.36395949125289917, -0.20133033394813538, 0.41811394691467285, 0.1034678965806961, -0.07535814493894577, -0.06445435434579849, 0.20103701949119568, -0.1530247926712036, -0.21364177763462067, 0.5784122347831726, -0.15504777431488037, -0.2333695888519287, 0.013302754610776901, -0.027765648439526558,
-0.19611856341362, 0.06845862418413162, 0.03614276275038719, -0.1669328361749649, 0.05537602677941322, -0.18907253444194794, -0.15055137872695923, -0.18838705122470856, -1.1886656284332275, -0.045534104108810425, 0.1254221498966217, -0.1417083740234375, 0.24908897280693054, 0.07671882957220078, 0.14781565964221954, -0.07158829271793365, 0.5389463901519775, 0.06624772399663925, -0.18925264477729797, -0.06943404674530029,
0.5633866190910339, -0.013374727219343185, 0.05046721547842026, 0.26729723811149597, 0.06178886443376541, -0.14433391392230988, 0.0054501430131495, 0.18158011138439178, 0.15727300941944122, 0.04763644188642502, -0.16780318319797516, -0.03530426695942879, -0.05546964332461357, 0.2849832773208618, -0.13878658413887024, 0.40194442868232727, -0.05519769340753555, -0.2540462017059326, -0.045284196734428406, -0.6413326859474182,
0.1829250305891037, 0.018684104084968567, -0.9587306976318359, 0.018394479528069496, -0.20056097209453583, 0.007013016380369663, 0.011618840508162975, 0.23416124284267426, 0.17184287309646606, 0.08926530182361603, 0.22697024047374725, -0.16110512614250183, 0.5383478999137878, 0.5789852738380432, -0.23433612287044525, 0.3556171655654907, -0.5429353713989258, 0.012983869761228561, -0.18943893909454346, -0.060036562383174896,
0.0714513435959816, 0.12024837732315063, 0.09058847278356552, -0.5066471099853516, -0.029989702627062798, 0.2496747076511383, -0.20660564303398132, -0.2892618775367737, 0.2639368772506714, 0.16302162408828735, -0.2180827111005783, 0.1994091421365738, 0.2610788643360138, -0.12517474591732025, 0.5730748772621155, -0.34777313470840454, 0.09357096999883652, -0.11857917159795761, 0.2838498055934906, -0.2864663302898407,
0.3211212158203125, -0.18236760795116425, -0.3894299864768982, 0.049660857766866684, 0.10462601482868195, -0.4209989607334137, 0.2590944766998291, -0.5575329065322876, 0.10217396169900894, 0.0014429062139242887, -0.016822749748826027, 0.13685990869998932, 0.08086022734642029, -0.07689084857702255, 0.007656899746507406, 0.18681417405605316, -0.1810837984085083, -0.27588334679603577, 0.2943091094493866, -0.10474525392055511,
0.5499196648597717, 0.18244069814682007, 0.3745294213294983, 0.4119529128074646, 0.17212234437465668, 0.30073902010917664, -0.3187054991722107, 0.3496735095977783, -0.17271918058395386, 0.05509532615542412, -0.20382723212242126, 0.1461022049188614, 0.028086982667446136, 0.2292787730693817, -0.2965427339076996, -0.15113502740859985, -0.20792976021766663, 0.04434973746538162, 0.05465341731905937, -0.07289420068264008,
-0.043882064521312714, 0.09972945600748062, 1.1186151504516602, 0.2644237279891968, -0.0030773086473345757, 0.1871694177389145, 0.18581116199493408, -0.8501553535461426, -0.03609651327133179, 0.059678658843040466, 0.0233012642711401, -0.13077133893966675, 0.2432066649198532, -0.3607248067855835, -0.014505166560411453, -0.01815902069211006, -0.3127889633178711, 0.0652620866894722, 0.01590803638100624, -0.13160589337348938,
0.1295567899942398, -0.268700510263443, -0.5586327314376831, -0.27236565947532654, -0.18400999903678894, -0.45972397923469543, -0.023089585825800896, 0.12475477159023285, 0.30419400334358215, -0.06287422776222229, -0.03459249809384346, 0.39062780141830444, -0.05827804282307625, -0.11993265151977539, -0.14770293235778809, 0.03943029046058655, -0.036302901804447174, -0.18623337149620056, 0.2294192910194397, -0.18542376160621643,
-0.03942519426345825, 0.23588153719902039, 0.019328869879245758, 0.06208403781056404, 0.09290662407875061, 0.21633858978748322, 0.32930952310562134, 0.40212756395339966, 0.1508340984582901, 0.045548249036073685, 0.09219365566968918, 0.0389731265604496, -0.6000831723213196, -0.022062599658966064, -0.36989250779151917, 0.06370533257722855, 0.31200090050697327, -0.21856382489204407, -0.39798805117607117, 0.06229240819811821,
-0.008150391280651093, 0.14784042537212372, 0.27007603645324707, -0.30771273374557495, -0.0213065966963768, -0.16341817378997803, 0.4929874539375305, -0.37565430998802185, -0.23681952059268951, -0.036961086094379425, 0.052031148225069046, -0.0021666265092790127, 0.45159050822257996, 0.00663898466154933, 0.1427978277206421, 0.10296651721000671, -0.3489528298377991, -0.11954434961080551, 0.062269870191812515, 0.15132175385951996,
-0.14021576941013336, -0.0559019073843956, 1.2392727136611938, -0.10210512578487396, 0.009377461858093739, 0.5022327899932861, 0.44322270154953003, 0.03177512064576149, -0.2516990900039673, -0.10043888539075851, -0.20290304720401764, 0.3038255572319031, -0.22369378805160522, 0.2942705452442169, -0.157505601644516, 0.6097250580787659, 0.07462311536073685, 0.27917400002479553, -0.05378985032439232, -0.02603679709136486,
0.6185230612754822, 0.31191593408584595, -0.3439139723777771, 0.1921631097793579, -0.2915181815624237, 0.004191937856376171, -0.23310868442058563, -0.01793408766388893, -0.25356632471084595, 0.13601168990135193, -0.10332874953746796, -0.390913724899292, 0.2330331653356552, -0.11193570494651794, 0.28378623723983765, -0.1681872457265854, -0.16858986020088196, -0.11245468258857727, 0.18764473497867584, -0.10672782361507416,
-0.36437347531318665, -0.043095871806144714, 0.02282317355275154, -0.43028712272644043, 0.010241196490824223, -0.36395424604415894, 0.4104733169078827, 0.20588582754135132, -0.14855220913887024, -0.03555495664477348, 0.004739796277135611, -0.04537208005785942, -0.07246200740337372, -0.1886511743068695, 0.18137668073177338, 0.3872397840023041, -0.018692944198846817, -0.039659857749938965, -0.11882083863019943, 0.012759490869939327,
-0.26114124059677124, -0.0631791353225708, -0.8816616535186768, 0.3425576090812683, -0.2027740478515625, -0.0339789092540741, -0.11204935610294342, -0.258002370595932, -0.5505180954933167, 0.0225251242518425, 0.033873170614242554, 0.05643507465720177, -0.38272061944007874, 0.00022496326710097492, -0.09318334609270096, 0.38407161831855774, 0.18002676963806152, -0.11071215569972992, -0.01637941040098667, 0.024466153234243393,
-0.1300090104341507, 0.10143759101629257, -0.5495710372924805, 0.0713418498635292, 0.2802980840206146, -0.5859005451202393, 0.3874955177307129, -0.2512042820453644, 0.23695464432239532, 0.20404255390167236, -0.021367834880948067, -0.19053061306476593, 0.17917753756046295, -0.520404577255249, 0.15570485591888428, 0.1569514274597168, -0.044696640223264694, 0.21452395617961884, 0.11331309378147125, -0.1969960629940033,
0.8821759223937988, 0.03736310452222824, 0.274688720703125, 0.051065899431705475, -0.23456518352031708, 0.3869151771068573, 0.5133088231086731, 0.16419358551502228, 0.23663212358951569, -0.04095945507287979, -0.1173214316368103, -0.10652023553848267, 0.1905495822429657, -0.20134736597537994, 0.2311890721321106, 0.5192842483520508, -0.07778753340244293, -0.00022338260896503925, 0.11904184520244598, 0.13754449784755707,
0.22049126029014587, 0.2088468372821808, 0.058004230260849, -0.1143517792224884, 0.2221725732088089, -0.09857320040464401, -0.13556870818138123, 0.1997951865196228, -0.1871395856142044, 0.26830559968948364, -0.08408740162849426, -0.07757315784692764, -0.344978928565979, -0.23941145837306976, -0.3497691750526428, 0.4711636006832123, 0.025229986757040024, -0.24552921950817108, -0.08265078067779541, -0.03129721060395241,
0.3737804591655731, -0.266581654548645, -0.40348371863365173, 0.0031493306159973145, -0.07329613715410233, 0.21017082035541534, -0.35169506072998047, 0.1329987645149231, 0.4551815986633301, -0.1138618066906929, 0.0005165747716091573, 0.24259622395038605, 0.34441128373146057, 0.2454276829957962, 0.2205495685338974, 0.4023953676223755, 0.0778474360704422, 0.2370709627866745, -0.09590576589107513, 0.05426112934947014,
-0.2861853539943695, 0.5325720310211182, 0.24846962094306946, 0.3008958101272583, 0.19561511278152466, 0.22695061564445496, 0.08348223567008972, 0.6925286054611206, 0.2971344292163849, 0.11363893747329712, 0.18454140424728394, 0.20575270056724548, -0.4570116102695465, 0.4044537842273712, -0.27916982769966125, 0.033368878066539764, 0.3121943473815918, 0.27207064628601074, 0.035314127802848816, -0.16729514300823212,
-0.32050055265426636, -0.20392055809497833, -0.06894897669553757, 0.06055319309234619, -0.12620116770267487, -0.2897334396839142, -0.07598472386598587, 0.08935878425836563, 0.28384512662887573, -0.143739715218544, 0.0053043849766254425, 0.2583608031272888, 0.2201344221830368, 0.5929538607597351, -0.33679622411727905, -0.2889021933078766, 0.35077664256095886, -0.07238657772541046, 0.15030480921268463, -0.20010395348072052,
0.6792923212051392, -0.07755116373300552, -0.12043368816375732, 0.08864045143127441, 0.09014037251472473, 0.3311149477958679, -0.17638249695301056, 0.000828927441034466, 0.5337315201759338, 0.03260728716850281, 0.10635705292224884, -0.19941847026348114, -0.1327591836452484, -0.272146075963974, -0.34333181381225586, -0.1822558492422104, -0.28658169507980347, 0.029938098043203354, 0.1466328501701355, -0.03091435134410858,
0.4500580132007599, -0.0976795107126236, 0.49569717049598694, 0.0545552559196949, 0.006116027478128672, -0.13725446164608002, 0.24413755536079407, 0.8256850838661194, -0.7382742762565613, -0.04782930389046669, 0.0748375728726387, -0.09864721447229385, 0.17694224417209625, -0.29815444350242615, 0.5104833245277405, -0.2075345367193222, -0.06353901326656342, -0.13103729486465454, 0.18151000142097473, -0.019334688782691956,
0.06951529532670975, -0.42366883158683777, -0.10654040426015854, -0.10822144150733948, -0.29041779041290283, 0.21315383911132812, -0.12597870826721191, -0.2560526430606842, -0.01746915467083454, -0.06477945297956467, 0.024043632671236992, -0.32583755254745483, -0.02848634123802185, 0.7116897702217102, -0.32040151953697205, 0.09615843743085861, 0.24032293260097504, 0.12891846895217896, 0.15885336697101593, 0.023207100108265877,
-0.27228620648384094, -0.05610623583197594, 0.6269857287406921, 0.04524214193224907, -0.0396714061498642, 0.30347222089767456, 0.0019562486559152603, -1.0897815227508545, -0.05336955189704895, 0.036067619919776917, -0.06877624988555908, 0.35136857628822327, -0.14772844314575195, -0.12709581851959229, 0.41373211145401, -0.21585895121097565, -0.15620578825473785, 0.33989810943603516, -0.21389099955558777, -0.35167717933654785,
-0.15538552403450012, 0.4519414007663727, -0.17564159631729126, -0.15620093047618866, 0.18982772529125214, -0.08702568709850311, 0.05587480589747429, -0.7106658220291138, 0.2739173471927643, -0.08621448278427124, -0.26257485151290894, -0.2848913371562958, 0.49750563502311707, -0.24338069558143616, 0.4190931022167206, -0.3489072024822235, 0.22421599924564362, -0.12400992959737778, -0.14562800526618958, 0.08938400447368622,
0.1896354854106903, -0.029328081756830215, 0.9172705411911011, 0.24227499961853027, -0.32304129004478455, -0.0909077376127243, -0.13917629420757294, 0.2969712018966675, 0.05387912318110466, -0.1917484998703003, 0.11415674537420273, 0.09196443855762482, 0.06728425621986389, -0.18406666815280914, -0.01775309070944786, 0.025418752804398537, -0.3573612868785858, -0.22072388231754303, 0.12832441926002502, -0.02813638746738434,
-0.16614948213100433, 0.07658923417329788, 0.5756086707115173, 0.2923153340816498, -0.014931135810911655, 0.5850285887718201, -0.15599572658538818, 0.686311662197113, 0.4921889305114746, 0.010312801226973534, 0.02882957272231579, -0.14737285673618317, 0.15193217992782593, 0.12189154326915741, 0.04053574427962303, 0.6451943516731262, 0.0729534700512886, 0.037626713514328, 0.13834290206432343, -0.0032709112856537104,
-0.04478571563959122, -0.10829321295022964, 0.9894533753395081, -0.37908661365509033, 0.06173191964626312, 0.23134154081344604, 0.5498741865158081, -0.1893598437309265, -0.19596903026103973, 0.14701923727989197, 0.1315317153930664, -0.009013892151415348, -0.26097723841667175, -0.39578843116760254, 0.14150166511535645, -0.14490419626235962, 0.35981544852256775, -0.15678192675113678, -0.28366971015930176, 0.10148900002241135,
-0.057836342602968216, -0.48101136088371277, -0.09848418831825256, -0.008018858730793, 0.016456589102745056, 0.10096938163042068, -0.21501393616199493, -0.2353668361902237, -0.3242480456829071, 0.062192678451538086, -0.22600236535072327, 0.07491481304168701, 0.44103315472602844, 0.5120937824249268, 0.22426064312458038, 0.0030498672276735306, 0.42036473751068115, 0.03673185780644417, -0.09020498394966125, 0.09248167276382446,
-0.10776922851800919, -0.10654481500387192, 0.07353761792182922, -0.34200525283813477, 0.11393944919109344, -0.34478670358657837, -0.32425782084465027, -0.08003655821084976, -0.4625983238220215, 0.010688508860766888, 0.22161982953548431, -0.19987641274929047, -0.30773746967315674, 0.726738691329956, -0.5199106931686401, 0.20520088076591492, 0.39533254504203796, 0.038746535778045654, 0.24566559493541718, -0.39385324716567993,
0.16367584466934204, -0.352588951587677, 0.30675092339515686, -0.08377645164728165, 0.1662684679031372, 0.34038543701171875, -0.2869696617126465, -0.35184064507484436, -0.32970666885375977, 0.02402368374168873, 0.06440401077270508, 0.14316542446613312, 0.23554132878780365, -0.37367725372314453, -0.14727897942066193, -0.27318069338798523, 0.048061881214380264, 0.08327003568410873, -0.23737241327762604, -0.10648549348115921,
-0.06509462743997574, 0.2400267869234085, 1.0046547651290894, -0.033922601491212845, 0.03036581724882126, 0.19727486371994019, -0.38247305154800415, -0.4812467098236084, -0.10223595052957535, -0.013154611922800541, -0.08767327666282654, -0.15375450253486633, 0.3771617114543915, -0.4200487732887268, -0.1986272633075714, -0.4959668815135956, 0.08197314292192459, -0.08657436817884445, 0.3045024275779724, 0.20339396595954895,
0.24156780540943146, 0.42576566338539124, -0.7678117156028748, -0.03255486115813255, 0.1967216283082962, -0.11439217627048492, -0.2880514860153198, 0.4725453555583954, 0.14387594163417816, -0.005220088642090559, 0.004761765245348215, 0.055841632187366486, 0.140938401222229, 0.17326954007148743, -0.36828505992889404, -0.23558126389980316, -0.22220999002456665, -0.01569005474448204, -0.2642901539802551, -0.021100491285324097,
-0.3676563501358032, -0.534553050994873, -0.4091883599758148, -0.07166748493909836, -0.20282351970672607, -0.4133524000644684, 0.21811871230602264, -0.009739609435200691, 0.6398464441299438, 0.09781859815120697, 0.07293117046356201, -0.2828425467014313, -0.21039801836013794, -0.2994808852672577, 0.1761581301689148, 0.4734567403793335, 0.33052101731300354, 0.30626484751701355, -0.20464520156383514, -0.15819184482097626,
-0.017900751903653145, 0.6880878806114197, -0.07731951773166656, -0.36834853887557983, 0.01772870495915413, -0.09446562081575394, 0.5185834169387817, 0.01451414730399847, 0.5231407284736633, 0.04557514935731888, 0.023244192823767662, 0.11462384462356567, -0.11025155335664749, -0.1875949203968048, 0.274935245513916, 0.5231439471244812, 0.6505440473556519, 0.25876325368881226, 0.08040662854909897, 0.04460812360048294,
0.1479494422674179, 0.15142656862735748, 0.5210205316543579, 0.1605743020772934, -0.19016876816749573, -0.021892808377742767, 0.15481868386268616, -0.5216687917709351, 0.08112900704145432, -0.03870284929871559, -0.11934792995452881, -0.11059828102588654, -0.14297588169574738, -0.5821672081947327, -0.2098999172449112, -0.1631706953048706, 0.12946617603302002, -0.051276545971632004, -0.1927720159292221, 0.07303767651319504,
0.30881157517433167, -0.493425577878952, -0.04534604772925377, -0.027620019391179085, -0.37161365151405334, -0.15351970493793488, 0.33187830448150635, -0.5150561928749084, 0.5217401385307312, 0.011395810171961784, -0.12446507066488266, 0.06866354495286942, 0.3098854124546051, -0.003396080108359456, 0.12511691451072693, 0.3817731440067291, -0.09844540804624557, 0.008905911818146706, -0.12508831918239594, -0.022789351642131805,
-0.4861563444137573, -0.19433000683784485, -0.13982506096363068, -0.19171832501888275, 0.002873065648600459, 0.19024556875228882, 0.19885052740573883, -0.2883091866970062, 0.4389384686946869, 0.0751667246222496, -0.10694968700408936, 0.11050131916999817, 0.16060495376586914, -0.005786307621747255, 0.2390511929988861, 0.13895268738269806, -0.21338434517383575, 0.10804865509271622, 0.11299317330121994, 0.6645781397819519,
0.18641780316829681, -0.30048757791519165, -0.6513861417770386, -0.019976139068603516, 0.12768925726413727, -0.6383081674575806, 0.38481953740119934, 0.5349904298782349, -0.014962306246161461, -0.05196484550833702, -0.1316990852355957, -0.0800153911113739, -0.06190129369497299, -0.3385108709335327, 0.25092101097106934, 0.10001444816589355, 0.20856519043445587, -0.044838979840278625, 0.036728084087371826, 0.08438742905855179,
0.13763462007045746, 0.02534416690468788, 0.022586088627576828, 0.05906570702791214, -0.01694438047707081, -0.11852134019136429, 0.1334032416343689, -0.21132059395313263, 0.03477301821112633, 0.0886220782995224, -0.014070034958422184, 0.030790386721491814, 0.07972876727581024, 0.17705751955509186, 0.3054272532463074, 0.09402289986610413, 0.2192927747964859, -0.7602195143699646, 0.07338573038578033, -0.36068567633628845,
-0.18360404670238495, 0.6727641820907593, 0.6405919790267944, -0.01893560402095318, 0.23728395998477936, 0.2604357600212097, -0.12876209616661072, -0.03427769988775253, 0.48686322569847107, -0.0134650943800807, -0.04427364841103554, -0.005001592915505171, 0.3614184260368347, -0.1520487666130066, 0.08621015399694443, -0.4251231253147125, -0.03334490954875946, 0.13454769551753998, 0.327426016330719, -0.20712430775165558,
-0.41126373410224915, 0.6349539160728455, 0.7875694632530212, -0.0934273824095726, 0.31706035137176514, 0.023804564028978348, 0.03342819586396217, -0.4338696002960205, 0.5869789123535156, -0.05673288553953171, -0.07723391801118851, -0.1166672632098198, 0.1741430014371872, -0.4737876355648041, 0.3357261121273041, -0.01187464501708746, 0.31742143630981445, -0.04523440822958946, -0.10783659666776657, 0.14903497695922852,
0.4216771125793457, -0.26428481936454773, 0.34065812826156616, 0.14995652437210083, 0.1244397833943367, -0.3777492642402649, 0.11639184504747391, 0.3092767298221588, 0.027652205899357796, -0.11644195765256882, -0.12291349470615387, -0.18401481211185455, 0.15760982036590576, 0.3198684751987457, -0.5129048228263855, -0.27999359369277954, 0.14862200617790222, 0.4669713079929352, -0.062118612229824066, 0.5908321142196655,
-0.246545672416687, -0.45193952322006226, -0.5635002851486206, -0.22775837779045105, -0.33453911542892456, -0.3760322332382202, -0.6793556213378906, -0.35268229246139526, -0.2543770372867584, -0.007447238080203533, -0.04252354055643082, 0.2234131246805191, -0.044392284005880356, 0.09575480222702026, -0.020616216585040092, -0.3250327706336975, 0.0499967485666275, -0.07894868403673172, -0.1578267365694046, -0.06865032017230988,
0.3230353891849518, 0.5921408534049988, -0.42704594135284424, 0.2918645441532135, 0.30037039518356323, -0.22813943028450012, -0.007780198939144611, -0.30992281436920166, -0.4603012800216675, -0.030738404020667076, -0.08966594934463501, -0.3262706995010376, -0.17953796684741974, -0.08014683425426483, 0.05110367760062218, 0.10404638200998306, -0.491235613822937, 0.005522412713617086, -0.06970621645450592, -0.18807238340377808,
-0.38823068141937256, 0.21319691836833954, -0.36293965578079224, 0.10271955281496048, 0.1824018806219101, 0.020503830164670944, 0.8265562057495117, 0.06499426811933517, 0.005546123720705509, 0.0059854635037481785, -0.012915125116705894, -0.08365096896886826, -0.5250794291496277, -0.04324662312865257, 0.133074089884758, 0.23815476894378662, 0.03159066289663315, -0.18321733176708221, -0.16518940031528473, 0.07722868025302887,
-0.08444037288427353, 0.37966015934944153, -0.8853381276130676, -0.10396213084459305, 0.16960446536540985, -0.5015379786491394, 0.029295027256011963, -0.2905741035938263, 0.031674958765506744, -0.05646049603819847, 0.20469269156455994, 0.47994810342788696, -0.2293872982263565, 0.10564374178647995, 0.5450822114944458, 0.22747212648391724, 0.19183474779129028, -0.21204634010791779, -0.01645766943693161, 0.046698808670043945,
-0.1201474517583847, -0.18941381573677063, 1.2668604850769043, -0.050992414355278015, -0.2633526623249054, 0.6389851570129395, 0.45678088068962097, 0.2072775959968567, -0.012464200146496296, 0.09754625707864761, -0.05559632182121277, -0.12494605779647827, -0.36228227615356445, -0.49626970291137695, 0.5619677305221558, -0.08273959159851074, 0.17232632637023926, -0.00501612713560462, -0.18886689841747284, -0.12235703319311142,
-0.010508027859032154, -0.01367267221212387, 1.0069611072540283, -0.014117618091404438, -0.12060745060443878, 0.4189121723175049, -0.16310355067253113, 0.780291736125946, 0.015897585079073906, -0.05959775298833847, 0.06797175854444504, -0.2828878164291382, -0.5589249730110168, 0.2162436842918396, -0.18018585443496704, 0.4011342525482178, 0.44546881318092346, 0.22647175192832947, 0.09826028347015381, -0.13835833966732025,
0.7237597107887268, -0.469260036945343, 0.23195034265518188, 0.1786690503358841, -0.04444342106580734, -0.361259788274765, 0.246206596493721, -0.44093453884124756, -0.1155758947134018, -0.042687732726335526, 0.1023317351937294, 0.3910999298095703, -0.3419244587421417, 0.030266497284173965, -0.33002912998199463, -0.1206631138920784, -0.11469025909900665, 0.2539812922477722, 0.1875140368938446, 0.0019129751017317176,
-0.05851985141634941, 0.7372630834579468, -0.15751874446868896, -0.11156364530324936, -0.04231603071093559, -0.23367279767990112, -0.012382007203996181, 0.1282687485218048, 0.33817026019096375, -0.04144849628210068, 0.01998589187860489, 0.21309348940849304, 0.19740892946720123, -0.11143758893013, -0.32147273421287537, 0.07848682999610901, 0.26968759298324585, 0.07903669029474258, -0.15942314267158508, 0.05146070569753647,
0.08662673085927963, 0.0265714842826128, -1.4284840822219849, 0.12107028812170029, 0.06738419830799103, 0.24941778182983398, 0.1015002578496933, -0.0009094676934182644, -0.20231519639492035, -0.22867703437805176, -0.08232378214597702, -0.07358178496360779, 0.22202889621257782, 0.3752292990684509, -0.23475921154022217, -0.1064162626862526, 0.015654969960451126, 0.432014137506485, -0.2290755808353424, -0.10475941002368927,
0.09205034375190735, -0.4308454096317291, -0.15409351885318756, 0.0806044340133667, 0.12589998543262482, 0.47161081433296204, 0.03204634040594101, -0.08330630511045456, -0.16335907578468323, -0.1569480299949646, -0.17783311009407043, -0.11621233075857162, 0.3103654086589813, 0.03887106478214264, -0.17527464032173157, -0.3827444016933441, 0.1862320750951767, 0.12582436203956604, -0.17771348357200623, -0.0018640733323991299,
-0.6215130090713501, 0.17472299933433533, -0.4465525448322296, 0.07855634391307831, 0.15332382917404175, -0.2321261465549469, -0.21643461287021637, 0.27304011583328247, -0.447693794965744, -0.1282341331243515, 0.08240349590778351, -0.18716780841350555, 0.22987493872642517, 0.4428294599056244, -0.3052637577056885, 0.09623098373413086, 0.511262834072113, -0.03927095606923103, 0.12764368951320648, 0.10104534029960632,
0.5435495972633362, 0.2194971889257431, -0.2375742495059967, 0.16706746816635132, -0.027480648830533028, -0.3445415198802948, 0.21829132735729218, -0.023593900725245476, 0.14597445726394653, -0.015338396653532982, 0.018494801595807076, 0.10736068338155746, -0.24267853796482086, 0.18518750369548798, -0.19663839042186737, 0.0698276162147522, -0.22693946957588196, -0.4412875473499298, 0.09801610559225082, -0.19007650017738342,
0.6856564283370972, -0.09320029616355896, 0.4613051414489746, 0.24793344736099243, 0.1543467938899994, 0.20601023733615875, 0.26134201884269714, -0.36607664823532104, -0.11934899538755417, -0.059799354523420334, 0.12251338362693787, 0.19526407122612, -0.06468458473682404, -0.10783703625202179, 0.23710031807422638, -0.19059596955776215, -0.3440012037754059, -0.09477818012237549, 0.33956557512283325, -0.026316553354263306
};

const float biases_fc1[] = {
-0.2020045667886734, -0.08452855795621872, -0.06609220057725906, -0.009107484482228756, -0.20614275336265564, 0.2552984654903412, -0.08733351528644562, -0.10586664080619812, 0.270085871219635, -0.1475604921579361, -0.20535753667354584, -0.05599324777722359, -0.10505001991987228, -0.020064417272806168, -0.008670044131577015, 0.04526257887482643, 0.08683573454618454, -0.10656408220529556, 0.05964142456650734, -0.23349568247795105, 0.2028147578239441, 0.17745232582092285, 0.04092838242650032, -0.2087753266096115, -0.033809248358011246, -0.03143543377518654, 0.25802457332611084, 0.23843227326869965, -0.1405077874660492, -0.010683571919798851, 0.04743412137031555, 0.08257537335157394, -0.05203548073768616, -0.21819785237312317, -0.039192263036966324, 0.04060598462820053, 0.19181931018829346, 0.2257114052772522, 0.006206586956977844, 0.026230953633785248, 0.05115322023630142, 0.1739460676908493, 0.30178940296173096, 0.17895986139774323, -0.07170100510120392, 0.0031042718328535557, 0.07914166152477264, 0.04990563914179802, -0.09521777927875519, -0.01856287196278572, -0.007071845233440399, -0.0355273000895977, -0.23505838215351105, 0.09161257743835449, 0.02212187461555004, 0.13607127964496613, 0.3236338794231415, -0.14493201673030853, 0.23847739398479462, -0.010970213450491428, -0.08892156183719635, 0.2800142168998718, -0.12942686676979065, -0.2185295969247818
};

const float weights_fc2[] = {
0.1327109932899475, 0.17491112649440765, 0.12666070461273193, -0.4119226634502411, -0.21999847888946533, 0.2060616910457611, 0.4075120985507965, -0.100485660135746, 0.3931310474872589, 0.06712917238473892, -0.37231361865997314, -0.15120069682598114, -0.0922551304101944, -0.10020627081394196, -0.5910370349884033, 0.08197323977947235, -0.06936896592378616, 0.3026762306690216, 0.019046282395720482, -0.00955556333065033, 0.19538243114948273, -0.20856623351573944, -0.4487777054309845, -0.17377527058124542, -0.07521232217550278, 0.27669957280158997, -0.4117423892021179, 0.13872162997722626, -0.03285801410675049, 0.1207139641046524, -0.06743922084569931, -0.0033018060494214296, -0.3101208209991455, -0.31017109751701355, 0.013320591300725937, 0.20802733302116394, -0.2824864685535431, -0.0035819385666400194, -0.2950776517391205, -0.09112818539142609, 0.1564505696296692, -0.14399930834770203, 0.020048364996910095, -0.24522560834884644, -0.14096835255622864, -0.10454442352056503, 0.16373807191848755, 0.33432942628860474, 0.22123733162879944, -0.10658706724643707, -0.1066954955458641, 0.01367754302918911, -0.1094139963388443, -0.1643160879611969, 0.1580907106399536, -0.06312701106071472, -0.07145081460475922, 0.04142748564481735, 0.10364308953285217, -0.037101469933986664, -0.004167273174971342, -0.45920756459236145, 0.22277219593524933, -0.23583292961120605,
0.3516802489757538, -0.05362571403384209, 0.0645475685596466, 0.059139005839824677, -0.18662022054195404, 0.028671886771917343, 0.11428933590650558, -0.15636004507541656, -0.077848419547081, -0.15395112335681915, 0.13018110394477844, -0.11464057117700577, 0.0970832034945488, -0.08564301580190659, 0.16730742156505585, -0.027890518307685852, 0.3070284128189087, 0.5856468677520752, -0.17976632714271545, -0.3826347589492798, -0.06342495232820511, 0.20482303202152252, -0.12655097246170044, 0.12328463792800903, 0.0827079638838768, -0.24433426558971405, -0.12631836533546448, 0.26167649030685425, 0.07303859293460846, 0.08051086217164993, -0.005275745876133442, -0.24085886776447296, -0.5966843366622925, 0.12785819172859192, -0.0388532429933548, 0.037901364266872406, 0.043639786541461945, 0.05503172427415848, -0.25697341561317444, -0.17614635825157166, 0.02431640774011612, -0.07049248367547989, 0.6372108459472656, -0.078492172062397, 0.04707660526037216, -0.2900814414024353, 0.28080692887306213, -0.1647675782442093, -0.26634374260902405, -0.24950630962848663, -0.15251749753952026, 0.32254543900489807, 0.10654143244028091, 0.02556494064629078, 0.07143304497003555, 0.40160036087036133, 0.059018202126026154, 0.22297629714012146, -0.07120489329099655, -0.3514016568660736, -0.30823343992233276, -0.31583908200263977, 0.24720574915409088, 0.4265308380126953,
-0.38508501648902893, -0.15972621738910675, 0.024781445041298866, -0.12825892865657806, -0.30567145347595215, 0.2119755744934082, -0.1424199640750885, 0.0008957895333878696, -0.40585848689079285, -0.2606365978717804, -0.2209150493144989, -0.6510509848594666, -0.05338863655924797, -0.2961350083351135, 0.11356013268232346, -0.04483910650014877, 0.20134904980659485, 0.3252524137496948, -0.15318280458450317, -0.503628134727478, 0.22238174080848694, -0.025816557928919792, -0.07960884273052216, -0.242098867893219, 0.12215815484523773, 0.3555373549461365, 0.16470730304718018, 0.11046131700277328, -0.12750637531280518, -0.7639757394790649, 0.13895554840564728, 0.2974553406238556, -0.029123596847057343, 0.148127481341362, -0.05626806989312172, -0.19426071643829346, 0.19549018144607544, -0.21053114533424377, 0.0944722443819046, -0.2029561996459961, 0.3642064929008484, 0.1604701727628708, 0.08179016411304474, -0.19459040462970734, 0.046248577535152435, -0.2700902819633484, 0.017816957086324692, 0.09463086724281311, -0.10256393998861313, 0.013473350554704666, 0.042364977300167084, 0.19898027181625366, -0.23253749310970306, -0.32063356041908264, 0.054800715297460556, -0.34205397963523865, 0.309114545583725, 0.12062965333461761, 0.3209973871707916, 0.2365884631872177, -0.216369166970253, -0.07231568545103073, 0.09911461174488068, 0.177499458193779,
-0.06437742710113525, -0.15877310931682587, -0.2863995134830475, -0.2344379723072052, -0.19604390859603882, -0.23666779696941376, 0.549226701259613, 0.08142897486686707, -0.05558321252465248, 0.12153015285730362, -0.4567716419696808, -0.046788379549980164, -0.0472082756459713, -0.12504029273986816, 0.19693557918071747, -0.14121630787849426, -0.1774478554725647, 0.10859433561563492, 0.2860279381275177, -0.44539475440979004, 0.03942481055855751, -0.2879793047904968, -0.1343424916267395, -0.08087913691997528, 0.23045465350151062, 0.02606859803199768, -0.00047152768820524216, 0.15632264316082, 0.16558332741260529, 0.11545886099338531, -0.21578827500343323, -0.5838724970817566, 0.27759358286857605, -0.3951760232448578, -0.289134681224823, 0.09792716056108475, 0.11232435703277588, 0.07564648240804672, 0.402003675699234, -0.09389597922563553, -0.12767578661441803, 0.010827279649674892, -0.0668637678027153, -0.18814361095428467, -0.362673282623291, -0.15150293707847595, 0.060211628675460815, 0.01332514826208353, -0.2110562026500702, -0.10052894055843353, 0.20232512056827545, -0.15515322983264923, -0.039162978529930115, 0.5196809768676758, -0.12959887087345123, -0.31378260254859924, -0.0364314429461956, -0.22278930246829987, -0.29753202199935913, 0.29491862654685974, 0.024472583085298538, 0.09573756903409958, -0.19754169881343842, -0.6525029540061951,
-0.02802806720137596, 0.07878760993480682, -0.24014194309711456, 0.2299143373966217, -0.15705756843090057, -0.008842232637107372, 0.14301753044128418, 0.15661802887916565, -0.029976919293403625, 0.09513255208730698, -0.12109949439764023, -0.4348779320716858, 0.2494765967130661, 0.22905415296554565, 0.06727873533964157, -0.09173353016376495, -0.1998198926448822, -0.25546741485595703, 0.12147188931703568, -0.20711654424667358, 0.1776006519794464, -0.2044890969991684, 0.3312413692474365, -0.2411489188671112, -0.024208134040236473, -0.07525837421417236, -0.3660297393798828, -0.07993733137845993, -0.09733030200004578, -0.38735947012901306, 0.2527189552783966, 0.1810557097196579, -0.059180453419685364, 0.06708087772130966, 0.3679039180278778, -0.1393754482269287, 0.2220163196325302, -0.2143038958311081, 0.04146714136004448, 0.024003982543945312, -0.0784432515501976, 0.12080207467079163, 0.3797626197338104, -0.17847931385040283, 0.18612243235111237, -0.1399013251066208, 0.46973395347595215, 0.059813886880874634, -0.38996750116348267, -0.15538597106933594, 0.16703930497169495, 0.04237279295921326, -0.3584277331829071, -0.09227859973907471, -0.5347777605056763, 0.0723741352558136, 0.1164158433675766, -0.26467394828796387, -0.0065315295942127705, 0.032730527222156525, 0.18398599326610565, 0.08504892885684967, -0.5757715702056885, -0.19518689811229706,
-0.0568552240729332, 0.07111450284719467, 0.07062197476625443, 0.22693419456481934, -0.040862105786800385, -0.05938820168375969, -0.42051205039024353, -0.2589954435825348, -0.041091691702604294, -0.06658889353275299, -0.5349735021591187, -0.1203046441078186, -0.053578510880470276, 0.34023892879486084, 0.14323897659778595, -0.35617557168006897, 0.2052992731332779, -0.12707509100437164, -0.3040904700756073, -0.11373431980609894, 0.007899094372987747, -0.22461360692977905, 0.3814674913883209, 0.019825683906674385, 0.16807016730308533, 0.5576364398002625, -0.12123269587755203, -0.3232252299785614, 0.1632726639509201, -0.25339004397392273, 0.04695519432425499, -0.14353203773498535, -0.3220908045768738, -0.38699522614479065, -0.19636568427085876, -0.3792054057121277, 0.09185374528169632, -0.3261684477329254, 0.09326263517141342, 0.017026424407958984, 0.08231592923402786, 0.05991310253739357, 0.015638524666428566, 0.03899076208472252, 0.3290419280529022, -0.11395668983459473, -0.25862789154052734, -0.16281773149967194, -0.49755674600601196, -0.3550162613391876, -0.03892006352543831, -0.12268376350402832, 0.12770134210586548, -0.22668172419071198, 0.15849754214286804, -0.17610476911067963, 0.07164885848760605, 0.12848976254463196, -0.43366146087646484, 0.02679169923067093, -0.19300304353237152, 0.048250723630189896, -0.1629086136817932, 0.39795982837677,
-0.16580787301063538, 0.22019092738628387, 0.0848865732550621, -0.17298176884651184, -0.10909910500049591, -0.10296785086393356, -0.1456974893808365, -0.5237267017364502, -0.4054097831249237, 0.08957843482494354, 0.08569740504026413, 0.020565716549754143, 0.3595718443393707, -0.10465468466281891, -0.10980670899152756, 0.10937619209289551, 0.017775673419237137, 0.06600582599639893, -0.15824253857135773, -0.2407250553369522, 0.1903047412633896, 0.4369363784790039, 0.16726356744766235, -0.09081654250621796, -0.22893638908863068, 0.11299129575490952, 0.15667137503623962, -0.04443163797259331, 0.04544740542769432, -0.1532658487558365, -0.1338292956352234, -0.0993562862277031, 0.28388887643814087, 0.15750883519649506, 0.34477806091308594, -0.07602747529745102, -0.2247968167066574, 0.07688654214143753, -0.01876131445169449, -0.3991680443286896, -0.07989545911550522, 0.021411871537566185, 0.33755815029144287, 0.09404606372117996, -0.004248186480253935, -0.08550971746444702, 0.17441396415233612, 0.23391219973564148, 0.038254447281360626, 0.16763059794902802, 0.17030870914459229, -0.2850915789604187, -0.0650566890835762, 0.10248661786317825, 0.20930889248847961, -0.26227208971977234, -0.3060307204723358, -0.32414665818214417, -0.05450421944260597, 0.22740256786346436, -0.06454172730445862, -0.2381875067949295, -0.18390902876853943, -0.0364685021340847,
-0.056623589247465134, 0.23917503654956818, 0.1944136619567871, 0.04688439518213272, 0.050504621118307114, 0.17280782759189606, 0.3895787000656128, 0.1255868673324585, 0.06274756789207458, -0.28359296917915344, -0.11091981828212738, 0.09290235489606857, -0.1141183003783226, 0.25339093804359436, 0.20972898602485657, -0.3660009801387787, 0.12961320579051971, 0.11921269446611404, 0.362907737493515, -0.0017122486606240273, 0.3822806179523468, 0.17038442194461823, -0.0763712227344513, -0.06101851537823677, 0.1360570192337036, -0.20669642090797424, -0.23894552886486053, 0.2101782113313675, -0.038420669734478, 0.25185734033584595, -0.0853232592344284, 0.21780173480510712, -0.00027661214699037373, -0.18257935345172882, 0.3011060655117035, 0.21728229522705078, -0.03000611625611782, -0.001379447872750461, 0.05162053182721138, 0.2865472435951233, -0.21306519210338593, 0.1084551140666008, -0.5064743161201477, 0.0592341311275959, -0.08786345273256302, -0.12335045635700226, -0.04770546033978462, -0.03143806755542755, 0.572573184967041, 0.2787347137928009, 0.0395335778594017, -0.1512545794248581, 0.2013431042432785, 0.2894535958766937, -0.15178723633289337, 0.21731817722320557, 0.28615450859069824, -0.07232347130775452, -0.20748473703861237, -0.2379797101020813, -0.18322192132472992, -0.2363191395998001, -0.4678194224834442, 0.12111729383468628,
0.08261603862047195, 0.09917201846837997, -0.48067325353622437, -0.16036804020404816, -0.26761239767074585, 0.03972799330949783, -0.1415180265903473, 0.12941545248031616, 0.44800546765327454, 0.05411507561802864, -0.0734347328543663, 0.13184450566768646, 0.026517149060964584, -0.3767557144165039, -0.3122672736644745, -0.15812306106090546, 0.13507527112960815, -0.19667720794677734, 0.04188176244497299, -0.040850866585969925, 0.2207862287759781, 0.30654197931289673, 0.14133694767951965, -0.29123643040657043, -0.27438580989837646, -0.24663278460502625, -0.09594590216875076, 0.04486888647079468, 0.10075763612985611, -0.2589452266693115, -0.06909776479005814, -0.1867852807044983, 0.048174481838941574, -0.017069710418581963, -0.13814973831176758, -0.36442238092422485, 0.6157032251358032, 0.13443371653556824, -0.07028859108686447, -0.18673235177993774, -0.009951319545507431, 0.1380557119846344, -0.18323931097984314, -0.0031728388275951147, 0.04495483636856079, -0.09249463677406311, 0.01327613927423954, 0.05593384802341461, -0.20511968433856964, -0.5777176022529602, -0.16492214798927307, 0.2720105051994324, -0.519511342048645, -0.02406742423772812, 0.10702858865261078, -0.3961268961429596, -0.25175848603248596, 0.23942577838897705, -0.006150432396680117, -0.02169313095510006, -0.13245022296905518, 0.3745419681072235, -0.24821226298809052, 0.21019889414310455,
-0.21011780202388763, -0.07153972238302231, -0.14889180660247803, 0.05549439787864685, -0.1542075127363205, 0.043113525956869125, -0.2966630458831787, 0.3137207329273224, -0.24814465641975403, 0.04146040976047516, -0.1792052984237671, 0.37462905049324036, -0.1618676632642746, 0.2456423044204712, -0.1660069078207016, 0.0785944014787674, -0.09157735854387283, -0.17754311859607697, -0.2222597599029541, -0.00919987354427576, -0.5204752087593079, 0.18795622885227203, -0.16277630627155304, 0.47077539563179016, 0.019849281758069992, 0.043579794466495514, -0.285110205411911, -0.05984849855303764, 0.2579352855682373, 0.04829694703221321, 0.3039206266403198, -0.03837716951966286, 0.00223775627091527, -0.20737920701503754, -0.28403040766716003, -0.05747769773006439, 0.06548470258712769, -0.5370392799377441, 0.0673149898648262, 0.4122462868690491, 0.04457450658082962, 0.20380248129367828, 0.2085091918706894, 0.1272314190864563, 0.03550601378083229, 0.24114617705345154, -0.21706019341945648, 0.10289003700017929, -0.06756103783845901, -0.29337015748023987, -0.07691117376089096, 0.09658493846654892, -0.505199134349823, 0.10058604925870895, -0.09687083214521408, 0.09025358408689499, 0.17892219126224518, -0.014255407266318798, 0.006823105737566948, 0.09153808653354645, -0.678483784198761, -0.5051915049552917, -0.025219779461622238, -0.19370827078819275,
0.04712226614356041, 0.2836729884147644, -0.23950624465942383, -0.3118927478790283, 0.014018137939274311, -0.12764586508274078, 0.050834719091653824, -0.21274740993976593, 0.5437390208244324, -0.4612674117088318, 0.22351984679698944, -0.11489137262105942, -0.24028271436691284, -0.07255987823009491, 0.02092854306101799, -0.42666152119636536, -0.19902251660823822, 0.1422310769557953, 0.13317443430423737, -0.07315392047166824, 0.004600704647600651, 0.18730387091636658, 0.15959714353084564, -0.11258404701948166, -0.3034828305244446, 0.029024647548794746, 0.05297611653804779, 0.06371068209409714, -0.3037928640842438, 0.08726784586906433, -0.05693569406867027, -0.048829756677150726, 0.22954900562763214, 0.20390906929969788, -0.1587267965078354, 0.21629755198955536, -0.20123805105686188, -0.2480105608701706, -0.042121466249227524, 0.4070259630680084, -0.09451230615377426, -0.1060890182852745, -0.3929881751537323, 0.36211714148521423, 0.24077363312244415, 0.06682346761226654, 0.08685074001550674, -0.138810932636261, -0.3199423849582672, -0.10640362650156021, 0.18507073819637299, 0.20074830949306488, 0.03978230059146881, -0.1657899022102356, -0.08795015513896942, 0.23777703940868378, -0.07569316029548645, 0.04763377085328102, -0.1786893755197525, 0.2087373584508896, -0.07729195058345795, 0.08016707003116608, -0.44605517387390137, 0.25286340713500977,
0.08733487129211426, 0.385943740606308, -0.07219366729259491, 0.05649824067950249, 0.0683777779340744, -0.08150678128004074, -0.05046995356678963, 0.05846221372485161, 0.4320036768913269, -0.06488139927387238, 0.12732748687267303, -0.23774699866771698, -0.025199996307492256, 0.3211219906806946, -0.036572109907865524, 0.30977699160575867, -0.08928563445806503, -0.07798080146312714, -0.04141150414943695, 0.30076494812965393, -0.015434328466653824, 0.3441367745399475, -0.03252575546503067, -0.04859631508588791, -0.11617379635572433, -0.24870839715003967, -0.21334201097488403, 0.02489635720849037, 0.11560598760843277, -0.04760358855128288, -0.1832960695028305, 0.17126576602458954, 0.22135891020298004, 0.24504995346069336, -0.3481125831604004, -0.5372839570045471, -0.10774834454059601, 0.13918130099773407, 0.18918661773204803, 0.14372240006923676, 0.482529878616333, -0.1361030638217926, -0.10701899230480194, -0.3697434663772583, -0.2314719706773758, -0.02320527657866478, 0.10026851296424866, -0.08844443410634995, -0.10263881087303162, 0.052816830575466156, 0.23317097127437592, -0.08415977656841278, 0.2890062928199768, -0.3405674993991852, -0.14770446717739105, -0.3304615616798401, -0.007680786307901144, -0.18927137553691864, 0.2145639955997467, 0.34130409359931946, -0.0833720937371254, 0.05729703977704048, -0.33801740407943726, -0.19348296523094177,
0.5348865389823914, 0.09181863814592361, -0.0736694410443306, -0.2603056728839874, 0.32177823781967163, -0.11551839113235474, -0.34078502655029297, 0.1597314178943634, -0.010175229050219059, 0.14544357359409332, 0.05851402506232262, 0.1066681519150734, -0.31472012400627136, -0.06474857777357101, -0.07965077459812164, 0.059963010251522064, 0.10316222161054611, 0.19219134747982025, 0.35421836376190186, -0.2777665853500366, -0.023871194571256638, 0.0707617923617363, 0.2715379297733307, 0.015692714601755142, -0.09960636496543884, -0.03947683051228523, -0.2653913199901581, -0.11461228132247925, -1.0191843509674072, -0.1450047343969345, 0.08256424963474274, 0.2241702675819397, -0.012978121638298035, 0.2261141538619995, 0.09804361313581467, 0.057603877037763596, 0.11221271753311157, -0.10295405238866806, -0.20522595942020416, -0.20182953774929047, -0.20133088529109955, 0.04591852426528931, -0.0790783017873764, 0.1536705195903778, -0.1275046169757843, 0.3174782991409302, 0.1204962432384491, -0.4930581748485565, -0.07271160930395126, 0.12447237968444824, 0.12760323286056519, -0.4354380965232849, 0.08119072765111923, 0.33757898211479187, 0.3145844340324402, -0.01846589520573616, -0.08493823558092117, 0.25259751081466675, 0.13631916046142578, 0.028160536661744118, -0.01239951141178608, -0.15579190850257874, -0.034332502633333206, -0.2536242604255676,
-0.25697359442710876, -0.08682504296302795, -0.20315323770046234, -0.21167054772377014, -0.2597355544567108, -0.1311834305524826, 0.03363458812236786, 0.11871716380119324, -0.24700666964054108, 0.0878516286611557, -0.2664077579975128, 0.09994421899318695, -0.38189077377319336, -0.34784606099128723, 0.10707353800535202, 0.1176375299692154, -0.3076716661453247, -0.15191230177879333, 0.05586253106594086, 0.1862162947654724, 0.10879731923341751, -0.015521732158958912, -0.10194212198257446, 0.1194661483168602, -0.1465092897415161, -0.3135960102081299, -0.0666356161236763, 0.2049178034067154, -0.0921788215637207, -0.4935082495212555, 0.09599555283784866, 0.09654172509908676, -0.34286367893218994, -0.2549425959587097, 0.06249530240893364, -0.0761212706565857, 0.057043857872486115, -0.03311876952648163, -0.12756074965000153, 0.07460035383701324, -0.20250970125198364, 0.24698671698570251, 0.5955899357795715, 0.11472166329622269, 0.09563551098108292, 0.42247363924980164, 0.04438165947794914, 0.22164183855056763, -0.47878187894821167, -0.09670209884643555, 0.024902906268835068, 0.03756173700094223, -0.07211510092020035, -0.1548972725868225, 0.3670641779899597, 0.173665389418602, 0.33107680082321167, -0.19999545812606812, 0.5007098913192749, -0.17685505747795105, -0.22921626269817352, 0.15789271891117096, 0.12868276238441467, 0.043560706079006195,
-0.037944115698337555, 0.06442762911319733, -0.058336056768894196, -0.12638327479362488, 0.109716035425663, -0.11052206158638, -0.06415990740060806, 0.2400027960538864, 0.15056973695755005, -0.3876890242099762, 0.26506102085113525, -0.6050512790679932, 0.2486991137266159, -0.179428368806839, -0.10221182554960251, -0.05394796282052994, -0.03634184971451759, -0.37924623489379883, -0.05825071036815643, 0.21810726821422577, -0.17211025953292847, 0.04831767827272415, 0.12080401927232742, 0.1396442949771881, -0.1959940791130066, 0.1596645712852478, 0.07326891273260117, -0.012143540196120739, -0.17881906032562256, -0.13362185657024384, -0.02870931476354599, -0.29820603132247925, -0.2492268979549408, -0.055427536368370056, -0.013374886475503445, -0.00976861733943224, 0.034209270030260086, 0.09232266992330551, 0.6358878016471863, 0.06311559677124023, -0.2216729074716568, 0.3578645884990692, -0.23717336356639862, -0.002425244078040123, 0.31526193022727966, 0.015598664060235023, -0.02905738539993763, -0.39641568064689636, 0.26611462235450745, 0.3178974986076355, 0.0144572164863348, 0.2646418511867523, -0.19608180224895477, 0.023544250056147575, -0.020582551136612892, -0.08914440125226974, -0.05439169704914093, -0.3827532231807709, -0.020475011318922043, -0.14530809223651886, -0.06254428625106812, -0.13761401176452637, 0.3244553804397583, 0.18671616911888123,
-0.03418968245387077, -0.00883991364389658, -0.15420591831207275, 0.048721328377723694, -0.1541234701871872, 0.30045390129089355, -0.08718762546777725, 0.01477908156812191, -0.018159329891204834, 0.5475065112113953, 0.05898251011967659, 0.27213940024375916, -0.26184147596359253, -0.5014121532440186, -0.13202454149723053, -0.02208128198981285, -0.005720918066799641, 0.047616444528102875, 0.20056740939617157, -0.3903997838497162, -0.14742571115493774, -0.3530890941619873, -0.22962161898612976, -0.2487756460905075, -0.2791319191455841, 0.27012211084365845, -0.1987532675266266, -0.042862024158239365, -0.11830077320337296, -0.13915389776229858, -0.5865632891654968, 0.10417616367340088, 0.1165069118142128, -0.11156319826841354, 0.08941086381673813, -0.07985354959964752, -0.22721391916275024, -0.13535836338996887, 0.15634579956531525, -0.2762083113193512, -0.4134983718395233, 0.09028010815382004, 0.04672721028327942, 0.10362260788679123, -0.27078503370285034, 0.1297311782836914, -0.2862679660320282, -0.06399450451135635, 0.13509342074394226, -0.06073656678199768, -0.3734395503997803, 0.12855416536331177, 0.060183797031641006, 0.0020102898124605417, -0.30124810338020325, 0.07001229375600815, 0.3484894037246704, -0.35535749793052673, 0.19107645750045776, -0.3772737383842468, 0.1825408935546875, -0.17975570261478424, -0.14111609756946564, 0.03877532109618187,
-0.35989537835121155, -0.510056734085083, 0.0035479185171425343, 0.12576699256896973, 0.24762260913848877, -0.06668765097856522, 0.03697292506694794, -0.1671852320432663, -0.5094665884971619, 0.6224207282066345, -0.10492745041847229, 0.0380832701921463, 0.12165467441082001, -0.15381363034248352, 0.1450202465057373, 0.01599380373954773, 0.15110129117965698, 0.11518825590610504, -0.3106101453304291, 0.14477255940437317, -0.558326780796051, -0.22234579920768738, -0.012660114094614983, 0.05689616501331329, -0.3171791732311249, -0.20239874720573425, 0.05303585156798363, 0.35943540930747986, 0.1918369084596634, 0.5003287196159363, 0.1227615550160408, 0.08912640810012817, -0.04550931975245476, 0.11882160604000092, 0.17689549922943115, -0.14880794286727905, -0.004173180088400841, -0.044354479759931564, -0.0406283438205719, 0.07807452231645584, -0.0708247497677803, 0.06323254853487015, -0.19157446920871735, 0.24231937527656555, 0.04290694743394852, 0.050637565553188324, -0.25042009353637695, -0.22809234261512756, 0.36686787009239197, 0.07054261118173599, 0.23088228702545166, -0.1272333562374115, 0.10307490825653076, -0.49554234743118286, -0.18191370368003845, -0.20800678431987762, -0.13798995316028595, -0.16596092283725739, 0.09817823022603989, -0.10252369195222855, -0.323709636926651, -0.25865665078163147, 0.07861003279685974, -0.1874348372220993,
0.10786522924900055, 0.2922244369983673, 0.19036217033863068, 0.10466768592596054, 0.03218961879611015, 0.06688783317804337, 0.08938392996788025, -0.10663799196481705, -0.03951675817370415, -0.17856355011463165, -0.11177340894937515, -0.43240538239479065, -0.43881943821907043, -0.11472523212432861, -0.20136862993240356, 0.54430091381073, 0.1624174416065216, -0.08478585630655289, 0.14552026987075806, -0.3420414328575134, -0.08791240304708481, 0.11097743362188339, -0.3037370443344116, 0.5038177371025085, -0.11028305441141129, -0.053283389657735825, 0.14079411327838898, -0.04424870014190674, -0.10530214011669159, 0.21418195962905884, -0.0656077116727829, -0.029479091987013817, -0.35276076197624207, 0.15006963908672333, 0.15017099678516388, -0.07294072210788727, 0.19214649498462677, -0.35384121537208557, -0.28533750772476196, 0.023967895656824112, -0.29986393451690674, 0.34308475255966187, -0.19316980242729187, -0.06541319936513901, 0.27194470167160034, -0.13393953442573547, -0.4466899335384369, -0.3255266845226288, -0.15404702723026276, -0.00390946539118886, -0.005620564334094524, 0.0329715758562088, -0.24804219603538513, 0.07028831541538239, -0.21518929302692413, 0.19982321560382843, 0.1939472258090973, 0.04870869591832161, -0.06140356510877609, -0.23811088502407074, 0.11137276887893677, -0.03829693794250488, -0.22833162546157837, -0.11318489909172058,
-0.17354679107666016, -0.022898899391293526, -0.1516205221414566, 0.15783259272575378, -0.0718114823102951, -0.04870868846774101, -0.520893394947052, -0.06986739486455917, 0.14343515038490295, -0.1533772498369217, -0.6763955354690552, -0.06940938532352448, -0.004707171581685543, -0.04777766019105911, -0.01814652793109417, -0.21384179592132568, 0.16152162849903107, -0.07000769674777985, 0.25948238372802734, -0.08885481208562851, 0.10704032331705093, -0.014463726431131363, 0.2476402223110199, -0.16429682075977325, -0.29594886302948, -0.20071722567081451, 0.03018125146627426, 0.18821023404598236, 0.17540429532527924, 0.11186127364635468, -0.4850701689720154, 0.23353613913059235, 0.28963330388069153, -0.5049429535865784, -0.35193243622779846, 0.08896735310554504, 0.049510061740875244, -0.06686923652887344, -0.09057330340147018, -0.1435271054506302, -0.22567014396190643, -0.036416418850421906, 0.34816205501556396, 0.0932321846485138, 0.05811654403805733, 0.03047128953039646, 0.16593538224697113, -0.05542091280221939, 0.14400966465473175, 0.1933792382478714, -0.3294881582260132, -0.19913344085216522, -0.15333962440490723, -0.08313525468111038, -0.12796080112457275, -0.09501529484987259, 0.09042461961507797, -0.5006924271583557, 0.1532202661037445, -0.16406024992465973, 0.010819309391081333, 0.09935962408781052, -0.10287768393754959, -0.6834276914596558,
-0.1190219521522522, -0.08471620082855225, -0.375461608171463, -0.22016870975494385, -0.2705731689929962, 0.3514236807823181, -0.15995357930660248, -0.05663403123617172, 0.043423909693956375, 0.49482160806655884, 0.10413186252117157, -0.15203814208507538, 0.32883867621421814, -0.02532675489783287, -0.18130072951316833, -0.2798944413661957, 0.1191224455833435, -0.015949252992868423, 0.2761985957622528, 0.2883951663970947, -0.03540707752108574, -0.07526012510061264, -0.059601884335279465, 0.20410341024398804, -0.02648247219622135, 0.044191863387823105, 0.4991512596607208, 0.34943053126335144, -0.3512732684612274, -0.10462893545627594, 0.03317790478467941, -0.33912748098373413, -0.038186732679605484, -0.23028680682182312, 0.008311402052640915, -0.049703869968652725, 0.2467191219329834, -0.0027987423818558455, -0.17633911967277527, -0.3988966941833496, -0.45616403222084045, -0.04475829005241394, 0.30365562438964844, -0.2304234355688095, -0.10504895448684692, 0.22330829501152039, 0.08289460092782974, 0.2976948618888855, -0.3215862512588501, -0.12401160597801208, 0.08673028647899628, -0.5057879686355591, -0.08233384042978287, 0.08177229017019272, 0.04848134517669678, 0.259781152009964, 0.2957538068294525, -0.3128577172756195, -0.19659560918807983, -0.06997793912887573, -0.11981132626533508, 0.12539322674274445, -0.20144905149936676, -0.06715908646583557,
-0.008745922707021236, 0.22572621703147888, 0.4447117745876312, -0.19153708219528198, -0.38429126143455505, -0.001223677652888, 0.09438751637935638, -0.470732182264328, 0.3367779850959778, 0.04998616501688957, 0.17414827644824982, -0.05025511980056763, -0.28972747921943665, -0.5687592029571533, 0.09874450415372849, 0.1849553883075714, 0.015219810418784618, -0.24562688171863556, 0.030314691364765167, -0.09912802278995514, -0.027022728696465492, -0.13749860227108002, 0.030503351241350174, 0.2596438229084015, 0.015248246490955353, -0.07564527541399002, -0.42049524188041687, 0.0962890088558197, -0.31086212396621704, -0.3201022446155548, 0.32114556431770325, 0.02438335120677948, -0.1442110240459442, -0.08879124373197556, -0.339898020029068, -0.07477632910013199, 0.42096173763275146, 0.26759397983551025, -0.0048589929938316345, 0.47351518273353577, -0.3070724308490753, -0.028053617104887962, -0.26701363921165466, -0.18315738439559937, -0.13920634984970093, 0.1434325873851776, -0.029535183683037758, 0.19911059737205505, -0.2314433753490448, -0.336376428604126, 0.003261894453316927, 0.36088719964027405, -0.14852026104927063, -0.07032183557748795, 0.09670761972665787, -0.14473378658294678, -0.3199671506881714, 0.13179460167884827, -0.27266302704811096, -0.04226551577448845, 0.08772522956132889, -0.21764430403709412, -0.2770874500274658, -0.23020514845848083,
0.24744980037212372, 0.18247516453266144, -0.19061057269573212, 0.00524190254509449, 0.4784187972545624, 0.15265634655952454, -0.027620403096079826, -0.19540055096149445, 0.06851539760828018, -0.4230309724807739, 0.22090183198451996, -0.11812839657068253, -0.10958528518676758, -0.1943369060754776, 0.001569382264278829, -0.1179739460349083, -0.22677211463451385, -0.239510640501976, 0.196530282497406, -0.505946695804596, -0.011636843904852867, -0.19247554242610931, 0.06167392432689667, -0.3288936913013458, 0.08322279155254364, 0.06935801357030869, 0.2506729066371918, 0.10448552668094635, 0.05874868854880333, 0.022613463923335075, 0.25606822967529297, -0.07732461392879486, -0.29768285155296326, -0.1499013900756836, 0.10613352805376053, -0.1197526827454567, 0.07104315608739853, 0.1673959493637085, -0.023606901988387108, -0.18895427882671356, 0.3445391058921814, 0.45896682143211365, 0.042246390134096146, -0.1008186936378479, -0.3793800175189972, 0.0017315744189545512, -0.3797818124294281, -0.28100308775901794, -0.07207206636667252, -0.03408416733145714, 0.19241850078105927, -0.12802253663539886, -0.32973891496658325, -0.3075089454650879, 0.21968452632427216, -0.150967538356781, 0.19309265911579132, -0.027645407244563103, -0.16123613715171814, -0.09238597005605698, -0.5751577019691467, -0.15939955413341522, 0.10480077564716339, -0.30665355920791626,
-0.22749833762645721, 0.06739546358585358, -0.11345372349023819, 0.06622155755758286, -0.2929082214832306, 0.23272624611854553, 0.31027182936668396, 0.05020773038268089, 0.23804794251918793, -0.051991164684295654, 0.11435771733522415, 0.09177525341510773, 0.36837002635002136, 0.018998567014932632, 0.24366088211536407, -0.07505825161933899, 0.2334764301776886, -0.04242217540740967, 0.505068838596344, 0.10835519433021545, 0.0727061927318573, -0.26677098870277405, -0.3171809911727905, 0.4031844437122345, -0.1858867108821869, -0.1503296196460724, -0.1222701296210289, -0.18950529396533966, 0.056673165410757065, 0.004974160809069872, 0.12731875479221344, 0.05694618821144104, -0.07559537142515182, 0.2886567711830139, 0.2023145854473114, -0.09431101381778717, -0.3463563621044159, -0.2040860652923584, 0.2962452173233032, -0.5343120098114014, 0.2355111688375473, -0.04682251811027527, -0.09270115196704865, -0.0964149460196495, 0.4080082178115845, 0.13717937469482422, 0.02036314830183983, -0.22409941256046295, 0.02223946526646614, 0.07886397838592529, -0.2289910465478897, 0.022296758368611336, 0.36266928911209106, 0.24123221635818481, 0.21946342289447784, 0.2154245376586914, 0.008693249896168709, 0.11238107085227966, -0.15528389811515808, 0.32190752029418945, -0.00212175608612597, 0.025975069031119347, 0.12199701368808746, 0.053138528019189835,
0.023895734921097755, 0.2847083508968353, -0.10187088698148727, 0.30159276723861694, -0.280855655670166, -0.3482361137866974, -0.3116697669029236, 0.21936777234077454, -0.30294671654701233, -0.03775949031114578, -0.12041974812746048, -0.024997815489768982, -0.09216003119945526, -0.6010626554489136, -0.1524449735879898, -0.3441053032875061, -0.0839836597442627, -0.17734166979789734, 0.10051300376653671, 0.07336953282356262, -0.17190712690353394, -0.05643733963370323, -0.035633377730846405, 0.17226211726665497, 0.16708053648471832, 0.1056048572063446, 0.006470120046287775, -0.06603929400444031, 0.29557254910469055, 0.20197038352489471, -0.006754245143383741, 0.21481767296791077, 0.10855036228895187, 0.09026388823986053, 0.1464148759841919, -0.07108774036169052, 0.30299898982048035, -0.12425348907709122, -0.08522102981805801, -0.1788063645362854, 0.12703444063663483, 0.21609847247600555, 0.11566947400569916, 0.02561119571328163, -0.1372411549091339, 0.1566946655511856, 0.2347383350133896, 0.4401467740535736, 0.10274173319339752, -0.06683399528265, 0.09359028190374374, -0.3424457609653473, 0.1357232630252838, 0.0811098963022232, -0.22662672400474548, 0.2041257619857788, -0.3639940321445465, -0.0998687595129013, -0.18289203941822052, 0.20097565650939941, 0.166950061917305, 0.003366566728800535, -0.10217089205980301, -0.11073534935712814,
-0.06499145179986954, -0.2919648289680481, -0.2874961495399475, 0.31867676973342896, 0.06059511750936508, -0.22176648676395416, 0.25392627716064453, -0.2903563380241394, -0.028283575549721718, -0.21769259870052338, 0.19965150952339172, -0.1743830293416977, -0.18372492492198944, -0.10598337650299072, -0.2957044541835785, 0.015418926253914833, -0.19452376663684845, -0.18769079446792603, -0.3763016164302826, -0.14640098810195923, 0.09878885746002197, -0.2086917906999588, 0.021717634052038193, -0.08068592101335526, -0.1057407557964325, 0.04083564877510071, -0.06895438581705093, -0.2955295145511627, 0.3812081813812256, -0.20109789073467255, 0.01594674214720726, -0.6179127097129822, -0.3406822979450226, 0.13630932569503784, -0.08010104298591614, 0.2877471148967743, -0.15135782957077026, -0.036478616297245026, -0.23206929862499237, -0.24494503438472748, -0.448230117559433, 0.11831213533878326, -0.08278818428516388, -0.27470678091049194, -0.2473466694355011, -0.23359157145023346, 0.11773008853197098, 0.06583115458488464, 0.24760465323925018, 0.13566096127033234, 0.27939119935035706, -0.19962933659553528, 0.057127125561237335, -0.15438120067119598, 0.008577036671340466, 0.06385775655508041, 0.12159261107444763, 0.06642916798591614, -0.02925291284918785, 0.3269236087799072, -0.06554830074310303, -0.057891350239515305, -0.28122520446777344, 0.060511715710163116,
0.11999399960041046, 0.23430989682674408, 0.16540522873401642, 0.08533177524805069, 0.34659501910209656, -0.3803447186946869, 0.3546070456504822, 0.3607369363307953, 0.030404388904571533, 0.11139232665300369, -0.19165180623531342, 0.031478896737098694, -0.17426468431949615, 0.11670973896980286, 0.11315375566482544, -0.16012604534626007, 0.019108882173895836, 0.3074270188808441, -0.2295844554901123, 0.33715829253196716, 0.29071930050849915, -0.06108739972114563, 0.13776671886444092, 0.2813473641872406, -0.005084478296339512, 0.1748563051223755, 0.1480330228805542, -0.3084520995616913, -0.06990831345319748, 0.47494634985923767, 0.10002484172582626, -0.20011883974075317, 0.20050765573978424, 0.10839061439037323, -0.10266906768083572, -0.18191401660442352, -0.46451979875564575, -0.02531445398926735, -0.15788237750530243, 0.00952150858938694, 0.06529534608125687, -0.2683483958244324, 0.08285816758871078, -0.11604858189821243, 0.22341977059841156, 0.032070741057395935, 0.2486049085855484, -0.11925079673528671, 0.2564316391944885, 0.20265445113182068, 0.32100996375083923, 0.5046361088752747, -0.08140755444765091, -0.031138332560658455, -0.15007616579532623, -0.11650218069553375, 0.05973757058382034, -0.12728726863861084, -0.08549081534147263, -0.012897460721433163, -0.24230457842350006, 0.04604301601648331, 0.03605086728930473, -0.08994437009096146,
0.23075097799301147, 0.3132208585739136, 0.16121582686901093, 0.1024915799498558, 0.30431291460990906, 0.26466333866119385, 0.5593245625495911, 0.2302301675081253, 0.0382218174636364, 0.04137067496776581, -0.19465161859989166, -0.07582084089517593, 0.15170112252235413, 0.010996496304869652, 0.26269155740737915, 0.08888626098632812, -0.1032116636633873, 0.054346974939107895, -0.15840686857700348, 0.12642556428909302, 0.05622732266783714, 0.04563842713832855, -0.12021281570196152, -0.029997756704688072, -0.21471352875232697, 0.0687832459807396, 0.004065047949552536, 0.07106383889913559, -0.19864125549793243, -0.3181227147579193, 0.20743253827095032, 0.5246574282646179, 0.13740329444408417, 0.040881793946027756, -0.09420502185821533, 0.50331711769104, 0.27500566840171814, -0.3225715756416321, 0.18333768844604492, -0.16565993428230286, 0.25318995118141174, -0.20615370571613312, 0.013841071166098118, 0.23743347823619843, -0.13153432309627533, -0.06529252231121063, -0.09992848336696625, -0.031883224844932556, -0.06498789042234421, 0.005953694693744183, -0.3077179491519928, 0.183264821767807, 0.31827786564826965, -0.1575966775417328, 0.12260611355304718, 0.15158599615097046, -0.516371488571167, 0.0182817280292511, -0.15924236178398132, 0.021507438272237778, -0.2326168268918991, -0.16883200407028198, -0.08413935452699661, 0.1618792861700058,
-0.0177475456148386, 0.19029338657855988, 0.032396964728832245, 0.14015664160251617, 0.28370407223701477, -0.02716423012316227, 0.29038313031196594, -0.040396515280008316, -0.04115926846861839, 0.08339352160692215, 0.14774753153324127, -0.031724199652671814, 0.41327446699142456, -0.05470521003007889, 0.2201692759990692, -0.19608022272586823, -0.1797754317522049, 0.09923745691776276, -0.07902505248785019, -0.33225420117378235, -0.15444205701351166, -0.04423915967345238, 0.01492144912481308, -0.19934120774269104, 0.015683408826589584, 0.0014114913064986467, -0.03603951260447502, 0.13871736824512482, 0.055866219103336334, 0.018329354003071785, -0.43103083968162537, 0.26908907294273376, 0.3787539601325989, -0.08700046688318253, -0.09584079682826996, -0.348599374294281, 0.15744510293006897, -0.4645710289478302, -0.15607190132141113, 0.09246019273996353, 0.12679491937160492, -0.0019117190968245268, -0.11785002052783966, 0.15476831793785095, -0.21451334655284882, 0.2189623862504959, 0.05928623676300049, 0.2406502664089203, 0.20488405227661133, 0.4982871413230896, 0.07021447271108627, -0.1539423018693924, -0.46147966384887695, -0.08863551169633865, 0.18797598779201508, 0.2081107199192047, -0.3496747314929962, 0.1004323959350586, 0.32120612263679504, -0.284834086894989, -0.12275379151105881, -0.012726221233606339, -0.08923131227493286, 0.242975652217865,
-0.18717984855175018, 0.2869625985622406, -0.050740797072649, 0.06554551422595978, -0.14862452447414398, 0.10857890546321869, -0.03492468595504761, -0.08616646379232407, 0.13986970484256744, 0.4611142873764038, 0.15440376102924347, 0.06839747726917267, -0.08019521087408066, 0.010227336548268795, -0.05265497416257858, -0.058782368898391724, -0.14380286633968353, 0.012795264832675457, 0.09203816205263138, 0.059432752430438995, -0.22589999437332153, 0.3314621150493622, 0.27607449889183044, -0.34259000420570374, 0.25520503520965576, -0.4877126216888428, 0.1555173248052597, -0.27490234375, -0.023293742910027504, -0.12741802632808685, 0.043428368866443634, 0.03599737212061882, 0.12212757021188736, -0.6961660385131836, -0.10897324979305267, -0.44592949748039246, 0.13020390272140503, 0.031914226710796356, 0.0964631512761116, -0.12279054522514343, -0.08275928348302841, -0.06137198582291603, 0.03468365967273712, -0.26770612597465515, -0.006537662353366613, -0.29260125756263733, 0.12515254318714142, -0.15279749035835266, -0.11675257235765457, -0.008933396078646183, -0.26682546734809875, -0.27235546708106995, 0.034090954810380936, 0.27550557255744934, -0.10943115502595901, 0.055531688034534454, -0.2049279361963272, -0.006423883605748415, 0.11240687966346741, 0.1260310560464859, -0.05685018375515938, -0.19424840807914734, 0.07248323410749435, 0.02991534397006035,
0.40090516209602356, -0.06253988295793533, 0.1834263801574707, 0.02796223945915699, 0.03546801954507828, 0.030542923137545586, 0.219122052192688, -0.06409808993339539, -0.3158813416957855, -0.04674867168068886, -0.0806385725736618, -0.2279878854751587, -0.12050101161003113, -0.31921371817588806, -0.07409734278917313, 0.26233115792274475, 0.2723798155784607, 0.011589745990931988, -0.53709477186203, -0.02924574352800846, 0.15218523144721985, -0.2686120867729187, 0.173568993806839, -0.4391344487667084, -0.22074663639068604, -0.31226593255996704, 0.15180495381355286, 0.057756468653678894, -0.12550920248031616, -0.36295846104621887, -0.21144652366638184, -0.08651120215654373, -0.03914494439959526, -0.12592031061649323, 0.016566786915063858, 0.12577971816062927, 0.12310461699962616, -0.30441808700561523, 0.23794031143188477, 0.40216052532196045, -0.25116899609565735, -0.0347587876021862, -0.42719554901123047, 0.020409049466252327, 0.1839696317911148, 0.10921332240104675, 0.018519628793001175, 0.07961809635162354, -0.04538653418421745, 0.23639234900474548, 0.1711561232805252, -0.077182836830616, -0.28796446323394775, 0.12934574484825134, -0.028407959267497063, 0.19951865077018738, 0.14253030717372894, 0.17699694633483887, 0.022121306508779526, -0.046242956072092056, -0.21268507838249207, -0.01665666326880455, 0.21676170825958252, -0.08126672357320786,
0.22178606688976288, 0.10534417629241943, 0.025710895657539368, 0.22272352874279022, -0.06642252206802368, 0.2339407205581665, 0.1309446543455124, -0.28186067938804626, -0.0022618628572672606, -0.22519174218177795, -0.2033867985010147, 0.0015202187933027744, -0.09776747971773148, -0.0036639575846493244, 0.021216459572315216, -0.21235138177871704, -0.23577500879764557, -0.37360793352127075, -0.028666362166404724, -0.008226213976740837, -0.24967138469219208, -0.0016348914941772819, -0.1170489639043808, -0.07250183075666428, -0.021479252725839615, 0.041803717613220215, 0.08263017237186432, 0.08164125680923462, -0.23009884357452393, -0.3374437391757965, -0.024655217304825783, 0.02182246372103691, -0.08048555254936218, 0.17162145674228668, 0.1752222776412964, 0.059787824749946594, 0.5543403625488281, 0.44282299280166626, -0.11713099479675293, 0.10822572559118271, 0.019983874633908272, -0.32962197065353394, -0.23590509593486786, 0.08728395402431488, -0.12089591473340988, -0.2195049524307251, -0.2943055331707001, -0.14818429946899414, 0.20130451023578644, 0.31051671504974365, 0.03691011294722557, 0.12146513909101486, -0.3521703779697418, -0.5945205092430115, -0.31828343868255615, 0.1623702496290207, 0.14302118122577667, 0.11866438388824463, 0.10781219601631165, 0.1777687966823578, -0.18425479531288147, 0.09877660125494003, -0.15765683352947235, -0.04992569237947464,
-0.1522493213415146, -0.006792719475924969, -0.004943487234413624, -0.3943227529525757, -0.5018105506896973, 0.2521939277648926, -0.16987258195877075, -0.14328579604625702, -0.016792410984635353, 0.18035469949245453, -0.12791576981544495, -0.24708619713783264, -0.14421780407428741, -0.12740136682987213, -0.22553744912147522, 0.0967119038105011, -0.3624439537525177, -0.2135327160358429, -0.04821142181754112, -0.2589699923992157, 0.36440014839172363, 0.2616974711418152, 0.12104734033346176, 0.24887025356292725, -0.1267496943473816, 0.11762740463018417, -0.255557656288147, -0.07585715502500534, -0.060301803052425385, 0.24193842709064484, -0.07513106614351273, -0.35292986035346985, -0.4281509816646576, 0.003016747534275055, -0.3909711539745331, -0.17413349449634552, 0.08416985720396042, -0.07782348245382309, -0.261889785528183, -0.5304476022720337, 0.20556317269802094, -0.06073629856109619, 0.038167648017406464, 0.1798684298992157, 0.0666598528623581, 0.03148695081472397, 0.25029200315475464, 0.17137418687343597, -0.2484545111656189, 0.4938308894634247, 0.35871782898902893, 0.1677381545305252, -0.028706971555948257, 0.2329823523759842, -0.05152367055416107, -0.012279309332370758, 0.14170275628566742, -0.23739251494407654, -0.05155147612094879, -0.12166106700897217, 0.1182398796081543, 0.11387660354375839, 0.15636038780212402, -0.29759931564331055,
-0.05367456376552582, 0.2440783977508545, 0.26935961842536926, 0.04480404779314995, -0.4019203186035156, 0.03508158028125763, 0.3841284215450287, 0.1924847811460495, -0.12489861994981766, -0.17642264068126678, -0.09284402430057526, -0.11431457847356796, -0.16207723319530487, -0.19245150685310364, -0.66133713722229, -0.20459407567977905, -0.07382538914680481, 0.09596751630306244, 0.019347887486219406, -0.19946140050888062, 0.0040318225510418415, -0.13668356835842133, 0.22255843877792358, -0.15660525858402252, -0.261590838432312, 0.09904158115386963, -0.16165710985660553, -0.0834791362285614, 0.02004399523139, 0.46464794874191284, -0.05774637311697006, -0.0777948871254921, 0.2955615520477295, -0.041553620249032974, -0.06420312076807022, -0.13075044751167297, -0.07914401590824127, 0.34140124917030334, 0.15975406765937805, 0.16743166744709015, -0.08026037365198135, 0.3645937740802765, -0.08043885231018066, -0.18095560371875763, -0.10574991255998611, 0.11686243861913681, -0.05659647658467293, -0.1937728226184845, -0.2100328505039215, 0.28692615032196045, -0.1011563092470169, 0.21815870702266693, -0.0372791551053524, 0.10731697082519531, 0.42775648832321167, 0.4447035789489746, -0.2303260862827301, 0.01710636354982853, -0.272292822599411, 0.25129368901252747, -0.1671420782804489, 0.12061905115842819, -0.11914991587400436, -0.01719544269144535,
-0.41826239228248596, -0.013616261072456837, -0.14022260904312134, -0.5662193894386292, 0.07193595170974731, 0.20999199151992798, -0.05504297837615013, -0.11673417687416077, 0.05031590163707733, 0.21333615481853485, -0.0999402180314064, -0.18951213359832764, -0.20488888025283813, -0.05621572583913803, 0.009279491379857063, -0.45926836133003235, 0.21535830199718475, -0.04890671744942665, 0.11174169182777405, -0.0956195667386055, -0.10384821891784668, -0.03710738942027092, 0.38932040333747864, -0.02434055507183075, 0.16147127747535706, -0.4134126305580139, 0.05341784656047821, -0.33682161569595337, -0.11414717882871628, -0.07586642354726791, -0.5259377956390381, -0.24940770864486694, 0.10510613769292831, 0.16880011558532715, 0.07447664439678192, 0.4497224688529968, 0.21920287609100342, -0.12298208475112915, -0.20414578914642334, 0.23618566989898682, -0.048477351665496826, 0.24210329353809357, 0.18343138694763184, -0.14966627955436707, -0.31453025341033936, 0.036403145641088486, -0.10203536599874496, -0.19636653363704681, 0.2546616196632385, -0.01040186733007431, 0.09778736531734467, -0.44810017943382263, -0.13981620967388153, 0.009940638206899166, 0.21330274641513824, 0.04196172580122948, -0.12507221102714539, -0.06973250210285187, 0.062429189682006836, -0.03402514010667801, -0.031680628657341, 0.4240102469921112, 0.1589740663766861, -0.24087582528591156,
-0.3676774501800537, -0.04957924410700798, -0.17967192828655243, 0.0050847334787249565, -0.15744595229625702, -0.23248842358589172, -0.18162555992603302, 0.07799770683050156, 0.20492734014987946, -0.026118338108062744, -0.07433050125837326, -0.28784608840942383, -0.14344914257526398, -0.040621913969516754, -0.10039395093917847, -0.19980297982692719, 0.33137762546539307, -0.12197745591402054, -0.1827457845211029, -0.024310223758220673, -0.15455777943134308, -0.11902297288179398, 0.3178081512451172, 0.15322259068489075, 0.06457789987325668, 0.3315703570842743, -0.0712597444653511, 0.32275354862213135, 0.1701449602842331, -0.11323001235723495, -0.14098389446735382, -0.16849763691425323, -0.2715222239494324, -0.049043942242860794, 0.15943050384521484, 0.05429762229323387, -0.18142497539520264, 0.16479121148586273, -0.2759113907814026, -0.31719791889190674, -0.20916986465454102, 0.07882525026798248, 0.1663733720779419, -0.125795379281044, 0.19081193208694458, 0.031042253598570824, -0.2612844407558441, 0.06375789642333984, -0.4032345116138458, -0.04478868097066879, 0.22580142319202423, -0.3468971252441406, -0.07707522064447403, 0.5172145962715149, -0.2962632179260254, 0.2359423041343689, -0.15450017154216766, -0.2542751133441925, 0.4528154134750366, 0.09444653242826462, -0.11747600883245468, 0.1669459342956543, -0.07383298128843307, -0.09058044850826263,
-0.2439747452735901, -0.3215988278388977, 0.4097859561443329, 0.307373970746994, 0.012343030422925949, -0.19199849665164948, -0.1328645944595337, -0.04931509122252464, 0.07475022226572037, 0.06975290924310684, 0.05872688069939613, 0.43532121181488037, 0.12707091867923737, -0.21711133420467377, -0.21208301186561584, 0.23949506878852844, -0.1215328648686409, -0.14063489437103271, 0.31411802768707275, -0.0511443205177784, 0.22264815866947174, -0.3346181809902191, -0.26350781321525574, -0.22736190259456635, -0.06877337396144867, -0.1419253796339035, -0.42801862955093384, 0.02555396966636181, -0.4123784005641937, -0.06670255213975906, -0.24038924276828766, -0.14464066922664642, 0.08880830556154251, -0.2570692002773285, -0.0806005671620369, -0.467159241437912, 0.15579332411289215, -0.3800886273384094, -0.0601876862347126, -0.11940550804138184, -0.12913793325424194, -0.32269296050071716, 0.23253032565116882, 0.06438004970550537, 0.2236376255750656, -0.07220262289047241, -0.2503688633441925, 0.30922242999076843, 0.11338701844215393, -0.04388328641653061, 0.37237393856048584, -0.06889890879392624, -0.1330755203962326, -0.22603709995746613, -0.19131745398044586, -0.23572254180908203, -0.26347315311431885, -0.5141094923019409, 0.030808966606855392, 0.03439364209771156, -0.04669128358364105, 0.1447327584028244, 0.15998490154743195, 0.34364092350006104,
0.14489127695560455, 0.19962285459041595, -0.5975127220153809, 0.07344041764736176, -0.12658953666687012, 0.08343426138162613, -0.14814752340316772, -0.325460821390152, -0.07987372577190399, -0.255011647939682, 0.2462594360113144, 0.27554285526275635, -0.028460880741477013, 0.06740567833185196, -0.07789500802755356, -0.28331586718559265, 0.20384205877780914, 0.27995964884757996, -0.48799341917037964, 0.20081067085266113, 0.0045630233362317085, -0.04396885633468628, 0.03178804740309715, -0.06676992774009705, -0.08640407770872116, -0.18331873416900635, 0.04387868940830231, 0.12959475815296173, -0.41578924655914307, -0.3696397542953491, -0.004430992063134909, 0.16081707179546356, 0.24902966618537903, -0.20519739389419556, -0.0336361825466156, 0.12690028548240662, 0.12542018294334412, -0.08341784030199051, -0.2036212533712387, -0.1254640519618988, -0.00831726286560297, 0.022041302174329758, -0.16376183927059174, -0.1317683458328247, 0.023253073915839195, 0.2407892644405365, -0.24182263016700745, -0.32881224155426025, 0.0885377898812294, 0.4479295015335083, 0.2886456549167633, -0.04596063122153282, -0.3153558373451233, 0.05111542344093323, 0.06925546377897263, -0.33820682764053345, -0.5087829828262329, -0.018244663253426552, -0.20539490878582, -0.07162848860025406, 0.3156883120536804, -0.12168318033218384, 0.02483668364584446, 0.15967786312103271,
0.054027803242206573, -0.052180733531713486, 0.12167084962129593, 0.11420046538114548, 0.0804559662938118, 0.1776026487350464, 0.28548043966293335, 0.0033185097854584455, -0.37069305777549744, -0.2900334894657135, -0.2703709006309509, 0.11749391257762909, 0.32826510071754456, -0.06684703379869461, -0.013177314773201942, 0.16171398758888245, -0.19611573219299316, 0.19890330731868744, 0.22308042645454407, -0.2501950263977051, -0.18358704447746277, -0.1746649295091629, 0.055437806993722916, -0.010322017595171928, 0.0970286950469017, 0.0699974000453949, -0.05096002295613289, -0.24852874875068665, -0.3116512894630432, -0.4723699390888214, 0.1058780774474144, -0.28699102997779846, 0.12541045248508453, 0.09143681824207306, -0.3955835700035095, -0.17573650181293488, -0.06323577463626862, 0.42990100383758545, -0.2566221356391907, -0.08591893315315247, 0.007986536249518394, 0.33082932233810425, -0.4160224497318268, -0.2304992377758026, 0.38835230469703674, 0.12181821465492249, 0.06044645980000496, -0.05065708979964256, 0.02380041964352131, -0.3482520282268524, 0.09303823858499527, 0.022062942385673523, -0.10208132863044739, 0.15117846429347992, -0.2544119656085968, -0.08599246293306351, -0.05574896186590195, 0.022480979561805725, -0.20669350028038025, -0.44723808765411377, -0.2611774802207947, -0.052106212824583054, -0.042867958545684814, -0.4343535006046295,
-0.1597410887479782, -0.13548481464385986, -0.22692549228668213, -0.014811237342655659, -0.08926226198673248, -0.0007091916631907225, -0.03308975696563721, 0.2168682962656021, 0.029045987874269485, -0.016172470524907112, 0.12781235575675964, -0.017614318057894707, 0.0336020402610302, -0.0730934888124466, -0.0028541707433760166, -0.19375690817832947, 0.43808895349502563, -0.25537562370300293, -0.14643292129039764, -0.37525925040245056, 0.07137273997068405, 0.05460796132683754, 0.10899911820888519, -0.2969605326652527, 0.11494507640600204, -0.11257138103246689, 0.1625393182039261, 0.07653170078992844, -0.5379996299743652, 0.268319696187973, -0.3788841962814331, -0.1628400981426239, -0.07619112730026245, 0.07459693402051926, -0.07093875855207443, -0.09851288050413132, -0.005436258390545845, -0.08628012984991074, -0.3638613820075989, -0.06601706147193909, -0.6908286213874817, 0.27456140518188477, 0.41585832834243774, 0.07655666768550873, -0.2099214792251587, 0.33491823077201843, 0.14705778658390045, 0.3210563361644745, 0.12829366326332092, 0.148427814245224, -0.15017610788345337, -0.011959558352828026, -0.08186584711074829, 0.44601672887802124, -0.016072994098067284, -0.17177104949951172, -0.03224733844399452, -0.23441357910633087, 0.14736948907375336, 0.23597165942192078, -0.1789628267288208, -0.027742154896259308, 0.40119463205337524, -0.3589904308319092,
0.20453916490077972, 0.06585764139890671, 0.40022772550582886, 0.18433144688606262, -0.3208365738391876, -0.07396795600652695, -0.11789165437221527, 0.18160146474838257, -0.005912497639656067, 0.0952364131808281, 0.454262375831604, 0.05249214544892311, 0.08901119232177734, -0.021978596225380898, 0.1192101463675499, -0.21326497197151184, -0.1934119611978531, -0.4621167480945587, -0.008106882683932781, -0.059494875371456146, -0.30874189734458923, 0.2265775054693222, -0.06263358145952225, -0.16244247555732727, -0.053867630660533905, 0.2689552903175354, -0.15729683637619019, 0.34348079562187195, 0.36519479751586914, -0.3215920031070709, 0.08428523689508438, -0.0892820730805397, 0.14832444489002228, -0.022255582734942436, 0.023353107273578644, -0.21641942858695984, 0.05014094337821007, -0.24609437584877014, -0.3276883065700531, -0.13509579002857208, 0.13546040654182434, -0.13261021673679352, -0.015712348744273186, -0.013707525096833706, 0.18538907170295715, 0.1551395058631897, 0.4391029179096222, -0.19772015511989594, -0.01742585562169552, 0.025006186217069626, -0.0539250373840332, -0.23492108285427094, 0.02495831437408924, -0.433992475271225, 0.04974932223558426, -0.48535510897636414, -0.17959073185920715, -0.17362751066684723, -0.03155435994267464, 0.12679240107536316, 0.022006502375006676, 0.09878590703010559, 0.18918953835964203, -0.037006597965955734,
-0.020519457757472992, 0.08496370911598206, 0.019508369266986847, -0.13047954440116882, 0.05955273658037186, 0.09896241873502731, 0.11752202361822128, 0.09622840583324432, 0.03826568275690079, 0.01436210423707962, -0.051432352513074875, -0.2202359437942505, -0.24930454790592194, 0.4472174346446991, 0.05962785705924034, 0.2864852547645569, 0.04284275695681572, -0.08953551948070526, 0.5461449027061462, -0.03521176427602768, 0.26289471983909607, -0.3024600148200989, -0.03561258316040039, 0.005315418820828199, -0.10042080283164978, 0.008090737275779247, -0.007844990119338036, 0.04967552796006203, 0.23615147173404694, 0.1996002495288849, -0.3904046416282654, -0.026023054495453835, 0.13790564239025116, -0.1308847814798355, 0.06355243921279907, 0.16899821162223816, -0.16035525500774384, -0.215479776263237, 0.12969166040420532, 0.12840738892555237, -0.567032516002655, -0.084422767162323, -0.3314172625541687, 0.08850520849227905, 0.09105238318443298, 0.15898814797401428, -0.08451467007398605, -0.00045816219062544405, -0.2032897025346756, 0.1750500500202179, 0.2676645517349243, 0.18732523918151855, -0.00689821969717741, -0.12080509215593338, -0.4454042613506317, -0.3173913061618805, -0.8487790822982788, 0.11887317150831223, -0.043697111308574677, -0.11289607733488083, -0.25702038407325745, -0.198025181889534, 0.03145131468772888, -0.029877830296754837,
-0.06457829475402832, 0.09533282369375229, -0.014373689889907837, 0.19322951138019562, -0.13058319687843323, -0.3175695836544037, -0.2009761780500412, -0.018431397154927254, -0.24581794440746307, 0.016760652884840965, -0.07989343255758286, -0.3043852150440216, 0.5183533430099487, -0.019120745360851288, 0.0471954271197319, -0.27021729946136475, -0.21877314150333405, 0.41053950786590576, -0.0945204496383667, 0.3062114715576172, -0.17422287166118622, 0.05728169158101082, 0.21873770654201508, 0.2024291455745697, 0.0075731948018074036, -0.5093613266944885, -0.36798515915870667, 0.20824462175369263, 0.12417305260896683, -0.21889549493789673, 0.05737686902284622, -0.004879702813923359, 0.16988292336463928, 0.14869195222854614, 0.11017920076847076, -0.2704240679740906, -0.14479181170463562, 0.1281929761171341, 0.007211481221020222, -0.2322961390018463, -0.21356436610221863, -0.09873271733522415, 0.21709181368350983, 0.14245083928108215, 0.05242050066590309, 0.12379252910614014, -0.29536059498786926, 0.4697851538658142, -0.2530142366886139, -0.06420999765396118, -0.2848966717720032, -0.2759700417518616, 0.06555380672216415, 0.2685500383377075, 0.22854168713092804, -0.26548099517822266, -0.2597218155860901, 0.3931047022342682, 0.03272489830851555, -0.13047078251838684, -0.07007948309183121, -0.03818370774388313, 0.42627838253974915, -0.19580990076065063,
0.25233039259910583, 0.3529203534126282, -0.15757210552692413, -0.18445581197738647, -0.03259555622935295, 0.10863874107599258, -0.02418450638651848, -0.3072656989097595, -0.4978173077106476, -0.1237243115901947, 0.1511128693819046, -0.03976518660783768, 0.1661999523639679, 0.3684100806713104, 0.15040013194084167, 0.054638344794511795, 0.15234389901161194, 0.2135412096977234, 0.039442989975214005, 0.05328633263707161, 0.027965085580945015, -0.2164560705423355, 0.32556089758872986, -0.22649885714054108, -0.369406133890152, -0.13157926499843597, 0.01320979930460453, 0.19328637421131134, 0.1301567703485489, 0.4554044008255005, -0.25470268726348877, -0.5218924880027771, -0.09459663927555084, -0.0014739369507879019, -0.2882513999938965, 0.12004714459180832, -0.1752641797065735, -0.037959709763526917, -0.04119299724698067, -0.4383276402950287, -0.08707097917795181, -0.048862479627132416, 0.07218746095895767, -0.3665758967399597, -0.03220974653959274, 0.03978593274950981, 0.008076546713709831, 0.048937056213617325, 0.14792148768901825, 0.03418266028165817, -0.09425864368677139, 0.06646643579006195, 0.21006153523921967, -0.13498911261558533, 0.11904868483543396, 0.08898899704217911, -0.13080796599388123, 0.10006127506494522, 0.4353417158126831, 0.20872989296913147, 0.2949737012386322, -0.057222433388233185, 0.3211629390716553, 0.3137861490249634,
-0.1507144719362259, 0.13119177520275116, 0.05115184187889099, 0.0686120018362999, 0.0837230235338211, 0.13083741068840027, 0.5120270252227783, -0.5614542961120605, -0.2175370305776596, -0.17356279492378235, -0.1157287135720253, -0.05934855341911316, 0.09564796835184097, -0.11969053000211716, 0.29804936051368713, -0.4118964970111847, 0.0495409332215786, -0.17911408841609955, 0.15354879200458527, -0.02825811319053173, 0.0721922442317009, 0.09706217050552368, -0.10338331013917923, -0.10466926544904709, -0.479043185710907, -0.007053715642541647, -0.13303104043006897, -0.13349175453186035, -0.15673600137233734, 0.38135936856269836, 0.1050802543759346, 0.3482151925563812, -0.2797910273075104, 0.15237800776958466, -0.20191940665245056, 0.11437483876943588, 0.08931021392345428, -0.13697218894958496, 0.04841751605272293, 0.5342954993247986, -0.12818677723407745, -0.06778402626514435, 0.10134299099445343, -0.14578506350517273, 0.30051907896995544, -0.14679507911205292, -0.14474618434906006, 0.037558943033218384, 0.0022346237674355507, -0.15817385911941528, 0.2896553874015808, -0.23760895431041718, 0.09072916954755783, -0.19693034887313843, -0.3063637614250183, 0.2598406970500946, 0.12283527106046677, 0.5077071189880371, -0.16169312596321106, -0.33931082487106323, 0.07038713991641998, -0.06881300359964371, 0.21592098474502563, -0.0348045639693737,
-0.29011377692222595, 0.05536065623164177, 0.08887863159179688, 0.031729623675346375, 0.22480028867721558, 0.1181068941950798, -0.1963043212890625, -0.03233586624264717, 0.20762857794761658, -0.10002593696117401, 0.04808155074715614, 0.19513508677482605, 0.014435320161283016, 0.2677110433578491, -0.160922110080719, 0.16978631913661957, 0.1735815703868866, 0.4001282751560211, -0.01267433911561966, -0.252586305141449, -0.00541232293471694, 0.20893149077892303, -0.21310950815677643, 0.1820152997970581, -0.18037089705467224, 0.29000937938690186, -0.18232311308383942, 0.10660267621278763, -0.06824932247400284, -0.19541309773921967, 0.10390342772006989, -0.3888733983039856, -0.27330952882766724, -0.22537367045879364, 0.3407207727432251, 0.025584787130355835, 0.36791661381721497, 0.0850619375705719, 0.33588024973869324, -0.32631418108940125, -0.07743732631206512, 0.2431001216173172, -0.20040321350097656, 0.016076045110821724, -0.30430060625076294, -0.2140493541955948, 0.30308711528778076, 0.07830314338207245, -0.35293421149253845, -0.3345209062099457, 0.32784199714660645, -0.10974252223968506, -0.08013120293617249, -0.44136691093444824, -0.30156970024108887, -0.031141141429543495, 0.1754327267408371, 0.2716512680053711, 0.02112598530948162, 0.20050056278705597, 0.11309053003787994, 0.27357006072998047, -0.01868283748626709, -0.2958393692970276,
-0.07807718962430954, 0.26319530606269836, -0.07609160989522934, 0.01963990554213524, 0.2921890318393707, -0.03857003152370453, 0.07766535133123398, 0.2662913501262665, -0.10105675458908081, 0.40162503719329834, 0.1544913649559021, 0.463585764169693, -0.03418804705142975, 0.33638912439346313, -0.05036713182926178, -0.2001459151506424, -0.07599002867937088, -0.16281160712242126, -0.02793009951710701, -0.2951657176017761, 0.36831510066986084, -0.0750543400645256, -0.4331406354904175, 0.3209277391433716, 0.319855660200119, 0.1640373319387436, 0.11421145498752594, -0.32592421770095825, -0.22357548773288727, 0.06964749842882156, 0.21385091543197632, 0.17058086395263672, -0.05203350633382797, -0.03391878306865692, -0.008772490546107292, 0.3607955276966095, 0.249015212059021, 0.2060932070016861, 0.010424052365124226, 0.037672270089387894, 0.09099868685007095, 0.11519331485033035, -0.3411259651184082, -0.2434602826833725, 0.4174915850162506, 0.06555521488189697, -0.2899479568004608, -0.09628493338823318, -0.11801334470510483, -0.15097187459468842, -0.2520349323749542, -0.2215871512889862, -0.09885973483324051, -0.09274180233478546, 0.1278102695941925, 0.20298656821250916, -0.21166092157363892, -0.011412814259529114, 0.3219311535358429, -0.01162255834788084, 0.11390075087547302, -0.4229234755039215, -0.2704753577709198, -0.15436996519565582,
0.007971224375069141, -0.12801897525787354, -0.05392489582300186, 0.520884096622467, -0.19726316630840302, 0.062363896518945694, -0.2642516493797302, -0.10439938306808472, -0.1771940290927887, -0.11352862417697906, 0.24141208827495575, -0.08942016959190369, -0.1786683201789856, -0.13749320805072784, 0.152705579996109, -0.4961695373058319, 0.09941315650939941, -0.3386435806751251, 0.17419567704200745, 0.2720351219177246, -0.20016847550868988, 0.21222439408302307, -0.048064541071653366, -0.034019920974969864, 0.017791779711842537, 0.37464281916618347, 0.03384412080049515, -0.16794723272323608, 0.13653253018856049, -0.40785619616508484, -0.07484753429889679, -0.19135461747646332, -0.26870033144950867, -0.05227744206786156, 0.005535107105970383, -0.3196215331554413, 0.12256024777889252, -0.2340887188911438, -0.08878693729639053, 0.08200336247682571, 0.05924167111515999, 0.06963536143302917, -0.06814693659543991, 0.27929210662841797, 0.02570384554564953, 0.05505962669849396, 0.16887308657169342, -0.2613849639892578, -0.33948713541030884, -0.2399730533361435, 0.20565958321094513, 0.04853032901883125, -0.2731034755706787, -0.10859193652868271, 0.43192461133003235, -0.24896399676799774, -0.3521643579006195, -0.00985495001077652, 0.2494577318429947, 0.08018247038125992, 0.034495849162340164, -0.3473736643791199, -0.4635343551635742, -0.36553624272346497,
-0.21268129348754883, 0.039080675691366196, -0.10220405459403992, -0.20562221109867096, 0.4120646119117737, 0.0002533748047426343, 0.30683237314224243, -0.23790599405765533, -0.15789690613746643, -0.06888622790575027, 0.29230186343193054, -0.1370612531900406, -0.07723875343799591, 0.037985313683748245, -0.15897884964942932, -0.35504066944122314, 0.31287992000579834, -0.34025833010673523, -0.1375180333852768, 0.3804148733615875, 0.020852021872997284, 0.09727715700864792, -0.13055077195167542, 0.09728610515594482, -0.1126868948340416, 0.011190698482096195, 0.06088883802294731, -0.30152952671051025, 0.3619152307510376, 0.11709336191415787, 0.1920894831418991, -0.035341180860996246, 0.37153860926628113, -0.24856022000312805, 0.20844879746437073, -0.5493311882019043, 0.13471941649913788, -0.2733747065067291, -0.4653264880180359, -0.08766831457614899, 0.07735474407672882, -0.057599131017923355, 0.03337685763835907, 0.4303094148635864, -0.016547126695513725, -0.45337924361228943, 0.214949369430542, -0.023287059739232063, -0.06602689623832703, 0.03765719756484032, -0.03932385519146919, -0.019454391673207283, 0.24351103603839874, 0.30701109766960144, -0.09767080098390579, 0.24199485778808594, -0.018534094095230103, -0.3611181378364563, 0.17050392925739288, 0.22251278162002563, 0.08430532366037369, -0.16192252933979034, 0.24075160920619965, -0.22905759513378143,
-0.03491029888391495, -0.10553345829248428, 0.039426784962415695, 0.07367517799139023, 0.1709391176700592, 0.32654306292533875, 0.18085990846157074, 0.45895490050315857, -0.007435742765665054, -0.3725588023662567, 0.28184694051742554, 0.3264588713645935, -0.057484496384859085, -0.2896635830402374, 0.2923020124435425, 0.20500481128692627, -0.30180788040161133, -0.009042974561452866, -0.29155027866363525, 0.04329018294811249, -0.15778221189975739, 0.1580202281475067, 0.3654228448867798, -0.045686036348342896, 0.2102230042219162, 0.17066319286823273, -0.19422243535518646, -0.024861084297299385, -0.03851049765944481, -0.09472283720970154, 0.21225160360336304, -0.11278220266103745, 0.14594827592372894, 0.11805958300828934, 0.3056316375732422, -0.18644191324710846, 0.072080098092556, -0.0660267099738121, 0.23107360303401947, 0.027814777567982674, -0.046432629227638245, 0.05929778516292572, 0.18608762323856354, -0.30029499530792236, 0.47303488850593567, -0.07736308872699738, 0.046008963137865067, 0.17255546152591705, -0.13364729285240173, 0.28884240984916687, -0.3891533613204956, -0.24353452026844025, -0.021973809227347374, -0.061726175248622894, -0.11652872711420059, 0.1480334848165512, 0.015464622527360916, 0.011725777760148048, -0.2808226943016052, 0.05705957114696503, 0.05472918599843979, -0.036647967994213104, -0.27001261711120605, -0.0281806793063879,
0.21541881561279297, 0.0557369664311409, 0.04687126353383064, 0.036003388464450836, 0.3794170320034027, -0.15086078643798828, 0.1257176697254181, 0.16843682527542114, -0.7509486675262451, 0.35316142439842224, -0.13722284138202667, -0.007894556038081646, 0.01563379168510437, 0.18539857864379883, -0.003079371526837349, 0.04550942778587341, 0.1426512897014618, 0.30482807755470276, 0.1301906555891037, 0.2995006740093231, -0.0917426347732544, -0.2051411122083664, -0.44142940640449524, -0.18805083632469177, 0.0533348023891449, -0.10438036918640137, -0.28478914499282837, 0.34057608246803284, 0.20202866196632385, -0.2606445848941803, -0.19057169556617737, 0.12315485626459122, -0.22114036977291107, 0.14082641899585724, -0.1962098777294159, -0.08874223381280899, -0.021198906004428864, 0.005214786157011986, 0.11879009008407593, 0.07599825412034988, 0.08444461226463318, 0.21926459670066833, -0.0928167849779129, 0.3389122784137726, 0.4098702371120453, -0.07792246341705322, 0.1389344483613968, 0.10643256455659866, -0.008824223652482033, 0.22360895574092865, -0.13133801519870758, -0.12186811119318008, -0.2501351833343506, 0.059376075863838196, -0.2481732815504074, -0.2582527697086334, -0.2670956254005432, 0.13213087618350983, -0.505642294883728, 0.31366822123527527, 0.07793428748846054, -0.2427772581577301, -0.04906725138425827, 0.10239917784929276,
0.19627831876277924, -0.06537015736103058, 0.07805661857128143, 0.09801197797060013, -0.03208909183740616, 0.20539674162864685, -0.4684833586215973, -0.1132437214255333, 0.23958511650562286, -0.07615258544683456, -0.37936487793922424, -0.16024687886238098, 0.06303991377353668, -0.3578692376613617, -0.10703828930854797, -0.14765942096710205, -0.033084653317928314, -0.06142691522836685, -0.2673281729221344, -0.1911180019378662, -0.1576109528541565, 0.012900554575026035, -0.09080429375171661, -0.3467056155204773, 0.4266960620880127, -0.2877136766910553, 0.021840745583176613, 0.2717432975769043, -0.25894200801849365, -0.22502970695495605, 0.3136776089668274, -0.32357892394065857, -0.16849356889724731, -0.2642025947570801, 0.07229495793581009, -0.40779125690460205, 0.021284475922584534, 0.01798388548195362, -0.029231593012809753, 0.1802598088979721, -0.15485316514968872, 0.11617571115493774, 0.102262943983078, 0.16765941679477692, 0.048493530601263046, -0.17268605530261993, -0.37024667859077454, 0.1284620463848114, 0.029970308765769005, -0.124827541410923, 0.46986812353134155, 0.30039453506469727, -0.13359729945659637, -0.2470030039548874, 0.09726088494062424, 0.09645569324493408, -0.11038022488355637, -0.0203191377222538, 0.11043611913919449, 0.1302284598350525, 0.3850875794887543, 0.3002811074256897, -0.44487205147743225, -0.3265363574028015,
-0.12921136617660522, 0.02633032761514187, -0.18885387480258942, -0.10330471396446228, 0.060169726610183716, 0.22408345341682434, -0.47957563400268555, -0.09110534936189651, -0.037006840109825134, 0.03518538922071457, -0.3223896324634552, 0.04899471625685692, -0.45680558681488037, -0.03908391669392586, -0.13033075630664825, -0.16958102583885193, 0.09278419613838196, 0.03699246793985367, 0.07394906878471375, 0.06042543426156044, -0.4214860796928406, 0.25949543714523315, -0.5327320694923401, -0.26928359270095825, 0.10230963677167892, 0.09387270361185074, -0.053402770310640335, 0.20969648659229279, -0.06727717816829681, -0.2496136873960495, 0.29152223467826843, 0.3196873366832733, -0.05738057196140289, 0.16077464818954468, -0.0013463529758155346, -0.07561276108026505, -0.030489610508084297, -0.039789360016584396, 0.22521257400512695, -0.2992067337036133, -0.05309547111392021, 0.0549732968211174, -0.22209419310092926, -0.2468554675579071, -0.13515432178974152, -0.1911766231060028, -0.09007597714662552, 0.27365511655807495, 0.3235153555870056, 0.08653487265110016, -0.15328779816627502, -0.019699884578585625, -0.43362054228782654, -0.19306111335754395, 0.3451150059700012, 0.21867868304252625, -0.08141198754310608, -0.4484719932079315, -0.08848632872104645, -0.36147576570510864, -0.09704360365867615, 0.3489166796207428, 0.19775275886058807, -0.3944961428642273,
