#include "neural_network.h"
#include <stdio.h>
#include <math.h>

const float weights_fc1[] = {
-0.04905758053064346, -0.24399875104427338, -0.07159721851348877, 0.1352037936449051, -0.03651481866836548, -0.098594069480896, -0.05447643995285034, -0.02653171680867672, 0.11237086355686188, 0.09226701408624649, 0.08370831608772278, -0.23727580904960632, -0.06837788224220276, -0.01261057797819376, 0.19857248663902283, -0.02129981853067875, -0.009454404935240746, -0.00036399104283191264, 0.18109653890132904, 0.06348826736211777,
-0.025380924344062805, 0.010679315775632858, -0.12377221882343292, -0.02111276052892208, -0.04096706584095955, -0.05483076721429825, 0.00811516772955656, -0.007475991267710924, -0.07295011729001999, -0.061894264072179794, -0.0033906095195561647, -0.10276811569929123, 0.05717385187745094, 0.08788534253835678, -0.18171530961990356, -0.1353849172592163, 0.015426117926836014, -0.04846234619617462, 0.03124203532934189, -0.032420460134744644,
0.021254049614071846, -0.21770881116390228, 0.008711342699825764, -0.1909777820110321, -0.01763157919049263, 0.060726601630449295, 0.06862815469503403, 0.01247768010944128, -0.010417482815682888, 0.07288403809070587, 0.03208265081048012, -0.09032938629388809, 0.05589218810200691, -0.027064543217420578, 0.0018587112426757812, 0.11477037519216537, 0.049647070467472076, 0.07699032872915268, -0.09645827859640121, 0.018364625051617622,
0.09084837138652802, -0.10098998248577118, -0.0047324602492153645, 0.11894027143716812, -0.006010082550346851, 0.13557618856430054, -0.08545025438070297, -0.06816868484020233, -0.06969480961561203, -0.18389762938022614, -0.0714355856180191, -0.015795070677995682, 0.12968648970127106, -0.16757605969905853, -0.0042598857544362545, -0.0661708191037178, 0.08002033829689026, -0.1454334706068039, -0.035943835973739624, 0.03967638686299324,
-0.05355341359972954, 0.07702450454235077, 0.1377221941947937, 0.04794016480445862, -0.02217322774231434, 0.014079981483519077, 0.07603355497121811, 0.06076912209391594, -0.10233789682388306, 0.04387536644935608, 0.11754730343818665, 0.10055723786354065, 0.12804503738880157, -0.1578523814678192, 0.0313514843583107, -0.14764273166656494, -0.004262501839548349, -0.012381508015096188, 0.09180620312690735, -0.051638923585414886,
0.19062069058418274, 0.004665042739361525, 0.10006602853536606, -0.16534653306007385, -0.01270739734172821, -0.04258514195680618, -0.18630371987819672, -0.10693555325269699, 0.08195142447948456, 0.05667633190751076, -0.1676355004310608, -0.16160468757152557, 0.07855547964572906, 0.09449685364961624, -0.21591073274612427, -0.049102071672677994, -0.06064034625887871, 0.09369807690382004, 0.04650169610977173, 0.1638273298740387,
-0.05249536409974098, -0.016509275883436203, 0.03589486703276634, -0.15473148226737976, -0.1215858981013298, -0.03555801883339882, 0.1252031922340393, -0.05415937304496765, 0.08833545446395874, -0.11746231466531754, -0.08849409967660904, 0.02683730237185955, 0.050660863518714905, -0.15697194635868073, -0.06601822376251221, 0.12401576340198517, 0.04662268981337547, 0.1489097774028778, -0.1674211472272873, -0.05992872267961502,
-0.04559289664030075, -0.05555695295333862, -0.017658114433288574, 0.09814407676458359, 0.020559152588248253, 0.05751502141356468, -0.07810480147600174, 0.19145715236663818, 0.029651308432221413, 0.03465769439935684, -0.15405608713626862, 0.013475783169269562, 0.08355935662984848, 0.19675326347351074, -0.00944313034415245, -0.09309267997741699, 0.06165274977684021, -0.04776052385568619, -0.05913428217172623, 0.10168983042240143,
0.14986683428287506, 0.08257032930850983, -0.05130365490913391, -0.0002887801674660295, 0.03646978735923767, 0.03883139789104462, -0.050564005970954895, 0.00854397565126419, -0.028536448255181313, 0.07820029556751251, 0.0027668375987559557, -0.026185743510723114, 0.06232122331857681, -0.019668839871883392, 0.2064589411020279, -0.13663311302661896, 0.04653389751911163, -0.15887467563152313, -0.02633632905781269, 0.03864184021949768,
0.04371779412031174, 0.00935019738972187, 0.08481187373399734, -0.03150153532624245, 0.015908431261777878, -0.024097811430692673, 0.04964591935276985, -0.14160342514514923, 0.04887958988547325, 0.050452105700969696, -0.11825335025787354, 0.06406783312559128, -0.12156429886817932, -0.030155543237924576, -0.021185996010899544, 0.04445965960621834, 0.08947864174842834, 0.07993686944246292, -0.04594669118523598, -0.13168835639953613,
0.0437900684773922, -0.11991841346025467, -0.06505626440048218, 0.06307241320610046, -0.07590780407190323, 0.07278964668512344, 0.1393483281135559, 0.10100214183330536, -0.04567445069551468, 0.05913041904568672, -0.24278226494789124, -0.09757151454687119, 0.09350758790969849, 0.0730246752500534, 0.029141094535589218, 0.14058829843997955, 0.09431391954421997, -0.0805632546544075, 0.07207369804382324, -0.018801968544721603,
0.010566837154328823, 0.03957577049732208, -0.13593603670597076, 0.06885530799627304, 0.030469490215182304, 0.0008970010094344616, -0.028801901265978813, -0.1774468868970871, -0.03301263228058815, 0.02053293213248253, 0.038223639130592346, -0.17385199666023254, -0.01557388436049223, -0.16577021777629852, -0.08681223541498184, 0.07957585901021957, -0.060792818665504456, -0.06794247031211853, -0.03285757079720497, -0.1273527890443802,
-0.12117988616228104, -0.08739513158798218, 0.04577891156077385, -0.013221658766269684, 0.10826071351766586, 0.032839927822351456, 0.023432785645127296, -0.14438466727733612, -0.0031926585361361504, -0.05195894092321396, -0.11611471325159073, 0.04866369441151619, 0.054144710302352905, -0.0799836739897728, -0.040448322892189026, 0.1385309398174286, 0.00515642249956727, 0.06100793555378914, -0.2051287144422531, -0.09910532832145691,
-0.18768343329429626, 0.039083365350961685, 0.10663360357284546, -0.03171088173985481, 0.09648267179727554, 0.01746351271867752, 0.03914720565080643, -0.030298175290226936, 0.02693593129515648, -0.05881601944565773, 0.05944497883319855, -0.05948111042380333, 0.02109253965318203, 0.0933232381939888, -0.16716933250427246, -0.009312127716839314, 0.015355540439486504, 0.01212382409721613, 0.06494348496198654, -0.11609040200710297,
-0.1778416782617569, 0.01759508065879345, 0.2022063285112381, 0.05287710204720497, 0.21546535193920135, 0.05940985307097435, 0.058996472507715225, 0.05580606684088707, 0.12301403284072876, -0.0035260163713246584, 0.02912920154631138, -0.05437472462654114, -0.1060241162776947, 0.05060959607362747, -0.17053185403347015, -0.09834327548742294, 0.09142504632472992, 0.04826436936855316, 0.11388516426086426, 0.05304361507296562,
-0.03485310450196266, -0.03790626302361488, 0.13437141478061676, 0.060442958027124405, 0.03565892577171326, -0.13220201432704926, 0.08140722662210464, 0.10111623257398605, -0.047173961997032166, 0.04614315927028656, -0.016704509034752846, 0.016172075644135475, -0.0635213628411293, 0.05040260776877403, -0.04741669446229935, 0.08471152931451797, -0.11229664087295532, 0.05088014528155327, 0.11188825964927673, 0.07142207771539688,
0.007757766172289848, -0.08799409121274948, 0.07681847363710403, -0.12965606153011322, 0.028034955263137817, 0.06537309288978577, -0.012341511435806751, -0.05467548221349716, -0.0009589375695213675, 0.09152514487504959, -0.14359869062900543, -0.07962416112422943, -0.14068923890590668, 0.040127117186784744, -0.12078090757131577, 0.04543359577655792, 0.08930613845586777, -0.014002367854118347, -0.031160378828644753, 0.06094721704721451,
-0.057201940566301346, -0.07085801661014557, -0.03942364081740379, -0.052489567548036575, 0.047418445348739624, -0.03780246898531914, -0.01168034691363573, -0.026114394888281822, 0.14759010076522827, 0.07272355258464813, -0.025484368205070496, -0.03477003797888756, -0.03285213187336922, 0.041980646550655365, 0.02038680948317051, 0.052663978189229965, -0.0298311784863472, -0.013408179394900799, -0.022175149992108345, -0.00548554677516222,
0.03172606974840164, 0.20211057364940643, 0.0005691501428373158, -0.10517154633998871, 0.07484198361635208, 0.03531786426901817, 0.18255719542503357, 0.07644765079021454, 0.1477682739496231, -0.2075691521167755, -0.20572306215763092, 0.04967697337269783, 0.06784871965646744, -0.027168281376361847, 0.10926902294158936, 0.08348435908555984, -0.12868192791938782, -0.1806674301624298, 0.07055147737264633, 0.07431508600711823,
0.06396879255771637, -0.06687737256288528, -0.027152519673109055, 0.056654129177331924, 0.005487279966473579, -0.061783626675605774, -0.050682272762060165, -0.002186679979786277, 0.008412177674472332, 0.01693224534392357, -0.03490518406033516, 0.09206641465425491, 0.06029108166694641, -0.2400907576084137, -0.0806177631020546, 0.07840608805418015, -0.08677712827920914, 0.07094118744134903, 0.04859810322523117, -0.07146100699901581,
0.08410022407770157, -0.06085306778550148, 0.039520710706710815, 0.07713323831558228, -0.1045251339673996, 0.10524783283472061, 0.03199281170964241, 0.020541463047266006, -0.024826453998684883, 0.025312092155218124, 0.14078307151794434, 0.008106088265776634, -0.0986916571855545, 0.003941893111914396, 0.04787588119506836, -0.00266929785721004, -0.01544636394828558, -0.024500785395503044, -0.08754784613847733, 0.10771199315786362,
0.08309312909841537, -0.002336121629923582, -0.061745718121528625, -0.11748632788658142, 0.09703768789768219, 0.1354644000530243, 0.0034551627468317747, -0.19515559077262878, 0.02237282134592533, -0.1596292108297348, 0.10268332064151764, 0.014704925939440727, -0.00873627420514822, -0.0618925504386425, -0.08300366252660751, 0.09110613167285919, 0.029468974098563194, -0.1858990341424942, 0.07247111201286316, 0.08631742745637894,
0.05606725439429283, 0.06792481243610382, 0.017922652885317802, 0.007648371160030365, -0.09586986154317856, -0.32337555289268494, -0.007847163826227188, 0.06505002826452255, -0.060435812920331955, 0.200037881731987, -0.0984017625451088, -0.006713144015520811, 0.021979549899697304, -0.028541656211018562, -0.04342959076166153, -0.1312648206949234, 0.07923513650894165, -0.2124749720096588, -0.016973435878753662, -0.10593767464160919,
0.1389847844839096, -0.09823308885097504, -0.020928610116243362, -0.17775091528892517, 0.1804364025592804, 0.04354038089513779, 0.0070357550866901875, -0.08959145098924637, -0.06529306620359421, -0.009219824336469173, 0.14810650050640106, -0.03771529346704483, -0.05653637275099754, 0.07895579189062119, 0.005095490254461765, -0.062533438205719, 0.08486589044332504, -0.025862056761980057, -0.11003396660089493, 0.036949578672647476,
-0.059832613915205, 0.01060673501342535, 0.0333886444568634, -0.023539399728178978, -0.0894269272685051, -0.12281202524900436, -0.04976820945739746, -0.026791710406541824, 0.05730392411351204, -0.2210114747285843, -0.07829219847917557, -0.03237210959196091, 0.1574907749891281, 0.054339755326509476, 0.04558911174535751, -0.16723193228244781, 0.08094251900911331, -0.2240002304315567, 0.0024489692877978086, -0.1344381868839264,
0.13080629706382751, 0.061247192323207855, -0.06828922778367996, 0.061362285166978836, 0.09903386235237122, -0.10525620728731155, -0.16883434355258942, -0.09217792004346848, 0.0667932853102684, 0.050875045359134674, -0.03619540110230446, 0.04833761230111122, 0.05799267068505287, 0.09437492489814758, -0.04544060677289963, -0.10807111114263535, 0.06190894544124603, -0.025414355099201202, -0.002677715616300702, 0.018821077421307564,
-0.03611866757273674, 0.1656848043203354, -0.12028449028730392, -0.09760279208421707, -0.0926433876156807, 0.05136672407388687, 0.12325754016637802, 0.038125842809677124, 0.17773327231407166, 0.015003690496087074, 0.044598788022994995, -0.06759060174226761, 0.08968441188335419, -0.021880926564335823, 0.05096038058400154, 0.031413767486810684, 0.12674924731254578, 0.12101775407791138, 0.01720738597214222, -0.0582309290766716,
-0.014509349130094051, -0.13512958586215973, -0.02382831834256649, -0.06481458246707916, 0.16040214896202087, 0.003827879671007395, -0.048272907733917236, 0.031519219279289246, 0.12111116200685501, 0.19959288835525513, -0.05899636074900627, -0.02226995676755905, -0.03175303339958191, 0.06732498109340668, -0.1242159977555275, -0.03705918416380882, 0.036628905683755875, -0.16272881627082825, 0.052250269800424576, 0.010435950942337513,
0.17390339076519012, -0.17101486027240753, -0.08216992765665054, 0.051342494785785675, 0.07401084899902344, -0.050419531762599945, -0.09890414029359818, 0.0462966151535511, -0.033856071531772614, -0.0060472008772194386, 0.06622813642024994, 0.012937852181494236, -0.06333184242248535, 0.05537834018468857, 0.14341337978839874, 0.17524412274360657, 0.08023884147405624, -0.10372339934110641, 0.00261457497254014, 0.006444860715419054,
0.03502582013607025, -0.010591455735266209, -0.09764381498098373, -0.15129543840885162, 0.160929873585701, 0.0661366879940033, 0.048499319702386856, 0.1636800915002823, -0.023650888353586197, 0.061677396297454834, 0.08379718661308289, 0.06853097677230835, -0.1392734795808792, -0.021856723353266716, 0.024182140827178955, 0.10594046115875244, 0.1292787790298462, -0.08316116034984589, -0.0032154254149645567, 0.09684262424707413,
0.10550155490636826, -0.023630596697330475, 0.038050178438425064, -0.08963805437088013, -0.006280860397964716, 0.13436508178710938, -0.12992607057094574, 0.02568083629012108, 0.12045491486787796, 0.13824725151062012, -0.14602752029895782, -0.12642474472522736, -0.0036638497840613127, -0.16401095688343048, 0.08223477751016617, -0.10836081206798553, -0.03885606676340103, -0.00754560949280858, -0.038957446813583374, -0.13128569722175598,
-0.02007659152150154, -0.05651497095823288, -0.013974856585264206, 0.06830401718616486, 0.05071881413459778, -0.07409778237342834, -0.047487907111644745, 0.1326919049024582, -0.13400126993656158, 0.01968309096992016, 0.048081398010253906, -0.07403352111577988, -0.05280023813247681, 0.001882605836726725, 0.023475181311368942, 0.0011083523277193308, -0.02672646939754486, -0.01496339961886406, -0.1854713410139084, -0.11514116078615189,
0.12288420647382736, 0.16551510989665985, 0.034512851387262344, 0.08529344201087952, -0.038415130227804184, 0.15323305130004883, -0.017144085839390755, 0.011291040107607841, -0.00188965885899961, 0.17445264756679535, 0.0778718888759613, 0.007747181225568056, 0.07199844717979431, -0.05260689929127693, 0.16707511246204376, -0.17044037580490112, 0.12501780688762665, -0.009959670715034008, 0.012293494306504726, 0.13887973129749298,
-0.0672503337264061, 0.16185905039310455, -0.04667651280760765, 0.1336342692375183, -0.008952504955232143, -0.03530808538198471, -0.10565347224473953, 0.03556687384843826, -0.06804545223712921, 0.01543792150914669, -0.0689283162355423, -0.05028291046619415, -0.19892092049121857, -0.005443256348371506, -0.07422998547554016, 0.07590003311634064, 0.06818076968193054, 0.09548457711935043, 0.04650432616472244, 0.004436973016709089,
-0.055136971175670624, 0.21887566149234772, -0.02660849131643772, 0.13846832513809204, 0.005840211641043425, -0.004628384485840797, 0.08986212313175201, -0.03708621487021446, -0.023052692413330078, -0.03076927736401558, -0.040296513587236404, 0.05236946418881416, 0.08772971481084824, 0.06174391508102417, 0.04918470233678818, 0.12229911237955093, 0.1030716672539711, 0.016772901639342308, -0.013587643392384052, -0.11943535506725311,
-0.16864289343357086, -0.01847701147198677, -0.006508544087409973, -0.15542204678058624, -0.10293680429458618, 0.02873384580016136, -0.021646488457918167, 0.07192736864089966, 0.050272323191165924, -0.023097416386008263, 0.012546204961836338, -0.15432968735694885, -0.10794258862733841, -0.004127735272049904, -0.12180584669113159, 0.02984190359711647, -0.03560306131839752, 0.049621812999248505, -0.07383124530315399, 0.03947233408689499,
-0.08264657855033875, 0.009265252389013767, -0.06767415255308151, 0.0015251034637913108, 0.044151950627565384, -0.003835114883258939, 0.014088327065110207, -0.09164411574602127, -0.14250914752483368, 0.17610028386116028, 0.040600258857011795, -0.0936330184340477, -0.16736122965812683, 0.06371011584997177, 0.08020904660224915, -0.018627507612109184, 0.07690136879682541, 0.06712918728590012, 0.11108694970607758, -0.07721232622861862,
-0.055487457662820816, -0.05315268039703369, -0.0002858304069377482, 0.01977791078388691, -0.006115217227488756, 0.18987825512886047, 0.0466761589050293, 0.21917764842510223, -0.10761606693267822, -0.04528169706463814, -0.041574250906705856, -0.058952365070581436, -0.0013552755117416382, -0.07229559868574142, -0.09837982803583145, 0.037594281136989594, -0.030903449282050133, 0.03733031079173088, 0.1518733948469162, -0.0284827072173357,
0.055074792355298996, 0.05361110717058182, -0.1122298389673233, 0.05210057273507118, 0.016578465700149536, 0.15636245906352997, 0.0638372004032135, 0.046875081956386566, -0.032004956156015396, 0.046169932931661606, 0.03842679783701897, 0.1291920244693756, 0.02048448473215103, -0.12723037600517273, -0.10780530422925949, 0.04961196705698967, 0.07364218682050705, 0.08262641727924347, 0.11257293075323105, 0.03058178909122944,
-0.07710879296064377, 0.17074736952781677, -0.05564805492758751, -0.11771814525127411, 0.02020246908068657, -0.1391160637140274, 0.006105426698923111, -0.05624832957983017, -0.006763128098100424, 0.04947971925139427, 0.013634898699820042, 0.052687712013721466, -0.054944489151239395, -0.061138637363910675, -0.07897965610027313, -0.08784408867359161, -0.05545738711953163, 0.019092006608843803, 0.027677927166223526, 0.14201124012470245,
0.09506983309984207, -0.048001307994127274, 0.028342314064502716, 0.022162482142448425, 0.09461701661348343, -0.14444571733474731, -0.046178899705410004, 0.05356595665216446, 0.12886187434196472, -0.0329727865755558, 0.1357850879430771, -0.02777882106602192, -0.022907143458724022, 0.0753370076417923, -0.08687874674797058, 0.12163203209638596, 0.08036624640226364, -0.015113553032279015, 0.03469060733914375, -0.08503139764070511,
-0.024005519226193428, -0.011209685355424881, 0.03728565573692322, 0.18230338394641876, 0.061905015259981155, -0.043849751353263855, 0.020999524742364883, -0.048227615654468536, -0.022595062851905823, -0.00727242324501276, -0.0020643710158765316, -0.08331888914108276, 0.20917531847953796, 0.10441667586565018, -0.07273995876312256, 0.05782255530357361, -0.014816134236752987, 0.1579401046037674, -0.07769448310136795, 0.11156273633241653,
0.06440172344446182, -0.1177898719906807, 0.12603437900543213, 0.14548730850219727, 0.0800856351852417, 0.019068852066993713, -0.008988050743937492, 0.0023129736073315144, 0.17456714808940887, 0.02523529902100563, 0.13049888610839844, -0.20757362246513367, -0.061504147946834564, 0.10135262459516525, 0.07464431971311569, -0.023841794580221176, 0.03439090773463249, -0.20871584117412567, -0.03257506340742111, -0.17146609723567963,
0.15069463849067688, 0.0003387934702914208, 0.10495361685752869, -0.15706349909305573, 0.011295516975224018, -0.0200433898717165, 0.08144861459732056, 0.08778267353773117, -0.01547482144087553, 0.062498800456523895, 0.017201095819473267, -0.0023300263565033674, 0.02038840390741825, 0.09532961249351501, -0.05257720872759819, 0.06404227018356323, 0.002785890595987439, 0.002985904226079583, 0.20073403418064117, -0.027417099103331566,
0.2322249859571457, -0.08483578264713287, -0.057033341377973557, 0.08794541656970978, -0.1534201204776764, 0.08011317253112793, -0.151526540517807, 0.011395473964512348, 0.15347273647785187, 0.12239952385425568, 0.022982070222496986, 0.05325258523225784, 0.12528322637081146, 0.018823008984327316, 0.09337205439805984, 0.15777644515037537, -0.07274366170167923, 0.039077259600162506, -0.0321863554418087, -0.06370110809803009,
-0.06400929391384125, 0.07685382664203644, 0.04092949256300926, 0.08609333634376526, -0.1825995296239853, 0.07374045997858047, 0.037613674998283386, 0.0013480453053489327, 0.00726391701027751, 0.052721574902534485, 0.028132876381278038, 0.013797000981867313, -0.036805160343647, 0.1872662454843521, -0.08175765722990036, 0.11410423368215561, 0.06621883809566498, 0.011612644419074059, -0.1049649566411972, -0.12411926686763763,
-0.13884037733078003, -0.13312925398349762, 0.050943970680236816, -0.06862787902355194, -0.12400276213884354, 0.009733948856592178, -0.000578929262701422, 0.010470408014953136, -0.08683605492115021, 0.13562409579753876, 0.1701381504535675, 2.080393642245326e-06, -0.04557275027036667, 0.16404062509536743, 0.03468489646911621, -0.07680102437734604, 0.1363717019557953, 0.004862011410295963, 0.05352633446455002, -0.02255762554705143,
0.08970033377408981, 0.015997212380170822, -0.07719352096319199, -0.19639955461025238, 0.04332653805613518, -0.051305484026670456, -0.09021484106779099, 0.009965959005057812, -0.17492073774337769, -0.059587981551885605, 0.003304938552901149, -0.146718367934227, -0.05890640988945961, 0.021035153418779373, -0.011351621709764004, -0.03847354277968407, -0.044203486293554306, 0.04203643277287483, 0.027482207864522934, -0.041745688766241074,
0.05661678686738014, 0.15975543856620789, -0.13055947422981262, 0.06420186907052994, 0.034381113946437836, -0.1282135248184204, -0.05154481902718544, 0.12757976353168488, 0.1504613608121872, 0.005532798357307911, 0.03929687663912773, -0.13444949686527252, 0.0043174754828214645, -0.04245000332593918, -0.008309108205139637, -0.09747149795293808, 0.07703279703855515, -0.06329221278429031, -0.13737551867961884, -0.1766476035118103,
-0.04139144346117973, 0.1567484736442566, -0.1340228021144867, 0.06888523697853088, 0.07268248498439789, -0.03550723195075989, 0.08334623277187347, -0.02674177475273609, -0.007748706731945276, 0.05533534288406372, -0.08461406826972961, -0.15726754069328308, -0.036628346890211105, 0.02056298218667507, 0.08182914555072784, -0.037226855754852295, 0.08441749215126038, 0.11753521114587784, 0.06121755763888359, -0.1010822281241417,
0.1014418676495552, -0.002417217008769512, -0.03408664092421532, 0.11883280426263809, -0.020810499787330627, 0.014857196249067783, 0.10563100129365921, -0.016651205718517303, 0.0945567935705185, 0.062251973897218704, -0.10796424001455307, -0.09070571511983871, -0.15075179934501648, 0.026306629180908203, 0.05651894956827164, -0.048224255442619324, 0.01252539362758398, 0.09032167494297028, 0.056853536516427994, 0.09304505586624146,
-0.11758551001548767, -0.021891025826334953, 0.03837054595351219, -0.013466879725456238, -0.07942944765090942, -0.02324456162750721, -0.02361256256699562, 0.014569217339158058, -0.03180203586816788, -0.009250637143850327, -0.1106787845492363, 0.017748618498444557, -0.04526223614811897, -0.17913858592510223, -0.05012275278568268, -0.11116335541009903, -0.08721495419740677, 0.08179455250501633, 0.111079141497612, -0.07103628665208817,
0.0643838420510292, -0.07263261824846268, -0.021332409232854843, -0.08624818921089172, 0.1362515538930893, 0.10799448192119598, 0.04923025146126747, 0.019978126510977745, 0.16682790219783783, -9.922427852870896e-05, -0.0037409805227071047, 0.06448005884885788, -0.04226469248533249, -0.08248887956142426, -0.060548312962055206, 0.07860445231199265, -0.057256534695625305, -0.14129580557346344, 0.04888063296675682, -0.09837555885314941,
-0.02985317073762417, 0.0904872789978981, -0.056465908885002136, 0.016406426206231117, -0.10819656401872635, 0.055367305874824524, -0.014799271710216999, -0.04391013830900192, -0.006141838151961565, -0.15019884705543518, 0.04468562453985214, -0.12630462646484375, 0.031333524733781815, -0.03275562450289726, -0.02885442227125168, 0.15134070813655853, -0.06461021304130554, -0.05768553540110588, 0.04167462885379791, -0.06458431482315063,
0.19225239753723145, 0.06767570227384567, -0.12092768400907516, 0.005710916128009558, -0.12732954323291779, 0.1101725772023201, 0.06040327250957489, -0.014511531218886375, -0.09614519774913788, -0.00018922632443718612, -0.06584156304597855, -0.058483272790908813, 0.03532690927386284, 0.020335188135504723, -0.08325861394405365, -0.20726439356803894, -0.03568068891763687, -0.008449728600680828, 0.07507838308811188, -0.15255607664585114,
-0.0886416882276535, -0.06356333941221237, -0.10899730026721954, 0.14679580926895142, 0.08123831450939178, 0.01816380023956299, -0.12481904029846191, -0.11679932475090027, 0.04214255511760712, -0.04751531779766083, -0.18474195897579193, -0.008532603271305561, 0.11892224848270416, 0.03672616183757782, -0.001799119869247079, 0.10654393583536148, 0.02534126117825508, 0.0849691852927208, -0.08823246508836746, 0.127422496676445,
0.15728603303432465, -0.0026698012370616198, 0.010430704802274704, 0.09809579700231552, -0.024392010644078255, 0.025060979649424553, -0.046045053750276566, 0.055490076541900635, 0.06935475766658783, 0.08027880638837814, -0.0635136067867279, 0.10778764635324478, -0.012936946004629135, 0.20147261023521423, -0.024476902559399605, -0.04114538058638573, 0.143199160695076, 0.014301334507763386, 0.009609930217266083, -0.13166524469852448,
0.09780404716730118, -0.1539263129234314, -0.09573096036911011, -0.02003096044063568, 0.05616195872426033, 0.030037183314561844, -0.06148220971226692, -0.20654872059822083, -0.10278940945863724, -0.04255668818950653, 0.10954690724611282, -0.1991804540157318, -0.04209195077419281, 0.060517795383930206, -0.06651341915130615, 0.12040503323078156, -0.0809604674577713, 0.07965192943811417, -0.13620571792125702, 0.034372054040431976,
-0.13227461278438568, 0.19266951084136963, 0.11317183077335358, -0.0064246472902596, -0.012910665012896061, 0.04263925552368164, -0.010709327645599842, -0.10247121006250381, -0.0407329760491848, -0.04272165521979332, 0.003007542109116912, 0.04449363797903061, 0.06182681396603584, 0.00726201431825757, 0.11166161298751831, 0.054979629814624786, -0.06804072856903076, -0.08872511237859726, 0.06396465003490448, 0.055344611406326294,
-0.033822719007730484, -0.12355238944292068, -0.07556287944316864, 0.0014654711121693254, -0.041664883494377136, -0.14630672335624695, -0.13502202928066254, -0.10317649692296982, -0.007822916842997074, -0.10438743978738785, -0.19025447964668274, 0.028981158509850502, 0.07572685927152634, -0.008154205977916718, 0.08683145046234131, -0.04587837681174278, -0.017618447542190552, 0.07546339184045792, -0.012230215594172478, 0.025596346706151962,
0.03631609305739403, 0.024845561012625694, -0.03933224454522133, -0.17885898053646088, 0.047012485563755035, 0.025098677724599838, 0.10274968296289444, -0.037995100021362305, -0.04898179695010185, 0.07531808316707611, 0.08889568597078323, 0.12871016561985016, 0.05792412906885147, 0.17956610023975372, 0.08265139907598495, 0.07438018172979355, 0.07433288544416428, 0.07395793497562408, 0.0651528388261795, -0.01894557662308216,
0.18427664041519165, -0.04537025839090347, -0.07105962932109833, 0.03061225637793541, -0.0011171274818480015, -0.04549538344144821, 0.06312280148267746, 0.037792131304740906, -0.09545954316854477, 0.05975673347711563, 0.031641390174627304, -0.12449441105127335, -0.009770904667675495, -0.09705063700675964, -0.19320081174373627, -0.03555886447429657, 0.2479618787765503, -0.1628631353378296, 0.19965402781963348, -0.06715567409992218,
-0.16497603058815002, -0.20052650570869446, -0.021036500111222267, -0.10221247375011444, -0.1121521070599556, 0.007790940813720226, 0.0011191976955160499, 0.12212281674146652, -0.04083213582634926, 0.02743777632713318, -0.06805284321308136, -0.10528315603733063, 0.009695196524262428, 0.04622011259198189, 0.012550613842904568, 0.006347957998514175, 0.1398950219154358, 0.056053854525089264, 0.0064853825606405735, 0.02220151759684086,
0.1146104633808136, 0.02109665423631668, 0.029186997562646866, 0.10817211866378784, -0.07807908207178116, 0.06855075061321259, 0.021867968142032623, -0.08415453881025314, 0.09976116567850113, -0.1783827841281891, 0.045272327959537506, -0.0023713563568890095, -0.18782319128513336, -0.045762140303850174, -0.04031652584671974, 0.09573762863874435, 0.027681348845362663, -0.03901691734790802, -0.021613342687487602, 0.1677432805299759,
-0.027281420305371284, 0.1449972540140152, -0.2033247947692871, -0.08672917634248734, -0.06942617148160934, 0.10202154517173767, -0.07928251475095749, 0.07630907744169235, -0.05390535295009613, -0.14769549667835236, -0.13638707995414734, -0.03567444905638695, -0.020849058404564857, -0.06514458358287811, 0.04428771138191223, 0.03124088980257511, 0.14499758183956146, -0.011557599529623985, 0.065150186419487, -0.09497559070587158,
-0.02359040267765522, -0.0027548775542527437, -0.04864111170172691, -0.0016644435236230493, -0.13777761161327362, -0.037312719970941544, -0.11607658118009567, 0.19415850937366486, 0.055668335407972336, -0.027962276712059975, -0.05893758684396744, 0.11806676536798477, 0.06568882614374161, -0.028270578011870384, 0.1638769507408142, -0.10287770628929138, 0.21466834843158722, 0.017401091754436493, -0.026338648051023483, -0.00784206110984087,
-0.10641530901193619, 0.02540651522576809, 0.023768732324242592, 0.035979148000478745, -0.02845422551035881, -0.12857194244861603, 0.08413351327180862, -0.15331204235553741, -0.015138985589146614, 0.008032554760575294, -0.10754693299531937, 0.1870223730802536, 0.0907898023724556, -0.14866027235984802, -0.0035380148328840733, 0.01580442674458027, 0.20685778558254242, 0.07973180711269379, -0.03599119931459427, 0.0052855475805699825,
-0.14106135070323944, -0.08551599830389023, 0.12018583714962006, -0.1157265231013298, 0.14280925691127777, 0.0955096036195755, -0.055958766490221024, 0.03986594080924988, 0.0698167085647583, -0.04697152227163315, 0.06461810320615768, 0.04728042706847191, 0.0023695393465459347, 0.08380615711212158, -0.0835399329662323, -0.055826712399721146, -0.04615927115082741, 0.052593350410461426, 0.06296409666538239, 0.04255439341068268,
-0.08753987401723862, 0.10712801665067673, -0.021143272519111633, -0.15297318994998932, 0.08278340846300125, -0.016665225848555565, -0.06469084322452545, -0.13051216304302216, 0.07477963715791702, 0.06152387708425522, 0.06566689908504486, -0.1700647622346878, -0.037062451243400574, -0.10481757670640945, -0.04633212089538574, 0.17801521718502045, 0.01727309077978134, 0.09514499455690384, 0.002429373562335968, -0.08926646411418915,
0.015187636017799377, 0.08054783195257187, -0.04953237622976303, 0.05225647985935211, 0.11539793014526367, -0.13812176883220673, -0.09331721067428589, -0.0016992882592603564, 0.1062513217329979, 0.06655216962099075, -0.06133114546537399, -0.022680263966321945, 0.18046222627162933, -0.006704077124595642, -0.04325392097234726, 0.04801001772284508, 0.062057122588157654, -0.11293895542621613, 0.14155313372612, 0.049346599727869034,
-0.2585090100765228, 0.03172241151332855, -0.052431393414735794, 0.05213535949587822, 0.12384963780641556, -0.002270463155582547, -0.07061820477247238, 0.01848456636071205, 0.05217235907912254, 0.24591387808322906, -0.1011277288198471, -0.09186389297246933, -0.055275555700063705, -0.045014381408691406, 0.09225691109895706, 0.08585076034069061, -0.05165603384375572, -0.14593136310577393, -0.0123220169916749, 0.11014851927757263,
0.09547371417284012, -0.15492793917655945, -0.1300085484981537, 0.00451534241437912, -0.035425130277872086, -0.05254356935620308, -0.0798664540052414, -0.008813122287392616, 0.014706146903336048, -0.023769214749336243, -0.030131084844470024, 0.001318782684393227, -0.005273127928376198, -0.06564568728208542, -0.0792735144495964, -0.08213479071855545, -0.07777176797389984, 0.035660360008478165, -0.0015951021341606975, -0.09193699806928635,
-0.15454821288585663, 0.040505532175302505, -0.006981378886848688, 0.10122863948345184, -0.05058528855443001, 0.10624739527702332, 0.02384045347571373, -0.0029217940755188465, 0.061148159205913544, 0.15617743134498596, -0.09713352471590042, -0.12138046324253082, -0.03875357285141945, 0.07840333133935928, -0.023789385333657265, 0.09371679276227951, -0.13896198570728302, -0.0760091096162796, -0.03293989971280098, 0.05490956827998161,
0.013079856522381306, -0.031030908226966858, 0.0986386090517044, 0.1513427495956421, -0.14619044959545135, -0.023355700075626373, -0.008570796810090542, -0.0547676756978035, -0.09856283664703369, 0.0483868271112442, 0.06506387889385223, -0.12319520115852356, 0.026935897767543793, -0.07961083948612213, -0.08061277121305466, -0.11512648314237595, 0.053792037069797516, -0.205966517329216, 0.04893672466278076, -0.10473747551441193,
0.08314457535743713, -0.04910418763756752, 0.04150430113077164, 0.08597951382398605, -0.057142697274684906, 0.08773551881313324, 0.08913624286651611, -0.07278982549905777, 0.054027047008275986, -0.10531649738550186, -0.05424031615257263, 0.12929661571979523, 0.059158649295568466, -0.007184941787272692, 0.056122973561286926, -0.07813036441802979, -0.06037328764796257, 0.0471951961517334, -0.07811635732650757, 0.04906178265810013,
0.041844479739665985, -0.037111081182956696, 0.16558218002319336, 0.08537716418504715, 0.032143641263246536, 0.03521754592657089, -0.1769266277551651, -0.07960298657417297, -0.016298020258545876, 0.003355240449309349, 0.04130011424422264, 0.08916729688644409, -0.02697264403104782, 0.11106672883033752, 0.17272184789180756, 0.027140622958540916, 0.05592797324061394, 0.07538388669490814, -0.1309545934200287, -0.08556167036294937,
0.0969182476401329, 0.10227243602275848, -0.03927277773618698, -0.06523612141609192, -0.023767687380313873, -0.1332133561372757, -0.061668239533901215, 0.10986704379320145, -0.14946897327899933, -0.06042702496051788, -0.16861507296562195, 0.014990031719207764, -0.09927211701869965, 0.12604284286499023, 0.03211735561490059, 0.12901894748210907, -0.09199673682451248, 0.005775360390543938, -0.08369868993759155, -0.07703151553869247,
-0.09775484353303909, 0.09111595153808594, -0.08434145152568817, -0.07326436042785645, -0.14658083021640778, -0.07374858856201172, -0.3027450144290924, -0.10817703604698181, -0.030265383422374725, 0.11420705169439316, 0.07699432224035263, 0.018546663224697113, 0.06628048419952393, 0.15665090084075928, -0.09341200441122055, 0.10697872191667557, -0.058565404266119, -0.06687513738870621, -0.02673589065670967, -0.0038485622499138117,
-0.08622752875089645, -0.10494519025087357, -0.22480691969394684, -0.017642473801970482, -0.1125095784664154, 0.026593854650855064, 0.15778937935829163, -0.16762226819992065, 0.05895484611392021, 0.08128166198730469, 0.0012500626035034657, 0.1514650583267212, 0.020715773105621338, 0.13965584337711334, 0.030981022864580154, 0.015468168072402477, -0.09535478800535202, -0.08274182677268982, -0.03320617601275444, -0.15190938115119934,
-0.0001493805175414309, 0.021719979122281075, 0.12320277094841003, 0.01892896182835102, -0.04642779380083084, 0.09403545409440994, 0.019878732040524483, 0.07670900225639343, -0.15561258792877197, -0.17397268116474152, -0.06276030838489532, -0.03259184584021568, -0.04782531410455704, 0.0593174509704113, 0.06286180019378662, -0.10306081920862198, -0.12022562325000763, -0.07262524962425232, 0.13481344282627106, 0.14369992911815643,
-0.02946154773235321, 0.021324653178453445, -0.07858160883188248, 0.09992360323667526, -0.012135106138885021, 0.07528834044933319, 0.05890033021569252, -0.1577894389629364, -0.1374325007200241, 0.015256206505000591, 0.012544181197881699, 0.1356130838394165, -0.023218192160129547, 0.03081841580569744, -0.0015527112409472466, -0.031114526093006134, -0.17234490811824799, 0.003174643497914076, 0.01165460143238306, -0.019971782341599464,
0.08055204898118973, 0.00591203523799777, -0.10572861135005951, 0.034367263317108154, 0.01622335985302925, -0.1594334989786148, 0.3079085946083069, 0.03308511897921562, 0.055731188505887985, 0.06147248297929764, 0.14270074665546417, 0.08196669816970825, 0.010274410247802734, -0.10802522301673889, 0.003363173920661211, 0.005259438883513212, -0.1483248919248581, 0.08875776082277298, -0.1026262491941452, -0.041552454233169556,
0.004525355529040098, 0.060540031641721725, 0.048319291323423386, 0.0703817754983902, -0.1511160433292389, -0.0893089771270752, 0.08076216280460358, -0.04305807501077652, -0.057573214173316956, 0.06139017269015312, 0.09596593677997589, -0.09854304045438766, 0.07370764762163162, 0.09051936119794846, -0.1060173362493515, 0.06037244573235512, -0.1777307689189911, -0.15311920642852783, -0.10666321963071823, 0.28738662600517273,
-0.030198991298675537, 0.10844454169273376, 0.21596114337444305, 0.09441101551055908, -0.03176754340529442, 0.08713899552822113, -0.06458192318677902, 0.0016077671898528934, -0.018889769911766052, -0.07728604227304459, 0.22892025113105774, 0.06333579123020172, 0.04551330581307411, -0.0033043092116713524, -0.03593025356531143, 0.0407123863697052, 0.05693570896983147, 0.19975575804710388, 0.18140552937984467, -0.0016575319459661841,
0.034391555935144424, -0.08370662480592728, 0.13149917125701904, 0.048675622791051865, -0.11534607410430908, -0.050132475793361664, 0.00826552789658308, -0.03308248147368431, 0.02463645301759243, 0.0033648209646344185, -0.12396921217441559, -0.07639864832162857, -0.09927695244550705, 0.048817604780197144, 0.15233761072158813, 0.17578758299350739, -0.04436330869793892, -0.12884317338466644, 0.20784789323806763, -0.04091767594218254,
-0.08248493820428848, -0.10095947235822678, 0.00013267820759210736, 0.0345504991710186, -0.02303372137248516, -0.0026045239064842463, -0.023585470393300056, -0.06611692160367966, 0.06425295025110245, 0.07933633029460907, -0.03047061711549759, -0.010110555216670036, 0.027410537004470825, 0.013718274421989918, -0.036549054086208344, -0.10117814689874649, 0.021431419998407364, 0.07723654806613922, 0.03582499548792839, 0.020066220313310623,
0.013214826583862305, -0.09503721445798874, -0.013164890930056572, 0.008253499865531921, 0.0645737424492836, 0.07735355943441391, 0.1430043876171112, 0.010602371767163277, 0.18200865387916565, -8.319353219121695e-05, -0.056659113615751266, -0.034448131918907166, -0.10557237267494202, -0.05154143273830414, 0.11859364062547684, -0.028211696073412895, -0.047368962317705154, 0.025044584646821022, 0.14697210490703583, 0.08134162425994873,
-0.05048082396388054, 0.0752752423286438, 0.04446214810013771, 0.01627705991268158, -0.016123905777931213, 0.07441236823797226, 0.08295918256044388, 0.06815323233604431, 0.040560442954301834, 0.11267787218093872, 0.07007664442062378, 0.010843131691217422, 0.10654386132955551, 0.07751946151256561, 0.005619993899017572, 0.08967315405607224, -0.09953352063894272, -0.0410040020942688, 0.07130960375070572, -0.07193723320960999,
0.09541812539100647, 0.08517026156187057, 0.0634109228849411, -0.177996426820755, -0.01913086324930191, 0.1425727903842926, 0.034173328429460526, 0.021518757566809654, 0.04302944615483284, 0.01753595843911171, 0.02210197225213051, -0.14607441425323486, 0.07706289738416672, -0.029829317703843117, -0.11114216595888138, 0.04971737414598465, 0.23016716539859772, -0.0890820100903511, -0.022661305963993073, 0.053035471588373184,
-0.04535939544439316, 0.017435558140277863, -0.05481638014316559, 0.09626999497413635, 0.1243886947631836, 0.051837045699357986, -0.1366620808839798, 0.07122852653265, 0.041930001229047775, 0.11271671950817108, -0.09800811111927032, 0.008544662967324257, 0.007621897850185633, 0.06273513287305832, 0.04036417976021767, -0.11557935178279877, -0.10306905955076218, 0.05625886470079422, -0.2164689004421234, -0.10016950964927673,
-0.133528932929039, -0.019328251481056213, 0.1338208019733429, -0.02105281502008438, -0.13088996708393097, 0.0759216845035553, -0.10720527917146683, -0.04720073565840721, 0.04683170095086098, 0.028303824365139008, -0.08835110813379288, -0.03543964773416519, 0.01623382233083248, -0.027665216475725174, 0.18832619488239288, 0.10091947764158249, 0.14213477075099945, 0.005773612298071384, 0.04572821781039238, -0.10973335057497025,
0.01209916453808546, -0.032346948981285095, -0.07730254530906677, -0.07703274488449097, -0.1688467264175415, 0.16287162899971008, -0.06829150766134262, -0.1315595954656601, -0.02470211498439312, 0.04746491089463234, 0.06580878049135208, 0.09670582413673401, -0.11280009895563126, -0.00507116224616766, -0.06955976039171219, 0.08132609724998474, 0.03368476778268814, -0.07219219952821732, -0.09459830820560455, -0.030829014256596565,
-0.10245681554079056, 0.03994257003068924, -0.021098244935274124, 0.16045187413692474, -0.06142403557896614, -0.15942397713661194, 0.016714774072170258, 0.03941299021244049, 0.16617397964000702, -0.060320619493722916, -0.0008523237775079906, -0.0456010177731514, 0.012248282320797443, -0.0004452600551303476, -0.2095572054386139, 0.08565057814121246, -0.16782008111476898, 0.03797663003206253, 0.10126136243343353, 0.11502955108880997,
0.05451907590031624, 0.11975126713514328, 0.06179963797330856, 0.10361126065254211, -0.007319559343159199, 0.003725301008671522, 0.0704955905675888, -0.011880435980856419, -0.04471972957253456, -0.018653323873877525, -0.01935894601047039, 0.017895331606268883, 0.0005897232913412154, 0.130626380443573, -0.1190422847867012, -0.23701001703739166, -0.026289941743016243, -0.0625966340303421, -0.2611452341079712, -0.008259398862719536,
-0.10049254447221756, 0.08418380469083786, 0.018628230318427086, -0.05205613002181053, -0.036609891802072525, -0.17990535497665405, 0.0032943906262516975, 0.005499614868313074, 0.013596977107226849, 0.02309844270348549, 0.1186877116560936, -0.11516280472278595, -0.14922837913036346, -0.08355983346700668, 0.13144585490226746, 0.1195436418056488, -0.05261256918311119, -0.05302458629012108, -0.0025393825490027666, -0.14661769568920135,
-0.14892001450061798, 0.07297671586275101, -0.09886462241411209, 0.0010911178542301059, 0.05962589383125305, -0.01798429526388645, 0.005570730660110712, 0.009543550200760365, -0.09846123307943344, 0.1015789806842804, 0.0686698779463768, 0.04279956966638565, 0.09938907623291016, -0.059383176267147064, 0.17345869541168213, 0.007569104433059692, -0.03414647653698921, 0.017810383811593056, 0.12598492205142975, 0.0552535206079483,
0.11021257191896439, 0.015995241701602936, 0.05945787951350212, -0.043955836445093155, -0.08588387817144394, 0.10874982178211212, 0.014546886086463928, 0.02123144641518593, -0.04389890655875206, 0.08144551515579224, -0.04376508295536041, 0.04555494338274002, 0.07385846972465515, 0.09304212778806686, 0.04571273922920227, -0.003277129027992487, 0.13683125376701355, -0.041245438158512115, 0.05176524445414543, 0.0664968490600586,
0.04530596360564232, 0.02170710638165474, -0.15479813516139984, 0.08219262212514877, -0.10169476270675659, 0.08033497631549835, 0.0760895237326622, -0.040265683084726334, 0.025014620274305344, -0.201711043715477, -0.1030551865696907, 0.07416782528162003, -0.03285280242562294, 0.046764783561229706, -0.028902245685458183, 0.026898669078946114, 0.014680654741823673, -0.07142630219459534, -0.041452933102846146, -0.08449465036392212,
0.2284923940896988, 0.10094095021486282, 0.11254189163446426, 0.04152560606598854, 0.011032665148377419, -0.09332527965307236, -0.07506062090396881, -0.12296156585216522, -0.05542316287755966, -0.030678313225507736, -0.0009550264803692698, 0.008840154856443405, 0.0870896577835083, 0.040766313672065735, 0.15615643560886383, 0.053313545882701874, 0.13941235840320587, 0.11937684565782547, -0.08297336846590042, 0.055899906903505325,
0.039833780378103256, -0.10539406538009644, -0.062027424573898315, 0.054633092135190964, -0.019244428724050522, -0.032164085656404495, -0.06349854171276093, 0.13399569690227509, -0.17878881096839905, 0.0375569686293602, 0.03635570779442787, 0.1780424416065216, -0.1951887309551239, -0.05085613951086998, -0.00926775299012661, -0.06102237105369568, 0.07144611328840256, -0.01932477205991745, 0.007881520316004753, -0.02891545370221138,
-0.03427216410636902, 0.02701236493885517, 0.00829299446195364, 0.15690657496452332, -0.03174291551113129, 0.1205771267414093, -0.18828794360160828, -0.2469530552625656, -0.11221887916326523, -0.025605807080864906, 0.0945407822728157, 0.013666448183357716, -0.021237647160887718, 0.11672792583703995, -0.03574449568986893, -0.06124493479728699, 0.16521301865577698, 0.06513413041830063, 0.02070753276348114, -0.2011728435754776,
-0.15183934569358826, -0.2532462179660797, -0.08255477249622345, -0.06232502683997154, 0.049650173634290695, -0.11740235984325409, 0.028909267857670784, 0.16293807327747345, -0.15149645507335663, -0.2675553262233734, -0.08816702663898468, -0.029952703043818474, 0.06290718168020248, 0.04055747762322426, -0.04867808148264885, 0.02105986513197422, 0.02282879315316677, -0.05910738185048103, -0.04732424393296242, 0.03653224930167198,
-0.07300794869661331, 0.07122217118740082, 0.11041080951690674, -0.046193741261959076, -0.042532119899988174, 0.0464506670832634, 0.010062994435429573, 0.04705371707677841, -0.16579817235469818, 0.03902289271354675, 0.0028719385154545307, -0.06854578107595444, -0.1823730170726776, -0.017483461648225784, -0.16239507496356964, 0.2388201653957367, 0.057449836283922195, 0.06723485141992569, -0.1970943659543991, -0.017601987347006798,
0.003934560809284449, 0.03368080034852028, 0.03459882736206055, -0.12924432754516602, -0.042296234518289566, -0.09715721011161804, 0.002807564800605178, 0.07315362989902496, -0.15696457028388977, 0.02617330104112625, -0.0030431575141847134, 0.13807985186576843, 0.09202023595571518, 0.03555997833609581, -0.1606578528881073, -0.012703957967460155, -0.03245352953672409, -0.16283756494522095, -0.1442371904850006, 0.13171087205410004,
0.08015940338373184, 0.04699501022696495, -0.03533300757408142, -0.026895593851804733, 0.10716449469327927, -0.05053461343050003, 0.06416943669319153, -0.021221376955509186, 0.11360761523246765, 0.06649866700172424, 0.08654090762138367, -0.024691786617040634, 0.17903652787208557, 0.03327816724777222, -0.0887061133980751, 0.02227136306464672, -0.022761376574635506, -0.05106616020202637, -0.10001205652952194, 0.03250294178724289,
-0.05645464360713959, 0.09556849300861359, -0.13579051196575165, 0.045620083808898926, 0.001293626264669001, 0.1247883141040802, 0.08305787295103073, 0.09252926707267761, 0.03135954961180687, 0.062126319855451584, 0.07110188156366348, -0.1502782255411148, 0.06104887276887894, 0.09469694644212723, 0.1289219856262207, 0.06422089785337448, -0.037069305777549744, 0.04395284131169319, -0.08202751725912094, 0.02202940732240677,
-0.056286104023456573, -0.15434877574443817, -0.0576581135392189, 0.015401790849864483, 0.02393268421292305, -0.19672173261642456, 0.03470475971698761, -0.013284907676279545, 0.09249661862850189, -0.0022395295090973377, 0.07181522995233536, 0.044142238795757294, 0.11659809201955795, 0.04078681766986847, -0.023777641355991364, -0.023473015055060387, 0.0550042986869812, -0.009014680981636047, 0.0049491156823933125, -0.03939981386065483,
0.004952414892613888, 0.10105563700199127, -0.05943859741091728, -0.06980153173208237, -0.0573088638484478, 0.008856825530529022, 0.00578325754031539, -0.007304674480110407, 0.0301709845662117, 0.043903518468141556, -0.13359855115413666, 0.03809829428792, 0.03454403579235077, -0.033406928181648254, -0.12914294004440308, 0.08812393993139267, -0.004405940882861614, 0.0022407574579119682, 0.05343093350529671, -0.03884898126125336,
0.013877070508897305, -0.011911319568753242, 0.025937391445040703, 0.15474088490009308, 0.03182696923613548, -0.07416842877864838, -0.07538201659917831, 0.13703210651874542, 0.20443595945835114, 0.021465161815285683, -0.06384524703025818, 0.032731447368860245, 0.053825944662094116, -0.021049171686172485, -0.18258726596832275, 0.06347392499446869, 0.058430615812540054, 0.06851620972156525, -0.0428645983338356, -0.03741675615310669,
0.06019509211182594, -0.036479804664850235, -0.15157538652420044, -0.0006264410330913961, 0.004134560469537973, 0.09921348094940186, -0.006494117435067892, -0.11019336432218552, 0.1016811802983284, 0.059934619814157486, 0.12776590883731842, 0.09934059530496597, 0.0161769799888134, 0.041863858699798584, -0.012182289734482765, -0.13168127834796906, 0.09245173633098602, 0.021800778806209564, -0.1182619035243988, 0.16750654578208923,
-0.10441520065069199, 0.012658817693591118, 0.09461071342229843, 0.002574831247329712, -0.06330293416976929, 0.17381581664085388, 0.03014087863266468, -0.09506482630968094, -0.057847943156957626, 0.021548757329583168, -0.08942999690771103, 0.0911436453461647, 0.16109205782413483, 0.1003565862774849, -0.06421234458684921, -0.04552905261516571, 0.02188749797642231, 0.04570784047245979, 0.019837316125631332, -0.09009907394647598,
-0.07236279547214508, -0.08812592178583145, -0.15771931409835815, 0.06313657760620117, -0.011033453047275543, 0.14004839956760406, 0.07690100371837616, 0.015372756868600845, -0.049596961587667465, 0.05754012614488602, 0.05428677797317505, 0.002581794047728181, 0.04383724927902222, -0.023034127429127693, -0.06406176835298538, -0.12431339174509048, -0.06680550426244736, 0.15689323842525482, 0.06886737793684006, -0.08540886640548706,
-0.03321591764688492, 0.07308804988861084, 0.16122296452522278, -0.11800508201122284, 0.18027815222740173, 0.00889558531343937, -0.15902110934257507, 0.05053583160042763, 0.006988625507801771, 0.020800748839974403, -0.08733106404542923, -0.08620533347129822, -0.08207249641418457, 0.006418109405785799, -0.06065289303660393, -0.17659102380275726, 0.16946278512477875, -0.017277391627430916, 0.06685026735067368, 0.040558651089668274,
-0.0428343340754509, 0.04494519904255867, 0.10364872962236404, 0.15717805922031403, -0.011739620938897133, 0.04367423802614212, -0.06281381100416183, -0.028358817100524902, 0.010281883180141449, -0.04766923189163208, -0.10940662026405334, -0.029313087463378906, 0.07343841344118118, -0.22095082700252533, 0.018271969631314278, -0.1437481939792633, 0.07158337533473969, 0.08315151929855347, 0.029122086241841316, 0.07912790030241013,
-0.27220430970191956, -0.13426853716373444, 0.01089704129844904, -0.10354739427566528, -0.05436679348349571, 0.06721945106983185, 0.14275172352790833, -0.10836759209632874, -0.03194008395075798, 0.05792917311191559, 0.044959068298339844, -0.09948763251304626, 0.14711394906044006, -0.077365942299366, 0.23594586551189423, -0.060798708349466324, -0.0703931674361229, -0.051153697073459625, 0.026572398841381073, 0.05644438788294792,
-0.06909772753715515, 0.1276724487543106, -0.027156570926308632, -0.10232527554035187, 0.19230517745018005, -0.05178764835000038, 2.3577964384458028e-05, 0.07081789523363113, -0.012710788287222385, -0.17458629608154297, 0.059698428958654404, 0.12347424030303955, -0.09846929460763931, 0.07936616241931915, -0.1657765507698059, -0.020076289772987366, -0.019455065950751305, -0.03323841467499733, 0.15205509960651398, -0.05260027199983597,
0.08140583336353302, 0.12098636478185654, 0.08196297287940979, -0.029876358807086945, 0.07884129136800766, -0.13526606559753418, -0.12199238687753677, 0.02924208529293537, -0.007790646515786648, -0.09250810742378235, 0.10901696979999542, -0.04007238149642944, -0.0036247915122658014, 0.30912312865257263, -0.0015327504370361567, -0.04552536457777023, -0.10547671467065811, 0.029365960508584976, 0.01818583719432354, 0.11906179785728455,
-0.04654527083039284, 0.009953601285815239, -0.038427453488111496, -0.040901068598032, 0.10661409795284271, -0.174959197640419, 0.028077442198991776, -0.11334721744060516, -0.030560249462723732, 0.037959203124046326, -0.20986278355121613, -0.029720552265644073, 0.14838548004627228, -0.004667957313358784, 0.028861315920948982, -0.07866339385509491, 0.03755403310060501, 0.044579874724149704, 0.0010006444063037634, -0.026914192363619804,
-0.006389611400663853, -0.10793176293373108, 0.18504683673381805, -0.08976168930530548, 0.051960695534944534, -0.037998564541339874, 0.03712116926908493, -0.0956064760684967, -0.09568504244089127, 0.03769972547888756, 0.10753792524337769, -0.06561288982629776, -0.008407965302467346, 0.1393892616033554, 0.1410977840423584, 0.05571231618523598, 0.006422276142984629, 0.06082038953900337, 0.04521577060222626, -0.029494933784008026,
0.047310251742601395, 0.09409002214670181, 0.17801861464977264, -0.08265263587236404, -0.007016886491328478, -0.07962774485349655, -0.14979666471481323, -0.04788791760802269, -0.08606407046318054, -0.010020510293543339, -0.13356389105319977, -0.05758192390203476, -0.052285414189100266, 0.019324827939271927, 0.07817193120718002, -0.11890237778425217, -0.048758964985609055, 0.11804953962564468, 0.04013482481241226, -0.14127230644226074,
0.04997042566537857, 0.015961533412337303, -0.04457443952560425, -0.07179629802703857, -0.16774165630340576, -0.012722012586891651, -0.0547620989382267, -0.02605345845222473, -0.03855978325009346, -0.06664472073316574, -0.08699531108140945, -0.1455133557319641, 0.05318060889840126, 0.044278133660554886, -0.08250623941421509, -0.1250685155391693, -0.11300111562013626, 0.03416236862540245, 0.19256919622421265, 0.07531845569610596,
-0.05289078876376152, 0.10858772695064545, -0.05572906881570816, 0.01781303808093071, -0.08906471729278564, -0.001254986971616745, 0.02532748505473137, 0.025666603818535805, -0.02194773405790329, 0.0033231782726943493, 0.09288354963064194, 0.1787271797657013, -0.053086888045072556, 0.04081934317946434, 0.09446834772825241, -0.11195426434278488, 0.04882868751883507, -0.01492074504494667, -0.042915649712085724, -0.03797512501478195,
-0.06137126311659813, -0.15552429854869843, -0.03847210109233856, -0.027965672314167023, -0.06902020424604416, -0.08734900504350662, -0.02610534429550171, 0.15401406586170197, -0.15974879264831543, 0.24181711673736572, -0.10456765443086624, -0.04115331918001175, 0.12958291172981262, -0.11074454337358475, 0.09976368397474289, 0.10397391021251678, 0.06268807500600815, -0.07771509140729904, 0.05276978015899658, 0.07364878058433533,
-0.05793770030140877, 0.0785178393125534, 0.01715916395187378, -0.005764615256339312, -0.15796367824077606, 0.13594670593738556, 0.029027946293354034, 0.0947873666882515, 0.0834832563996315, 0.15614362061023712, -0.16191205382347107, -0.04522806033492088, 0.02457175776362419, 0.007164947688579559, -0.020606769248843193, -0.10856632888317108, -0.04550045728683472, 0.21274732053279877, -0.061822615563869476, -0.020833585411310196,
-0.03329493850469589, -0.021987924352288246, 0.25138118863105774, 0.11692803353071213, 0.08175652474164963, 0.23081432282924652, -0.09353587031364441, 0.020025987178087234, 0.0014956347877159715, -0.1280762106180191, 0.016581257805228233, -0.00568047259002924, 0.09877539426088333, 0.01787157729268074, 0.041120193898677826, -0.03205745667219162, 0.09104184061288834, -0.10774277150630951, -0.01720142737030983, -0.047151222825050354,
0.2681237459182739, 0.0433427058160305, 0.06891440600156784, -0.07097052037715912, -0.03053261712193489, -0.0538102462887764, 0.14205729961395264, -0.041886404156684875, 0.0007894419250078499, 0.08385631442070007, -0.06676863878965378, 0.19145239889621735, 0.006589212454855442, -0.0378861241042614, 0.06145612150430679, -0.011343860067427158, 0.17709487676620483, 0.064937524497509, -0.06768396496772766, -0.046550873667001724,
-0.09115710854530334, 0.08719073981046677, -0.03200044855475426, -0.05162983015179634, 0.023479776456952095, 0.07190059125423431, 0.036077260971069336, 0.14848005771636963, 0.22402288019657135, -0.00744489673525095, -0.049148984253406525, 0.015510919503867626, -0.07291118055582047, 0.10457848757505417, 0.028811205178499222, -0.045003436505794525, 0.05478191375732422, 0.11038263887166977, -0.005484542343765497, -0.1280474066734314,
0.0256530549377203, -0.11278874427080154, 0.1940477192401886, -0.048882193863391876, -0.09512510895729065, -0.014921212568879128, -0.16998952627182007, -0.047400251030921936, 0.049683183431625366, -0.14459697902202606, -0.20053012669086456, 0.03693423420190811, 0.08942724764347076, 0.09429433941841125, -0.09214569628238678, 0.0723259449005127, -0.04477520287036896, -0.012403497472405434, -0.0918336734175682, -0.03219599649310112,
-0.07807169109582901, -0.15165680646896362, 0.017925025895237923, 0.17864976823329926, -0.10367674380540848, -0.07748206704854965, -0.03512469306588173, 0.011236502788960934, 0.0773521438241005, 0.07021215558052063, -0.010358362458646297, 0.23461198806762695, 0.08497194200754166, 0.10707145184278488, -0.047311559319496155, -0.006601387169212103, -0.17086747288703918, -0.009336749091744423, 0.29057955741882324, -0.07184246182441711,
-0.03506908938288689, -0.04562642425298691, -0.021085787564516068, 0.0936974510550499, 0.0682711973786354, 0.07063093036413193, -0.06358528137207031, 0.09053189307451248, -0.036699078977108, 0.03593134507536888, -0.026778986677527428, 0.06793810427188873, -0.06151235103607178, -0.06356672197580338, 0.11284123361110687, -0.029436027631163597, -0.09787319600582123, -0.04367662966251373, 0.04864192008972168, -0.0411582849919796,
-0.03169853240251541, 0.017327282577753067, -0.011573213152587414, -0.18993528187274933, -0.01964157074689865, 0.10573409497737885, -0.15266375243663788, -0.12075600028038025, -0.218667134642601, 0.18708311021327972, 0.042805545032024384, 0.03411844000220299, -0.0039971983060240746, 0.05532921850681305, 0.01366004254668951, 0.021108701825141907, -0.0333254374563694, 0.06307059526443481, 0.03872848302125931, 0.012340228073298931,
0.07504590600728989, -0.07727216929197311, -0.01038854569196701, -0.17069561779499054, -0.14104844629764557, -0.039178457111120224, -0.11413585394620895, -0.02265797182917595, 0.09790699928998947, -0.0665317103266716, -0.06288962811231613, -0.11052041500806808, -0.02809332311153412, -0.013101615943014622, 0.17518819868564606, -0.1416785717010498, -0.07237919420003891, 0.02273811586201191, 0.03657414764165878, 0.020150966942310333,
0.1067982017993927, 0.023189788684248924, 0.09666506201028824, 0.03253692388534546, -0.18784089386463165, -0.21782338619232178, -0.06329687684774399, 0.11877892911434174, -0.09707875549793243, -0.09321332722902298, 0.21838441491127014, -0.05161067843437195, 0.08988876640796661, -0.10612857341766357, 0.06051786243915558, 0.004123300779610872, 0.01458591129630804, -0.05167529731988907, -0.1594274938106537, -0.06509720534086227,
-0.14953294396400452, -0.036558445543050766, 0.008503071963787079, -0.006718706805258989, -0.10485043376684189, 0.020858516916632652, -0.0032700321171432734, 0.06294715404510498, 0.03977193310856819, 0.05583762377500534, -0.13572779297828674, -0.005573451053351164, -0.0667126476764679, 0.06793813407421112, -0.09901479631662369, -0.08667197078466415, -0.10931701958179474, 0.06680084019899368, -0.04666850343346596, 0.0008962146821431816,
-0.04504982382059097, 0.07906738668680191, -0.031214194372296333, -0.007341592572629452, -0.09715057909488678, -0.03580329194664955, -0.11421080678701401, 0.024282263591885567, 0.03390689939260483, -0.07713174819946289, 0.09761557728052139, -0.020312339067459106, 0.1380806863307953, 0.1183946505188942, -0.11720240861177444, 0.01821240410208702, 0.032416000962257385, 0.13958224654197693, 0.015401488170027733, 0.027716249227523804,
-0.11891908943653107, -0.003031643107533455, -0.04332735016942024, 0.045140478760004044, -0.12076511234045029, -0.14111272990703583, -0.03226959705352783, -0.1031210720539093, -0.017023812979459763, -0.093807153403759, -0.1363508254289627, -0.08460136502981186, 0.04435475915670395, -0.010204248130321503, 0.023007862269878387, 0.12249705195426941, 0.02234468422830105, 0.06438428163528442, 0.0027421258855611086, 0.08200845867395401,
0.0684051364660263, -0.2022784799337387, 0.02462434582412243, -0.04744584858417511, -0.006865832023322582, -0.00558226415887475, 0.04261220246553421, -0.11628826707601547, -0.012723433785140514, 0.1277945637702942, -0.14804905652999878, -0.12086040526628494, -0.0625494122505188, 0.12535056471824646, 0.060804013162851334, -0.003204883774742484, -0.08126180619001389, 0.12515419721603394, 0.038755450397729874, -0.016530364751815796,
0.02160465717315674, -0.11832684278488159, -0.10346715897321701, -0.11992018669843674, -0.04065895080566406, -0.13017956912517548, 0.06385437399148941, 0.07855625450611115, 0.22036269307136536, 0.09761221706867218, 0.04583760350942612, 0.047958727926015854, 0.0517248660326004, 0.04042866453528404, 0.01391491387039423, -0.06302639842033386, -0.024744583293795586, 0.0499606728553772, 0.012770404107868671, -0.003682008245959878,
0.07591841369867325, -0.005729048512876034, -0.1073274239897728, 0.027268631383776665, -0.18002505600452423, 0.0550069622695446, -0.0301718357950449, 0.082229383289814, -0.1809699684381485, 0.017340730875730515, 0.11511503159999847, -0.09810838848352432, -0.06395616382360458, -0.05959445238113403, -0.1272972673177719, -0.034219417721033096, -0.09706822782754898, 0.061151377856731415, -0.06616336107254028, 0.058153487741947174,
0.03672667592763901, -0.10679032653570175, -0.184696763753891, -0.06103312596678734, 0.13637593388557434, 0.09224528074264526, -0.2083655595779419, 0.029095547273755074, -0.10715397447347641, -0.07301165908575058, 0.09888449311256409, 0.04047335684299469, 0.0019346438348293304, -0.03194131329655647, -0.04028330743312836, 0.026165803894400597, 0.06967397034168243, 0.1652112901210785, 0.1077011302113533, -0.14218072593212128,
-0.08498790115118027, -0.11171741783618927, -0.07926560938358307, -0.033957697451114655, -0.016360176727175713, 0.022612856701016426, -0.02082059718668461, -0.018215611577033997, 0.07310441136360168, 0.0589262992143631, 0.009808413684368134, -0.009857740253210068, 0.08081076294183731, -0.03885296732187271, 0.07374301552772522, 0.02357259951531887, -0.1234688013792038, -0.020109426230192184, 0.11282405257225037, 0.21576665341854095,
-0.06303734332323074, -0.0028042090125381947, -0.15339750051498413, -0.0992465540766716, -0.15605056285858154, 0.11287538707256317, 0.00842891912907362, 0.09105227887630463, -0.0018095469567924738, -0.1415724903345108, 0.004168685059994459, 0.004093248397111893, -0.04282921552658081, 0.15627677738666534, 0.022899620234966278, -0.06702268868684769, 0.07947763800621033, -0.3213445842266083, -0.04558641090989113, 0.031837332993745804,
-0.03703871741890907, -0.004863085225224495, 0.2480895221233368, -0.2254682034254074, -0.01750735566020012, -0.12146104127168655, 0.0214151069521904, -0.025621896609663963, 0.026430027559399605, -0.06503792107105255, -0.010376380756497383, -0.06780730187892914, 0.1315387785434723, -0.056302160024642944, 0.050985757261514664, -0.06310048699378967, 0.029571669176220894, -0.06528216600418091, 0.08158278465270996, -0.15285903215408325,
0.11242948472499847, 0.13140751421451569, -0.018782293424010277, 0.09776843339204788, 0.052850499749183655, 0.13310480117797852, -0.08530914783477783, 0.00990657601505518, 0.07325625419616699, -0.030469054356217384, -0.03309217095375061, -0.12528042495250702, 0.1786697953939438, -0.07790472358465195, -0.06727014482021332, -0.08827312290668488, -0.08442652970552444, 0.018719511106610298, 0.20955556631088257, 0.02394191548228264,
0.09642099589109421, -0.06242542341351509, 0.09956765919923782, -0.048703860491514206, -0.018873069435358047, 0.026957588270306587, -0.19057807326316833, -0.041531797498464584, -0.06075707823038101, 0.06358170509338379, -0.005418415647000074, 0.13152499496936798, 0.02330901101231575, -0.01702999696135521, -0.11643273383378983, -0.030331315472722054, -0.1231914833188057, 0.037712566554546356, 0.06342120468616486, -0.0058180419728159904,
-0.05746562406420708, 0.06506727635860443, -0.1007702499628067, -0.018128875643014908, -0.1214701309800148, 0.011447342112660408, -0.01989785023033619, 0.07352354377508163, -0.05826960876584053, -0.10798627138137817, -0.04065171256661415, -0.1202220618724823, 0.12488406151533127, -0.04979025200009346, -0.08594481647014618, 0.059308964759111404, 0.12982863187789917, -0.04038066044449806, 0.04546908289194107, 0.12149123847484589,
-0.07717842608690262, -0.009278780780732632, 0.04019751027226448, -0.006473115179687738, 0.006941107101738453, 0.07666463404893875, 0.025535976514220238, -0.0530649870634079, 0.2092411071062088, 0.028864087536931038, 0.08921194076538086, 0.025902066379785538, 0.008316748775541782, -0.11957387626171112, 0.02883484773337841, -0.1323242485523224, 0.2148277759552002, 0.01951146498322487, -0.15600742399692535, 0.11567903310060501,
0.08755911141633987, -0.11721601337194443, 0.07204242050647736, -0.05282994732260704, -0.03732821345329285, -0.1058335155248642, -0.02518051490187645, 0.0641203373670578, 0.04876803979277611, 0.030659422278404236, -0.03568902239203453, -0.04591495916247368, -0.22525018453598022, -0.05292392894625664, 0.020102428272366524, -0.01665749028325081, -0.00911735836416483, -0.09199747443199158, -0.061681926250457764, 0.0010474957525730133,
0.050509657710790634, 0.05994676426053047, 0.028353754431009293, -0.005772091913968325, -0.019913436844944954, -0.08627617359161377, 0.16453923285007477, -0.12128523737192154, 0.028957000002264977, 0.017480123788118362, -0.10571984946727753, -0.0627424493432045, -0.17705325782299042, -0.02987346239387989, 0.18452668190002441, 0.10689832270145416, 0.042150985449552536, 0.09024545550346375, 0.03262307122349739, -0.0036399969831109047,
0.025113198906183243, 0.04797375574707985, 0.08853873610496521, 0.04199587553739548, -0.018882058560848236, 0.08952067047357559, -0.10509935766458511, -0.026939712464809418, 0.03158985823392868, 0.13410711288452148, -0.04206512123346329, -0.18505387008190155, 0.06516299396753311, -0.053431034088134766, -0.029349874705076218, 0.2617526948451996, 0.02718215063214302, 0.0075468686409294605, -0.08834215998649597, 0.05364392697811127,
-0.005133698228746653, -0.002158473012968898, 0.018866226077079773, -0.15875814855098724, -0.06333929300308228, 0.12115271389484406, 0.009196413680911064, -0.02116760052740574, 0.09541619569063187, 0.0029221870936453342, 0.07256521284580231, -0.1350986510515213, 0.059797532856464386, 0.07607980817556381, -0.08259730786085129, -0.050304289907217026, 0.012930700555443764, -0.05131306126713753, -0.07697507739067078, 0.0011199591681361198,
-0.1259850263595581, -0.05172910913825035, -0.0760241225361824, 0.05604534596204758, -0.011316721327602863, 0.026512891054153442, -0.047942303121089935, -0.01987691968679428, 0.062080226838588715, -0.060391202569007874, -0.06251838803291321, 0.053065262734889984, 0.09412654489278793, 0.1307281106710434, -0.002467770129442215, -0.07230261713266373, 0.05875782668590546, -0.1267988383769989, -0.04209358990192413, 0.16853129863739014,
-0.014852923341095448, 0.0372772179543972, -0.14210520684719086, -0.09894027560949326, 0.13339559733867645, -0.015194999054074287, -0.06348198652267456, -0.19296346604824066, -0.09703324735164642, 0.15911082923412323, -0.19680947065353394, 0.09233937412500381, 0.004372458904981613, 0.006420610006898642, -0.07074983417987823, -0.08774682879447937, -0.046498846262693405, 0.04755080118775368, -0.1107436791062355, -0.08714935183525085,
-0.0038671663496643305, 0.11714041978120804, 0.0012930972734466195, -0.10665524005889893, 0.09237489849328995, 0.19973713159561157, -0.15779075026512146, 0.1058754175901413, 0.0863175168633461, 0.03201102092862129, 0.07149679958820343, 0.11420591175556183, 0.016798125579953194, -0.07983843982219696, -0.08637748658657074, 0.15800605714321136, -0.01762632094323635, -0.1335124969482422, -0.06249396502971649, 0.018301771953701973,
-0.03370009362697601, -0.1371476948261261, -0.031478144228458405, -0.1177324652671814, 0.060847826302051544, 0.17523938417434692, -0.008322798646986485, -0.0039819516241550446, -0.003096704836934805, 0.052906572818756104, -0.11926177889108658, 0.10192938894033432, 0.09234568476676941, 0.20400844514369965, 0.09401056915521622, 0.061437755823135376, -0.05366150289773941, -0.06745463609695435, -0.07138609886169434, -0.11944618076086044,
0.01638297364115715, -0.029124470427632332, -0.10275240987539291, 0.15145768225193024, 0.0923924669623375, 0.007399009540677071, 0.15634794533252716, -0.006735415197908878, 0.036705974489450455, 0.008694281801581383, 0.12143462896347046, 0.016117829829454422, -0.024403570219874382, -0.10964436829090118, 0.07315099984407425, 0.11817767471075058, -0.003553721122443676, 0.10955432802438736, 0.027464523911476135, -0.1639355719089508,
-0.027298834174871445, -0.04840583726763725, -0.05689827725291252, -0.03269198164343834, -0.2313026785850525, -0.07260464876890182, 0.025260481983423233, -0.05326726287603378, -0.02781720645725727, 0.11934621632099152, 0.07350660860538483, -0.007083383854478598, -0.07253425568342209, -0.0736784115433693, -0.018808919936418533, -0.10314913839101791, -0.021120989695191383, -0.12981286644935608, -0.06461478024721146, 0.14180409908294678,
-0.08665429055690765, -0.06857236474752426, 0.03552135080099106, -0.01613306812942028, 0.2824782431125641, -0.032627906650304794, 0.07893206924200058, 0.019365699961781502, -0.02315398119390011, -0.013047118671238422, -0.08383584022521973, -0.18678221106529236, 0.003354170825332403, 0.050414763391017914, -0.0410248264670372, -0.13384868204593658, -0.0035861816722899675, -0.04523732513189316, -0.11888384819030762, -0.06749317049980164,
0.01116504892706871, -0.15058454871177673, -0.008262697607278824, -0.03810038045048714, 0.07391928881406784, -0.08741681277751923, -0.19182872772216797, -0.030294213443994522, -0.0764264166355133, -0.0958971232175827, -0.05254694074392319, -0.08772813528776169, 0.06738945096731186, -0.22144529223442078, 0.049761414527893066, -0.06532160192728043, -0.05137322098016739, 0.02888740412890911, 0.07416097819805145, -0.03599341958761215,
-0.03365509212017059, -0.16642990708351135, 0.02212298847734928, -0.07041683048009872, -0.07394184172153473, -0.1521300971508026, -0.016635509207844734, 0.10632873326539993, -0.08478882163763046, -0.0818118005990982, 0.036470092833042145, 0.006700750906020403, 0.11032698303461075, -0.0691281110048294, 0.12292268127202988, -0.058738913387060165, 0.06041164696216583, 0.19266697764396667, -0.06143909692764282, -0.007257258519530296,
-0.016705667600035667, 0.10916515439748764, 0.07376567274332047, -0.051789578050374985, -0.0014181711012497544, 0.15480411052703857, -0.12517064809799194, 0.18532678484916687, -0.07853187620639801, 0.07510550320148468, -0.051810529083013535, -0.008572712540626526, -0.0036738195922225714, -0.14781489968299866, 0.012407415546476841, 0.0872579962015152, -0.01574157178401947, 0.181534081697464, -0.1333886981010437, -0.12480798363685608,
0.08916367590427399, -0.09261835366487503, -0.05776047334074974, 0.030235260725021362, 0.04586732015013695, -0.18246565759181976, -0.061303701251745224, -0.12099430710077286, -0.15351805090904236, 0.03665019944310188, -0.08118491619825363, 0.15091806650161743, -0.08100862056016922, 0.09154080599546432, 0.026675039902329445, 0.029756737872958183, 0.0676519051194191, 0.07724352180957794, -0.01582062430679798, 0.12023778259754181,
0.20042355358600616, 0.03270377218723297, 0.04003780707716942, -0.03691891208291054, 0.10432521998882294, 0.02158490940928459, -0.0356207899749279, 0.03845130279660225, 0.08699898421764374, 0.09725914150476456, -0.0714680626988411, -0.07641095668077469, 0.025390710681676865, -0.05120179429650307, 0.09771830588579178, 0.18814072012901306, -0.09005096554756165, -0.15441620349884033, 0.1890563815832138, -0.10574175417423248,
0.019816797226667404, -0.021971320733428, 0.035963159054517746, 0.07440002262592316, 0.053480807691812515, 0.13207778334617615, -0.10325132310390472, 0.0017673387192189693, 0.05425948649644852, -0.06173103302717209, 0.07074744254350662, -0.09025755524635315, 0.07430807501077652, -0.04733061045408249, 0.04926478490233421, 0.17223753035068512, -0.06298600882291794, -0.09950485825538635, -0.19612722098827362, -0.11895184963941574,
-0.046292442828416824, -0.045989591628313065, 0.0389862023293972, 0.009210089221596718, 0.10416614264249802, -0.004866668023169041, 0.008470256812870502, -0.16247759759426117, 0.035220298916101456, -0.04710739478468895, 0.17253980040550232, 0.03896712139248848, 0.032845478504896164, 0.03723014518618584, 0.02656867913901806, 0.03747197240591049, 0.1737903505563736, 0.03560151159763336, 0.0672142505645752, -0.1375802755355835,
-0.06596650928258896, -0.03128181770443916, -0.06172431260347366, -0.09416986256837845, 0.01111368928104639, 0.06788492947816849, 0.12976288795471191, 0.036841027438640594, -0.13562963902950287, -0.1383979767560959, 0.1938682645559311, 0.055440474301576614, 0.10571326315402985, 0.051199283450841904, 0.15909068286418915, 0.023920712992548943, -0.046126943081617355, 0.05300498381257057, 0.09004315733909607, -0.06253433972597122,
0.031168194487690926, -0.04060756415128708, 0.09521245956420898, 0.09554202854633331, 0.0006740251556038857, -0.0005405243136920035, -0.11875617504119873, 0.12155312299728394, 0.12213987112045288, 0.0637902170419693, 0.05530519783496857, -0.03750038519501686, 0.11515328288078308, -0.08516455441713333, -0.06548427045345306, 0.09630414843559265, 0.03392162546515465, 0.00984260905534029, -0.08156309276819229, 0.02861466445028782,
0.12304409593343735, -0.11465474963188171, -0.09996112436056137, -0.08806244283914566, -0.09409574419260025, 0.18001875281333923, 0.03556843474507332, 0.07769932597875595, -0.03298778459429741, 0.032982464879751205, -0.08538547903299332, -0.030779847875237465, 0.01764378324151039, -0.025317871943116188, -0.008189722895622253, 0.06669709086418152, 0.073520727455616, -0.0071264756843447685, -0.04962362349033356, -0.05185775086283684,
0.032128021121025085, -0.1687030792236328, -0.08526422083377838, 0.10742045193910599, -0.09006086736917496, -0.017768239602446556, -0.0716380849480629, -0.07642531394958496, -0.0193041879683733, -0.024114323779940605, 0.17677854001522064, -0.01691216416656971, -0.09233154356479645, -0.1239471584558487, -0.03706207871437073, -0.0406515970826149, -0.1329784393310547, 0.10012039542198181, 0.05928077921271324, -0.0795108824968338,
0.10008645802736282, -0.045173484832048416, -0.07758374512195587, -0.1610858291387558, -0.07686933130025864, -0.051180485635995865, 0.09592035412788391, -0.006864065770059824, 0.09949235618114471, -0.030905574560165405, 0.00043882825411856174, -0.03485798090696335, 0.037195414304733276, 0.006497489288449287, -0.036010365933179855, -0.11041334271430969, 0.17043274641036987, 0.07685592025518417, -0.026079842820763588, 0.09031007438898087,
-0.22569628059864044, 0.05067920684814453, 0.030951980501413345, 0.10797504335641861, 0.022649411112070084, -0.1205565482378006, 0.06153174117207527, -0.026467619463801384, -0.020195120945572853, -0.13513001799583435, -0.0771619901061058, -0.02806100994348526, -0.07174638658761978, -0.008467205800116062, 0.1485402137041092, -0.0017809760756790638, 0.0002540579007472843, -0.09470817446708679, -0.15955206751823425, -0.07318471372127533,
-0.14227133989334106, 0.0879279375076294, -0.28139907121658325, -0.07061897218227386, 0.1445121318101883, -0.04789203777909279, 0.10962686687707901, -0.09421012550592422, -0.0011315185111016035, 0.1251036822795868, -0.01377931796014309, 0.004507999401539564, 0.02217639423906803, 0.10214205086231232, -0.08192688226699829, 0.051518071442842484, 0.1817122995853424, -0.05507531389594078, 0.11850770562887192, 0.04437442868947983,
0.05015639215707779, 0.07962912321090698, -0.0865042582154274, -0.025271307677030563, 0.010199555195868015, -0.029413977637887, 0.03870181366801262, 0.2652246654033661, -0.1561426967382431, -0.04354282468557358, -0.057224925607442856, -0.03560502082109451, 0.01980968937277794, 0.08816712349653244, 0.05019386112689972, 0.07693430036306381, -0.007701675407588482, 0.11811228096485138, 0.014446146786212921, -0.022279227152466774,
-0.03585467115044594, 0.0902765542268753, -0.10755204409360886, -0.11596112698316574, 0.051549457013607025, -0.15346014499664307, -0.09634573757648468, -0.019433453679084778, -0.05453589931130409, 0.04746777564287186, 0.09835141897201538, 0.1173820048570633, 0.08146467059850693, -0.23478186130523682, -0.09359139204025269, 0.055045757442712784, 0.005457724444568157, -0.042607322335243225, 0.05404195189476013, 0.1739155799150467,
0.11331365257501602, -0.05718904361128807, 0.031224044039845467, 0.19560515880584717, -0.00742620462551713, -0.021968776360154152, -0.04013768211007118, -0.03952496871352196, -0.06137566268444061, 0.019183002412319183, -0.003854265669360757, -0.032663509249687195, -0.10399661213159561, 0.18111640214920044, -0.06372135132551193, -0.03748013451695442, -0.006130454130470753, 0.17356058955192566, 0.04310204088687897, 0.1374073326587677,
0.02087121643126011, -0.05123819783329964, -0.062467265874147415, -0.11502894014120102, -0.036559924483299255, -0.10432703047990799, -0.15948453545570374, -0.1047099307179451, 0.014040586538612843, -0.07867518067359924, -0.06617515534162521, 0.11598052084445953, 0.006297983229160309, 0.10902265459299088, 0.027364298701286316, 0.08276958018541336, 0.00721708731725812, 0.09912671148777008, 0.11188030242919922, -0.06947069615125656,
-0.09627390652894974, 0.06460757553577423, -0.12319134920835495, -0.08094049990177155, 0.046937279403209686, 0.020483961328864098, -0.12496025860309601, 0.24803677201271057, -0.002659805119037628, -0.1320316642522812, 0.06013181805610657, -0.06733556091785431, -0.021983953192830086, -0.030407994985580444, 0.18851132690906525, -0.03636803850531578, 0.008772081695497036, 0.02979561686515808, 0.005264547653496265, -0.03625017777085304,
0.10811487585306168, 0.019811145961284637, 0.1357567012310028, 0.03534552454948425, -0.09528585523366928, -0.02906920574605465, 0.062193863093853, 0.0744110718369484, -0.08224763721227646, 0.07249701768159866, -0.07312135398387909, 0.04331177845597267, -0.12719117105007172, 0.1739325225353241, -0.004551569931209087, 0.011114753782749176, 0.039553336799144745, -0.16450858116149902, 0.029962386935949326, 0.10056468844413757,
0.12055397033691406, 0.05787700414657593, -0.015613255091011524, -0.00805647112429142, 0.047312866896390915, 0.04477432370185852, -0.14542551338672638, -0.05087313801050186, 0.08242203295230865, -0.09605748951435089, 0.02662077359855175, -0.09533850103616714, -0.16060642898082733, -0.009937256574630737, 0.06319806724786758, 0.01817120984196663, 0.05996593460440636, 0.02746555395424366, 0.20480583608150482, 0.22181561589241028,
0.02801596373319626, -0.05743582174181938, 0.06769850850105286, -0.08809026330709457, 0.10083448886871338, -0.02294454351067543, -0.022461578249931335, -0.1544141173362732, -0.10209152102470398, -0.04088012874126434, 0.044526878744363785, 0.013203459791839123, -0.07493524998426437, -0.07269536703824997, 0.17009776830673218, -0.036418892443180084, -0.11114706099033356, 0.018935805186629295, -0.026916755363345146, -0.009831255301833153,
0.0775918960571289, 0.005210233852267265, -0.06741615384817123, -0.025332847610116005, 0.028653036803007126, -0.08336903899908066, 0.05808402970433235, -0.11930098384618759, 0.06956835091114044, 0.08521066606044769, 0.020197829231619835, -0.061000287532806396, -0.13956643640995026, -0.03459561988711357, 0.027521438896656036, -0.05195879191160202, -0.05274806544184685, -0.09136223793029785, -0.03093293122947216, 0.13446074724197388,
-0.02641218900680542, -0.009997393004596233, -0.05602074787020683, -0.11322365701198578, 0.10059873014688492, -0.04604240134358406, -0.0009028682834468782, -0.11509066820144653, -0.05292068421840668, -0.2238469272851944, -0.021881049498915672, -0.1879540979862213, -0.05857103317975998, 0.025323905050754547, -0.13416481018066406, -0.060373563319444656, -0.12165091931819916, 0.020990798249840736, -0.016213078051805496, -0.0232287235558033,
-0.11606530845165253, -0.10659891366958618, 0.08382539451122284, 0.14204609394073486, 0.08554495126008987, -0.06372084468603134, -0.039014603942632675, 0.053279466927051544, -0.07691233605146408, 0.013689463026821613, 0.1311274766921997, 0.029021073132753372, -0.03413448855280876, -0.07081981748342514, -0.014932007528841496, 0.023963328450918198, 0.038461871445178986, 0.0006771634216420352, 0.02199803851544857, 0.040805090218782425,
0.13144460320472717, -0.07596991956233978, -0.026710662990808487, 0.09289231896400452, -0.04176994413137436, 0.04738054424524307, 0.07329518347978592, 0.0246747937053442, 0.049610842019319534, -0.03644883632659912, 0.03173727169632912, -0.0735066682100296, 0.016531918197870255, 0.061250295490026474, 0.08616279810667038, -0.005697830580174923, -0.13411355018615723, -0.1865094155073166, -0.06476488709449768, -0.04770727455615997,
-0.08158884197473526, 0.0048589580692350864, 0.053058430552482605, 0.011590114794671535, 0.08621487766504288, -0.0704520046710968, -0.011110147461295128, -0.007536649703979492, -0.06451088935136795, -0.09559281170368195, 0.0031722653657197952, -0.030255649238824844, -0.05482298135757446, 0.08091823011636734, 0.008176984265446663, 0.07423825562000275, -0.024252649396657944, -0.08771570026874542, 0.005313965491950512, 0.09400065243244171,
0.10684248059988022, 0.001744164270348847, -0.09569212049245834, -0.04342563450336456, 0.22902385890483856, -0.05708756297826767, 0.04927768185734749, 0.10068783164024353, -0.0045196604914963245, -0.10202516615390778, -0.031076835468411446, 0.01135343313217163, 0.09713256359100342, 0.0688413679599762, -0.0240828488022089, 0.07261994481086731, 0.0529138445854187, 0.0614454559981823, 0.11951123178005219, -0.14459258317947388,
0.02458404004573822, -0.08984221518039703, 0.1379215121269226, -0.07511862367391586, 0.07319839298725128, 0.010550214909017086, 0.043435223400592804, 0.041510406881570816, -0.007745306007564068, -0.13299109041690826, 0.044213175773620605, 0.08682435750961304, 0.15606017410755157, 0.04769986867904663, 0.08278238773345947, 0.12457084655761719, 0.0003646441618911922, 0.03920185938477516, -0.08725942671298981, 0.15812590718269348,
0.06552774459123611, 0.06454763561487198, 0.05080174654722214, -0.0046076420694589615, -0.04613596200942993, -0.16586561501026154, -0.007115200627595186, -0.20950540900230408, 0.024528851732611656, -0.097795270383358, 0.1569700390100479, -0.11694429814815521, 0.0030700007919222116, 0.08180087804794312, 0.14927788078784943, -0.019458970054984093, -0.007433399558067322, 0.08746868371963501, -0.06980663537979126, -0.027286261320114136,
-0.04516001045703888, -0.14090386033058167, -0.11841506510972977, -0.014671503566205502, -0.043511249125003815, -0.0050575388595461845, -0.15060904622077942, 0.07215318828821182, 0.0764908418059349, 0.13873876631259918, 0.11323314160108566, 0.02447529323399067, 0.03292081877589226, -0.04583952948451042, -0.0296153761446476, -0.14374332129955292, -0.04001972824335098, -0.09812688082456589, -0.09667453914880753, 0.000426897982833907,
0.026720358058810234, 0.13978195190429688, -0.02678752690553665, 0.04926137253642082, -0.1541416198015213, 0.02347637340426445, -0.14098545908927917, -0.0912758931517601, -0.044529154896736145, 0.10292604565620422, -0.04977225512266159, 0.10139419138431549, 0.1933048665523529, 0.0587344765663147, 0.12708152830600739, 0.08634822070598602, -0.03616938367486, 0.0004918830818496644, 0.07292017340660095, 0.00836285762488842,
-0.04707549139857292, 0.02011987939476967, -0.1117582693696022, -0.06639493256807327, -0.007038303185254335, 0.011373735032975674, -0.09476058930158615, -0.04614049196243286, 0.029086414724588394, -0.04445193335413933, -0.03536797687411308, -0.15026046335697174, 0.035949937999248505, 0.17294861376285553, 0.1116044744849205, 0.06450479477643967, -0.015036579221487045, -0.03492511436343193, 0.09589958190917969, 0.05461439490318298,
-0.07114876806735992, -0.04441952705383301, -0.07693921029567719, 0.06733419746160507, 0.10414543747901917, -0.02595452405512333, -0.04544622451066971, 0.0063859825022518635, 0.10775071382522583, -0.11013134568929672, 0.011059089563786983, 0.008916535414755344, 0.03596503660082817, 0.057011742144823074, 0.19083382189273834, -0.047434281557798386, -0.04239361360669136, -0.023306261748075485, -0.1280849277973175, -0.008279500529170036,
-0.1292654424905777, -0.06743184477090836, 0.08409141004085541, -0.028555458411574364, 0.050749704241752625, -0.10555101931095123, 0.02743644081056118, 0.14457616209983826, 0.07358353585004807, 0.08570389449596405, -0.1294151246547699, 0.08697938919067383, -0.10590065270662308, 0.051438674330711365, -0.021625583991408348, -0.05757449194788933, -0.06774523109197617, 0.13613957166671753, -0.05364011973142624, 0.029639365151524544,
-0.05451506748795509, 0.1798734962940216, -0.11966395378112793, 0.20799869298934937, -0.009621198289096355, 0.010575158521533012, 0.022938266396522522, 0.05319415405392647, -0.16256210207939148, 0.0916556864976883, -0.1068413108587265, -0.11958806961774826, -0.20986877381801605, 0.030593208968639374, -0.04116089642047882, 0.03769645839929581, 0.10813357681035995, 0.10485484451055527, 0.02519068866968155, -0.031616710126399994,
0.01456491369754076, -0.04601524397730827, -0.0019963793456554413, 0.09326336532831192, 0.11764408648014069, 0.03392200544476509, 0.06907534599304199, -0.09057546406984329, 0.0018321668030694127, -0.07017573714256287, -0.06414414942264557, -0.11140385270118713, 0.052755922079086304, 0.0012338805245235562, 0.21265392005443573, -0.15816913545131683, 0.10778238624334335, 0.07362620532512665, 0.018460677936673164, 0.05535898730158806,
-0.03864175081253052, -0.04220549389719963, 0.05883411690592766, 0.02765844017267227, -0.09100723266601562, -0.1655108779668808, -0.05932941287755966, 0.11050418019294739, 0.029301580041646957, 0.08482833951711655, 0.09538242220878601, -0.01135955285280943, 0.26213839650154114, -0.12824559211730957, -0.011546358466148376, 0.01722714491188526, 0.015877142548561096, 0.09146200120449066, 0.01281809713691473, -0.006983224302530289,
-0.03324982896447182, -0.08257225900888443, -0.12426330894231796, -0.03927868232131004, 0.06059406325221062, -0.029189584776759148, -0.09732916951179504, -0.05880706012248993, 0.19762171804904938, -0.09629959613084793, 0.10878051817417145, 0.1463479995727539, 0.00949456263333559, 0.002592618577182293, -0.027958162128925323, 0.08555131405591965, 0.1699393391609192, 0.03824597969651222, -0.0555683970451355, 0.0790032148361206,
-0.08859569579362869, 0.2310103476047516, 0.043147943913936615, -0.05755030736327171, -0.08976585417985916, -0.12738411128520966, 0.1049170196056366, -0.18149618804454803, 0.12374221533536911, -0.0023087619338184595, -0.0019757086411118507, 0.02538403309881687, 0.00021754394401796162, -0.049606144428253174, 0.07593707740306854, -0.159124955534935, -0.02545841969549656, -0.04989789426326752, -0.06413058191537857, -0.05065998435020447,
0.09177766740322113, 0.027880357578396797, -0.05809926986694336, 0.14408905804157257, -0.08012974262237549, 0.09674843400716782, -0.00626007653772831, -0.02810736931860447, 0.033640652894973755, 0.0930478572845459, 0.13033419847488403, -0.08059991151094437, 0.15909047424793243, 0.13009566068649292, -0.022640300914645195, 0.03032277338206768, -0.1871151477098465, 0.04849929362535477, 0.08731814473867416, -0.08471514284610748,
0.09055030345916748, -0.16765323281288147, 0.10538651049137115, 0.011281059123575687, -0.24079646170139313, -0.010110463947057724, 0.074263796210289, 0.07431008666753769, -0.022761665284633636, -0.14557263255119324, -0.11493723839521408, 0.1350632756948471, -0.08829037100076675, -0.14710016548633575, -0.11143577098846436, 0.12783528864383698, 0.0061716921627521515, -0.05017209053039551, 0.06762862205505371, 0.03081888146698475,
-0.044860657304525375, -0.17434220016002655, 0.07782763242721558, 0.062423281371593475, -0.10013317316770554, 0.052805300801992416, -0.0982418805360794, -0.0011793228331953287, -0.0005471357144415379, 0.06558061391115189, 0.04010923579335213, 0.007075255736708641, -0.078026182949543, 0.06174362450838089, -0.10910554230213165, 0.05501455441117287, 0.277482271194458, 0.09206536412239075, -0.0017864934634417295, 0.14976400136947632,
0.010936329141259193, 0.006554838269948959, -0.10929804295301437, -0.0774136409163475, -0.05216653272509575, -0.011516774073243141, 0.10886598378419876, -0.0014365243259817362, -0.2315509021282196, 0.07108792662620544, -0.09353601187467575, -0.1260225623846054, 0.24718613922595978, -0.019410954788327217, 0.04853616654872894, -0.056156549602746964, 0.1585700511932373, -0.04797820746898651, -0.054433297365903854, 0.0575881153345108,
-0.022129295393824577, 0.04232105240225792, 0.13477402925491333, -0.16321924328804016, -0.07916849106550217, 0.07173032313585281, 0.1648070067167282, -0.02221127599477768, -0.01660478673875332, -0.08569802343845367, 0.06205299496650696, 0.014119687490165234, -0.06364879012107849, 0.10449588298797607, -0.010951966047286987, -0.013749069534242153, -0.08142292499542236, 0.019512712955474854, 0.10940252244472504, 0.026312289759516716,
0.10469672083854675, 0.11136316508054733, -0.002050969749689102, -0.06569252163171768, 0.08348578959703445, -0.0017081551486626267, 0.051097314804792404, 0.1589994728565216, -0.3125534653663635, 0.06311354786157608, 0.05768681690096855, 0.06424924731254578, 0.029083680361509323, 0.04209228977560997, 0.05271640792489052, -0.05227930471301079, -0.19411702454090118, 0.0116729736328125, -0.11945808678865433, -0.06841138005256653,
-0.13842810690402985, -0.08303704857826233, -0.04350746050477028, -0.07229924201965332, -0.04624885320663452, 0.10972558706998825, 0.04236965626478195, -0.15303398668766022, -0.031637102365493774, 0.01670238934457302, -0.1742335855960846, 0.1591244637966156, -0.006372307892888784, 0.02676571160554886, 0.032774847000837326, 0.014507322572171688, 0.10149145126342773, -0.07978808134794235, 0.1464051455259323, 0.06453230232000351,
-0.00602680491283536, 0.04517986625432968, 0.12558728456497192, -0.08203195780515671, 0.11934196203947067, 0.01491625513881445, -0.03327958658337593, 0.10247598588466644, 0.1156269982457161, -0.04409538209438324, 0.027170410379767418, 0.0016414416022598743, 0.01565408520400524, 0.05199868977069855, -0.03282252326607704, -0.11196518689393997, -0.06408897787332535, -0.10292143374681473, -0.11380087584257126, -0.07250266522169113,
0.02350950986146927, 0.1127338856458664, -0.11686781048774719, 0.08458991348743439, 0.15610095858573914, 0.11239689588546753, -0.07259102165699005, -0.13526205718517303, -0.08593112975358963, -0.011341377161443233, -0.005826728418469429, 0.042624834924936295, -0.12060973048210144, 0.012573658488690853, 0.011563809588551521, -0.22438177466392517, 0.03129541128873825, -0.02630019374191761, -0.056498367339372635, 0.2479543536901474,
0.09369955211877823, -0.09616363048553467, 0.11909274756908417, -0.07996023446321487, 0.054266925901174545, 0.07596677541732788, -0.0013397771399468184, 0.0979614406824112, -0.06678993254899979, -0.060042236000299454, 0.05549081787467003, -0.10677764564752579, 0.08162205666303635, -0.06701888144016266, 0.029820328578352928, -0.1703193336725235, 0.08463367074728012, 0.10046416521072388, 0.10672524571418762, 6.671241408184869e-06,
-0.0031671267934143543, -0.11036048829555511, -0.056285712867975235, -0.019375912845134735, -0.03080248460173607, -0.053719520568847656, 0.07251576334238052, 0.06602009385824203, 0.01185138151049614, -0.07207812368869781, 0.13441826403141022, -0.030978677794337273, 0.0019586088601499796, 0.1880253255367279, -0.07060237228870392, -0.09014920890331268, 0.002185274614021182, 0.04755250737071037, 0.10983021557331085, -0.12999944388866425,
-0.046723246574401855, -0.015629535540938377, 0.0481182225048542, -0.007500417996197939, -0.055182162672281265, 0.07817601412534714, 0.08354020118713379, 0.04751460626721382, -0.008654849603772163, -0.06869953125715256, 0.04722116142511368, 0.02150854654610157, -0.02380628138780594, -0.04410009831190109, 0.02249537780880928, 0.09051162004470825, -0.08645500987768173, 0.12813343107700348, 0.06156076490879059, 0.08480839431285858,
0.0387868657708168, -0.07680737972259521, -0.06298141926527023, -0.039560940116643906, -0.13596321642398834, 0.07886584848165512, 0.30738335847854614, -0.15908491611480713, -0.017062373459339142, -0.11579404026269913, 0.012045338749885559, -0.0909009799361229, 0.04663849622011185, 0.11512255668640137, -0.05312374234199524, 0.04883486405014992, 0.032256562262773514, 0.03775297477841377, -0.15356437861919403, 0.07403892278671265,
-0.014568274840712547, -0.01589256525039673, 0.19644150137901306, 0.10932821035385132, 0.015523739159107208, 0.0788191705942154, -0.005819409620016813, -0.11146462708711624, 0.017446422949433327, -0.06248708441853523, -0.06009795889258385, 0.034502480179071426, -0.11352084577083588, -0.1304171234369278, 0.03520412743091583, -0.08633773028850555, -0.018766481429338455, -0.11845927685499191, -0.005334560293704271, 0.04342126101255417,
-0.030194832012057304, -0.08984461426734924, 0.154335618019104, -0.1955535113811493, -0.027270575985312462, -0.0033736161421984434, 0.1580628603696823, -0.12065356969833374, -0.04703294113278389, 0.1424926072359085, 0.05723373219370842, 0.11280643939971924, -0.0529852956533432, -0.07874102890491486, -0.007714227307587862, -0.04709057882428169, 0.08391694724559784, -0.04480905830860138, 0.08831965923309326, -0.17353394627571106,
-0.07802537083625793, 0.0683651939034462, 0.09719853103160858, -0.010299528948962688, 0.11515023559331894, -0.04879175126552582, 0.03252795338630676, -0.019325120374560356, 0.04149508848786354, 0.10518563538789749, 0.08094317466020584, -0.06243058294057846, 0.0908779501914978, -0.0048424918204545975, -0.02608972042798996, 0.015496774576604366, 0.05582139268517494, 0.045135434716939926, -0.09812598675489426, 0.04044150933623314,
-0.056687530130147934, -0.039726268500089645, -0.07145488262176514, 0.06834493577480316, 0.14007152616977692, 0.19232337176799774, -0.09674030542373657, -0.05179465189576149, -0.08999461680650711, -0.11750411242246628, -0.058145444840192795, 0.1651596873998642, 0.15446272492408752, 0.002753929467871785, -0.04410272464156151, 0.0412626639008522, -0.1231040209531784, -0.09071984887123108, -0.018041158095002174, -0.08905654400587082,
0.04907657578587532, -0.10919159650802612, -0.038594283163547516, 0.09105713665485382, -0.00018528924556449056, -0.07613648474216461, 0.049140565097332, -0.018395626917481422, 0.04186635836958885, 0.060663722455501556, 0.08747172355651855, -0.07306260615587234, 0.0038433417212218046, 0.21091563999652863, -0.14652703702449799, -0.043333180248737335, 0.07640763372182846, -0.014685185626149178, 0.07877864688634872, -0.16936194896697998,
0.014112602919340134, -0.022678926587104797, -0.027023175731301308, 0.07281134277582169, -0.06326904147863388, 0.031108669936656952, 0.07397912442684174, -0.06170658767223358, 0.03356612101197243, -0.0031352543737739325, 0.1021958738565445, -0.08326152712106705, 0.06959975510835648, 0.019719097763299942, 0.009752544574439526, 0.04669057950377464, 0.04600125178694725, -0.07721399515867233, -0.03445417433977127, -0.10947085171937943,
-0.021148061379790306, -0.0532938577234745, 0.20749114453792572, -0.04066452011466026, 0.0701279267668724, 0.10692619532346725, 0.14190340042114258, -0.1000555083155632, -0.15256066620349884, 0.1005232036113739, -0.011475976556539536, -0.10125234723091125, 0.14618130028247833, -0.1654486209154129, -0.09050633758306503, 0.023633304983377457, 0.03495211526751518, 0.03580537810921669, -0.08261995762586594, 0.08868248760700226,
-0.10059096664190292, -0.06577376276254654, 0.07211091369390488, 0.024844326078891754, 0.014264746569097042, 0.04324967786669731, -0.0159135814756155, 0.09060360491275787, 0.033804114907979965, 0.12825258076190948, 0.09875962138175964, -0.041770465672016144, 0.07286738604307175, 0.13572236895561218, 0.02350599691271782, -0.011766082607209682, -0.04061433672904968, 0.07105596363544464, -0.14527547359466553, -0.019864287227392197,
-0.0768621563911438, 0.0331815667450428, -0.038248758763074875, -0.1097244843840599, -0.1437062919139862, 0.003420568071305752, -0.041699204593896866, 0.0106147276237607, 0.10050466656684875, 0.04085666313767433, -0.06248171254992485, -0.1268511414527893, 0.04695570468902588, 0.0586710050702095, -0.012278967536985874, 0.029567528516054153, -0.040158603340387344, 0.0036584387999027967, -0.01888192817568779, -0.10406938940286636,
0.11999296396970749, 0.06512253731489182, 0.08964906632900238, 0.04337335005402565, 0.03149885684251785, -0.06191316619515419, 0.13506309688091278, 0.1234905943274498, -0.03513946384191513, 0.010743653401732445, -0.14565958082675934, 0.05508645623922348, 0.07071864604949951, 0.12551754713058472, 0.020518505945801735, 0.09064730256795883, 0.16441792249679565, 0.14220106601715088, -0.12971043586730957, 0.14288611710071564,
-0.05477066710591316, -0.005507439374923706, -0.00671992776915431, -0.019801734015345573, -0.05880776047706604, 0.020930999889969826, 0.06986614316701889, 0.017553290352225304, 0.005951446946710348, -0.08779346942901611, 0.11191225796937943, 0.00023505966237280518, 0.05119326710700989, 0.030401453375816345, -0.048029135912656784, -0.21596990525722504, -0.17744794487953186, 0.1369941085577011, -0.08681128174066544, 0.07693774253129959,
-0.15609495341777802, 0.11876083165407181, 0.08406978845596313, 0.01786525547504425, -0.05091841146349907, -0.11623620241880417, -0.03850312903523445, 0.035861436277627945, -0.06139308959245682, -0.03860960155725479, 0.1509767770767212, -0.027536040171980858, 0.0664076879620552, 0.16504709422588348, 0.011907496489584446, 0.050632044672966, 0.13836471736431122, -0.013728060759603977, 0.049805641174316406, -0.0021689352579414845,
0.11066489666700363, 0.07991106063127518, -0.015195122919976711, -0.14531309902668, 0.017398454248905182, -0.08039984107017517, -0.09035547822713852, -0.10788451135158539, 0.10277041792869568, -0.02072487585246563, -0.06904733180999756, 0.21638067066669464, -0.01500674244016409, 0.11416088789701462, 0.19704268872737885, 0.1333191841840744, -0.09887769818305969, -0.015782158821821213, 0.05377500504255295, 0.015558135695755482,
0.0035454730968922377, 0.11581367999315262, 0.1182963103055954, -0.24218010902404785, -0.10245691239833832, 0.022237645462155342, -0.09090587496757507, 0.007768111769109964, 0.06992895156145096, 0.24950867891311646, 0.12015808373689651, 0.01202443242073059, -0.10430068522691727, -0.022597521543502808, 0.07428738474845886, 0.001993238925933838, -0.07947704195976257, -0.047481175512075424, -0.08023888617753983, 0.045134373009204865,
0.06086811050772667, 0.042939212173223495, 0.030494654551148415, -0.08355887234210968, -0.07103973627090454, -0.05149194598197937, 0.06378930062055588, 0.066068135201931, 0.2896852195262909, 0.049424972385168076, -0.025943350046873093, 0.11033855378627777, -0.053751390427351, 0.02497999370098114, -0.030601901933550835, -0.04056251421570778, -0.12426408380270004, 0.19900637865066528, 0.060981620103120804, 0.055792421102523804,
0.051537785679101944, -0.14035296440124512, 0.0032431732397526503, 0.17103904485702515, 0.08618687093257904, -0.02452213503420353, 0.16243289411067963, -0.04856078699231148, 0.07296068221330643, 0.0271990317851305, -0.03371085599064827, 0.051563605666160583, 0.06848547607660294, -0.017656393349170685, -0.09227074682712555, 0.02490164339542389, 0.13271138072013855, -0.0021111585665494204, -0.01509894896298647, 0.022050529718399048,
0.08136976510286331, 0.1464482992887497, -0.037739843130111694, 4.8905927542364225e-05, 0.06298606097698212, -0.14292125403881073, 0.021598413586616516, -0.07902031391859055, -0.012773263268172741, 0.03490995243191719, 0.034211840480566025, -0.054255466908216476, 0.13746879994869232, -0.06699912995100021, -0.032007552683353424, 0.13753677904605865, 0.001477700425311923, -0.025557998567819595, 0.0376652330160141, -0.00495996605604887,
0.09315963089466095, -0.054975561797618866, -0.10147781670093536, -0.07376763224601746, 0.06985035538673401, 0.05491837114095688, 0.0689825639128685, -0.026795264333486557, 0.09750466793775558, -0.08201900869607925, -0.012101642787456512, -0.14262109994888306, 0.07197900116443634, -0.09185890853404999, -0.0322321280837059, -0.0713338851928711, 0.07239758968353271, 0.25125133991241455, -0.03554421290755272, 0.008860688656568527,
0.010426532477140427, 0.015761861577630043, -0.04134980961680412, -0.08609284460544586, -0.06353740394115448, 0.0672345981001854, -0.005089017562568188, 0.021146537736058235, 0.09599573910236359, 0.08433374017477036, 0.11128418892621994, 0.04668176919221878, 0.15589429438114166, -0.037587519735097885, -0.06459333002567291, -0.1658165007829666, 0.010105299763381481, -0.08578068763017654, 0.16928859055042267, -0.058808546513319016,
