#include "neural_network.h"
#include <stdio.h>
#include <math.h>

const float weights_fc1[] = {
0.4272128939628601, 0.7215734720230103, -0.20899997651576996, 0.0418996661901474, -0.151633158326149, 0.7054247260093689, -0.18497920036315918, -0.050832293927669525, -0.27156347036361694, -0.1283760666847229, -0.1596784144639969, 0.11501550674438477, -0.10359476506710052, -0.4504285454750061, -0.1955629289150238, 0.14122353494167328, -0.32530921697616577, 0.09683439135551453, 0.01092105358839035, -0.14343583583831787,
-0.12485884875059128, -0.6994511485099792, -0.6332193613052368, -0.029392646625638008, -0.13171382248401642, -0.19842012226581573, -0.5914169549942017, 0.6581300497055054, -0.027257364243268967, -0.015532691031694412, -0.02844780497252941, 0.26964643597602844, -0.16593633592128754, 0.3876451253890991, -0.14033614099025726, 0.4473036527633667, 0.5890279412269592, 0.2341473400592804, 0.14018577337265015, -0.12923841178417206,
-0.0457649864256382, 0.7919654846191406, 0.9583990573883057, -0.046513400971889496, 0.13645613193511963, 0.2478082925081253, -0.29955247044563293, 0.47276681661605835, 0.8122237324714661, -0.05207321420311928, -0.03973252326250076, 0.2734988331794739, 0.34540247917175293, -0.5416219830513, -0.024891382083296776, -0.3141850233078003, 0.10648281872272491, -0.39552825689315796, -0.05595365911722183, -0.13798972964286804,
0.2774352431297302, -0.3536321818828583, 0.3636660575866699, -0.07083068788051605, -0.16000984609127045, 0.1860458254814148, -0.9647369384765625, 0.38157737255096436, -0.25424206256866455, -0.10375463217496872, 0.10112588107585907, -0.04847942665219307, -0.03618461638689041, 0.3072730600833893, -0.05090506374835968, -0.14182712137699127, 0.14180319011211395, 0.1316511332988739, 0.1277434378862381, 0.3919539153575897,
-0.26296037435531616, -0.6581523418426514, 0.19588807225227356, 0.09102839976549149, -0.16496947407722473, 0.2079823613166809, -0.11529958993196487, -0.19033823907375336, -0.4398684501647949, -0.07660651952028275, -0.04362909123301506, 0.04219987988471985, 0.8148260712623596, -0.12774120271205902, -0.18378813564777374, -0.9618145227432251, -0.06614076346158981, 0.038256388157606125, 0.16695885360240936, -0.025258081033825874,
-0.15598353743553162, -0.11101435869932175, 1.2199586629867554, -0.03525237366557121, -0.05187039077281952, 0.4252318739891052, 0.6642895340919495, -0.23562169075012207, -0.03125936537981033, 0.0734952837228775, -0.0872969925403595, 0.13904888927936554, -0.3206945061683655, -0.5245608687400818, 0.6487864851951599, -0.15355683863162994, 0.011076089926064014, -0.0881984531879425, -0.09093879908323288, 0.006170281209051609,
-0.12016737461090088, -0.001955824438482523, -1.0035873651504517, -0.014521420933306217, 0.013306960463523865, -0.11522679775953293, -0.061275508254766464, -0.32787951827049255, 0.03332003578543663, -0.01921631582081318, 0.10189943015575409, 0.03378812596201897, -0.051032837480306625, 0.5115857720375061, -0.2400287389755249, -0.3827000856399536, 0.08033426105976105, 0.0588177852332592, 0.29979461431503296, 0.4733020067214966,
0.6934059262275696, 0.028549760580062866, 0.2254372537136078, 0.07054056227207184, -0.006120904348790646, 0.10854310542345047, 0.4149131774902344, -0.49431923031806946, -0.12472928315401077, 0.09122957289218903, 0.07538453489542007, 0.3490126430988312, -0.033142074942588806, -0.13293717801570892, 0.265666663646698, -0.16948340833187103, -0.11756301671266556, -0.012560969218611717, -0.058546461164951324, -0.10360854864120483,
-0.5866413116455078, -0.20128652453422546, -0.004960094578564167, -0.17554715275764465, -0.08152244985103607, 0.13563980162143707, -0.12385953217744827, 0.18392321467399597, 0.05249457806348801, -0.01895703375339508, 0.07572371512651443, 0.056214895099401474, -0.308201402425766, 0.3832382559776306, -0.11806407570838928, 0.2898009717464447, 0.780621349811554, 0.19691698253154755, 0.14132004976272583, -0.1560608148574829,
0.006705536972731352, -0.2747892141342163, -0.222319096326828, -0.21388664841651917, 0.03916257247328758, 0.28369730710983276, 0.269414484500885, 0.6984531283378601, -0.6053906679153442, -0.10891249775886536, -0.05621936917304993, -0.12806092202663422, 0.05799288675189018, 0.18214371800422668, -0.06082034483551979, -0.15248523652553558, 0.2068098932504654, -0.34797558188438416, 0.19897396862506866, -0.010739709250628948,
-0.16248556971549988, 0.10469089448451996, -0.9338170289993286, 0.05723441019654274, -0.09721841663122177, -0.2786000669002533, -0.28299635648727417, 0.029897963628172874, -0.3606387972831726, 0.1879676878452301, -0.19778946042060852, 0.2527965307235718, -0.11527321487665176, -0.9092270135879517, 0.48834240436553955, -0.05833601951599121, -0.1982244849205017, -0.15039494633674622, -0.2340410053730011, -0.40524178743362427,
-0.38741013407707214, -0.5385052561759949, 0.18330182135105133, -0.16248038411140442, 0.06043418496847153, 0.5075907707214355, -0.7072932720184326, 0.2194865345954895, -0.6476954817771912, -0.18135187029838562, 0.006634054705500603, 0.0018881740979850292, 0.4533962905406952, 0.4423782527446747, -0.46384260058403015, -0.10009385645389557, -0.025871315971016884, -0.0916619747877121, -0.15604229271411896, -0.19554083049297333,
0.5183628797531128, 0.4329010248184204, -0.8503289818763733, -0.28794175386428833, -0.0899171382188797, -0.10651390254497528, -0.20112963020801544, 0.14428161084651947, -0.05603089556097984, -0.32508978247642517, 0.1592550128698349, 0.33837834000587463, -0.5159732699394226, -0.39091402292251587, 0.09919335693120956, -0.15537187457084656, -0.4113115668296814, 0.15238554775714874, -0.32792484760284424, 0.19030585885047913,
-0.24050134420394897, 0.11079429090023041, -0.048561614006757736, -0.04061299189925194, -0.043513212352991104, -0.04059918224811554, -0.7225984930992126, 0.07620736211538315, -0.3526913821697235, -0.006390915252268314, 0.00011196884588571265, 0.0878610759973526, -0.30583620071411133, 0.8960473537445068, -0.2894643545150757, -0.19073569774627686, 0.34939736127853394, 0.2626666724681854, -0.25255414843559265, 0.14357474446296692,
-0.12264858931303024, 0.22052642703056335, 0.4533575773239136, -0.2681112587451935, -0.08453359454870224, -0.7054660320281982, 0.20450858771800995, 0.1333334743976593, -0.1127467006444931, -0.15684200823307037, -0.019626351073384285, -0.3892911672592163, 0.3776353895664215, 0.23599714040756226, -0.5174785852432251, -0.28107765316963196, 0.07026035338640213, 0.13564279675483704, 0.06028620898723602, 0.11189049482345581,
-0.11779361963272095, 0.1314263492822647, -0.4056158661842346, -0.20094624161720276, -0.06774567812681198, -0.1558939665555954, 0.007974485866725445, 0.28706106543540955, -0.13652777671813965, -0.16587543487548828, -0.15519791841506958, 0.041670650243759155, 0.7101713418960571, 0.09272588789463043, 0.37916839122772217, -0.6712738871574402, 0.23426957428455353, -0.11638051271438599, -0.14820310473442078, 0.03974669799208641,
-0.35382112860679626, 0.5253532528877258, 0.8523871898651123, -0.07304244488477707, 0.08507446199655533, 0.4679475426673889, 0.11907988041639328, -0.9658965468406677, 0.24518351256847382, 0.019169658422470093, -0.12263629585504532, -0.08382956683635712, 0.30807968974113464, -0.38918188214302063, 0.06930261105298996, -0.422344446182251, 0.08076860755681992, 0.14403344690799713, -0.009743926115334034, -0.08595271408557892,
0.5544617772102356, -0.8121643662452698, 0.03750840201973915, 0.32166463136672974, 0.011103427968919277, 0.057424940168857574, -0.36433568596839905, -0.49169155955314636, -0.15629398822784424, -0.08900145441293716, -0.09959422796964645, 0.27212589979171753, -0.582139790058136, -0.4151528775691986, -0.28074759244918823, -0.13626621663570404, -0.355153888463974, 0.39199960231781006, -0.11226055026054382, 0.5025287866592407,
-0.146942600607872, 0.07316961139440536, 0.2195124477148056, -0.06436938792467117, 0.03521024435758591, -0.13282369077205658, -0.21782785654067993, 0.06354575604200363, -0.8660529851913452, 0.03188546001911163, 0.015405201353132725, -0.30051717162132263, 0.08866387605667114, -0.12338759750127792, -0.15120059251785278, -0.21055278182029724, 0.3647831976413727, -0.14064013957977295, 0.06587636470794678, -0.08453807979822159,
0.13020862638950348, -0.4492025077342987, 0.07660819590091705, 0.03411510959267616, -0.09702308475971222, -0.2249041199684143, 0.3975645899772644, -0.2585175633430481, 0.0056541720405220985, 0.03394542261958122, -0.020396167412400246, -0.62335205078125, -0.04789227247238159, -0.36922287940979004, 0.07068144530057907, 0.15040795505046844, 0.30001577734947205, 0.030659696087241173, -0.43778273463249207, 2.2144733520690352e-05,
0.2063468098640442, 0.029392998665571213, 0.4492150545120239, -0.5093131065368652, -0.10823588073253632, -0.4342200756072998, -0.06741956621408463, 0.574384868144989, 0.18413633108139038, -0.24869714677333832, -0.03753754869103432, -0.10196375846862793, 0.3502682149410248, 0.21509255468845367, -0.35741034150123596, -0.30410048365592957, -0.17225565016269684, -0.06810586899518967, -0.03368417173624039, 0.1069280207157135,
-0.21687191724777222, 0.18657003343105316, -0.20259317755699158, -0.19483444094657898, 0.034064989537000656, 0.2790544927120209, 1.010263204574585, 0.27453774213790894, 0.12053550779819489, 0.04506221413612366, -0.08983893692493439, 0.3371531069278717, 0.1452670842409134, 0.4866288900375366, -0.27507972717285156, 0.5529786348342896, -0.2763669192790985, -0.24119357764720917, 0.05674697458744049, 0.20584532618522644,
0.6411713361740112, -0.32667306065559387, 0.658782422542572, 0.2666334807872772, -0.05181780457496643, 0.10572701692581177, 0.019542261958122253, 0.39287829399108887, -0.7554221749305725, -0.006393947172909975, -0.047060731798410416, -0.3140130639076233, 0.10216110944747925, -0.27493903040885925, 0.5364783406257629, -0.2531191110610962, 0.009693127125501633, -0.17180560529232025, 0.09758774191141129, 0.28380244970321655,
0.19555939733982086, 0.5667306780815125, 1.347965955734253, -0.027637045830488205, 0.1632307767868042, 0.3938303291797638, -0.8434191346168518, 0.8714567422866821, -0.16444534063339233, -0.06671131402254105, 0.023875132203102112, -0.014239709824323654, 0.10347867012023926, 0.2695765495300293, -0.3752872943878174, -0.3706250488758087, 0.26703187823295593, -0.017042431980371475, -0.2769400179386139, -0.013274013064801693,
0.36806121468544006, -0.13589562475681305, -0.42298799753189087, 0.15572696924209595, -0.10103505104780197, -0.016721678897738457, 0.5633794069290161, -0.15417082607746124, 0.4026719331741333, -0.11427106708288193, -0.05515212193131447, -0.14067265391349792, -0.1762632578611374, -0.12192805111408234, -0.006459358148276806, 0.047183163464069366, -0.11497021466493607, -0.3742864727973938, 0.21541383862495422, -0.5343146324157715,
0.02709333412349224, -0.3767531216144562, 0.9150240421295166, 0.034651875495910645, -0.018031854182481766, 0.17862628400325775, 0.5626937747001648, 0.8888117074966431, -1.0265395641326904, 0.06587303429841995, -0.023358257487416267, 0.10005765408277512, -0.12337632477283478, -0.46262913942337036, 0.6519120931625366, -0.17957019805908203, -0.13975660502910614, 0.12031631171703339, -0.30898162722587585, -0.05715196952223778,
-0.43365350365638733, -0.1938122808933258, 0.6728633046150208, -0.39061498641967773, -0.3057463765144348, 0.28836992383003235, 0.17050401866436005, 0.22619885206222534, 0.10840573161840439, -0.08742759376764297, 0.011254043318331242, 0.27437639236450195, -0.5572457909584045, -0.0576711967587471, -0.07155846059322357, -0.10853017121553421, 0.21787717938423157, -0.318464457988739, 0.005237768404185772, -0.37911877036094666,
-0.012866320088505745, 0.591819167137146, -0.6105456948280334, 0.2427075207233429, -0.11106417328119278, 0.10479971766471863, -0.6808651089668274, 0.5342931747436523, 0.4379744231700897, -0.0035497702192515135, 0.02622685767710209, -0.37276118993759155, 0.09515135735273361, -0.08581104129552841, -0.21159468591213226, -0.30624812841415405, -0.4941638708114624, 0.16843312978744507, 0.018827853724360466, 0.04284181445837021,
-0.06879331171512604, 0.209445983171463, 0.3931981027126312, -0.14942191541194916, 0.2560764253139496, 0.45395326614379883, -0.35666704177856445, 0.4897967278957367, 0.24904783070087433, 0.01755443401634693, -0.005673473235219717, 0.15787100791931152, -0.17998257279396057, -0.04218440502882004, -0.2965201139450073, -0.3876945972442627, -0.6025026440620422, 0.1338949054479599, 0.08876746892929077, -0.11023644357919693,
-0.25527945160865784, 0.07107844203710556, 0.5867947340011597, 0.026014236733317375, -0.17025543749332428, -0.003264583880081773, 0.28483983874320984, 0.09363128244876862, -0.7955127954483032, 0.021246647462248802, -0.18855462968349457, 0.43262729048728943, 0.09983484447002411, -0.23604795336723328, 0.33240681886672974, -0.32806944847106934, -0.2619800567626953, 0.12306021898984909, 0.20283518731594086, -0.065168097615242,
0.11178897321224213, -0.5670985579490662, -0.0689130648970604, 0.034525979310274124, -0.137670636177063, 0.45110321044921875, -0.5402457118034363, -0.1061616837978363, -0.08596354722976685, 0.06270960718393326, -0.0726083442568779, 0.4619128704071045, 0.12905491888523102, 0.20675833523273468, -0.06040145829319954, -0.12832264602184296, 0.054612647742033005, -0.15535593032836914, -0.09055633842945099, 0.1158236488699913,
-0.2354854792356491, -0.8082644939422607, -0.40850380063056946, -0.30399107933044434, -0.25804877281188965, -0.2716701030731201, -0.24436701834201813, -0.755062997341156, -0.6581374406814575, -0.031534984707832336, -0.06674190610647202, 0.21560408174991608, 0.2186184674501419, 0.09249434620141983, 0.09930413216352463, -0.6198976039886475, 0.07141374051570892, -0.07443816214799881, -0.22894187271595, -0.09901493787765503,
-0.12409712374210358, 0.5289624333381653, -0.6285142302513123, 0.046280115842819214, 0.06874861568212509, -0.4751632809638977, 0.48668408393859863, -0.3689954876899719, 0.4217202961444855, -0.013820262625813484, -0.24280057847499847, 0.34747040271759033, -0.22183991968631744, -0.2754381597042084, 0.1407567858695984, -0.44013839960098267, -0.27099213004112244, 0.2300301343202591, 0.07695398479700089, 0.04485618695616722,
-0.5593670010566711, 0.12123309820890427, -0.29416388273239136, -0.10376264154911041, 0.3460141718387604, 0.03387601301074028, 0.16318461298942566, 0.1405205875635147, -0.14213941991329193, 0.08776919543743134, 0.02409616857767105, -0.029475199058651924, -0.7464796304702759, -0.7120211720466614, -0.4078277051448822, 0.6798182129859924, -0.06492958217859268, 0.18215009570121765, -0.027498170733451843, 0.5543124079704285,
0.2193642109632492, -0.08199790865182877, 0.8064150214195251, 0.009057399816811085, 0.07863680273294449, 0.259579598903656, -0.25817862153053284, -0.29648950695991516, -0.6957992911338806, 0.04743785783648491, 0.038111504167318344, -0.2917730212211609, -0.046395763754844666, -0.2847435176372528, 0.5159820914268494, -0.02775055542588234, -0.13896015286445618, 0.36402300000190735, 0.45678120851516724, -0.19146452844142914,
-0.1951979398727417, -0.9859141707420349, -0.5264825224876404, -0.05102912709116936, -0.2926465570926666, 0.12089996039867401, 0.361857533454895, 0.4471678137779236, 0.49344542622566223, 0.07755059003829956, 0.10619107633829117, -0.17793072760105133, -0.3673728108406067, -0.16258515417575836, 0.1886976659297943, 0.6388927698135376, 0.10958600789308548, 0.20585542917251587, 0.18002037703990936, 0.33608534932136536,
-0.4953410029411316, 0.16266806423664093, 0.3522719442844391, -0.00847814790904522, -0.06145574897527695, -0.3934897780418396, -0.5657205581665039, 0.871171236038208, 0.2753116488456726, -0.010391924530267715, 0.02206260710954666, -0.17546184360980988, 0.3855518698692322, 0.16962836682796478, -0.27404215931892395, -0.33165284991264343, -0.10392911732196808, -0.08527170121669769, -0.11164504289627075, 0.05613154545426369,
0.491435706615448, -0.5198380351066589, 0.13436824083328247, -0.012793420813977718, -0.3449287712574005, -0.22702041268348694, -0.14587758481502533, 0.3022148013114929, 0.4198736846446991, -0.029257934540510178, 0.017324401065707207, 0.1574719101190567, -0.9085285663604736, -0.40389570593833923, 0.06564555317163467, 0.13145825266838074, -0.02036932110786438, 0.24804888665676117, 0.10745414346456528, -0.03547479957342148,
0.23463739454746246, 0.03593993932008743, -0.07633979618549347, -0.11636453121900558, 0.01394815742969513, -0.07413773238658905, -0.6706513166427612, 0.3041580021381378, -0.4328498840332031, -0.06657104939222336, 0.12375402450561523, 0.09485825151205063, 0.44153356552124023, -0.22008121013641357, 0.04543723911046982, -0.07310135662555695, -0.03074563294649124, -0.12446648627519608, -0.03226390853524208, -0.4199881851673126,
0.0756998211145401, -0.2725115120410919, -0.32040050625801086, -0.6791591644287109, 0.15275691449642181, -0.3013879656791687, 0.37687674164772034, 0.24037545919418335, 0.1525881290435791, 0.09276281297206879, -0.04456164315342903, -0.12604422867298126, -0.09308013319969177, -0.23406127095222473, -0.21722356975078583, -0.012444127351045609, 0.4143794775009155, 0.18892361223697662, 0.13846631348133087, -0.15323713421821594,
0.861572265625, 0.3715933561325073, 0.6514713764190674, 0.18629753589630127, 0.10005275905132294, 0.2148597687482834, -0.5180423259735107, -0.04449012875556946, 0.6891759037971497, -0.05624016374349594, -0.1330309808254242, -0.35438960790634155, 0.25021299719810486, -0.005477434489876032, -0.25559619069099426, -0.3213803768157959, -0.058074917644262314, 0.16296692192554474, -0.2929380536079407, 0.1994144320487976,
-0.3058190941810608, 0.4805605411529541, -1.5295175313949585, 0.04090139642357826, -0.059032049030065536, -0.2408849596977234, -0.08996836096048355, -0.026982493698596954, -0.22419479489326477, 0.11918964236974716, 0.02592288702726364, 0.07177606970071793, -0.3186221122741699, -0.17778146266937256, -0.24742574989795685, 0.5994373559951782, 0.24837985634803772, -0.44438353180885315, 0.18713678419589996, -0.3415181636810303,
0.703986406326294, -0.5559964179992676, 0.33615776896476746, 0.19476279616355896, -0.045172758400440216, 0.20925115048885345, 0.024914072826504707, 0.9891762733459473, 0.7333492636680603, 0.00022363729658536613, 0.023375719785690308, 0.5549329519271851, 0.1533597707748413, -0.14409831166267395, -0.2654487192630768, -0.31274107098579407, 0.016061361879110336, -0.06786679476499557, 0.20442365109920502, -0.2012772262096405,
-0.0030056487303227186, -0.8586453199386597, -0.07936304807662964, 0.12251339852809906, -0.15407343208789825, 0.042484767735004425, -0.3071827292442322, -0.7383965849876404, -0.5356452465057373, -0.005781516898423433, -0.12826420366764069, 0.17971286177635193, 0.49898335337638855, -0.17269949615001678, 0.036590080708265305, -0.6639062762260437, -0.11224548518657684, 0.2022874653339386, 0.17039978504180908, 0.19088374078273773,
0.36870047450065613, -0.5781792998313904, 0.20456641912460327, -0.044135160744190216, -0.2991878092288971, 0.08666189759969711, -0.5423855185508728, -0.09977275133132935, -0.4731893241405487, -0.025546498596668243, 0.0002936256641987711, 0.12334150820970535, 0.32851642370224, -0.03448901325464249, -0.12265776097774506, -0.6116380095481873, -0.13317546248435974, 0.3250969350337982, 0.0068458085879683495, 0.20888839662075043,
0.298736572265625, 0.08158096671104431, 0.5065730810165405, -0.1739664375782013, -0.20696239173412323, -0.17704801261425018, -0.2696021497249603, -0.20455080270767212, 0.27638959884643555, -0.04922455549240112, -0.19869807362556458, 0.31704214215278625, 0.5490615367889404, 0.21964769065380096, 0.09358178079128265, 0.07293499261140823, -0.24191603064537048, -0.13573724031448364, -0.1760357916355133, -0.10132633149623871,
-0.15354803204536438, 0.13220630586147308, -0.24150127172470093, 0.027141867205500603, 0.03777836635708809, 0.12527385354042053, 0.6867453455924988, 0.9458674192428589, 0.03345170244574547, 0.003014723304659128, -0.05136294662952423, -0.3929178714752197, -0.2175302505493164, -0.10952001065015793, 0.2383762001991272, 0.4500292241573334, 0.41909512877464294, 0.17006385326385498, -0.2703149914741516, -0.23918665945529938,
0.6117891073226929, 0.6373815536499023, 0.43930697441101074, -0.1700046807527542, 0.2872580289840698, 0.19510847330093384, 0.10604376345872879, 0.3607999384403229, -0.08292227238416672, 0.006735491566359997, -0.2840750515460968, -0.11548219621181488, -0.3289395272731781, -0.1257694661617279, -0.25953030586242676, -0.01893463172018528, -0.32655882835388184, 0.2641799747943878, 0.008462765254080296, -0.027034472674131393,
0.22852063179016113, 0.3010379374027252, -0.020346624776721, -0.049643874168395996, 0.11368777602910995, -0.09178415685892105, 0.31596726179122925, -0.38890504837036133, -0.14738163352012634, 0.04216114431619644, 0.22230380773544312, -0.1266714185476303, -0.7024229168891907, -0.09952198714017868, 0.2037649005651474, 0.31993770599365234, -0.04385095089673996, -0.4894758462905884, -0.12746365368366241, -0.18135318160057068,
0.5044801831245422, 0.29050761461257935, -0.004899840801954269, -0.05845106020569801, 0.22500497102737427, -0.08011633902788162, 0.18276409804821014, 0.5694242715835571, -0.2757774293422699, 0.14243346452713013, -0.050929922610521317, 0.18892700970172882, -0.3539436161518097, 0.3037750720977783, -0.08331712335348129, -0.29391422867774963, 0.12435930222272873, -0.05087249353528023, 0.09335236251354218, 0.24208401143550873,
-0.5679609179496765, -0.3295174241065979, -0.019478680565953255, -0.1090369001030922, -0.1505431830883026, 0.010706399567425251, -0.6540661454200745, -0.8261246681213379, -0.31180307269096375, -0.02971012145280838, -0.10856495797634125, -0.398579865694046, 0.3733382225036621, -0.27631229162216187, 0.51105797290802, -0.2798396944999695, -0.1580462008714676, -0.39941635727882385, 0.04994884505867958, 0.09731125831604004,
0.18246643245220184, 0.5135029554367065, -0.5921244621276855, 0.0780225619673729, 0.09922868758440018, 0.057705048471689224, 0.012314113788306713, 0.6756772994995117, -0.5318629741668701, -0.018477657809853554, -0.03919823467731476, -0.034555114805698395, -0.04202086105942726, -0.008986493572592735, -0.1559898853302002, 0.05651821568608284, 0.5191180109977722, -0.01796714961528778, -0.10911940783262253, 0.42569926381111145,
0.2083520144224167, -0.41691914200782776, -0.12143029272556305, -0.48823314905166626, -0.0030984673649072647, -0.4682011902332306, -0.13566963374614716, 0.1439484804868698, 0.32053476572036743, 0.2138662189245224, -0.1480550467967987, -0.19171087443828583, 0.20901857316493988, -0.06721825897693634, -0.035215817391872406, -0.5267735123634338, -0.03290339931845665, -0.1505294293165207, 0.0009549749083817005, 0.32476016879081726,
0.003111590864136815, -0.2495560199022293, 0.10988908261060715, -0.2555966377258301, -0.07614699751138687, -0.3388962149620056, 0.5226218104362488, 0.2107137143611908, -0.6851674914360046, -0.07001616060733795, 0.09348160773515701, -0.6010451912879944, 0.1656714230775833, 0.35807549953460693, 0.19571390748023987, -0.05917247012257576, -0.37867721915245056, 0.34389519691467285, -0.10732325911521912, 0.16757401823997498,
-0.5441157221794128, -0.2303416132926941, -0.8206973671913147, 0.05260201171040535, 0.0219107698649168, -0.05554889515042305, 0.19692328572273254, 0.23471809923648834, -0.47988882660865784, 0.04403986036777496, 0.09832215309143066, 0.08483569324016571, -0.6312530040740967, 0.1711111217737198, -0.41731977462768555, 0.010029848664999008, -0.12291215360164642, -0.1671481728553772, 0.030430294573307037, -0.382642924785614,
0.47082966566085815, 0.07577697187662125, -0.6801629662513733, -0.12919321656227112, 0.09338446706533432, -0.17353226244449615, -0.7808437943458557, 0.08829709887504578, -0.879898726940155, -0.10651078820228577, 0.0014420970110222697, 0.11818582564592361, 0.0548178069293499, 0.00031331315403804183, -0.08715198934078217, -0.05857132002711296, -0.01924825645983219, -0.09999951720237732, 0.11980793625116348, -0.11313311755657196,
-0.15280486643314362, -0.7331386208534241, -0.04553811997175217, -0.2277192771434784, -0.018078668043017387, -0.26732876896858215, 0.38748541474342346, 0.17586012184619904, -0.3306465446949005, -0.07480679452419281, -0.2424180805683136, -0.3105185329914093, -0.05790082737803459, 0.29073673486709595, -0.008119319565594196, -0.5265631675720215, -0.057554736733436584, 0.2930377721786499, -0.024901721626520157, 0.06740935891866684,
-0.1529124677181244, 0.5324277877807617, 0.34920352697372437, 0.0699218288064003, 0.07002033293247223, -0.07783360779285431, 0.4663265347480774, -0.5668306946754456, 1.023274540901184, 0.02849520742893219, -0.0727771669626236, 0.25171419978141785, -0.05726876109838486, -0.42630478739738464, 0.3630937933921814, 0.05865222215652466, 0.20667235553264618, -0.17814046144485474, 0.22150462865829468, -0.19523270428180695,
0.02167513407766819, -0.29283106327056885, 0.9183476567268372, -0.16891449689865112, -0.14361663162708282, 0.3382652699947357, 0.9950818419456482, 0.18229235708713531, 0.4923950433731079, 0.160650834441185, -0.015281026251614094, -0.0715748518705368, -0.2745141088962555, -0.3654114603996277, 0.18982574343681335, 0.16756492853164673, 0.21162071824073792, 0.1288900524377823, -0.4510771334171295, 0.004318478982895613,
-0.6152731776237488, 0.8091939687728882, -0.6753997802734375, -0.07393806427717209, 0.16281858086585999, -0.14697231352329254, 0.1668565720319748, 0.16620834171772003, 0.6625455021858215, 0.007024671416729689, -0.002975740469992161, 0.17280463874340057, 0.21369600296020508, -0.2557344436645508, 0.4130600392818451, 0.033310625702142715, -0.005602544639259577, 0.326853483915329, -0.027785232290625572, -0.03303768113255501,
-0.028064977377653122, -0.16328801214694977, -0.9211560487747192, -0.0632476955652237, 0.14145305752754211, 0.018522216007113457, 0.8075374960899353, 0.2115512490272522, -0.27507635951042175, -0.036721449345350266, 0.11263949424028397, -0.05058571323752403, -0.2973044216632843, 0.17595794796943665, -0.030482247471809387, 0.4372534453868866, 0.4637835621833801, -0.21245113015174866, 0.17368477582931519, 0.11529134958982468,
-0.3642943203449249, 0.7763718962669373, -0.3413662612438202, -0.11536470055580139, 0.38563454151153564, -0.002973680617287755, 0.2314201444387436, -0.19209633767604828, 0.6489925384521484, -0.06833599507808685, -0.04591088369488716, -0.10282959043979645, 0.1358320116996765, -0.11304915696382523, 0.3494093418121338, -0.24688175320625305, -0.15632200241088867, 0.15361294150352478, 0.04938684403896332, -0.026414014399051666,
0.9882110357284546, 0.010713983327150345, 0.04814201965928078, 0.10825829207897186, 0.10356778651475906, -0.10347969830036163, -0.2811754643917084, -0.1842145025730133, -0.25826337933540344, 0.014697871170938015, 0.0716162696480751, 0.10980448871850967, 0.164206862449646, 0.186250701546669, -0.2724262773990631, -0.2380678355693817, -0.17354385554790497, 0.216488778591156, 0.03087206371128559, 0.10470882803201675,
-0.5414635539054871, -0.08195789903402328, -0.707880973815918, -0.017987744882702827, -0.2950746417045593, -0.6300113797187805, -0.09119980782270432, 0.15710993111133575, -0.2131616324186325, -0.17196369171142578, 0.029388587921857834, -0.4434458017349243, -0.29191017150878906, -0.22224634885787964, -0.1955973356962204, -0.16194067895412445, -0.4550462067127228, 0.035640038549900055, 0.05592659115791321, 0.035400595515966415
};

const float biases_fc1[] = {
-0.27261266112327576, 0.30390262603759766, 0.11890765279531479, -0.031819384545087814, -0.17466610670089722, 0.026841770857572556, -0.06467292457818985, -0.17479203641414642, 0.33402615785598755, 0.04173002392053604, -0.1960093080997467, -0.026131629943847656, -0.33450037240982056, 0.09839437156915665, 0.1389608532190323, -0.03745698928833008, -0.090733103454113, -0.18707026541233063, 0.13152861595153809, 0.0700107216835022, -0.25942009687423706, -0.12974704802036285, -0.042444370687007904, -0.040421079844236374, -0.03888898342847824, -0.16635648906230927, 0.05305981636047363, -0.16089817881584167, -0.039579860866069794, -0.30034759640693665, -0.10237330198287964, 0.008280040696263313, -0.16594982147216797, 0.07551242411136627, -0.2679920494556427, 0.05241415277123451, 0.047444336116313934, 0.11958391964435577, -0.07577594369649887, 0.1651422679424286, -0.24766752123832703, 0.09695366770029068, -0.17711934447288513, -0.12650763988494873, -0.006139159668236971, -0.07991424947977066, 0.1425596922636032, -0.26073262095451355, 0.10984624177217484, -0.062306854873895645, -0.200788676738739, 0.27780410647392273, 0.05703313648700714, -0.08883008360862732, -0.09302845597267151, -0.08786626905202866, -0.03519695997238159, 0.029658418148756027, 0.0471339225769043, 0.014412733726203442, 0.21093147993087769, -0.17413568496704102, -0.1438368409872055, -0.25662198662757874
};

const float weights_fc2[] = {
-0.5898023247718811, -0.3411308526992798, 0.2600679099559784, -0.026563085615634918, -0.13614483177661896, 0.2374735027551651, 0.17412592470645905, -0.08284308761358261, -0.029943639412522316, -0.7649195790290833, -0.14933182299137115, -0.040223557502031326, -0.028780963271856308, 0.04682454094290733, -0.08919888734817505, -0.20971879363059998, -0.06472854316234589, 0.13238272070884705, -0.00013813440455123782, 0.13747020065784454, -0.427904337644577, -0.047190770506858826, 0.27983471751213074, 0.47929635643959045, -0.07545099407434464, -0.2857024073600769, 0.21599292755126953, 0.04968773201107979, 0.1447482854127884, -0.06819326430559158, -0.26960888504981995, 0.38479864597320557, -0.05818280950188637, -0.2756144106388092, -0.052320729941129684, 0.4787725508213043, 0.31793516874313354, -0.05298228561878204, 0.007473896257579327, -0.05328619107604027, 0.25017741322517395, -0.11562053114175797, 0.029365677386522293, 0.15506307780742645, -0.0670214593410492, -0.10075594484806061, -0.4600566029548645, 0.2684127390384674, -0.015114281326532364, -0.1714463233947754, -0.20454569160938263, 0.03853084146976471, 0.0864500179886818, -0.289865106344223, -0.2872644066810608, 0.15012967586517334, 0.21019791066646576, 0.2429826259613037, 0.4814062714576721, -0.22348462045192719, -0.34302154183387756, 0.2034265697002411, 0.19848677515983582, -0.0582331158220768,
-0.4984121024608612, 0.05188107490539551, 0.6069207191467285, -0.3353978395462036, -0.1011621505022049, 0.1781211495399475, -0.0911698266863823, 0.07688309997320175, -0.2232486605644226, 0.06828527897596359, -0.21774592995643616, 0.28037092089653015, -0.22662919759750366, -0.10282756388187408, -0.1999277025461197, -0.06572754681110382, -0.036397140473127365, -0.1457228809595108, 0.2504090666770935, -0.4032859802246094, 0.2857958674430847, -0.04896927252411842, 0.09927505999803543, 0.7025272250175476, -0.1193261444568634, -0.16575394570827484, -0.06983761489391327, 0.15639127790927887, -0.061514124274253845, -0.4606795012950897, 0.31887415051460266, -0.759604275226593, -0.068875752389431, 0.0780075192451477, -0.3377131521701813, -0.30224868655204773, 0.0034252263139933348, -0.3045656383037567, 0.3257395625114441, 0.2763395607471466, -0.019332798197865486, 0.02535523846745491, 0.02824135310947895, -0.20081248879432678, 0.186472088098526, 0.09765415638685226, -0.177373006939888, 0.2881920039653778, -0.06895450502634048, 0.10203050076961517, -0.21311360597610474, 0.2638295292854309, -0.09585218131542206, -0.36109402775764465, -0.38983210921287537, 0.2923806607723236, -0.17124754190444946, 0.057074204087257385, 0.3171106278896332, -0.02331124246120453, -0.29418349266052246, -0.041251473128795624, 0.08176002651453018, -0.3594304323196411,
-0.0036848457530140877, 0.010693111456930637, -0.13446131348609924, -0.11562972515821457, -0.3781602680683136, -0.10318734496831894, 0.17834880948066711, 0.08745309710502625, 0.16221652925014496, -0.24351365864276886, -0.17060914635658264, 0.10924772918224335, 0.5885999202728271, -0.020002087578177452, -0.15419261157512665, 0.19384372234344482, 0.48648813366889954, -0.2370549440383911, -0.01292615756392479, 0.0603271909058094, 0.12711180746555328, 0.23287101089954376, -0.11282259225845337, 0.09187829494476318, 0.10365920513868332, 0.2656552791595459, -0.06806630641222, 0.023378832265734673, -0.34502923488616943, -0.3294662535190582, 0.34060484170913696, -0.09876766055822372, -0.22276781499385834, 0.09035243839025497, 0.33913499116897583, -0.5918757915496826, -0.07890450209379196, -0.05955822393298149, -0.12243209034204483, -0.06448561698198318, -0.2926611304283142, -0.31105342507362366, -0.2109515219926834, 0.11254287511110306, 0.12337207049131393, 0.24179978668689728, 0.14508156478405, 0.26787126064300537, 0.09869617968797684, 0.6331114768981934, 0.523573100566864, -0.4014381766319275, -0.5092794895172119, 0.14929695427417755, -0.41827839612960815, -0.21829208731651306, 0.039554573595523834, 0.14546629786491394, -0.2032289206981659, -0.1894710808992386, -0.22316531836986542, 0.35099008679389954, -0.18423935770988464, -0.17241202294826508,
-0.12861132621765137, -0.18418332934379578, -0.5454780459403992, 0.3994942605495453, 0.11755042523145676, 0.286499947309494, -0.19007259607315063, 0.23971828818321228, -0.351558119058609, 0.10175821930170059, -0.41421204805374146, -0.18368704617023468, -0.02183687314391136, -0.30893272161483765, -0.005024088080972433, -0.21291089057922363, -0.09519440680742264, 0.06960290670394897, -0.25753340125083923, 0.16206037998199463, 0.07898276299238205, 0.24374952912330627, 0.2287571132183075, 0.07720968127250671, 0.026275411248207092, 0.3748902380466461, 0.5830440521240234, -0.11281188577413559, 0.12243423610925674, 0.22587114572525024, 0.14392971992492676, 0.0831204429268837, -0.05446616932749748, -0.16839022934436798, 0.20162780582904816, 0.30073848366737366, -0.7214289903640747, 0.2526523768901825, -0.18945741653442383, 0.11500875651836395, 0.003842818085104227, -0.23396369814872742, 0.0025874681305140257, 0.1723802387714386, 0.35463768243789673, -0.1512519121170044, 0.3748941123485565, -0.07139232009649277, -0.01136151421815157, -0.011066427454352379, 0.1797669231891632, -0.10978113859891891, -0.1901163011789322, 0.3439258933067322, -0.11009682714939117, 0.10050743073225021, -0.013496861793100834, 0.28147318959236145, 0.36400583386421204, -0.6025676131248474, 0.25158560276031494, -0.27079081535339355, 0.3949260413646698, 0.17755475640296936,
-0.530333399772644, -0.21359920501708984, 0.24994945526123047, -0.6135066151618958, -0.03830118849873543, 0.04511567950248718, -0.06186557188630104, -0.13799594342708588, -0.05795981362462044, -0.15863144397735596, 0.2549518048763275, -0.11071817576885223, -0.19310304522514343, 0.27734822034835815, 0.007038401905447245, -0.1556594967842102, 0.25524038076400757, -0.04119409620761871, 0.058284904807806015, 0.41947609186172485, 0.1450374275445938, -0.5033144950866699, -0.2175665944814682, 0.16113953292369843, -0.2453772872686386, -0.41490477323532104, 0.2811089754104614, 0.48737379908561707, 0.050401411950588226, -0.19453874230384827, -0.12568198144435883, -0.03603596240282059, 0.18721526861190796, 0.19874773919582367, 0.2042938619852066, -0.49697375297546387, 0.29641908407211304, -0.2292250692844391, -0.20349086821079254, -0.15671531856060028, -0.36125776171684265, -0.09407740086317062, -0.07138833403587341, 0.1645585149526596, -0.2630459666252136, 0.002689072396606207, -0.23971758782863617, 0.14786843955516815, -0.251830130815506, 0.053065452724695206, 0.3387846052646637, -0.11664768308401108, -0.14448495209217072, 0.016295703127980232, -0.15655480325222015, -0.6910715103149414, 0.15640194714069366, 0.3628813922405243, -0.35467812418937683, 0.10892953723669052, 0.10970070213079453, 0.09368960559368134, -0.40869078040122986, 0.5242679715156555,
0.08590395003557205, 0.36157476902008057, 0.2498893141746521, 0.1470588892698288, -0.3992830514907837, -0.08911300450563431, -0.2996411919593811, -0.07369545102119446, -0.25225773453712463, 0.13335904479026794, 0.40866169333457947, 0.10726360231637955, -0.05506061017513275, -0.4205937385559082, -0.16916227340698242, -0.06357700377702713, 0.15851913392543793, 0.004193602595478296, -0.16467443108558655, 0.12118019908666611, 0.19716353714466095, 0.2092818170785904, -0.1507408767938614, -0.03456295281648636, -0.03537773713469505, -0.1163824051618576, -0.3089192807674408, 0.3876934051513672, 0.2260812669992447, -0.26379790902137756, 0.215641051530838, 0.4532105326652527, 0.036705758422613144, -0.03730693832039833, -0.02848251350224018, -0.1206873431801796, 0.48074254393577576, 0.26474645733833313, 0.02163068950176239, 0.1486191302537918, 0.4580893814563751, -0.32879838347435, 0.2266514003276825, -0.14479640126228333, -0.09608928114175797, -0.2649546265602112, 0.27215462923049927, -0.195680171251297, -0.040852684527635574, -0.02786426618695259, -0.2710444927215576, -0.22273533046245575, 0.4837813973426819, -0.11488481611013412, -0.3823666274547577, -0.0791245549917221, 0.34713998436927795, 0.10824080556631088, -0.22260862588882446, 0.215140700340271, -0.6195241212844849, 0.10987790673971176, 0.010401865467429161, -0.10742398351430893,
0.339229553937912, 0.13066963851451874, 0.21097025275230408, 0.41808247566223145, 0.015995735302567482, 0.07157070934772491, -0.2607247233390808, -0.017553946003317833, -0.10829600691795349, -0.06338319182395935, 0.5878652334213257, 0.12182582169771194, -0.41214340925216675, 0.04679147154092789, -0.16183628141880035, -0.13720448315143585, -0.1485922932624817, 0.37123817205429077, -0.13747480511665344, -0.1359584927558899, -0.03358854725956917, 0.20126692950725555, -0.28464648127555847, -0.012864617630839348, 0.13078950345516205, -0.1167372390627861, -0.007433217950165272, 0.06529073417186737, 0.03614150732755661, 0.23692521452903748, 0.10682067275047302, -0.10891149938106537, 0.4485454559326172, 0.21909275650978088, -0.022746659815311432, 0.051496803760528564, -0.3627522885799408, 0.3912481665611267, -0.2538220286369324, 0.02150961384177208, -0.07442180067300797, 0.3583354949951172, 0.181279718875885, -0.24330410361289978, -0.07795659452676773, 0.19651395082473755, -0.16684332489967346, -0.2582460045814514, -0.3200727701187134, 0.2596985995769501, -0.4425361752510071, 0.20520824193954468, -0.2660079896450043, -0.12974236905574799, -0.3010665476322174, 0.2951948940753937, 0.05628245323896408, 0.024488771334290504, -0.00679624592885375, 0.09043749421834946, -0.26777270436286926, 0.010932494886219501, 0.24055707454681396, 0.26882895827293396,
-0.05069874972105026, -0.06986302137374878, -0.06780201941728592, 0.1931605190038681, 0.05635397508740425, -0.013837931677699089, -0.11405106633901596, -0.10221593081951141, -0.11618214845657349, -0.03540066257119179, -0.02802424505352974, -0.0962311401963234, -0.6595066785812378, 0.14913107454776764, 0.016192791983485222, -0.2109289914369583, -0.08211874961853027, 0.06444042921066284, 0.42590102553367615, 0.03510991111397743, 0.13544589281082153, -0.045492980629205704, -0.20963802933692932, 0.21695645153522491, -0.0687546357512474, -0.0825767070055008, -0.1143278256058693, 0.16195648908615112, -0.3152134418487549, -0.13857054710388184, 0.04995372146368027, -0.46483314037323, -0.27602478861808777, -0.19213788211345673, 0.2630024552345276, -0.4138966500759125, 0.45747143030166626, -0.46363234519958496, 0.12247628718614578, 0.5100626349449158, -0.4929892122745514, 0.31350448727607727, -0.18922118842601776, -0.18803998827934265, -0.02224017307162285, -0.1787533313035965, 0.17774328589439392, -0.044343553483486176, -0.1515207290649414, 0.3339402973651886, -0.02426518313586712, 0.20414333045482635, 0.11826916038990021, 0.06087064743041992, 0.21314208209514618, 0.22882626950740814, 0.37624645233154297, -0.14362621307373047, 0.21632860600948334, -0.30914321541786194, 0.21397139132022858, -0.11575338244438171, -0.3975612223148346, -0.1857357919216156,
0.03670123219490051, 0.24281048774719238, -0.4101108908653259, 0.05938078835606575, -0.07384981215000153, -0.1785729080438614, 0.09417569637298584, -0.30394771695137024, 0.048796169459819794, 0.05778118222951889, 0.044756125658750534, 0.03466242179274559, -0.1262921541929245, 0.3556180000305176, -0.5251412987709045, 0.20725640654563904, -0.20504267513751984, 0.2102585732936859, -0.1000308245420456, -0.03466962277889252, 0.1011461541056633, -0.12499920278787613, -0.22825896739959717, -0.3207642436027527, 0.28841090202331543, -0.5940976142883301, 0.10439109057188034, 0.01626889780163765, -0.07181478291749954, 0.3457126319408417, 0.3157230615615845, 0.13058854639530182, 0.0710221603512764, -0.3210890293121338, -0.06692708283662796, 0.1434745192527771, 0.336799681186676, 0.07294022291898727, -0.5030801892280579, 0.09705481678247452, -0.1589280515909195, 0.30131784081459045, -0.15645256638526917, 0.050262246280908585, -0.013588014990091324, -0.24072302877902985, -0.3254774212837219, -0.22303752601146698, -0.2601560652256012, -0.0163912083953619, 0.2639663517475128, -0.058198779821395874, 0.2576424181461334, -0.06662420928478241, 0.3178535997867584, -0.5474676489830017, -0.1281692236661911, -0.43905502557754517, -0.5122700333595276, 0.1233479455113411, -0.12457652390003204, -0.31463098526000977, -0.16716475784778595, -0.11621756106615067,
-0.025241658091545105, 0.17666824162006378, 0.021907474845647812, -0.38279491662979126, 0.1782575398683548, -0.07382364571094513, 0.20490749180316925, 0.24227358400821686, -0.03652601316571236, -0.016987964510917664, 0.15950053930282593, 0.012030343525111675, -0.24070467054843903, 0.11853766441345215, 0.3569272756576538, 0.1789184808731079, -0.1971088945865631, -0.010844012722373009, 0.0017347385874018073, 0.16565978527069092, 0.025157107040286064, 0.03175907954573631, -0.06714353710412979, -0.3959449827671051, -0.26744094491004944, -0.3409360647201538, 0.1459079086780548, -0.3161791265010834, -0.5116375684738159, 0.09229544550180435, 0.17991934716701508, 0.15972891449928284, -0.26396751403808594, -0.19580470025539398, -0.3652593493461609, -0.3024750351905823, 0.25782909989356995, 0.1905674785375595, 0.08294065296649933, 0.292134553194046, -0.1032782644033432, 0.08276411145925522, -0.026401642709970474, 0.32792794704437256, 0.44807595014572144, 0.206524059176445, -0.16529680788516998, 0.121259406208992, -0.13110464811325073, 0.16750110685825348, -0.07178177684545517, 0.44922617077827454, -0.10391359776258469, -0.007378031499683857, 0.35566335916519165, 0.3443642556667328, 0.21417252719402313, 0.07779432833194733, -0.6670035719871521, -0.08927018195390701, 0.0660344660282135, -0.041411079466342926, 0.3026813566684723, -0.32222020626068115,
0.3472975790500641, -0.3247230350971222, -0.13961723446846008, -0.2980329990386963, -0.4912162721157074, 0.30327534675598145, -0.001531468704342842, 0.16821888089179993, 0.0008895133505575359, -0.435921847820282, 0.006557358894497156, -0.5158798098564148, -0.4760749042034149, 0.15893977880477905, -0.2740503251552582, -0.4886327087879181, 0.6760421395301819, 0.11337022483348846, 0.24557039141654968, -0.11550993472337723, -0.27038541436195374, 0.033585838973522186, 0.18525409698486328, 0.12643791735172272, -0.3865548074245453, -0.35283905267715454, -0.39091360569000244, 0.30018407106399536, 0.06841882318258286, -0.5271584987640381, -0.1406990885734558, 0.4418846368789673, 0.06810589879751205, -0.21026158332824707, 0.34034958481788635, -0.20084640383720398, -0.2686932384967804, -0.3819780945777893, -0.0390956737101078, -0.4811580181121826, 0.23540833592414856, 0.1518917679786682, -0.6148687601089478, -0.07949377596378326, 0.3083350360393524, -0.024270478636026382, -0.0143052376806736, 0.31609904766082764, 0.07815955579280853, -0.07379185408353806, 0.24369211494922638, -0.0396176241338253, -0.21028359234333038, 0.024080324918031693, -0.17422796785831451, -0.09439806640148163, 0.3781126141548157, 0.14423860609531403, 0.06033889949321747, -0.6424685716629028, -0.2996456027030945, -0.3710329234600067, 0.21407869458198547, -0.26648661494255066,
-0.7098588347434998, 0.37058523297309875, -0.044794052839279175, 0.024207541719079018, -0.2413206398487091, -0.03983648866415024, -0.01659974828362465, -0.010931039229035378, 0.115094393491745, 0.27448809146881104, -0.010169366374611855, 0.023950770497322083, -0.6519129276275635, 0.07242222875356674, -0.15547500550746918, -0.18666274845600128, -0.11333045363426208, 0.0772896334528923, 0.0787913054227829, -0.022192461416125298, -0.15347906947135925, 0.04164591431617737, 0.014592139050364494, -0.07672028988599777, -0.6046487092971802, 0.059266503900289536, -0.10482227802276611, 0.19874154031276703, 0.25132855772972107, -0.6662777066230774, 0.16283947229385376, -0.5790677666664124, 0.011082583107054234, 0.48062053322792053, 0.09630873054265976, 0.07240220159292221, 0.15716326236724854, -0.15956145524978638, -0.09715493768453598, 0.004267971962690353, -0.2161899358034134, 0.025857632979750633, -0.24021393060684204, -0.11845845729112625, -0.34881436824798584, -0.2551090717315674, -0.42796561121940613, -0.1380116492509842, -0.14212490618228912, 0.3777388036251068, -0.15929542481899261, -0.5796967148780823, 0.22674937546253204, -0.08509471267461777, -0.04684661701321602, -0.24558347463607788, 0.1611543893814087, 0.18112824857234955, -0.10094129294157028, 0.48197346925735474, -0.029599884524941444, 0.03075912408530712, -0.013628597371280193, -0.08230925351381302,
-0.20522336661815643, -0.42252448201179504, 0.075968898832798, -0.0599728599190712, 0.27546367049217224, 0.1311611384153366, 0.23249539732933044, -0.1934601366519928, 0.141954243183136, -0.04205282777547836, 0.2453058809041977, -0.1552170217037201, -0.26435765624046326, -0.5827425718307495, 0.13918840885162354, -0.23492313921451569, -0.17032435536384583, -0.39840152859687805, -0.3014850616455078, -0.02314257249236107, 0.015158228576183319, 0.03956957161426544, -0.0820797011256218, 0.3620203733444214, -0.15466222167015076, -0.283096045255661, -0.1893848031759262, -0.20868340134620667, -0.16108235716819763, -0.3376193344593048, 0.001139698550105095, -0.12460330873727798, 0.0768221840262413, -0.1582229733467102, -0.2241317182779312, 0.12443045526742935, -0.27366721630096436, -0.1804351508617401, -0.13201448321342468, 0.0032279444858431816, 0.33462783694267273, -0.8034518957138062, 0.33973491191864014, 0.0399838462471962, -0.06462521106004715, -0.16774970293045044, -0.008915817365050316, -0.3209919035434723, 0.4709279239177704, -0.10536324977874756, -0.3980409502983093, -0.762223482131958, -0.15124598145484924, 0.3210550546646118, 0.09426715970039368, -0.5538102984428406, -0.034796569496393204, -0.3485012650489807, 0.2582220435142517, -0.037082262337207794, 0.29994407296180725, -0.7376469969749451, 0.14066395163536072, -0.3885481357574463,
0.14379583299160004, 0.028586074709892273, 0.0881635993719101, -0.3179157078266144, -0.24111919105052948, -0.06075674295425415, -0.04336072877049446, 0.056368138641119, -0.05095089599490166, 0.014407774433493614, 0.18745803833007812, -0.5096746683120728, -0.40894120931625366, -0.14446698129177094, -0.22186976671218872, 0.09386806190013885, -0.20143169164657593, -0.44395720958709717, -0.4869898855686188, 0.223587304353714, 0.01423618569970131, 0.12319183349609375, 0.1478377878665924, -0.14321447908878326, 0.32905787229537964, -0.43864744901657104, -0.15508906543254852, 0.3685453534126282, -0.6572510004043579, 0.06286042928695679, -0.036443378776311874, -0.2211456447839737, -0.11156260222196579, 0.06445720791816711, -0.42175331711769104, 0.04198329895734787, 0.0032857232727110386, 0.020283617079257965, -0.0073155867867171764, -0.5801753997802734, 0.11036772280931473, 0.2948777675628662, -0.10703160613775253, -0.10441146790981293, -0.17675474286079407, -0.1540333479642868, 0.3913874626159668, 0.274598091840744, 0.2737356722354889, -0.6297961473464966, 0.0488455593585968, -0.41804492473602295, -0.5543935298919678, -0.5664125084877014, -0.1649889200925827, 0.24198950827121735, -0.3493763208389282, -0.05743043124675751, -0.040099311619997025, -0.054018713533878326, 0.11230218410491943, 0.37112388014793396, -0.4907037913799286, -0.4956308603286743,
0.1526721566915512, -0.11113806813955307, 0.19944725930690765, -0.06085764616727829, 0.4393896758556366, 0.2727649211883545, -0.06738966703414917, 0.17901985347270966, 0.10513381659984589, -0.08798687160015106, 0.07944461703300476, -0.018705209717154503, -0.15868854522705078, -0.06857658922672272, 0.06591261178255081, -0.0047088670544326305, 0.16280309855937958, 0.04280053824186325, -0.413469135761261, -0.1690443754196167, 0.033696576952934265, -0.057775143533945084, 0.21165835857391357, 0.20118996500968933, -0.10704877227544785, 0.2099805772304535, 0.06634734570980072, 0.21506306529045105, 0.3492981791496277, 0.29688259959220886, 0.28807464241981506, 0.5513729453086853, 0.12814877927303314, -0.3479936420917511, -0.050082284957170486, 0.16858261823654175, 0.1492861807346344, -0.39278846979141235, -0.2746296525001526, -0.07957957684993744, 0.11502911150455475, -0.33408185839653015, 0.24290120601654053, 0.5077152848243713, 0.09652300924062729, 0.237716406583786, -0.3030788004398346, 0.41132116317749023, -0.17048338055610657, 0.1421670764684677, 0.3818773925304413, -0.43082576990127563, -0.10876676440238953, -0.11148319393396378, 0.15414473414421082, -0.1436847597360611, -0.03925131633877754, -0.03181542083621025, -0.28751036524772644, -0.004900977481156588, -0.30660030245780945, 0.35432687401771545, 0.02721959725022316, 0.13293804228305817,
0.11328528821468353, -0.01747516170144081, 0.22172556817531586, -0.1541796624660492, -0.29602599143981934, 0.5742164254188538, -0.1745029091835022, -0.1984168291091919, -0.3280855119228363, -0.0422058179974556, 0.10411491990089417, -0.3372769355773926, -0.31700003147125244, -0.1814194619655609, -0.046326491981744766, 0.4259844124317169, 0.4062845706939697, -0.21128810942173004, -0.26426777243614197, -0.228383868932724, 0.27372947335243225, 0.0697975605726242, -0.10354642570018768, -0.07527807354927063, 0.5024694204330444, -0.4746035635471344, -0.045331940054893494, -0.13155026733875275, -0.23869264125823975, -0.11075234413146973, -0.012872554361820221, 0.12031850963830948, 0.11887938529253006, 0.14389057457447052, -0.27275368571281433, -0.49006760120391846, 0.1354484111070633, -0.25165897607803345, 0.029897285625338554, -0.05614839121699333, -0.1530148684978485, -0.20936517417430878, 0.0090309027582407, 0.2171153426170349, -0.10619635879993439, 0.06970621645450592, 0.050165582448244095, 0.3141036927700043, 0.1692621111869812, 0.021509578451514244, -0.11236904561519623, -0.07917079329490662, 0.021834341809153557, 0.3405287265777588, 0.11048688739538193, 0.023676343262195587, -0.2025047093629837, 0.45020151138305664, 0.08530721068382263, 0.3044581711292267, -0.21576914191246033, 0.42194923758506775, 0.14845921099185944, 0.20215941965579987,
-0.30118489265441895, -0.5633286833763123, 0.1407289206981659, -0.3102192282676697, -0.2246321588754654, -0.10058823972940445, 0.2855592966079712, -0.0017217801650986075, -0.2564324736595154, 0.12453217804431915, -0.3834817409515381, -0.037852175533771515, -0.1472003012895584, -0.23071926832199097, 0.5233073830604553, -0.0031030059326440096, -0.30975425243377686, -0.18320879340171814, -0.04262855648994446, 0.17169839143753052, 0.23411992192268372, -0.006841197144240141, 0.20747555792331696, -0.13664361834526062, 0.14108717441558838, -0.033664487302303314, -0.09734714776277542, 0.030786119401454926, -0.275875985622406, -0.1481507420539856, -0.2431863248348236, -0.2514037489891052, 0.017060186713933945, 0.20555132627487183, 0.257557213306427, 0.23527750372886658, 0.009802834130823612, 0.07707799971103668, -0.21951700747013092, 0.2132200300693512, -0.030554939061403275, 0.3666062653064728, -0.24630704522132874, -0.28575220704078674, -0.3229917287826538, 0.12559719383716583, 0.28789111971855164, -0.012717090547084808, 0.17147327959537506, -0.1166396215558052, 0.4610850214958191, 0.20634038746356964, -0.02568758651614189, 0.2750643789768219, 0.041209276765584946, -0.4087495803833008, -0.4836913049221039, 0.0845504105091095, 0.03133050352334976, 0.05043383687734604, -0.05452119559049606, 0.2306939959526062, -0.09485488384962082, 0.000348494213540107,
-0.20689056813716888, -0.1292935311794281, -0.15228405594825745, 0.12668205797672272, 0.32328832149505615, 0.29370951652526855, 0.2009163796901703, -0.27275344729423523, -0.046295326203107834, 0.3237709701061249, 0.1475822925567627, 0.26883789896965027, -0.048654306679964066, 0.08300232887268066, 0.09935574233531952, 0.024449139833450317, 0.22209221124649048, 0.2717995047569275, 0.35661250352859497, 0.18544375896453857, 0.019965989515185356, -0.5773245692253113, -0.010679589584469795, -0.2726629674434662, -0.1897372454404831, 0.2514702379703522, 0.025948848575353622, -0.3024742603302002, -0.32968440651893616, 0.29038140177726746, -0.08570630848407745, 0.2576315104961395, 0.008252902887761593, -0.7807649970054626, -0.019963037222623825, 0.18362508714199066, -0.15263402462005615, -0.058974336832761765, 0.19937396049499512, -0.03464763984084129, 0.11377967149019241, 0.08957035839557648, -0.5553755760192871, 0.22939403355121613, -0.1421281397342682, -0.0790427103638649, -0.05365687608718872, -0.4208003282546997, -0.17229963839054108, -0.3045850694179535, 0.5177517533302307, 0.0030976824928075075, 0.0033806893043220043, -0.21012377738952637, -0.0351666696369648, 0.56047523021698, -0.0242637787014246, -0.2789471447467804, -0.15336823463439941, -0.3322904407978058, -0.1671776920557022, 0.12367172539234161, -0.3847469687461853, 0.28393256664276123,
-0.038529783487319946, -0.08223551511764526, -0.04904874414205551, 0.03603282943367958, -0.3263137638568878, 0.47171249985694885, 0.21406471729278564, 0.22693298757076263, -0.10523921996355057, -0.3044125437736511, -0.6716614365577698, 0.04842410981655121, -0.06362932175397873, 0.14257051050662994, -0.2541290521621704, -0.2988067865371704, -0.04748218506574631, 0.22256967425346375, -0.24731367826461792, -0.8399146199226379, -0.06256281584501266, 0.15605995059013367, -0.2743624746799469, -0.2853434681892395, -0.0580509677529335, 0.40075957775115967, -0.09114439785480499, -0.9040604829788208, 0.06046123430132866, 0.1913960874080658, 0.05325149744749069, -0.22309067845344543, 0.26897525787353516, -0.35739201307296753, -0.20094425976276398, 0.05914796516299248, -0.32956013083457947, -0.05757525935769081, -0.4361492097377777, 0.17380988597869873, -0.4132179319858551, -0.20786403119564056, 0.3736068606376648, 0.01704573631286621, -0.24260206520557404, -0.15469400584697723, -0.49037644267082214, -0.2594106197357178, -0.08173315227031708, -0.08661393821239471, -0.28604623675346375, -0.05411353334784508, -1.236237645149231, -0.4449244439601898, 0.24197696149349213, -0.4786290228366852, 0.2480747252702713, -0.21206670999526978, 0.038166891783475876, 0.013156753964722157, 0.28455114364624023, 0.34024709463119507, 0.024495642632246017, -0.06997012346982956,
0.35349592566490173, -0.14890167117118835, -0.11459347605705261, -0.31299901008605957, -0.09703375399112701, 0.20123648643493652, -0.37552979588508606, -0.008386317640542984, -0.0783478394150734, -0.00160148274153471, -0.09353587031364441, 0.0652473121881485, 0.16288956999778748, -0.29849401116371155, -0.40237295627593994, -0.20828819274902344, 0.06613805145025253, -0.8059765696525574, -0.19813376665115356, 0.21211941540241241, -0.1303592324256897, 0.07639031112194061, 0.11451923847198486, 0.12368791550397873, -0.24076037108898163, 0.26121240854263306, -0.05246536061167717, 0.09180285036563873, 0.03610749542713165, 0.10257197916507721, -0.09694875031709671, -0.19245626032352448, -0.1295706331729889, -0.6380351185798645, -0.0152649050578475, 0.20109224319458008, -0.15470822155475616, -0.18981994688510895, 0.07928819954395294, -0.37590038776397705, -0.004281829576939344, 0.3234858810901642, 0.16740240156650543, -0.5419195294380188, 0.04473881050944328, 0.4270259737968445, 0.18773189187049866, -0.33635878562927246, 0.1779066026210785, 0.2084684669971466, -0.17022107541561127, 0.19789168238639832, -0.05390399694442749, 0.23974932730197906, -0.08866668492555618, 0.009465853683650494, 0.005114749539643526, -0.09158336371183395, 0.40305012464523315, 0.26184484362602234, -0.3700762987136841, 0.036009036004543304, 0.31204336881637573, -0.185076043009758,
0.07107537984848022, 0.01752571202814579, 0.295082688331604, 0.23103240132331848, 0.14141082763671875, 0.28444787859916687, 0.1353687047958374, -0.041122034192085266, -0.12277445942163467, -0.35614046454429626, 0.050536029040813446, -0.061273787170648575, -0.1231038048863411, -0.07846886664628983, -0.27016934752464294, -0.1712048351764679, 0.03898867592215538, 0.01695876754820347, -0.05376139283180237, -0.18039007484912872, 0.04480363056063652, 0.08741933107376099, -0.010285730473697186, 0.3975692689418793, 0.1613227128982544, -0.5262529850006104, -0.21588915586471558, -0.05060732737183571, 0.28936564922332764, -0.10905743390321732, 0.25872406363487244, -0.6283746361732483, -0.16204018890857697, -0.1481979489326477, 0.33358365297317505, 0.04637908190488815, 0.2547450065612793, 0.11167369782924652, 0.30186718702316284, -0.060576193034648895, 0.3657357692718506, 0.21050164103507996, 0.2586410641670227, 0.16973261535167694, 0.14046745002269745, -0.030562298372387886, -0.4869866669178009, -0.28807225823402405, -0.13520292937755585, -0.46014583110809326, -0.18457242846488953, -0.5369367003440857, -0.024776598438620567, -0.5117865204811096, 0.06424667686223984, 0.09894619137048721, -0.910686194896698, 0.42108026146888733, -0.11406441032886505, 0.2263309508562088, -0.6637545824050903, 0.03431764617562294, -0.18480783700942993, -0.06589195132255554,
-0.23668654263019562, 0.39240169525146484, -0.0136326365172863, -0.14206519722938538, -0.5127609968185425, 0.04034137725830078, -0.053270768374204636, -0.3155970275402069, 0.2852543890476227, 0.06969431042671204, 0.09353052079677582, -0.4054865837097168, 0.077210433781147, 0.3807627856731415, -0.008594482205808163, 0.07932239770889282, -0.004450044594705105, -0.18814897537231445, 0.07485713064670563, -0.11015205830335617, 0.41033998131752014, 0.1891375333070755, 0.13141532242298126, 0.24736687541007996, 0.041827492415905, 0.12080863863229752, 0.07822278141975403, -0.20062686502933502, -0.04772642254829407, -0.43198755383491516, 0.20441240072250366, -0.29620862007141113, -0.1323135495185852, -0.2019413858652115, 0.0027975544799119234, 0.15908394753932953, -0.20481814444065094, -0.036542605608701706, 0.042897310107946396, 0.010515933856368065, -0.3481111228466034, 0.03728625550866127, 0.1287882775068283, -0.2345242202281952, -0.2605481445789337, 0.20259691774845123, 0.3299981355667114, -0.31286194920539856, -0.10036575794219971, -0.11560101807117462, -0.5001487135887146, 0.379518061876297, -0.2457771599292755, -0.34418854117393494, 0.07641461491584778, 0.01310076005756855, -0.1318671554327011, 0.275126576423645, -0.07010804116725922, 0.1108226403594017, 0.16336753964424133, -0.0019537631887942553, -0.14280521869659424, -0.1604425609111786,
0.14637894928455353, 0.46233269572257996, -0.4348892569541931, 0.16305656731128693, 0.02757236734032631, -0.044013503938913345, 0.3490507900714874, -0.12308216094970703, 0.28782451152801514, 0.40828004479408264, -0.1604464203119278, -0.05774735286831856, -0.12616799771785736, -0.025517288595438004, -0.10122262686491013, -0.20120368897914886, -0.35451778769493103, -0.051407866179943085, -0.2949732840061188, 0.1286022812128067, 0.2877036929130554, -0.3531525731086731, 0.09842707961797714, 0.17063041031360626, -0.5271585583686829, -0.3607712984085083, 0.019076503813266754, 0.2177828699350357, -0.3163224160671234, 0.051487997174263, 0.04345766082406044, -0.231687992811203, 0.12057987600564957, 0.11458984017372131, 0.10537895560264587, 0.021022804081439972, -0.0744536817073822, 0.08528042584657669, -0.451811820268631, -0.3455842435359955, 0.29362913966178894, -0.2718615233898163, 0.2042614072561264, -0.1782754510641098, 0.18338175117969513, 0.070303775370121, 0.25673672556877136, -0.23838169872760773, -0.6211157441139221, 0.26098793745040894, -0.546835720539093, 0.39167988300323486, 0.2520751357078552, -0.15482941269874573, -0.45960506796836853, 0.129808247089386, 0.06378980726003647, -0.03502282872796059, 0.3917160630226135, 0.08330933749675751, -0.23086272180080414, -0.3369530439376831, -0.08789705485105515, -0.07800409197807312,
-0.6095690727233887, -0.11593370139598846, 0.04615028202533722, -0.1970074474811554, -0.5050762295722961, -0.3325749933719635, -0.22811026871204376, -0.5991447567939758, -0.2947532832622528, 0.10468310862779617, 0.185175821185112, 0.5534056425094604, 0.2619487941265106, 0.13333940505981445, -0.13311582803726196, -0.28702473640441895, 0.27818113565444946, 0.1319017857313156, -0.035604629665613174, -0.5031437873840332, -0.23711194097995758, -0.3900519907474518, -0.3231118321418762, 0.07704011350870132, -0.10273358225822449, 0.01032925583422184, -0.10403997451066971, 0.11639480292797089, 0.22045238316059113, -0.19180062413215637, -0.5191017985343933, -0.3466520607471466, -0.048371151089668274, 0.2788681089878082, -0.0993582084774971, -0.4443890154361725, 0.18219006061553955, -0.7828835844993591, 0.04290538653731346, 0.19280530512332916, 0.18535934388637543, -0.07837622612714767, -0.48404356837272644, -0.24556683003902435, -0.017506688833236694, -0.7239112257957458, 0.011867490597069263, 0.0663926750421524, -0.039086077362298965, -0.1135200634598732, 0.26854807138442993, 0.0707383081316948, -0.30979016423225403, -0.28197845816612244, 0.11840030550956726, 0.14820073544979095, -0.24380308389663696, 0.34965184330940247, -0.3690466582775116, 0.32948434352874756, -0.1481986939907074, 0.3097081482410431, -0.2908460795879364, -0.048874348402023315,
0.21411556005477905, -0.1083289310336113, 0.10653993487358093, -0.17611707746982574, -0.14574627578258514, 0.0367276594042778, 0.1676945984363556, 0.15316496789455414, -0.14026732742786407, -0.04060538485646248, 0.07989463210105896, -0.017207879573106766, -0.14043472707271576, -0.18854308128356934, 0.17830628156661987, -0.27811717987060547, 0.49457821249961853, -0.34747111797332764, 0.051962967962026596, 0.24707500636577606, -0.0902562066912651, 0.32753607630729675, -0.10662343353033066, -0.30219578742980957, -0.17395946383476257, 0.12667584419250488, -0.15021952986717224, 0.15295688807964325, 0.09219130128622055, -0.5056649446487427, 0.7330065369606018, -0.4983872175216675, -0.07249344885349274, 0.26869770884513855, 0.24343684315681458, 0.1296471655368805, 0.11359305679798126, -0.2575167417526245, -0.5412399768829346, -0.3139452636241913, -0.295218825340271, -0.061488937586545944, -0.054898034781217575, -0.21991296112537384, -0.33441582322120667, -0.6895055770874023, 0.1327982395887375, 0.038236744701862335, 0.09081088751554489, -0.24148058891296387, 0.08511321246623993, 0.04137524962425232, -0.0619228258728981, -0.3175038993358612, 0.14851094782352448, 0.0979146808385849, 0.22897224128246307, -0.3887040317058563, -0.014490840025246143, 0.37388917803764343, 0.2772769629955292, 0.32577311992645264, 0.2752179205417633, 0.028905600309371948,
-0.10955750197172165, 0.47576695680618286, -0.42034414410591125, 0.17214325070381165, 0.38206586241722107, -0.16744239628314972, 0.333064466714859, -0.25898540019989014, -0.35060492157936096, -0.12209362536668777, -0.2781587541103363, 0.16002526879310608, -0.2855018973350525, 0.18111032247543335, -0.05787209793925285, 0.0022274362854659557, 0.0906980037689209, 0.11877192556858063, 0.04687681049108505, -0.23810534179210663, -0.3583728075027466, -0.8693827390670776, -0.1085369884967804, 0.42729002237319946, -0.3661998212337494, 0.4843837022781372, 0.14925739169120789, 0.018725495785474777, -0.19178500771522522, -0.3341458737850189, 0.043542567640542984, 0.12701132893562317, 0.08260026574134827, 0.2848457098007202, -0.28863799571990967, -0.21329447627067566, 0.3186068534851074, -0.49253442883491516, -0.029118221253156662, -0.30188408493995667, 0.05191200599074364, -0.6926290988922119, -0.26058217883110046, -0.011443612165749073, 0.17544390261173248, 0.5128868222236633, -0.17491388320922852, 0.08038739860057831, -0.030173754319548607, -0.5190613269805908, 0.022692888975143433, -0.01786166988313198, 0.16230976581573486, 0.2234884351491928, 0.117469921708107, 0.11482012271881104, 0.03283647447824478, -0.16505469381809235, -0.2449427992105484, 0.06280051916837692, 0.054855141788721085, -0.02741111069917679, -0.19572968780994415, -0.38638752698898315,
0.26131492853164673, -0.34118393063545227, 0.2907710671424866, -0.2648569345474243, 0.3107944428920746, 0.0209690909832716, -0.3144858479499817, 0.08072324097156525, -0.0744917094707489, 0.20492982864379883, -0.5556989312171936, 0.12380414456129074, -0.15431731939315796, -0.4610661268234253, -0.6189902424812317, -0.13624057173728943, 0.5165157318115234, -0.10895282030105591, 0.1516483873128891, -0.31125837564468384, -0.1558479517698288, 0.09933549165725708, 0.16561587154865265, -0.6498232483863831, 0.3766012191772461, 0.0012887082993984222, 0.4331808090209961, -0.5645238161087036, 0.10581114888191223, -0.3781777322292328, -0.033620916306972504, 0.05940750986337662, -0.2946338951587677, -0.49680325388908386, -0.3302161395549774, -0.5213373303413391, -0.22593295574188232, -0.26127201318740845, 0.28283387422561646, 0.37254276871681213, -0.6546437740325928, -0.29361650347709656, -0.09453443437814713, 0.2919858694076538, -0.4782116711139679, 0.06320489197969437, -0.3662886917591095, 0.34359514713287354, 0.02844342403113842, -0.14342465996742249, -0.3337639272212982, 0.134460911154747, 0.2027612030506134, -0.3023753762245178, 0.22460401058197021, -0.017557291314005852, -0.10717642307281494, -0.15203380584716797, 0.03501936048269272, -0.43022415041923523, -0.09256172925233841, -0.4991922080516815, -0.4191351532936096, -0.33036506175994873,
0.04510094225406647, -0.3140007555484772, -0.4425819516181946, -0.1768004596233368, 0.3365662395954132, -0.11699056625366211, -0.7922064065933228, -0.1856580674648285, -0.11860236525535583, 0.3171333372592926, 0.16543272137641907, -0.1185707077383995, -0.07520567625761032, -0.16454988718032837, 0.23142141103744507, 0.26733699440956116, -0.23097722232341766, -0.4358246326446533, 0.10138073563575745, 0.35991114377975464, -0.5403332710266113, 0.2059670239686966, 0.5013642311096191, 0.15973079204559326, -0.029213618487119675, 0.08173610270023346, 0.10693647712469101, -0.33777138590812683, 0.21385718882083893, 0.33106547594070435, -0.03103720210492611, -0.4268595278263092, -0.29367756843566895, 0.07001222670078278, -0.2377258539199829, -0.6731461882591248, 0.08936254680156708, -0.21914687752723694, -0.31934019923210144, -0.09261956065893173, -0.4062413275241852, 0.030562764033675194, 0.11765333265066147, -0.048462823033332825, 0.13572557270526886, -0.06340234726667404, 0.1776629239320755, -0.21604658663272858, -0.1596182882785797, -0.022600233554840088, -0.24826858937740326, 0.11866665631532669, -0.325631707906723, 0.15031185746192932, 0.051910702139139175, 0.03559904173016548, 0.3289600610733032, -0.526175856590271, 0.08908554166555405, -0.8721169829368591, -0.5973672270774841, -0.2880636751651764, -0.04313012957572937, -0.24931956827640533,
-0.5926340222358704, 0.1285042017698288, 0.2381928563117981, 0.4382820129394531, 0.13969489932060242, -0.40704843401908875, 0.005325040314346552, -0.294221431016922, 0.1314646601676941, 0.3080589175224304, 0.07657281309366226, 0.22508879005908966, -0.20370683073997498, 0.3693791627883911, -0.05108138173818588, 0.05127478018403053, 0.2894468903541565, 0.11354278773069382, 0.046556517481803894, -0.33951878547668457, 0.24515098333358765, -0.12582620978355408, 0.1004418283700943, 0.2546576261520386, -0.07371128350496292, -0.5190298557281494, 0.007922975346446037, 0.06873912364244461, 0.1561122089624405, -0.024057118222117424, 0.18013912439346313, -0.15706846117973328, -0.46517571806907654, -0.2641869783401489, -0.22493654489517212, 0.09963225573301315, 0.35564079880714417, 0.07296960800886154, -0.05682975798845291, -0.16779448091983795, 0.06702712923288345, -0.2344784438610077, -0.14470209181308746, 0.13989689946174622, 0.5113046169281006, 0.08553284406661987, -0.2710823118686676, 0.1650189459323883, 0.020581308752298355, -0.2803938686847687, 0.2585574686527252, -0.029126165434718132, -0.2620902955532074, -0.13884763419628143, 0.04543311521410942, -0.0894593894481659, -0.30753785371780396, -0.3778513967990875, 0.12178327888250351, -0.31185755133628845, -0.15793859958648682, 0.13863065838813782, -0.12830288708209991, 0.2334989309310913,
-0.01393116358667612, -0.19108501076698303, -0.1121554896235466, -0.0020144619047641754, 0.03942770138382912, -0.20133161544799805, 0.02574223093688488, -0.07851914316415787, -0.08991141617298126, 0.035699620842933655, -0.4647218585014343, 0.054973065853118896, -0.7722787261009216, 0.174654021859169, 0.24577747285366058, 0.23787541687488556, 0.38989368081092834, -0.09916257113218307, -0.06695415824651718, 0.05903259664773941, 0.0014850361039862037, -0.2605724036693573, 0.434579461812973, -0.02548692561686039, -0.29057127237319946, 0.03807453066110611, 0.35969990491867065, 0.2578915059566498, -0.42717882990837097, 0.08975710719823837, 0.15324941277503967, 0.030757417902350426, -0.573737382888794, -0.07473155856132507, 0.10302760452032089, -0.12924516201019287, -0.192058727145195, -0.18161040544509888, 0.02517419494688511, 0.14267952740192413, 0.5154422521591187, 0.046167969703674316, 0.0803060531616211, 0.4285629987716675, 0.11029546707868576, -0.1996631771326065, -0.015899721533060074, -0.15393522381782532, -0.059445906430482864, 0.03067789040505886, 0.12352704256772995, 0.13212577998638153, -0.12898126244544983, 0.37596607208251953, -0.27146846055984497, -0.16437603533267975, -0.011240430176258087, -0.41643792390823364, -0.1621580719947815, 0.0955679789185524, -0.019804570823907852, -0.22511297464370728, 0.12713894248008728, -0.06630394607782364,
-0.1772921085357666, 0.17317023873329163, 0.19043485820293427, 0.0316525399684906, -0.10015271604061127, -0.44939059019088745, -0.4945792257785797, -0.020115800201892853, -0.4719906151294708, 0.023415790870785713, -0.010751667432487011, -0.2562863528728485, -0.1439022719860077, -0.5328353643417358, 0.14753355085849762, 0.0567823126912117, -0.4061505198478699, -0.006440051831305027, -0.12311041355133057, 0.009177744388580322, -0.25390195846557617, -0.009100828319787979, 0.6276726126670837, -0.2413078099489212, 0.19129085540771484, 0.09427493065595627, -0.08599448949098587, 0.06936534494161606, -0.3790303170681, 0.08071449398994446, -0.010944811627268791, 0.07604892551898956, -0.10674220323562622, -0.4634137749671936, -0.07547663152217865, -0.4847574830055237, -0.24442526698112488, 0.25903838872909546, -0.45183858275413513, -0.17108473181724548, 0.01852721907198429, 0.3762921690940857, 0.16641463339328766, -0.23748697340488434, 0.02951023541390896, 0.10409065335988998, -0.007610103581100702, 0.2895320951938629, 0.18420682847499847, 0.27439257502555847, -0.281343013048172, 0.09450024366378784, 0.0788748562335968, 0.1581811010837555, 0.2242230921983719, 0.07874692976474762, 0.4454684853553772, 0.21770434081554413, -0.337453693151474, -0.5853755474090576, 0.029423948377370834, -0.2592834234237671, -0.17301197350025177, 0.15095087885856628,
0.09294015169143677, -0.11176837980747223, -0.38428831100463867, -0.2153927981853485, -0.3321037292480469, 0.28357627987861633, -0.1312110275030136, 0.20290516316890717, 0.14334958791732788, 0.02507610060274601, 0.2321872115135193, 0.008194241672754288, 0.09468084573745728, -0.03262537717819214, -0.11884631961584091, -0.4920702874660492, -0.24314144253730774, 0.22009731829166412, 0.3563961684703827, -0.2530435621738434, -0.14715978503227234, -0.4539050757884979, 0.062369443476200104, 0.03897350654006004, 0.15032799541950226, 0.42136475443840027, -0.0004311174852773547, 0.07005098462104797, -0.015276353806257248, -0.19069214165210724, -0.04248402267694473, -0.4249764084815979, -0.0848654955625534, 0.10001759976148605, 0.3116355240345001, -0.09155859053134918, -0.2976951599121094, 0.2561485469341278, 0.02914743311703205, -0.2503853738307953, 0.12853705883026123, -0.03245781734585762, -0.02464691363275051, -0.3885993957519531, 0.05229613184928894, -0.06272370368242264, -0.11820980906486511, -0.30202633142471313, 0.2556380033493042, 0.22319526970386505, -0.011507214047014713, -0.09428540617227554, -0.18868131935596466, 0.35835373401641846, 0.23163844645023346, 0.4031876027584076, -0.35353490710258484, -0.12383389472961426, 0.1958489865064621, -0.26392224431037903, -0.03785966709256172, 0.42540234327316284, 0.06299026310443878, -0.40078312158584595,
-0.49703773856163025, 0.033380743116140366, 0.04840658977627754, 0.20401787757873535, -0.07360633462667465, 0.3249885141849518, -0.3633219599723816, -0.08491960167884827, -0.13008268177509308, 0.2809325158596039, 0.032014399766922, 0.3696396052837372, -0.17438779771327972, 0.24183692038059235, -0.13096730411052704, -0.3392466902732849, 0.2932799458503723, 0.44993627071380615, -0.05407004803419113, -0.21531793475151062, -0.15287691354751587, 0.07002387940883636, 0.18363697826862335, 0.02431759610772133, -0.16831083595752716, -0.3132324814796448, -0.18833079934120178, -0.26562294363975525, -0.08442708104848862, -0.8859821557998657, 0.30499789118766785, -0.08077959716320038, -0.0261161457747221, 0.07982400804758072, 0.4006584882736206, -0.7852826118469238, -0.2548607885837555, -0.2954410910606384, 0.17507490515708923, -0.34545937180519104, -0.11316995322704315, -0.1831347793340683, 0.3417538106441498, -0.3297269940376282, -0.09924667328596115, -0.23995058238506317, -0.3057807385921478, 0.5072190761566162, -0.2052844762802124, 0.2330121546983719, -0.04224854335188866, -0.09447398781776428, -0.05736395716667175, -0.19059398770332336, -0.1906319111585617, 0.08290676772594452, -0.06217866390943527, -0.20731611549854279, -0.1404557228088379, -0.0917549878358841, 0.11749780923128128, -0.14913295209407806, 0.15961609780788422, -0.5733774304389954,
-0.14075997471809387, 0.21841777861118317, 0.18018792569637299, 0.26476263999938965, -0.10741375386714935, 0.47935402393341064, -0.35966169834136963, -0.5476632118225098, -0.0989246740937233, 0.1812790483236313, -0.25987160205841064, 0.40390217304229736, 0.41071999073028564, -0.11160852015018463, -0.21546751260757446, -0.2692689895629883, -0.16224192082881927, -0.2862958312034607, -0.32928887009620667, 0.1424260437488556, -0.031445808708667755, 0.36397087574005127, 0.03433996066451073, 0.49458199739456177, 0.03441769629716873, -0.1869615912437439, 0.6008105278015137, 0.1273244023323059, -0.16235585510730743, -0.297457754611969, 0.08450768887996674, -0.01161128655076027, -0.26356005668640137, -0.3522634506225586, 0.014320768415927887, -0.19932511448860168, -0.05236892029643059, 0.008510259911417961, -0.0655115470290184, -0.2542532682418823, 0.16800150275230408, -0.4084080755710602, -0.5053393840789795, -0.1746935099363327, 0.13044646382331848, 0.18316321074962616, 0.2582949101924896, 0.004899249877780676, -0.07186303287744522, -0.06842424720525742, 0.10625501722097397, -0.8830977082252502, 0.3690296709537506, 0.28861141204833984, -0.5245810151100159, 0.010459600947797298, -0.31133541464805603, -0.016757715493440628, -0.20661164820194244, -0.41061708331108093, -0.30382809042930603, 0.05599948391318321, -0.06232162564992905, -0.06403522938489914,
-0.2579376697540283, -0.1510918289422989, 0.07126258313655853, 0.09074751287698746, -0.7400025129318237, -0.43119847774505615, 0.3071177303791046, -0.07421563565731049, 0.22848062217235565, 0.18992958962917328, -0.41145840287208557, -0.2179836630821228, -0.008873490616679192, -0.5222645998001099, -0.2388584166765213, 0.13314662873744965, -0.46050798892974854, -0.43417003750801086, 0.09632605314254761, 0.06456108391284943, -0.2923585772514343, -0.14205986261367798, -0.20268729329109192, -0.3155941367149353, -0.04149176552891731, -0.2874946594238281, 0.42599838972091675, -0.21053002774715424, -0.1091080978512764, -0.48143789172172546, -0.09790903329849243, 0.07947809249162674, -0.11622858792543411, 0.19394385814666748, 0.016207527369260788, -0.28689301013946533, -0.23679587244987488, -0.1394263207912445, -0.29016903042793274, 0.024925852194428444, -0.025063320994377136, 0.15703517198562622, -0.1442238837480545, -0.4721398949623108, -0.550105631351471, -0.6241759657859802, 0.20535114407539368, -0.30778250098228455, 0.28313523530960083, -0.45937874913215637, 0.020971959456801414, 0.1509123295545578, 0.21794186532497406, -0.47932302951812744, 0.17466036975383759, -0.31912073493003845, 0.2061523199081421, 0.252743661403656, 0.1596270054578781, 0.1503792703151703, 0.3270918130874634, 0.22014440596103668, 0.11637169867753983, -0.4734739363193512,
0.19456350803375244, -0.050701551139354706, 0.10424488037824631, -0.36005404591560364, 0.43614858388900757, -0.17033450305461884, 0.23032814264297485, -0.28515130281448364, -0.14119286835193634, 0.46077150106430054, -0.1299171894788742, -0.17742739617824554, 0.26359227299690247, -0.014120114035904408, 0.15514808893203735, 0.7067593932151794, 0.2106272429227829, -0.037216704338788986, 0.05532631278038025, 0.10353068262338638, 0.038966793566942215, -0.19381999969482422, -0.02131900191307068, -0.5792519450187683, 0.1722041815519333, -0.43899521231651306, 0.07712248712778091, 0.0689772292971611, -0.4054081439971924, -0.13189288973808289, -0.31732431054115295, -0.007570521906018257, 0.1872759461402893, -0.345811665058136, -0.4506886303424835, -0.19703646004199982, -0.1257328987121582, -0.2571099102497101, -0.23389527201652527, 0.5740588307380676, 0.20649006962776184, -0.23367109894752502, 0.3700222969055176, -0.12697283923625946, -0.27290070056915283, 0.01603855937719345, 0.21184894442558289, -0.2729458510875702, -0.609368622303009, 0.08774738013744354, -0.05879944562911987, 0.06550365686416626, 0.2678338289260864, -0.6080141067504883, -0.1894482970237732, 0.2952067255973816, -0.11551594734191895, 0.015328378416597843, -0.2152610421180725, 0.0635022222995758, 0.22817178070545197, 0.12304554879665375, 0.05075926333665848, 0.2261103242635727,
0.05580440163612366, 0.3580777645111084, -0.007492684759199619, -0.15958905220031738, 0.00694463262334466, -0.1576886773109436, -0.012368878349661827, -0.502869725227356, 0.3181073069572449, 0.42435434460639954, -0.035024575889110565, 0.31869742274284363, -0.3668673634529114, 0.16618405282497406, 0.12438668310642242, 0.04935726895928383, -0.027532145380973816, -0.5724565386772156, 0.30418071150779724, 0.13194042444229126, -0.23301814496517181, -0.04172229766845703, -0.32474759221076965, -0.0032263677567243576, 0.34733280539512634, -0.245482936501503, 0.40137723088264465, -0.26346245408058167, -0.3545435070991516, -0.01217516791075468, -0.10002060234546661, 0.03900768980383873, -0.31985074281692505, -0.22908836603164673, 0.15827028453350067, 0.30266162753105164, -0.07260112464427948, -0.04530365765094757, -0.26050397753715515, -0.014818049035966396, -0.6079381108283997, -0.0886312872171402, -0.13952060043811798, -0.10504122823476791, -0.0036356330383569, -0.0511956661939621, -0.08169491589069366, -0.11157204955816269, -0.005632179323583841, 0.03239906579256058, 0.1302076280117035, -0.37086257338523865, -0.1376987099647522, -0.3710133731365204, 0.3691191077232361, -0.10380446165800095, 0.20127670466899872, 0.032684214413166046, 0.132398322224617, -0.08066578954458237, -0.12067063897848129, -0.08953174948692322, -0.8948655128479004, 0.07043429464101791,
0.6357855200767517, -0.04294506087899208, -0.02129403129220009, 0.10202398896217346, 0.4194624423980713, 0.20266523957252502, -0.12197091430425644, -0.288171648979187, 0.45915138721466064, -0.07359560579061508, -0.16026462614536285, 0.49432194232940674, -0.04590706154704094, 0.16478323936462402, 0.02741374634206295, 0.2055559903383255, 0.23403580486774445, -0.04687744006514549, -0.0061377487145364285, -0.32488957047462463, 0.35481318831443787, -0.37098193168640137, 0.04095771536231041, 0.45370110869407654, -0.058990392833948135, -0.08215247094631195, 0.09699131548404694, -0.36943766474723816, -0.026212023571133614, 0.26965612173080444, 0.13719597458839417, -0.033226024359464645, -0.09141115099191666, -0.12999074161052704, 0.42018941044807434, -0.27162447571754456, -0.14372101426124573, -0.08830590546131134, -0.3412695527076721, -0.15785972774028778, 0.18278846144676208, 0.09941272437572479, -0.37425515055656433, 0.30736154317855835, 0.22512908279895782, -0.05006273463368416, -0.3839804530143738, -0.20818626880645752, -0.08858622610569, -0.12793025374412537, 0.17300717532634735, -0.14203131198883057, -0.2846342921257019, -0.09495026618242264, -0.18192285299301147, -0.2505404055118561, -0.051064763218164444, -0.09490946680307388, 0.006940275896340609, -0.17894816398620605, -0.13119664788246155, -0.02771628648042679, -0.24735647439956665, -0.13182884454727173,
-0.16601313650608063, 0.23320555686950684, -0.6214342713356018, -0.14034274220466614, -0.21957291662693024, -0.36207377910614014, 0.11798898875713348, 0.05244714021682739, 0.14183707535266876, 0.1975134015083313, 0.05689428001642227, 0.3949982821941376, -0.26544520258903503, 0.12088794261217117, -0.06652383506298065, 0.09288736432790756, -0.4270729422569275, 0.12387531995773315, -0.13523449003696442, 0.20637111365795135, -0.3285605311393738, 0.10639475286006927, 0.0698961392045021, 0.2468610554933548, 0.06181740388274193, -0.42558643221855164, 0.13188301026821136, -0.05457279831171036, 0.0893784910440445, -0.09516140818595886, 0.052384309470653534, 0.26407450437545776, -0.18050290644168854, -0.0469500795006752, 0.10705745965242386, -0.08221806585788727, -0.029849540442228317, -0.2809103727340698, 0.08514675498008728, -0.42497286200523376, 0.20343777537345886, 0.17787814140319824, -0.4517175555229187, -0.1871478110551834, -0.42855104804039, 0.061456263065338135, 0.18155521154403687, 0.1256396323442459, 0.021814530715346336, 0.20905300974845886, 0.31139516830444336, 0.015720628201961517, -0.0157181266695261, -0.36777380108833313, 0.07349461317062378, 0.3060159683227539, -0.5726078748703003, -0.11217901110649109, -0.24752743542194366, 0.20926940441131592, 0.08990240097045898, -0.13047932088375092, 0.13785092532634735, 0.09920847415924072,
0.2681547701358795, 0.5347583889961243, 0.01786094345152378, 0.27215850353240967, -0.40020596981048584, 0.008777651004493237, -0.012898331508040428, -0.0639287680387497, 0.07372097671031952, 0.08319588005542755, -0.13585759699344635, 0.2344435304403305, 0.053651969879865646, 0.03706547990441322, 0.24906055629253387, -0.33512550592422485, -0.007902408018708229, -0.10311511158943176, -0.0072177196852862835, 0.17902149260044098, 0.20563185214996338, -0.40490955114364624, 0.09800299257040024, 0.25115668773651123, -0.18620705604553223, -0.1395346075296402, -0.14666594564914703, 0.12436165660619736, 0.20372673869132996, -0.3681342601776123, -0.182967409491539, -0.5011826157569885, -0.7484091520309448, 0.1726364642381668, -0.05539952218532562, 0.301694393157959, -0.1851835697889328, 0.23769527673721313, 0.11624864488840103, 0.22793222963809967, -0.12990015745162964, -0.41051411628723145, 0.05516727268695831, -0.22797638177871704, -0.020127519965171814, -0.06661664694547653, -0.17897506058216095, 0.017162708565592766, 0.005910953972488642, -0.39838677644729614, 0.3013046085834503, 0.25807347893714905, -0.01352359913289547, 0.20469138026237488, -0.18929006159305573, 0.49064159393310547, 0.32969528436660767, -0.51277095079422, -0.19442443549633026, -0.48586905002593994, 0.3537769317626953, -0.17791594564914703, 0.07416636496782303, -0.009211019612848759,
0.2630067765712738, -0.3040541410446167, 0.13319383561611176, -0.016226593405008316, -0.03033449687063694, 0.035014547407627106, 0.022730978205800056, -0.2234875112771988, 0.06062998250126839, -0.03655443340539932, 0.3154177665710449, -0.1340140700340271, -0.1789655089378357, 0.14126096665859222, -0.26768818497657776, 0.29987022280693054, -0.020370131358504295, -0.2432069629430771, -0.07607491314411163, -0.1662432998418808, -0.06987307965755463, -0.16388778388500214, 0.4228973090648651, -0.27674323320388794, -0.32187458872795105, 0.38408398628234863, -0.4777078628540039, -0.006040751002728939, -0.2035735696554184, 0.41373246908187866, -0.6757036447525024, -0.34936314821243286, 0.20763476192951202, 0.09980719536542892, 0.32275599241256714, -0.0944104716181755, -0.07594078034162521, -0.23488889634609222, -0.46613776683807373, 0.2527662515640259, -0.6516106128692627, -0.08769778162240982, -0.17764754593372345, -0.6419787406921387, -0.07216154038906097, 0.07188334316015244, 0.33320799469947815, -0.22835826873779297, -0.042005136609077454, -0.044216372072696686, 0.11135801672935486, 0.21400198340415955, 0.46109437942504883, 0.05560633912682533, 0.0838785246014595, 0.2928015887737274, 0.10874545574188232, 0.03909292444586754, -0.013320425525307655, 0.20335520803928375, 0.06176367774605751, 0.20331771671772003, -0.14005839824676514, -0.28127264976501465,
-0.1186765730381012, -0.10329198092222214, 0.1806012988090515, -0.4369032382965088, -0.03154437988996506, 0.030898218974471092, -0.20185479521751404, -0.625950038433075, 0.059979356825351715, -0.22881776094436646, -0.04678754508495331, 0.05716076120734215, -0.6122900247573853, -0.39890095591545105, -0.29853928089141846, -0.09321644902229309, 0.13821330666542053, 0.18054483830928802, -0.19154581427574158, -0.4136020243167877, -0.3044484257698059, -0.021088674664497375, -0.4941924810409546, 0.09890081733465195, -0.22875595092773438, -0.4128987193107605, -0.512163519859314, -0.14470802247524261, -0.077522873878479, -0.18949010968208313, 0.1125471442937851, -0.06160460785031319, -0.3218451142311096, 0.18948952853679657, -0.4987533688545227, 0.30076590180397034, -0.16859054565429688, -0.039151787757873535, -0.32022422552108765, -0.44931846857070923, -0.23030607402324677, -0.02553984709084034, 0.016206668689846992, 0.3465827405452728, 0.12105763703584671, -0.12965086102485657, 0.021896978840231895, 0.5618913173675537, -0.2913314998149872, -0.37691453099250793, -0.5170518159866333, 0.1568392962217331, -0.09912645071744919, 0.3222271800041199, -0.07463330030441284, -0.015059629455208778, -0.2200508862733841, 0.3038647174835205, -0.3589775264263153, 0.16035310924053192, -0.17713363468647003, 0.25701314210891724, -0.3123648166656494, -0.37800222635269165,
0.27853092551231384, -0.340908020734787, 0.5462210774421692, 0.1214878186583519, -0.08542648702859879, -0.17649999260902405, -0.08997496217489243, 0.315926194190979, 0.25249794125556946, 0.12988163530826569, -0.4224857985973358, 0.05089118331670761, 0.07008709013462067, 0.25948649644851685, -0.28803113102912903, 0.02680920995771885, -0.19614793360233307, 0.023571180179715157, -0.38688018918037415, -0.3434629738330841, 0.11427200585603714, 0.22855792939662933, -0.3483089208602905, 0.10396456718444824, -0.16241085529327393, -0.8335809707641602, 0.31212806701660156, 0.0054573779925704, 0.20846080780029297, -0.018008247017860413, -0.1990293562412262, -0.08644939213991165, -0.3300628066062927, -0.08190969377756119, -0.06672739237546921, 0.2327783852815628, -0.20020005106925964, 0.010549529455602169, -0.02867737039923668, -0.24421223998069763, -0.4059469997882843, -0.07604570686817169, 0.09747274219989777, -0.06944215297698975, -0.2559692859649658, -0.018099043518304825, 0.3082572817802429, -0.4253045618534088, 0.11726739257574081, -0.8351090550422668, -0.30919530987739563, 0.16173511743545532, -0.4236738085746765, 0.1958107054233551, 0.1039419174194336, -0.05122421309351921, -0.2455989122390747, -0.006863077636808157, 0.0028821476735174656, 0.024722477421164513, -0.10768483579158783, -0.023629406467080116, -0.25213873386383057, -0.13356582820415497,
-0.021556589752435684, -0.2984119951725006, 0.11478547006845474, -0.12169107049703598, -0.6246793866157532, 0.29422619938850403, -0.02214812859892845, -0.12029560655355453, -0.26367390155792236, 0.0455235131084919, 0.4469813108444214, 0.018608136102557182, -0.7622542977333069, -0.40551912784576416, 0.12712186574935913, 0.18871110677719116, 0.31775209307670593, -0.20112814009189606, -0.22085602581501007, 0.3226352035999298, -0.31576988101005554, -0.056595705449581146, -0.24890334904193878, 0.062008313834667206, -0.3986099660396576, 0.2948365807533264, 0.06237940117716789, -0.1129707545042038, 0.12420856952667236, -0.3394659161567688, -0.32772183418273926, 0.08259627968072891, 0.5162992477416992, -0.09736503660678864, -0.2591446340084076, 0.08688845485448837, 0.4047704339027405, -0.3123610019683838, -0.3002716600894928, 0.5823819637298584, 0.02128569968044758, -0.059704262763261795, -0.7075028419494629, -0.09255068749189377, 0.18073804676532745, -0.24638547003269196, 0.11575990170240402, 0.08381548523902893, 0.01859392039477825, 0.12829875946044922, 0.08106345683336258, 0.177436962723732, 0.48549920320510864, -0.043041497468948364, -0.13708218932151794, -0.37202075123786926, 0.2548809051513672, -0.011028031818568707, -0.3697953224182129, 0.12210274487733841, -0.14339487254619598, 0.25298458337783813, -0.5046650171279907, 0.04331989213824272,
0.023997480049729347, -0.1825861632823944, 0.22446595132350922, -0.14445972442626953, 0.13407300412654877, 0.3507317304611206, -0.10373834520578384, -0.04799900949001312, -0.41201865673065186, 0.2878676950931549, 0.374274879693985, -0.07822947204113007, 0.3376360535621643, -0.11488040536642075, 0.022501293569803238, -0.08978795260190964, -0.10112275183200836, 0.17617157101631165, 0.2402222901582718, -0.0017407492268830538, 0.36451202630996704, 0.31451722979545593, 0.31094807386398315, -0.7031413316726685, 0.2618670165538788, 0.5765249133110046, -0.11799652129411697, -0.16816554963588715, 0.14168168604373932, 0.07640466839075089, -0.05614940822124481, -0.13544565439224243, -0.1451280415058136, -0.07592683285474777, -0.0836009606719017, 0.01567535102367401, -0.10385161638259888, -0.08320634067058563, -0.20808599889278412, -0.33418405055999756, 0.19096006453037262, -0.035465117543935776, -0.19282247126102448, 0.19391602277755737, 0.08867452293634415, -0.06425155699253082, 0.37045642733573914, -0.3276374042034149, -0.19557030498981476, 0.32124292850494385, 0.2131943702697754, 0.10217688977718353, -0.26326459646224976, 0.3217414617538452, -0.07256054878234863, 0.2873379588127136, 0.30572736263275146, -0.1346139907836914, 0.06203614920377731, -0.22887425124645233, 0.17626728117465973, 0.17419059574604034, 0.2555663585662842, -0.040370527654886246,
-0.36362606287002563, 0.17053140699863434, -0.2704662084579468, -0.0735270082950592, 0.28956475853919983, -0.2574910819530487, 0.06517200917005539, 0.1554889976978302, -0.45546746253967285, -0.16503459215164185, -0.00964066106826067, -0.9290683269500732, -0.645714521408081, 0.2726932466030121, 0.10699744522571564, 0.07153576612472534, -0.25318264961242676, 0.657341480255127, -0.0705714151263237, 0.18931721150875092, -0.5371875166893005, 0.023808980360627174, 0.10121164470911026, -0.05549958720803261, -0.4862801432609558, 0.12174136936664581, -0.39394861459732056, 0.10318632423877716, 0.5475888252258301, -0.26132282614707947, 0.08049044758081436, -0.16170530021190643, 0.13981598615646362, -0.21028874814510345, 0.3790876567363739, 0.02143782377243042, -0.21733112633228302, 0.24089451134204865, -0.5813542604446411, -0.4036518633365631, 0.10168834775686264, -0.09270268678665161, -0.11391046643257141, 0.3944332003593445, 0.14371994137763977, 0.02309020422399044, -0.15292924642562866, 0.028704268857836723, -0.05196819826960564, 0.05225427448749542, -0.18608681857585907, 0.3687729239463806, -0.4185110926628113, -0.2096819281578064, -0.41941291093826294, -0.48880428075790405, 0.02841685339808464, -0.19761520624160767, -0.15118414163589478, 0.08197250962257385, -0.24388925731182098, -0.23650124669075012, 0.02419944293797016, -0.11387735605239868,
-0.020954672247171402, -0.047583285719156265, 0.22469809651374817, 0.1367415487766266, 0.20213381946086884, -0.11707683652639389, -0.1102268397808075, 0.07481604814529419, -0.2114962935447693, -0.017084915190935135, 0.16489006578922272, 0.2587658166885376, -0.17642280459403992, 0.3901100754737854, 0.5510572195053101, 0.2589138448238373, -0.06806215643882751, -0.6575804948806763, -0.2539161443710327, -0.36727750301361084, -0.21559196710586548, -0.33269986510276794, -0.4006299376487732, 0.16811569035053253, -0.10119278728961945, -0.2545378804206848, -0.17885401844978333, -0.006816012319177389, 0.18232734501361847, 0.245597705245018, 0.093848817050457, 0.3917137682437897, 0.19927479326725006, 0.07138075679540634, -0.2244967669248581, -0.07017853856086731, 0.18943583965301514, 0.11339122802019119, 0.14014320075511932, 0.14228923618793488, 0.042635463178157806, 0.015787413343787193, 0.25565430521965027, 0.5245804190635681, -0.12176429480314255, 0.3470049500465393, -0.28407639265060425, -0.3419830799102783, -0.3698277175426483, 0.08035167306661606, -0.6805306077003479, -0.22629112005233765, -0.16053928434848785, -0.2980002760887146, 0.039481110870838165, -0.030011145398020744, 0.23241859674453735, 0.09341251105070114, -0.2010827660560608, -0.011338838376104832, -0.18952377140522003, 0.19898846745491028, -0.1376989334821701, -0.1786724328994751,
-0.23101548850536346, 0.21416930854320526, -0.26089343428611755, -0.025267215445637703, -0.04968025162816048, 0.05861741676926613, -0.03474142774939537, -0.019243033602833748, 0.3016715347766876, 0.2253796011209488, -0.3079760670661926, -0.2122928649187088, 0.05809055641293526, 0.475639283657074, 0.16121526062488556, 0.16768406331539154, -0.1083744615316391, -0.12285348027944565, 0.21820133924484253, 0.02336789108812809, 0.0847175344824791, -0.1996627300977707, -0.2664310038089752, 0.02303217723965645, -0.43705976009368896, -0.11903033405542374, -0.36300235986709595, 0.05020344629883766, -0.2756561040878296, -0.5397807955741882, -0.1034303605556488, 0.0392976775765419, -0.5250736474990845, 0.10966069251298904, 0.28523293137550354, -0.12740826606750488, 0.23916694521903992, -0.26400551199913025, -0.9011978507041931, 0.41115352511405945, -0.03970542550086975, -0.03694067522883415, -0.6246312260627747, -0.09952086955308914, 0.18797102570533752, 0.07800284773111343, 0.1315176784992218, 0.39746013283729553, -0.3202369809150696, -0.13776616752147675, -0.23487868905067444, 0.195474773645401, -0.16270887851715088, 0.08287964761257172, -0.5025694966316223, -0.16439571976661682, 0.0569486990571022, 0.0673970878124237, 0.004893448203802109, 0.31029313802719116, -0.03077143058180809, -0.3702498972415924, -0.44365784525871277, -0.18312573432922363,
0.020182061940431595, 0.4275946021080017, -0.46793195605278015, 0.1471005231142044, 0.16539834439754486, -0.29683127999305725, 0.220951646566391, 0.015521633438766003, -0.06592266261577606, 0.1548660695552826, -0.10997743904590607, -0.3537408411502838, -0.10061541199684143, 0.31688129901885986, 0.11104368418455124, -0.20394429564476013, -0.21158330142498016, -0.13254651427268982, 0.16097255051136017, -0.2672206163406372, -0.08261977136135101, -0.049186695367097855, 0.2385813295841217, -0.35678035020828247, 0.06396472454071045, 0.14077362418174744, 0.2959355115890503, 0.23740814626216888, 0.03918948024511337, 0.049914512783288956, 0.033766452223062515, 0.08626329153776169, 0.11298888176679611, 0.25669050216674805, 0.06430239230394363, -0.23559528589248657, 0.1078384667634964, 0.03594265505671501, -0.03585542365908623, -0.3504275977611542, 0.027390040457248688, 0.2881707549095154, 0.38750994205474854, -0.2870686948299408, 0.1831587255001068, -0.2802441418170929, -0.003917943220585585, 0.08065205067396164, -0.03959699720144272, 0.050308648496866226, -0.5011204481124878, 0.28356772661209106, -0.4613324999809265, 0.01344061829149723, -0.013125390745699406, -0.1523841768503189, 0.47484511137008667, -0.2889055013656616, -0.6359198093414307, 0.132913738489151, -0.2047601044178009, -0.1549205780029297, 0.07145965844392776, 0.17853400111198425,
-0.22996021807193756, -0.08221288025379181, 0.16740664839744568, -0.06397189199924469, 0.08455050736665726, 0.17350970208644867, 0.22335898876190186, 0.13513122498989105, 0.15217944979667664, -0.04356665164232254, -0.34427350759506226, 0.08959795534610748, -0.26865673065185547, -0.16408473253250122, -0.42533376812934875, -0.043273650109767914, 0.3579270839691162, 0.12923769652843475, -0.5208080410957336, 0.26175791025161743, -0.07905804365873337, -0.5166723132133484, 0.002011124277487397, -0.26433876156806946, 0.05655785650014877, 0.2666310667991638, -0.09765205532312393, -0.4953431487083435, 0.15598377585411072, -0.4483568072319031, -0.31070417165756226, -0.4508986175060272, 0.26136940717697144, -0.0702490508556366, 0.10132306814193726, -0.08793186396360397, -0.6949034929275513, 0.2729911506175995, -0.0035767715889960527, -0.3293761909008026, -0.21804200112819672, -0.13740992546081543, -0.23494203388690948, 0.5591197609901428, 0.34691014885902405, -0.04280989617109299, -0.1007116511464119, -0.15702864527702332, -0.5526809692382812, -0.30643028020858765, -0.29854968190193176, -0.14228864014148712, 0.05489850416779518, -0.23657068610191345, 0.10880042612552643, -0.11807712912559509, 0.08847009390592575, 0.06664371490478516, 0.19387848675251007, -0.30128633975982666, 0.036213818937540054, -0.3030126690864563, 0.25994235277175903, -0.2013804316520691,
-0.1753893941640854, -0.22366733849048615, 0.26803141832351685, -0.2646348774433136, -0.12706005573272705, 0.6526732444763184, 0.017034783959388733, 0.4691097140312195, -0.20310968160629272, -0.0003389960911590606, 0.2588594853878021, -0.23557335138320923, 0.06432179361581802, -0.3007115125656128, -0.1330309957265854, 0.10516538470983505, 0.41753247380256653, -0.24697187542915344, -0.1299518644809723, -0.1126154288649559, -0.4213458001613617, 0.27682286500930786, -0.02121894434094429, 0.18124450743198395, -0.017177380621433258, 0.21978573501110077, -0.300912469625473, -0.3319394588470459, 0.25482839345932007, 0.3049907088279724, -0.039942581206560135, 0.0872965157032013, 0.11755116283893585, -0.08767709881067276, 0.14705635607242584, -0.1436506062746048, -0.21950824558734894, -0.27972880005836487, -0.23807664215564728, 0.02687772735953331, -0.11832677572965622, 0.1382390558719635, -0.06834865361452103, 0.25662076473236084, -0.1806940734386444, -0.3956529200077057, -0.07064048945903778, 0.05316760763525963, 0.1697380393743515, -0.07798654586076736, -0.08717617392539978, -0.08162559568881989, 0.13407596945762634, 0.3174322843551636, -0.12790991365909576, 0.017857154831290245, -0.317698210477829, 0.3976669907569885, 0.42242860794067383, 0.06026822328567505, 0.059122394770383835, 0.3473717272281647, -0.19117742776870728, -0.5067627429962158,
0.0024485562462359667, 0.4186345040798187, -0.05570029467344284, -0.3859376013278961, -0.36224833130836487, -0.03830862417817116, -0.10283849388360977, -0.619539201259613, -0.11917821317911148, 0.08867517858743668, -0.15663480758666992, 0.3285467326641083, -0.05882997438311577, -0.11514589935541153, 0.04685225710272789, 0.43070292472839355, 0.03781186789274216, -0.6092818379402161, -0.0016832095570862293, -0.5159217715263367, 0.18897756934165955, 0.2910034954547882, -0.42407044768333435, 0.18703895807266235, -0.45261505246162415, -0.011408412829041481, -0.029180657118558884, -0.25465717911720276, 0.027635885402560234, 0.0343533456325531, -0.480783611536026, -0.37923675775527954, 0.17489315569400787, 0.17550687491893768, -0.19258400797843933, -0.06563064455986023, 0.6944697499275208, 0.049398552626371384, -0.04814419150352478, 0.180485799908638, -0.0012181090423837304, -0.5963984727859497, -0.10270807147026062, 0.18157848715782166, -0.20487046241760254, 0.14743216335773468, -0.04143363609910011, 0.01657339744269848, -0.11606697738170624, -0.39714524149894714, 0.1575019359588623, -0.1043933629989624, 0.12197906523942947, -0.05725429207086563, -0.183578222990036, -0.03359607234597206, 0.2197733074426651, -0.24840860068798065, -0.20134052634239197, 0.19358986616134644, -0.25860902667045593, 0.015320103615522385, 0.15432395040988922, 0.5010274052619934,
