#include "neural_network.h"
#include <stdio.h>
#include <math.h>

const float weights_fc1[] = {
0.3098864257335663, -0.9133812189102173, 0.9825501441955566, 0.25019189715385437, -0.29095908999443054, -0.4710792899131775, -0.07990853488445282, -0.4440482258796692, -0.3116994798183441, -0.2076539844274521, 0.22290004789829254, -0.2637615203857422, -0.4446830451488495, 0.6237549185752869, -0.5613451600074768, -0.2819122076034546, -0.30739277601242065, 0.0917225107550621, -0.08844530582427979, -0.19109247624874115,
0.6788114905357361, -0.9568549990653992, 0.08228057622909546, 0.15630626678466797, -0.07270137220621109, 0.049043525010347366, -0.30726876854896545, 1.0890381336212158, -0.2908004820346832, -0.09446747601032257, 0.0004097175260540098, 0.2805864214897156, -0.09680215269327164, -0.8346498608589172, -0.39489468932151794, 0.6449775695800781, 0.09020093083381653, 0.004933531396090984, 0.24066972732543945, 0.06651845574378967,
0.01633334346115589, 0.1703183352947235, 0.9304243922233582, 0.19001688063144684, 0.034196384251117706, 0.17822079360485077, -0.11068198084831238, 1.4111275672912598, -0.19723261892795563, -0.12054946273565292, -0.08544565737247467, -0.21118980646133423, 0.1650627702474594, 0.8327365517616272, -1.2835972309112549, -0.35852059721946716, -0.05118018016219139, -0.07320431619882584, -0.1973876804113388, 0.04848005622625351,
0.6695817112922668, 0.19639696180820465, 0.1022866740822792, 0.10631787776947021, -0.03314876928925514, 0.36010506749153137, 0.3435996174812317, 0.8943233489990234, 0.07480500638484955, 0.1239033117890358, 0.2770652174949646, -0.48757490515708923, -0.42305856943130493, -0.13267190754413605, -0.41232743859291077, -0.647437334060669, -0.12672290205955505, -0.1378314346075058, 0.25385215878486633, -0.580299437046051,
0.09702377021312714, -0.5027139186859131, -1.452802062034607, 0.2262374311685562, -0.08108845353126526, 0.161829873919487, 0.5770807862281799, 0.6763803362846375, -0.03286824747920036, -0.02300376445055008, -0.012628035619854927, 0.18116803467273712, -1.0047513246536255, 0.6840155124664307, -0.8679314255714417, 0.17268481850624084, 0.09367524832487106, -0.23833800852298737, -0.2246219366788864, -0.26197096705436707,
1.169785976409912, -0.12566667795181274, 0.10971679538488388, 0.27723202109336853, 0.23331938683986664, -0.5867143869400024, -0.46837225556373596, -0.3746281862258911, -0.05184530094265938, -0.4915361702442169, 0.22500266134738922, -0.37920597195625305, 0.23413483798503876, 0.32018113136291504, -0.2372179627418518, 0.25601327419281006, -0.43532392382621765, -0.11663960665464401, -0.08350469917058945, -0.18392308056354523,
0.36868560314178467, 0.28051823377609253, -1.1222376823425293, -0.01988113857805729, -0.011471063829958439, -0.25098589062690735, 0.4512987732887268, -0.3483620285987854, 0.08131294697523117, 0.11105853319168091, -0.12353844195604324, -0.7706121802330017, -0.8568348288536072, 0.3564877212047577, 0.7228931188583374, 1.195637822151184, 0.13617534935474396, -0.3008725345134735, 0.05389854684472084, -0.14641539752483368,
-0.1355796903371811, 1.5284467935562134, -0.6632823348045349, 0.024653170257806778, 0.1883716732263565, -0.02330612763762474, -0.43063050508499146, 0.489399790763855, -0.25931674242019653, -0.027286820113658905, -0.15858414769172668, -0.2260635644197464, 0.67432701587677, -0.00232154643163085, 0.3066190779209137, 0.13671228289604187, -0.18370559811592102, -0.27131903171539307, 0.17910833656787872, -0.30954715609550476,
-0.3092506229877472, 0.5177083611488342, -0.36558419466018677, -0.5615313649177551, 0.060296040028333664, 0.3890133202075958, 0.3082466721534729, 1.3962478637695312, -0.14056973159313202, -0.1679527759552002, 0.48501357436180115, -0.014211395755410194, -0.854529619216919, 0.24751755595207214, -0.7159057259559631, 0.11320846527814865, -0.10424594581127167, -0.09973368793725967, -0.032724253833293915, -0.021363433450460434,
0.9161065816879272, -0.01457680482417345, -0.45363107323646545, -0.00347080803476274, 0.37662869691848755, 0.3698318898677826, -0.24053795635700226, -0.4031050503253937, -0.13342392444610596, 0.11116569489240646, -0.12411688268184662, 0.5874514579772949, -0.12439418584108353, -0.8058317303657532, -0.5594522356987, 0.5998923778533936, -0.22738733887672424, -0.10720071941614151, -0.11955778300762177, -0.43578827381134033,
0.03483690693974495, 1.3117507696151733, 0.7070135474205017, -0.11440777033567429, 0.08743096143007278, -0.12667420506477356, -0.5703355073928833, 0.2635577321052551, 0.5954386591911316, 0.07514888793230057, -0.06981528550386429, -0.07543978095054626, 1.1548137664794922, 0.377413272857666, 0.10825749486684799, -0.37477609515190125, -0.3671134412288666, -0.28513070940971375, -0.34115543961524963, -0.2135722041130066,
-0.21040160953998566, -0.007436203304678202, 0.35845062136650085, -0.11480998992919922, 0.04200791195034981, 0.060686301440000534, 0.67226243019104, -0.3872748613357544, 0.8782998323440552, 0.06565360724925995, -0.053573183715343475, -0.0534014031291008, 0.2455226331949234, -0.9613072276115417, 1.0746315717697144, -0.11002863943576813, -0.11139117181301117, 0.11162428557872772, 0.27193930745124817, 0.11980852484703064,
-0.26092225313186646, -0.577402651309967, -0.1816554218530655, -0.014278436079621315, -0.24908030033111572, 0.0759994313120842, 0.19607652723789215, 0.9142330288887024, 0.33226868510246277, -0.18701891601085663, 0.1580190658569336, 0.5164588689804077, 0.3811170160770416, 0.4224560558795929, 0.355385422706604, -0.3941376507282257, -0.3921705484390259, -0.1378023326396942, 0.13074225187301636, -0.4669845402240753,
0.2014288753271103, 1.4403698444366455, -0.1368458867073059, 0.13644152879714966, 0.16381438076496124, -0.3222576081752777, -0.05893765017390251, -0.8152654767036438, -0.48867732286453247, 0.04975845664739609, -0.024412719532847404, -0.2545788288116455, 0.19915302097797394, 1.0066776275634766, -0.7326464056968689, 0.5186850428581238, -0.34125420451164246, -0.1252654641866684, -0.2270042449235916, -0.11336715519428253,
0.04614105075597763, 0.3684754967689514, -0.2265709936618805, 0.16640138626098633, -0.08561953902244568, 0.8158334493637085, -0.1888144612312317, 0.5639746189117432, -0.2911158502101898, -0.1330830156803131, 0.24120104312896729, -0.2871815860271454, -0.12659424543380737, -0.4926549792289734, 1.1540417671203613, 1.2213672399520874, -0.5222705602645874, -0.028157150372862816, 0.4334496557712555, -0.3379312753677368,
0.14084483683109283, -0.48680585622787476, 1.0431376695632935, 0.24738077819347382, -0.0017686591017991304, 0.4656604826450348, -0.40769797563552856, 0.302284300327301, -0.2362343668937683, -0.4108146131038666, -0.026965780183672905, 0.42319172620773315, 1.1839261054992676, 0.29918402433395386, -0.722775936126709, -0.6057636737823486, -0.2303381860256195, -0.4095102548599243, 0.13420931994915009, 0.22498217225074768,
0.47284188866615295, -0.3042401671409607, -0.11703421175479889, -0.12234073877334595, 0.37045514583587646, 0.14650386571884155, 0.5492661595344543, -0.5706333518028259, -0.13187533617019653, 0.01254020445048809, 0.21715621650218964, 0.4796018600463867, 1.2393522262573242, -0.2999141812324524, 0.004030575975775719, -0.07844025641679764, -0.35686060786247253, -0.20494689047336578, -0.058624159544706345, -0.34025171399116516,
-0.19444705545902252, -0.05298352614045143, 2.383390188217163, -0.10020405799150467, 0.07055641710758209, 0.7732945084571838, -0.27119967341423035, -0.6165521740913391, 0.26845964789390564, -0.10288974642753601, -0.038526419550180435, -0.006901577580720186, 0.6065142750740051, -0.3077598214149475, 0.4979737401008606, -0.8140049576759338, 0.14350439608097076, 0.16386838257312775, 0.12648625671863556, -0.017833692952990532,
0.32367566227912903, 0.2576139271259308, 0.17794974148273468, 0.15639179944992065, 0.0008001751266419888, 0.5048888325691223, -0.16111622750759125, -1.3075294494628906, -0.5886929035186768, -0.04589102789759636, -0.2925703227519989, -0.273577481508255, 0.0016259648837149143, -0.4273568093776703, 1.0354585647583008, -0.8247811794281006, -0.09573452919721603, -0.4824782609939575, 0.061740439385175705, -0.2454327791929245,
0.3120766580104828, -0.19165685772895813, -0.9197559356689453, -0.06461725383996964, -0.04253394529223442, -0.9481629729270935, -0.11410927772521973, 1.2491573095321655, -0.08987336605787277, -0.02498260699212551, -0.28860729932785034, 0.23753441870212555, 0.4815525710582733, 0.19277000427246094, -0.32967209815979004, 0.18586142361164093, 0.07857228815555573, -0.05650556832551956, -0.35115721821784973, 0.20765705406665802,
0.21511310338974, -1.3147574663162231, 1.040262222290039, -0.085619255900383, -0.29696860909461975, 0.2657630443572998, -0.6370419263839722, -1.0225672721862793, 0.08890100568532944, 0.04461126774549484, 0.026553742587566376, 0.12595407664775848, 0.3865542411804199, -0.04638800770044327, -0.13469530642032623, -0.44983047246932983, 0.09367674589157104, 0.1265335977077484, -0.0022670875769108534, 0.14192233979701996,
-0.3321695625782013, 0.5151636004447937, 0.28026488423347473, -0.041606318205595016, 0.33786946535110474, -0.47100910544395447, -0.21428857743740082, 0.001867192448116839, 0.5560199618339539, -0.16663487255573273, -0.22424481809139252, -0.5826570987701416, 0.5079779028892517, -0.35164085030555725, -0.12147606909275055, 0.19581736624240875, -0.1968865692615509, -0.17578181624412537, 0.24363043904304504, -0.37718626856803894,
-0.32456064224243164, 0.7253918647766113, -1.3155457973480225, 0.006372667383402586, -0.16163043677806854, 0.1094387099146843, 0.8720967173576355, 0.6844000220298767, 0.24011559784412384, 0.22446532547473907, 0.16448986530303955, -0.021997643634676933, -0.01147039607167244, -0.962965190410614, 0.9650661945343018, 0.374563068151474, -0.1501925140619278, -0.2811083495616913, 0.03588765487074852, 0.02575182169675827,
0.08098874986171722, 0.2971850633621216, -1.0392762422561646, 0.04941216856241226, 0.06739512830972672, 0.19138118624687195, 0.11622098833322525, 0.7753087282180786, 0.1482599377632141, 0.11180905252695084, 0.02708912268280983, 0.13946981728076935, -0.914720892906189, 0.9632711410522461, -0.5807735919952393, 1.2245912551879883, -0.01505256537348032, -0.3757956922054291, -0.14376142621040344, 0.00067156768636778,
-0.1291211098432541, 0.46400129795074463, -1.2403640747070312, 0.15975019335746765, 0.13469314575195312, -0.26494431495666504, 0.4818112254142761, -1.0300568342208862, -0.77556312084198, -0.0030673884321004152, 0.11211945116519928, -0.4617590308189392, -0.32914894819259644, -0.012272795662283897, -0.05285715311765671, -0.004408561624586582, 0.39766925573349, 0.366170734167099, -0.1981511116027832, 0.1626882404088974,
0.3618645966053009, 0.17863385379314423, 0.7652397155761719, -0.09485579282045364, 0.18752266466617584, 0.2647768259048462, 0.4189630448818207, 0.020369671285152435, -0.13106898963451385, -0.5624780058860779, 0.15790031850337982, -0.5497280955314636, 0.9462863802909851, 1.4226508140563965, -0.5654174089431763, -1.0446840524673462, -0.47556188702583313, -0.2039991021156311, -0.14058522880077362, -0.3293575942516327,
-0.05476300045847893, 1.3658332824707031, -1.5807584524154663, 0.04938371852040291, 0.054997432976961136, -0.8509672284126282, 0.2809782922267914, 0.4862065613269806, 0.01806534454226494, -0.006211856380105019, 0.0008454705821350217, 0.13328804075717926, -0.457291841506958, 0.1804995983839035, 0.37679043412208557, 0.4198653995990753, -0.09906717389822006, 0.008199937641620636, -0.21001392602920532, -0.13364659249782562,
0.3806147873401642, -0.4270555377006531, 0.42095547914505005, -0.3390229344367981, -0.4194474220275879, 0.36020153760910034, -0.359107106924057, -0.568382740020752, -0.3912919759750366, 0.26030558347702026, 0.051616985350847244, 0.1282273530960083, 1.262055516242981, 0.6096020340919495, 0.24650409817695618, -0.12331905961036682, -0.04365192726254463, 0.03363101929426193, 0.2500790059566498, -0.4756789803504944,
-0.2917852997779846, 0.06264401972293854, 0.18561087548732758, 0.08746077865362167, 0.004412949550896883, -0.10544592142105103, 1.202225923538208, 0.8256552815437317, 0.12312963604927063, 0.08515192568302155, -0.07986107468605042, -0.13638965785503387, -0.45059478282928467, -0.7233884334564209, 1.3333635330200195, 0.3211157023906708, 0.10334405303001404, 0.1576334685087204, -0.0027884570881724358, -0.2701682448387146,
0.6747915744781494, 1.0123181343078613, -0.41474664211273193, 0.16879814863204956, -0.06438335031270981, -0.5614495873451233, 0.48288658261299133, -0.6193272471427917, -0.35793980956077576, 0.058260735124349594, 0.1600097417831421, -0.22017507255077362, 0.07000230252742767, 0.613248884677887, 0.47533127665519714, 0.029673172160983086, -0.137490913271904, -0.07811813801527023, -0.14826545119285583, -0.1734524667263031,
0.20316852629184723, -0.377152681350708, 0.8567377924919128, -0.35841795802116394, -0.03693621978163719, -0.588907778263092, -0.11182375252246857, -0.39286014437675476, 0.16831998527050018, -0.00655420683324337, 0.13282464444637299, -0.07620289921760559, 0.5384953618049622, 1.762698769569397, -0.3199160397052765, -0.137473925948143, 0.3926210105419159, 0.05746391788125038, 0.1711321473121643, 0.10997994989156723,
0.5921706557273865, -0.24112866818904877, -0.14819015562534332, -0.17748290300369263, 0.16376464068889618, 0.41402506828308105, -0.18325170874595642, -0.22248348593711853, 0.10159572213888168, -0.47034990787506104, 0.37926748394966125, 0.062035541981458664, -0.6854930520057678, 1.2040725946426392, -0.5412988066673279, 0.7777895331382751, 0.30508124828338623, -0.22652855515480042, -0.26450589299201965, -0.28040844202041626,
0.05215822532773018, -0.01137207169085741, 0.25040146708488464, -0.17558634281158447, -0.10892435908317566, 0.1270357072353363, -0.14529167115688324, 1.2673147916793823, -0.493780255317688, 0.0946117714047432, -0.17208454012870789, -0.05840972065925598, -1.2343083620071411, -0.30434390902519226, 0.3581013083457947, 0.7316306233406067, -0.17390656471252441, 0.21584950387477875, 0.021512681618332863, 0.07468961179256439,
0.06982959806919098, -0.46698909997940063, -0.7056419253349304, -0.1378057599067688, -0.019612111151218414, 0.13455012440681458, -0.5561456680297852, 0.6952144503593445, -0.2280762791633606, -0.120415098965168, 0.006759593263268471, 0.19860880076885223, 0.927337646484375, 0.6295051574707031, -0.2820661664009094, -0.4523620903491974, 0.30962520837783813, 0.6133232116699219, -0.030228493735194206, 0.35192400217056274,
0.15907202661037445, -0.2819690704345703, -0.30093392729759216, -0.36243191361427307, -0.3288585841655731, -0.08601958304643631, 0.0069128600880503654, -1.0278363227844238, -0.6842702031135559, 0.2474358081817627, -0.1601816713809967, -0.22458063066005707, 0.21229544281959534, 0.5362083911895752, -0.017673147842288017, 0.41196098923683167, -0.01826479099690914, -0.2609645426273346, 0.07860031723976135, -0.3095608353614807,
0.4569694399833679, 1.0995113849639893, 0.2551436424255371, -0.18170778453350067, 0.09365087747573853, 0.3775874078273773, 0.23730356991291046, -0.13748618960380554, 0.1921267807483673, -0.05991097912192345, -0.10698671638965607, 0.45828068256378174, 0.3948078453540802, -0.44465258717536926, 0.04555584117770195, 0.1214023008942604, -0.5462773442268372, -0.5003876090049744, -0.38749659061431885, -0.8835122585296631,
-0.32102712988853455, 0.3987892270088196, 1.1533061265945435, -0.008639204315841198, 0.3208136260509491, 0.919644296169281, -0.6315316557884216, -0.06152739375829697, -0.23921220004558563, -0.18583324551582336, -0.21660225093364716, 0.1029277890920639, -0.052926234900951385, -0.8656693696975708, -0.4388665556907654, -0.49665066599845886, -0.1390722244977951, -0.006169693544507027, 0.04610639065504074, 0.016464445739984512,
0.10428720712661743, -0.4831905663013458, -0.08066221326589584, -0.8257889151573181, -0.20513486862182617, 0.07328716665506363, -0.36928650736808777, -0.5762614011764526, -0.09154493361711502, 0.21584253013134003, -0.03256605193018913, 0.17089517414569855, -0.6379675269126892, 0.5373958349227905, -0.0016546800034120679, -0.023438312113285065, -0.7372234463691711, -0.27146992087364197, 0.19662432372570038, -0.22643154859542847,
-0.11157302558422089, 0.2720954716205597, 1.360761284828186, -0.04508206620812416, 0.040331289172172546, 0.5608869194984436, -0.5668125748634338, -0.9223647117614746, 0.5836917757987976, -0.15879365801811218, -0.16310207545757294, 0.06400440633296967, 0.667066752910614, 0.1349296271800995, -0.4860646724700928, -0.49139052629470825, -0.6218295693397522, -0.07783758640289307, 0.07598897069692612, -0.17744700610637665,
0.2784823179244995, 0.12522675096988678, 0.48826098442077637, 0.2264622002840042, -0.0012162670027464628, -0.3521280884742737, 0.19619698822498322, -0.3285718262195587, -0.6174278855323792, 0.2934296727180481, 0.42914533615112305, -0.26564469933509827, -0.6195406913757324, 0.11108546704053879, 0.2618800699710846, 0.5130519866943359, -0.15251842141151428, 0.1849779486656189, -0.12735503911972046, 0.21675334870815277,
0.22532540559768677, -0.728725790977478, 0.25481051206588745, 0.16160917282104492, 0.32579168677330017, -0.1253347396850586, 0.39576593041419983, 1.073854923248291, -0.1142362654209137, 0.13681401312351227, -0.013630881905555725, 0.05115126818418503, -0.13662664592266083, -1.1285992860794067, 0.596691370010376, 1.7261979579925537, -0.09206219762563705, -0.22847644984722137, -0.04733648896217346, -0.11392897367477417,
-0.30267032980918884, 0.6553817391395569, -0.4801047742366791, -0.062136437743902206, 0.3994884192943573, -0.438254714012146, 0.11780669540166855, -0.7985053658485413, 0.7390650510787964, 0.07646603137254715, -0.07149258255958557, 0.12570814788341522, 0.6179391741752625, -0.008768552914261818, 0.5619142055511475, -0.24038441479206085, -0.03342711552977562, 0.23445215821266174, -0.17568114399909973, 0.04093225672841072,
-0.14970412850379944, -0.07478495687246323, 0.45302560925483704, -0.10667186230421066, 0.21911679208278656, 0.2894403636455536, 1.0155589580535889, -0.49249669909477234, -0.29938527941703796, 0.17504841089248657, -0.38050639629364014, -0.22067925333976746, 0.20817409455776215, -1.1018784046173096, 0.768498957157135, 0.0943872258067131, -0.0008118341211229563, -0.07198356837034225, 0.15560702979564667, -0.12494107335805893,
-0.04874979704618454, -0.5490525960922241, 0.1050175279378891, -0.02909906394779682, -0.2664068043231964, -0.08254557102918625, -0.9241435527801514, 0.19966165721416473, 0.1925847828388214, -0.010737131349742413, -0.07571960240602493, 0.16059376299381256, 0.273250550031662, 0.35384005308151245, -0.28356409072875977, -0.5052655339241028, 0.07797042280435562, -0.2848239839076996, 0.25656843185424805, -0.1753208190202713,
0.19773730635643005, 0.39879366755485535, -0.20977447926998138, 0.05027133226394653, -0.07725855708122253, 0.46635112166404724, -0.4490564465522766, -0.9649627804756165, -0.20061783492565155, -0.06972873955965042, 0.10052232444286346, -0.8084132075309753, 0.6138840317726135, 0.14075030386447906, 0.23673942685127258, -1.242940902709961, 0.054676033556461334, 0.056545764207839966, -0.2784480154514313, 0.07223580777645111,
-0.1583966761827469, -0.7858746647834778, 0.09343656897544861, -0.1319667100906372, -0.32919976115226746, -0.21075645089149475, -0.6903127431869507, -0.314777135848999, -0.47165000438690186, -0.18709124624729156, 0.07933426648378372, -0.11081800609827042, 0.6714784502983093, -0.14221665263175964, -0.02973720245063305, -0.0831800177693367, -0.21373610198497772, -0.14775516092777252, -0.04532511532306671, -0.14789806306362152,
0.09481670707464218, -0.5477333068847656, 1.0496551990509033, 0.052503976970911026, -0.15576505661010742, 0.7962408661842346, 0.18947485089302063, 0.9709806442260742, 0.13023756444454193, -0.0778348296880722, 0.0905349925160408, -0.13800284266471863, -0.7702032923698425, 0.4827921390533447, -0.21934016048908234, 0.8107460141181946, 0.28651556372642517, 0.27047204971313477, -0.09649727493524551, -0.04502296820282936,
0.19513380527496338, -1.0080548524856567, 0.9417004585266113, 0.05045108124613762, -0.36373287439346313, 0.2822338938713074, 0.5115807056427002, -0.39251017570495605, 0.13577118515968323, 0.2478153258562088, -0.03778202086687088, -0.6276915669441223, 0.41814786195755005, -0.1957356333732605, 0.4828435182571411, 0.35767263174057007, -0.11521044373512268, 0.19894260168075562, -0.08661475777626038, 0.4540984630584717,
0.09488197416067123, 0.18237465620040894, -0.6140390634536743, -0.4987930357456207, -0.27432912588119507, -0.5302806496620178, 0.5649182796478271, 0.3096367120742798, -0.33439013361930847, -0.11386767029762268, 0.20324097573757172, -0.17401696741580963, 0.1902216225862503, -0.32064685225486755, -0.7548069953918457, -0.594813883304596, -0.3906804025173187, -0.4255503714084625, 0.0353342667222023, -0.036725305020809174,
0.12721015512943268, 0.45430371165275574, -0.5655871033668518, -0.6976224780082703, -0.46475717425346375, -0.2692786753177643, 0.601521372795105, -0.06847460567951202, 0.10221937298774719, -0.13426323235034943, 0.06676552444696426, -0.5035699605941772, 0.019170081242918968, 0.5525432825088501, 0.25340622663497925, 0.33617791533470154, -0.363832950592041, -0.33097517490386963, -0.2346106618642807, -0.3460239768028259,
0.8525797724723816, -0.7746654748916626, -0.3595631718635559, 0.11898446083068848, 0.13377311825752258, 0.06932859867811203, -0.46566012501716614, -0.03433705121278763, -0.4587407410144806, 0.15792909264564514, -0.04940866678953171, 0.45695289969444275, 0.6080492734909058, -0.35672757029533386, 0.23910707235336304, -0.5330156087875366, -0.16610604524612427, 0.08945482224225998, 0.1178663820028305, -0.07627475261688232,
0.1902226060628891, -0.5691275000572205, 0.08655945956707001, 0.14074872434139252, -0.2117980569601059, -0.018573468551039696, 0.15394313633441925, 1.418815016746521, -0.09119843691587448, 0.03234032168984413, 0.17434662580490112, 0.2992759943008423, -0.9459460973739624, 0.008319185115396976, -0.3951738178730011, 0.7482293844223022, 0.21395055949687958, 0.26834288239479065, -0.07926646620035172, 0.10126549005508423,
0.37883782386779785, -0.20332086086273193, -1.3790181875228882, -0.06832312792539597, -0.05481657758355141, -0.40266165137290955, 0.33044829964637756, 0.4967716932296753, 0.8126954436302185, -0.04125567898154259, 0.040326155722141266, 0.01304055005311966, 1.1375634670257568, -0.5419003367424011, 0.6034107208251953, 0.3571673035621643, 0.05129055306315422, -0.3057524561882019, -0.08578253537416458, -0.21086552739143372,
0.22310736775398254, 1.1688640117645264, 0.09434136003255844, -0.003000795841217041, 0.10231643170118332, 0.052930302917957306, -0.019429128617048264, 0.10520929843187332, 0.20316900312900543, -0.2415858656167984, -0.3067292273044586, 0.5510320067405701, 0.7679712176322937, 0.2395678162574768, -0.018272098153829575, 0.7698544263839722, -0.49695831537246704, -0.33964473009109497, -0.21314185857772827, -0.05677081272006035,
0.37221384048461914, 0.4172596037387848, 0.44306647777557373, -0.5188214182853699, -0.2845604121685028, -0.12983690202236176, -0.12798425555229187, 0.5186524391174316, 0.6509822607040405, 0.2201763093471527, -0.04520012438297272, 0.5853683948516846, -0.9077592492103577, 0.07938817143440247, -0.12345338612794876, 0.003943934570997953, -0.1813478320837021, -0.39823633432388306, 0.03814971074461937, -0.1722695678472519,
-0.35300716757774353, 0.3056233823299408, -0.767181932926178, 0.04028854891657829, 0.07001274079084396, 0.032050423324108124, 0.36906716227531433, 0.806917667388916, 0.12610837817192078, 0.1087823212146759, 0.09563164412975311, 0.3353191018104553, -0.1403747946023941, 0.13506510853767395, -0.44586312770843506, 1.0688040256500244, -0.03423183411359787, -0.09187724441289902, -0.14431126415729523, -0.16767652332782745,
0.23111508786678314, 0.29040172696113586, 0.09429563581943512, -0.20519055426120758, 0.8880882263183594, 0.6968685388565063, -0.6886507272720337, 0.57224041223526, -0.8589996099472046, -0.04134204983711243, -0.0851886197924614, -0.006630758289247751, -0.0014185975305736065, -0.09199802577495575, -0.5534428954124451, -0.3323691189289093, -0.2519455850124359, -0.4926180839538574, -0.0914134755730629, -0.4237208664417267,
0.032720305025577545, 0.5372034311294556, -0.8653062582015991, 0.2766769826412201, 0.24619141221046448, 0.14623016119003296, -0.2440064251422882, 0.8809428215026855, 0.20587158203125, -0.34375450015068054, 0.29725968837738037, -0.08510898053646088, 0.9322603940963745, 0.4554474949836731, -1.1052221059799194, -0.9664490818977356, -0.3178299069404602, -0.10164786875247955, 0.10355962812900543, -0.12350300699472427,
-0.0214119590818882, -0.5999103784561157, 0.19796645641326904, -0.16192641854286194, -0.32862693071365356, -0.10243114829063416, 0.45601439476013184, -0.1990482360124588, -0.6481618285179138, -0.3248719871044159, -0.2437530755996704, 0.33361780643463135, 0.7088502645492554, -0.5015364289283752, 1.0559520721435547, -0.047029074281454086, -0.28778842091560364, -0.18877999484539032, -0.12186001241207123, -0.2617034912109375,
0.10172779858112335, -0.4036444425582886, 0.030402276664972305, -0.2121746689081192, -0.12407201528549194, 0.5439720749855042, 0.32927054166793823, 0.9226030707359314, 0.22431601583957672, -0.549381673336029, -0.014652461744844913, -0.13898266851902008, 0.7687950134277344, 0.540972113609314, -1.1352181434631348, 0.30825477838516235, -0.4715224504470825, -0.4592815339565277, -0.1700660139322281, -0.32523009181022644,
-0.10286541283130646, 0.573401689529419, -0.08076194673776627, -0.35642844438552856, 0.8997374773025513, 0.19244550168514252, -0.4674951732158661, -0.13300102949142456, 0.950097918510437, -0.15491952002048492, -0.024913620203733444, -0.04639074578881264, -0.6100713014602661, -0.28868988156318665, 0.27014586329460144, -0.49452370405197144, -0.26039808988571167, -0.3087063431739807, 0.10482673346996307, -0.5043428540229797,
0.05836250260472298, -0.04406768083572388, -0.2739311456680298, -0.6226192116737366, 0.3481939136981964, -0.7120375633239746, -0.8350114226341248, 0.30422231554985046, -0.4062115252017975, -0.3702258765697479, 0.1829930692911148, -0.8668723702430725, 0.43037712574005127, -0.393149733543396, -0.47735777497291565, 0.05194368585944176, -0.10347014665603638, -0.7461299300193787, 0.10207994282245636, -0.12759464979171753,
-0.18882760405540466, -0.5669394731521606, 1.2621253728866577, -0.5661165118217468, -0.05796687677502632, 0.20253761112689972, 0.1719350963830948, 0.8353481292724609, 0.25768139958381653, 0.0030031900387257338, -0.16644033789634705, 0.06403099000453949, -0.16262632608413696, 0.4541718661785126, 1.0290719270706177, 0.5994143486022949, -0.045393574982881546, 0.30814677476882935, -0.23930437862873077, -0.4952750504016876,
0.37295883893966675, -0.42931067943573, -0.039839986711740494, 0.2776356339454651, -0.19541291892528534, -0.20466598868370056, 0.228820338845253, -0.09196019172668457, -1.0956432819366455, 0.007760358043015003, 0.028380202129483223, -0.1894885152578354, 0.49889492988586426, -0.6016352772712708, 0.6712632179260254, 0.0702560767531395, -0.23497401177883148, -0.014798316173255444, 0.10164885222911835, -0.18405218422412872
};

const float biases_fc1[] = {
-0.005141003988683224, -0.13248346745967865, 0.07939276099205017, -0.22751657664775848, -0.0729122906923294, -0.17296212911605835, -0.0896383747458458, -0.07202954590320587, -0.1005573645234108, -0.17428328096866608, -0.309093177318573, -0.1309436559677124, -0.18685875833034515, -0.08375568687915802, -0.13702066242694855, -0.1235741451382637, -0.31201720237731934, 0.1296817660331726, -0.18381403386592865, 0.05822128430008888, 0.14870129525661469, -0.23019088804721832, -0.1543244868516922, -0.05669207498431206, 0.28125444054603577, -0.36429882049560547, -0.12268631160259247, -0.17848147451877594, 0.02456938661634922, -0.10946007072925568, 0.03162200748920441, -0.07034006714820862, -0.06815633922815323, 0.1379372775554657, -0.19580991566181183, -0.5528684854507446, -0.015671338886022568, -0.3826060891151428, -0.10036438703536987, 0.010211322456598282, -0.20861873030662537, -0.10260677337646484, 0.0007777194841764867, -0.10565712302923203, -0.02936134859919548, -0.10262788832187653, 0.001160027110017836, 0.06050838902592659, -0.17356112599372864, -0.29314032196998596, 0.02343796379864216, 0.06764166057109833, -0.2025514841079712, -0.20569367706775665, -0.2679157555103302, -0.08178500086069107, -0.44702136516571045, -0.21357741951942444, -0.005479180719703436, -0.2535549998283386, -0.24202769994735718, -0.18426541984081268, 0.005056622438132763, -0.15760964155197144
};

const float weights_fc2[] = {
0.22665223479270935, -0.5064349174499512, -0.08470749855041504, -0.21033672988414764, 0.023755457252264023, 0.4138503670692444, 0.34710320830345154, 0.0747574046254158, -0.43347373604774475, 0.14441372454166412, -0.5652196407318115, 0.2490938901901245, -1.167076826095581, -0.4119974970817566, 0.5143841505050659, 0.19472894072532654, -0.15266507863998413, 0.1749979704618454, 0.2859824299812317, -0.3094840943813324, -0.49247288703918457, -0.41891422867774963, 0.34842851758003235, 0.028273645788431168, -0.16708360612392426, -0.3318506181240082, 0.2779686152935028, -0.2095966637134552, 0.5132625102996826, 0.061373572796583176, -0.660332977771759, -1.3356784582138062, 0.0446992963552475, -0.18556226789951324, -0.3469878137111664, 0.20796531438827515, -0.03501194342970848, -0.13081759214401245, -0.5164163112640381, -0.01703023910522461, -0.0005463967099785805, 0.11004465818405151, 0.5055252909660339, -0.34981247782707214, -0.1889108270406723, -0.9332086443901062, 0.20950329303741455, -0.11268415302038193, -0.6811617612838745, -0.4573327898979187, -0.7416467070579529, 0.026804355904459953, 0.13775330781936646, 0.0011895830975845456, -0.08958306908607483, 0.05302325636148453, 0.23856449127197266, -0.2139892876148224, -0.054620806127786636, -0.02397915907204151, -0.4677388072013855, -0.48250719904899597, 0.276140034198761, 0.031322795897722244,
0.2764247953891754, -0.10258013755083084, -0.6206954717636108, -0.18106095492839813, -0.22120539844036102, -0.2243170589208603, 0.173594668507576, -0.38354766368865967, -0.20151269435882568, -0.013036079704761505, -1.0675448179244995, 0.19595012068748474, -0.215547114610672, -0.5049394369125366, -0.13120552897453308, -0.6510249972343445, 0.07775209844112396, -0.027654865756630898, 0.07533124834299088, -0.3349301815032959, 0.2759154140949249, -0.21771425008773804, 0.32058021426200867, -0.4923306107521057, 0.07620254904031754, -0.005590548273175955, -0.14071935415267944, 0.07064241170883179, -0.053473394364118576, 0.39832693338394165, -0.5345851182937622, 0.051346808671951294, -0.1714172065258026, 0.03759566694498062, 0.5274482369422913, 0.010553944855928421, -0.34074825048446655, -0.4119740128517151, 0.04608006775379181, -0.7277317643165588, -0.370134562253952, -1.6920979022979736, -0.13886751234531403, 0.052535854279994965, 0.5446587800979614, 0.0483127124607563, 0.10217196494340897, -0.19635173678398132, -0.29937320947647095, -0.01832231879234314, -0.1556869000196457, -0.05400419607758522, -0.17177677154541016, -1.2524147033691406, 0.2368653118610382, -0.5014898777008057, 0.0940002053976059, -0.5556498765945435, -0.24888081848621368, 0.4556772708892822, -0.18847398459911346, -1.0690010786056519, -0.12586398422718048, -0.15241582691669464,
-0.21129022538661957, 0.14816001057624817, 0.14861270785331726, -0.3872610926628113, -0.60357266664505, 0.23635655641555786, -0.21918480098247528, 0.2782173156738281, -0.20401234924793243, 0.10798648744821548, 0.148577019572258, -0.2913367450237274, -0.992960512638092, -0.17203469574451447, 0.0141114741563797, 0.00586451031267643, -0.061511434614658356, -0.19230324029922485, 0.4029993414878845, -0.07102051377296448, 0.2135016918182373, -1.2423834800720215, -0.2525099515914917, 0.2044774889945984, 0.3465888500213623, -0.5303676128387451, -0.2684454321861267, 0.017538905143737793, 0.2040182650089264, -0.42405274510383606, 0.2646201252937317, -0.22485435009002686, -0.23391881585121155, 0.25749024748802185, -0.007468306925147772, -0.3117470145225525, -0.24247071146965027, 0.023516003042459488, -0.3144115209579468, 0.012708121910691261, 0.13366341590881348, -0.3726142346858978, 0.3503682315349579, -0.4807135760784149, 0.2098739594221115, 0.12857189774513245, -0.5640935897827148, 0.15302720665931702, -0.06870210915803909, -1.0650724172592163, 0.2260325700044632, -0.03348526358604431, -0.8909937143325806, -1.0030478239059448, -0.20441016554832458, -0.16244395077228546, -0.025125205516815186, -0.06175374612212181, 0.6281796097755432, -0.9953204989433289, -0.8932458758354187, 0.0850999653339386, -0.2632230520248413, 0.2682768702507019,
-0.7134311199188232, -0.23989985883235931, 0.05580607056617737, 0.041953228414058685, 0.36980369687080383, -1.362107753753662, 0.42459750175476074, -0.3991142809391022, -0.06455971300601959, -0.16386380791664124, 0.004884295631200075, 0.028496988117694855, -0.2964428961277008, 0.11195062100887299, -0.11691345274448395, 0.14963847398757935, 0.022923411801457405, 0.11278035491704941, -1.3098903894424438, 0.058890827000141144, -0.23255398869514465, 0.09292344003915787, -0.43935897946357727, 0.3644477427005768, -0.02230771817266941, -0.2859596312046051, 0.014079101383686066, -0.06920218467712402, -0.20677229762077332, -0.08866293728351593, -0.5365038514137268, 0.5736516714096069, -1.0135853290557861, -0.0026297327131032944, -0.17297637462615967, -0.2987319529056549, -0.041662637144327164, -0.017525698989629745, -0.3066090941429138, -0.2586769759654999, -0.2922816276550293, 0.22522658109664917, -0.584191083908081, -0.1802108883857727, -0.1386278122663498, -0.7828702330589294, 0.09634687751531601, -0.8015432953834534, 0.22985225915908813, -0.083460733294487, -0.15646637976169586, 0.23468364775180817, -0.2794336974620819, -0.5663171410560608, -0.005414193030446768, 0.2696109116077423, -0.36371907591819763, -0.02438875287771225, -0.17081661522388458, -0.48418986797332764, -0.47112393379211426, 0.0074204690754413605, -1.0813336372375488, -0.2848483920097351,
-0.393301784992218, 0.11048972606658936, 0.1540040522813797, -0.027321945875883102, 0.17468476295471191, -0.37917330861091614, -0.9409822821617126, 0.08188467472791672, -0.5920345783233643, -0.0636061578989029, 0.40767690539360046, -0.2645295262336731, -0.14116337895393372, 0.27769961953163147, 0.24591906368732452, 0.41404905915260315, 0.2971007227897644, 0.13077965378761292, -0.18319697678089142, -0.8447964787483215, 0.05490633472800255, -0.831096351146698, 0.18736429512500763, 0.32262930274009705, -0.13133886456489563, -0.5064008831977844, 0.0022152604069560766, 0.1740608811378479, -0.18595010042190552, 0.11851293593645096, 0.052529122680425644, -0.688066303730011, -0.46684134006500244, -0.15467135608196259, 0.34751200675964355, -0.22736281156539917, -0.7224631905555725, 0.3198167681694031, 0.01648745872080326, 0.11669190973043442, -0.0019538351334631443, -0.12208612263202667, -0.308242529630661, -0.014427718706429005, -0.5040704011917114, 0.10269654542207718, 0.19013814628124237, -0.27205318212509155, -0.02049143984913826, -0.2519069314002991, 0.08931416273117065, 0.2858711779117584, -0.1336234211921692, 0.10059435665607452, 0.4194343388080597, 0.26030778884887695, 0.07255388796329498, 0.10512403398752213, 0.4068053662776947, -0.2297879457473755, -0.5219504237174988, -0.21393071115016937, -0.14883165061473846, -0.2770809531211853,
-0.017248159274458885, 0.14699864387512207, 0.10883110761642456, -0.03408839553594589, 0.17558816075325012, -0.0023785135708749294, -0.47134116291999817, -0.3661181628704071, -0.3808342218399048, -0.3265416622161865, -0.19277839362621307, 0.33630168437957764, -0.10281006246805191, -0.3169311583042145, -0.361989289522171, 0.18906958401203156, 0.0594601035118103, -0.025332560762763023, -0.17589940130710602, -0.09634490311145782, 0.4424084424972534, -0.08931492269039154, 0.12266714870929718, 0.04484996944665909, -0.8588860630989075, 0.3164174258708954, -0.2638825476169586, -0.16561056673526764, 0.037877053022384644, -0.5243871808052063, -0.46834152936935425, -1.0420475006103516, 0.03075663559138775, -0.2232692986726761, -0.1818048059940338, -0.101652130484581, -0.6288177371025085, -0.1532762050628662, 0.3163006901741028, -0.6699345111846924, 0.14761383831501007, 0.13153450191020966, -0.2746964395046234, 0.30937471985816956, -0.14294421672821045, 0.0004803265619557351, 0.14005786180496216, 0.2800137400627136, -0.10690377652645111, -0.763455867767334, 0.029405904933810234, 0.41333556175231934, 0.3576222062110901, -0.07955250144004822, -0.27043190598487854, 0.04123243689537048, -0.8888871073722839, 0.2535538673400879, -0.4029645323753357, -0.06336108595132828, -0.6281586289405823, 0.05686129629611969, 0.05853316932916641, -0.14194956421852112,
0.6164370179176331, -0.06880559027194977, -0.38350093364715576, -0.03142134100198746, -0.32338011264801025, -0.5473465323448181, -0.007048710249364376, -0.156190425157547, -0.32347169518470764, -0.49630206823349, 0.2802903950214386, 0.1846257746219635, -0.34367790818214417, -0.19586129486560822, -0.8083995580673218, -0.0391649529337883, -0.17839348316192627, 0.09605670720338821, -0.29132407903671265, -0.40204980969429016, -0.3372558653354645, -0.637609601020813, 0.21457163989543915, -0.05100313946604729, 0.13078655302524567, 0.0006444227765314281, -0.63912034034729, -0.9058648347854614, -0.312594473361969, 0.210741326212883, -0.6201294660568237, -0.56798255443573, 0.1399984210729599, -0.03922561556100845, 0.23081471025943756, 0.2688288390636444, -0.8303025364875793, -0.6375529766082764, -0.21609416604042053, 0.3831383287906647, 0.366470605134964, 0.014424369670450687, -0.3730250895023346, -0.8314306735992432, -0.1253097653388977, 0.24550022184848785, -0.2362782508134842, -0.3191129267215729, -0.15006785094738007, 0.03790553659200668, -0.29304230213165283, -0.20815026760101318, -0.32316213846206665, -0.8499666452407837, 0.2784363925457001, -0.07324863970279694, -0.7995238304138184, -0.689719021320343, 0.40825212001800537, -0.16167807579040527, -0.2933439314365387, 0.012099024839699268, -0.12541797757148743, 0.40343573689460754,
-0.05753881484270096, -0.16778701543807983, -0.07171545922756195, 0.48828983306884766, -0.2750464677810669, -0.07544335722923279, -0.2590078115463257, -0.379070520401001, -0.22730766236782074, -0.8149741888046265, -0.22777613997459412, 0.3650323748588562, 0.05855860188603401, -1.1698708534240723, -0.4703749716281891, -0.02641693875193596, -0.11946582049131393, 0.31398364901542664, -0.4246022403240204, -0.10031908750534058, 0.1793503761291504, -1.04267156124115, -0.19635650515556335, -0.42753809690475464, -0.6537661552429199, -0.35710442066192627, -0.786244809627533, -0.15366387367248535, 0.02463248185813427, 0.24885837733745575, 0.5343259572982788, -0.0011947890743613243, -0.41696473956108093, 0.03352322056889534, -0.9222006797790527, 0.0894322395324707, -0.03584236279129982, -0.05012138560414314, -0.5770187377929688, 0.07334448397159576, -0.4262636601924896, 0.07270612567663193, -0.2369270920753479, 0.006500678136944771, -0.45212167501449585, -0.2096363753080368, -0.03315753489732742, 0.0935492143034935, -0.05640949308872223, -0.2594262361526489, -0.044505756348371506, 0.5619144439697266, -0.5143400430679321, -0.368745893239975, 0.07351038604974747, -0.12159784883260727, -0.09027152508497238, -0.8757232427597046, -0.08347027748823166, -0.22704166173934937, -0.2804410457611084, -0.6813288927078247, 0.08332908153533936, 0.06365698575973511,
-0.3277673125267029, -0.5812351107597351, -0.08457083255052567, -0.21905574202537537, -0.33005014061927795, 0.163800448179245, -0.6616138219833374, 0.08902527391910553, -0.16193729639053345, 0.016576291993260384, -0.20220617949962616, -0.05420030280947685, -0.1747395247220993, -0.15347959101200104, -0.24762563407421112, -0.3964982032775879, 0.019208567216992378, -1.0391634702682495, -1.3111342191696167, -0.192531555891037, -0.23771797120571136, 0.19895997643470764, -0.418163537979126, 0.01411239430308342, -0.2599075734615326, -0.6217681169509888, 0.620546817779541, 0.13127580285072327, -0.406997948884964, -0.3373156189918518, 0.19485628604888916, -0.7173388600349426, 0.24762731790542603, 0.034561190754175186, 0.03933369740843773, -0.649036705493927, -0.006876256782561541, 0.2668430507183075, 0.35882365703582764, -0.007974514737725258, 0.10502292215824127, 0.2576778531074524, 0.3251896798610687, -0.4717799723148346, -0.304188996553421, 0.014109492301940918, -0.6803183555603027, -1.029554843902588, 0.2633468508720398, 0.5912020206451416, -0.055636901408433914, -0.28312525153160095, -0.7987352013587952, -0.23403258621692657, -0.14395800232887268, 0.42691606283187866, 0.6746775507926941, -0.3566191494464874, -0.32693248987197876, -0.7874115109443665, -0.04047590121626854, 0.20405086874961853, 0.2203676402568817, 0.03685440868139267,
-0.44586825370788574, -0.3666521906852722, -0.5250797271728516, -0.7228749990463257, -0.06036897376179695, -0.030766738578677177, -0.24281857907772064, -0.2635446786880493, 0.01682388223707676, 0.04215534031391144, -0.22022737562656403, -0.9197949767112732, -0.582831621170044, 0.07189060002565384, -0.44208019971847534, 0.25631052255630493, -0.8381752371788025, 0.0679808109998703, 0.3712586760520935, -0.3226833939552307, 0.2682022750377655, -0.03906148672103882, -0.38939782977104187, 0.15888987481594086, 0.30934736132621765, 0.7745618224143982, -0.044040750712156296, 0.14994044601917267, -0.4818006753921509, 0.49066296219825745, 0.6825905442237854, 0.015879210084676743, -0.4306034743785858, 0.23455747961997986, 0.28048229217529297, -0.21814817190170288, 0.15903833508491516, -0.629332959651947, 0.022017881274223328, -0.3750137984752655, -0.8863768577575684, -0.1913144290447235, -0.34486687183380127, 0.22031019628047943, -0.03922629728913307, 0.0016090053832158446, -0.23273974657058716, 0.05823199450969696, 0.13639980554580688, 0.10509026795625687, 0.06949084252119064, -0.3826274573802948, -0.09213093668222427, 0.22037838399410248, 0.021988002583384514, -0.3295411169528961, -0.4865756332874298, 0.18501058220863342, 0.2590820789337158, 0.2928448021411896, -0.34187212586402893, -0.6976399421691895, 0.1907539665699005, -0.3058511018753052,
-0.5337491035461426, -0.08223138004541397, -0.22082680463790894, -0.8952888250350952, -0.32663866877555847, -0.45764848589897156, 0.02321982942521572, 0.3336070477962494, -0.5985299348831177, -0.39087140560150146, -0.2048005908727646, 0.26260247826576233, -0.3361339569091797, -0.874265730381012, 0.7041493058204651, -0.2671356201171875, -0.19690509140491486, 0.23914460837841034, 0.11688067764043808, -0.07712791860103607, -0.3421283960342407, 0.35047081112861633, -0.38202422857284546, -0.1452958881855011, -0.1219007670879364, 0.17465250194072723, 0.15279169380664825, -0.4444199502468109, -0.1690872311592102, -0.22173938155174255, -0.21938325464725494, 0.21583905816078186, -0.4058796167373657, -0.07879643142223358, -0.2751336097717285, 0.527445912361145, -0.021343059837818146, -0.25571203231811523, 0.12859061360359192, -0.17761632800102234, 0.4919784367084503, 0.5944146513938904, 0.48425179719924927, -0.22448472678661346, 0.2920687198638916, -0.09940732270479202, -0.04514698311686516, -0.15831387042999268, -0.42866960167884827, 0.5752168297767639, -0.5103787779808044, -0.23084354400634766, 0.24341483414173126, 0.09892380982637405, -0.1494865119457245, -0.23663370311260223, -0.2246849238872528, 0.2627468705177307, -0.1766190230846405, -0.07103931158781052, 0.4259446859359741, -0.35588616132736206, 0.07656215876340866, 0.10789203643798828,
0.3228854835033417, 0.5376209020614624, -0.29602548480033875, -1.1693050861358643, -0.31978297233581543, -0.28869980573654175, 0.22418992221355438, -0.22615653276443481, -0.3001852333545685, 0.052089087665081024, 0.13837099075317383, -0.03281615301966667, 0.040057457983493805, -0.12306401133537292, -0.17236635088920593, 0.13329176604747772, 0.11522899568080902, -0.1978284865617752, -0.11832161247730255, 0.15751947462558746, -0.26934581995010376, 0.2000286728143692, -0.9360997080802917, -0.15312325954437256, 0.03541920706629753, 0.26963183283805847, 0.4975767731666565, -0.03234659507870674, 0.5948988795280457, -0.1382654309272766, -0.6134103536605835, 0.2852270007133484, -0.1564430594444275, -0.05351271107792854, -0.32511448860168457, -0.36054345965385437, -0.1111735925078392, -0.25059789419174194, -0.8582125306129456, -1.2108062505722046, -0.43638232350349426, -0.0626550167798996, 0.3498772084712982, -0.11653045564889908, -0.35995975136756897, -0.03340674191713333, -0.8784113526344299, 0.1210460513830185, -0.1524595022201538, -0.392297625541687, 0.03355346620082855, -0.3520881235599518, -0.5339865684509277, -0.2636723220348358, -1.012740969657898, -0.4694879353046417, -0.19049520790576935, -0.0941496342420578, 0.38968777656555176, -0.21418742835521698, 0.12617038190364838, 0.09270494431257248, 0.33798840641975403, 0.20907439291477203,
-0.07336778938770294, -0.12758994102478027, -0.21123704314231873, -0.12232711911201477, 0.27252647280693054, -0.5968567132949829, 0.16038177907466888, 0.3237185478210449, 0.0018647542456164956, 0.05465048924088478, 0.04072567820549011, -0.05907001718878746, 0.16019900143146515, -0.046485647559165955, 0.39827239513397217, -0.08046553283929825, -0.24528765678405762, -0.6704359650611877, 0.3102586269378662, -0.3081069588661194, -0.2531985640525818, 0.1262553632259369, 0.28135257959365845, 0.23175212740898132, 0.537268340587616, -0.5803157091140747, 0.2220899909734726, -0.9928387403488159, -0.19977961480617523, -0.03320920094847679, -0.5990908741950989, 0.18701188266277313, 0.02581799402832985, 0.018447840586304665, -0.15288907289505005, -0.09047149866819382, -0.13395628333091736, -0.26810386776924133, 0.4037713408470154, -0.1537952572107315, -0.2834564447402954, 0.3847028315067291, 0.06857003271579742, 0.33241385221481323, 0.2979336380958557, -0.06346927583217621, -0.0014055317733436823, -0.7594357132911682, -0.029268303886055946, -0.5991120338439941, -0.4998054802417755, -0.06807470321655273, -0.1334896683692932, 0.3044988811016083, -0.49957457184791565, 0.5939050316810608, -0.46345701813697815, 0.07335638999938965, 0.07804477214813232, 0.06447376310825348, 0.3813917636871338, 0.25295212864875793, -0.6872486472129822, -0.11882774531841278,
0.006585872266441584, 0.19596271216869354, -0.16450563073158264, -0.23301152884960175, -0.07316939532756805, 0.46910977363586426, -1.1884695291519165, -0.41852855682373047, 0.29397058486938477, -0.19739776849746704, 0.3391202986240387, -0.04711674526333809, 0.43280234932899475, -0.22333012521266937, -0.7164375185966492, 0.2509019672870636, -0.1555366814136505, 0.6481298804283142, -0.23376254737377167, -0.16227830946445465, -0.5753992199897766, 0.16560278832912445, -0.06298155337572098, -0.25857388973236084, -0.7801375985145569, -0.06108945235610008, -0.13305115699768066, -0.40893134474754333, 0.010695911943912506, -0.150429368019104, -0.19150611758232117, 0.21293134987354279, -0.3922238349914551, -0.25102436542510986, -0.3050301671028137, 0.2869635820388794, -0.29271647334098816, 0.01019391417503357, 0.2926522493362427, -0.40849703550338745, -0.07534109801054001, 0.04699641466140747, -0.06478987634181976, -0.14092853665351868, -0.6591851115226746, -0.4585059881210327, -0.3771965205669403, -0.49525970220565796, -0.30234578251838684, 0.11408738791942596, 0.08110851794481277, 0.04914216697216034, -0.20575466752052307, 0.5572470426559448, 0.296110063791275, -0.24274146556854248, 0.12072582542896271, 0.04640697315335274, -0.2909277677536011, -0.446518212556839, 0.2690184712409973, -0.7364016771316528, 0.04549133777618408, -0.18476590514183044,
0.13650470972061157, 0.06554455310106277, 0.6143489480018616, -0.9946540594100952, -0.41649797558784485, 0.12838897109031677, -0.26113539934158325, 0.21579359471797943, -0.25068554282188416, -0.1039976179599762, 0.022824903950095177, -0.3467797338962555, -0.0872485339641571, -0.020818637683987617, -0.762568473815918, 0.09110892564058304, -0.15862539410591125, -0.5732463598251343, -0.662704348564148, 0.2960086166858673, -0.4866628050804138, -0.6945483088493347, -0.43054452538490295, -0.7141836881637573, 0.14477738738059998, -0.2693815231323242, -0.23734372854232788, -0.28319644927978516, -0.1350737065076828, -0.8333733677864075, -0.12456668168306351, 0.346411794424057, 0.17323844134807587, -0.18595653772354126, -0.10802161693572998, -0.08152461796998978, 0.34753623604774475, -0.3272659182548523, -0.20878800749778748, 0.05623197183012962, -0.4734993278980255, -0.16777120530605316, -0.25603795051574707, -0.7467961311340332, -0.14765946567058563, -0.07070134580135345, -0.18338625133037567, -0.32664334774017334, -0.6273775696754456, -0.20706285536289215, -0.8149663805961609, -0.5484564900398254, -0.15599587559700012, -0.28150615096092224, -0.8956079483032227, -0.2837667763233185, 0.42489093542099, -0.5021252036094666, 0.21848993003368378, 0.2288261353969574, -0.3920484185218811, 0.2687593400478363, 0.042093776166439056, 0.5424413681030273,
-0.28216639161109924, -0.10368970781564713, 0.49766939878463745, -0.17713436484336853, 0.3567691445350647, 0.06989292800426483, -0.06003837287425995, -0.8172285556793213, -0.6281017661094666, 0.3432631194591522, 0.5631933808326721, -0.05750684440135956, 0.22610116004943848, 0.0854368805885315, -0.5022736191749573, 0.05555932968854904, -0.034083254635334015, 0.5198192000389099, 0.17687809467315674, -0.197197824716568, -0.03567204996943474, 0.06180046498775482, -0.4501490294933319, 0.10469606518745422, -0.21080723404884338, 0.34585458040237427, -0.004772334825247526, 0.12433838844299316, -0.5975977182388306, -0.16853123903274536, 0.6826074123382568, 0.2635844349861145, -0.7483068108558655, 0.06967160105705261, -0.18432866036891937, -0.4968462586402893, -0.12654012441635132, -1.0803455114364624, 0.047944776713848114, -0.5244594216346741, -1.3150628805160522, 0.13506872951984406, -0.08154352009296417, -0.26981744170188904, -0.2733655273914337, 0.014586332254111767, -0.6116097569465637, 0.031958114355802536, 0.07391481846570969, 0.04322470724582672, -0.24100738763809204, -1.0126482248306274, -0.18470889329910278, -0.008265778422355652, -0.2561150789260864, -0.10129699110984802, -0.14269419014453888, -0.09889452159404755, 0.572710394859314, -0.27125298976898193, -0.23154965043067932, 0.5501074194908142, 0.4068252444267273, -0.01858356036245823,
-0.12624117732048035, 0.1589408963918686, -0.1944153904914856, -0.41658908128738403, 0.25685641169548035, -0.700204610824585, 0.24561873078346252, -0.8471938967704773, -0.4556976556777954, 0.07997886091470718, 0.4354153275489807, 0.016144823282957077, 0.03692002594470978, 0.4669095277786255, -0.5439545512199402, -0.3203306496143341, 0.1053171455860138, -0.7728293538093567, -1.1206974983215332, 0.12384641915559769, 0.2225773185491562, -0.19322419166564941, -0.35046839714050293, 0.020801670849323273, 0.3105948269367218, 0.05134722590446472, 0.41973593831062317, -0.49026256799697876, 0.1492084264755249, 0.01770184189081192, 0.4754174053668976, -0.08631395548582077, 0.06716641783714294, 0.404130220413208, 0.06932748854160309, -0.17734305560588837, -0.37280434370040894, -0.07781163603067398, -0.24234987795352936, 0.21257247030735016, -0.08251026272773743, 0.34597525000572205, -0.06014799326658249, 0.01415850967168808, -0.23163345456123352, 0.004259292967617512, -0.8026491403579712, -0.4131333827972412, -0.24761976301670074, 0.15707145631313324, 0.1484163999557495, 0.1457192301750183, 0.1529518961906433, -0.5394005179405212, -0.24996402859687805, 0.12672337889671326, -0.4973303973674774, 0.1101750060915947, 0.10641155391931534, -0.5275818705558777, -0.06035231798887253, 0.030084902420639992, 0.3472440242767334, -0.06427552551031113,
-0.8471235036849976, -0.7651811838150024, 0.05791166424751282, -0.6364938616752625, 0.4600047171115875, 0.208144411444664, 0.15030086040496826, 0.14798621833324432, -0.46525338292121887, 0.20801223814487457, 0.3531939387321472, 0.4476470649242401, -0.17405922710895538, -0.7351715564727783, -1.0364763736724854, -0.4963797330856323, -0.46115928888320923, -0.038621075451374054, 0.06920792907476425, 0.1806953102350235, 0.008174442686140537, -0.022426078096032143, 0.01892278902232647, -0.2275010347366333, -0.13649378716945648, -0.43078264594078064, 0.1672016978263855, -0.11933713406324387, 0.028204593807458878, -0.15059946477413177, 0.5562644004821777, -0.8245277404785156, -0.480320543050766, -0.29937052726745605, -0.14880065619945526, 0.17433419823646545, 0.41330018639564514, -0.8863771557807922, 0.6419036388397217, 0.23249410092830658, -0.3361011743545532, 0.1756916046142578, 0.38246360421180725, 0.015417611226439476, 0.12464597076177597, -0.5158742070198059, -0.4965689778327942, 0.035769540816545486, -0.31955280900001526, -0.3108726143836975, -0.008986166678369045, -0.5574456453323364, -0.11160578578710556, -0.10209641605615616, 0.2305629998445511, 0.00802136491984129, -0.2738322615623474, 0.12688831984996796, -0.14539852738380432, -0.22100858390331268, -0.47708940505981445, -0.002669559558853507, -0.32183191180229187, -0.3123531639575958,
-0.08966220170259476, -0.090700663626194, -0.16605927050113678, -0.6295447945594788, -0.5560893416404724, 0.2518990635871887, -0.004268258810043335, -0.4088093042373657, -0.3850374221801758, -0.45476672053337097, -0.027047889307141304, -0.4250805079936981, -0.7646694779396057, -0.48294949531555176, 0.2004047930240631, -0.7053479552268982, 0.2966095805168152, -0.09685761481523514, -0.6058033108711243, -0.1317686140537262, -0.22561058402061462, 0.27750450372695923, -0.5638660192489624, -0.13134361803531647, 0.18284393846988678, 0.08377046138048172, -0.13357003033161163, 0.12351374328136444, -0.8529331684112549, -0.11369145661592484, 0.41963714361190796, 0.554894208908081, -0.08640630543231964, -0.21662938594818115, 0.44551607966423035, 0.5404321551322937, -0.6987779140472412, 0.20892295241355896, -0.17999494075775146, 0.44667717814445496, 0.2034890353679657, 0.28343644738197327, -0.3466687500476837, -0.08051915466785431, 0.015542685985565186, 0.14562445878982544, 0.02488149143755436, -0.06183544918894768, -0.7554411888122559, -0.061411648988723755, -0.6368470191955566, -0.36784741282463074, -0.08320821821689606, -0.5327815413475037, -0.5103389620780945, 0.18508554995059967, -0.37902364134788513, -0.25552141666412354, -1.164819598197937, -0.29745766520500183, -0.2204824835062027, -0.10384735465049744, -0.4009869396686554, 0.24920612573623657,
-0.26194459199905396, -0.4351968765258789, -0.2685702443122864, -0.22408007085323334, 0.22895841300487518, -0.11801990866661072, 0.3606012761592865, -0.2636936902999878, -0.2989269196987152, -0.38401681184768677, -0.04158586636185646, 0.6536251306533813, 0.037609536200761795, -0.2548893392086029, -0.29883840680122375, -0.18763549625873566, -0.2863754332065582, 0.051441729068756104, -0.07355927675962448, -0.7012873888015747, 0.04594971984624863, -0.20650415122509003, 0.07297675311565399, 0.1540485918521881, 0.24437199532985687, -0.5381140112876892, 0.04746292531490326, -0.0038681654259562492, 0.1934957057237625, 0.29176589846611023, -0.24456825852394104, -0.8498024940490723, 0.5639280080795288, -0.2666892111301422, 0.053103189915418625, 0.18191613256931305, -0.0478178933262825, -0.019544251263141632, 0.052305206656455994, -0.15704011917114258, -0.03568653762340546, 0.2806607782840729, 0.6882158517837524, 0.08378800749778748, 0.20332294702529907, -0.33549293875694275, 0.07546281814575195, 0.30678650736808777, 0.10416499525308609, 0.45347556471824646, -0.1680208444595337, -0.19003595411777496, 0.3649000823497772, -0.3092876076698303, -0.08963170647621155, -0.04379682242870331, -0.6368042826652527, -0.1767200529575348, -0.40080705285072327, -0.0966733992099762, -0.5081271529197693, -0.5614224076271057, 0.21074555814266205, -0.14048230648040771,
-0.31148508191108704, 0.16051623225212097, -0.6944761872291565, -0.2173965722322464, -0.45603758096694946, -0.277985155582428, 0.27311405539512634, -0.12110275775194168, -1.014983057975769, 0.06321438401937485, -0.02606179378926754, 0.24494224786758423, -0.06185150146484375, 0.03279462829232216, 0.12508776783943176, -0.5858757495880127, -0.13979686796665192, 0.6128019690513611, -0.3601541221141815, -0.3484686315059662, -0.05197928100824356, 0.2594623863697052, -0.027441933751106262, 0.09055136144161224, -0.2894953489303589, -0.4253537654876709, 0.3009740114212036, 0.04836947098374367, 0.3030409812927246, 0.2876324951648712, 0.09732454270124435, 0.37741443514823914, 0.41807225346565247, -0.4341941177845001, 0.2262466698884964, -0.6163026690483093, -0.061614904552698135, 0.18795280158519745, 0.31801342964172363, -0.2365504503250122, 0.48073649406433105, 0.19057099521160126, 0.5810279250144958, -0.14274227619171143, -0.5739738345146179, -0.024572592228651047, -0.3929526209831238, 0.19695401191711426, 0.32621046900749207, 0.06359868496656418, 0.07492126524448395, -0.5498439073562622, -0.06391608715057373, -0.22474656999111176, -0.027734680101275444, -0.07042019814252853, -0.3824138641357422, -0.09461388736963272, -0.5062321424484253, -0.4044678211212158, -0.8251846432685852, -0.0015460287686437368, 0.6445330381393433, -0.29060104489326477,
-0.979177713394165, -0.3751215636730194, 0.31847497820854187, 0.26491469144821167, 0.4201149344444275, -0.033638231456279755, 0.3590490520000458, 0.147139772772789, -1.0722272396087646, -0.16127118468284607, -0.7772355675697327, -0.11655266582965851, 0.3773441016674042, 0.06519309431314468, 0.20067301392555237, -0.9621948599815369, 0.2557111978530884, -0.7254263162612915, -0.04857312887907028, -0.03351729363203049, -0.09336286783218384, -0.34332865476608276, -0.5264675617218018, 0.10388445854187012, 0.24449214339256287, -0.17297649383544922, -0.6834132075309753, -0.22366246581077576, 0.10280438512563705, -0.5520502924919128, -0.0943218395113945, -0.22811593115329742, 0.13495784997940063, -0.09728734940290451, -0.07079686969518661, -0.4720783531665802, 0.10996635258197784, 0.10155951976776123, -0.28900471329689026, -0.09853453189134598, 0.023932531476020813, 0.31646960973739624, 0.02829672209918499, -0.6044359803199768, 0.09422758221626282, 0.046699561178684235, -0.0419495515525341, -0.44386082887649536, -0.026521872729063034, 0.1542009562253952, 0.15530773997306824, 0.12197728455066681, 0.10028848797082901, 0.024933217093348503, 0.4566415548324585, -0.09290521591901779, 0.13948477804660797, -0.10891012847423553, 0.028933925554156303, 0.0426781065762043, 0.2049885392189026, -0.24213752150535583, -0.2994728088378906, -0.720306932926178,
-0.3053188920021057, -0.4602625072002411, -0.5622390508651733, -0.2508549690246582, -0.8525823950767517, -0.25803878903388977, -0.22263264656066895, 0.1501220464706421, -0.0227133110165596, 0.41646429896354675, 0.313693106174469, -0.17287366092205048, -0.29191192984580994, -0.21657344698905945, 0.27469009160995483, -0.25779959559440613, -0.5425881743431091, 0.05072925612330437, -0.18747267127037048, -0.34527674317359924, -0.1864742487668991, -0.10909946262836456, 0.34754806756973267, -0.38785016536712646, -0.47368893027305603, -0.8738629817962646, -0.03889545798301697, -0.14822810888290405, -0.4378363788127899, -0.08044278621673584, -0.16237929463386536, -0.25267067551612854, 0.2216498851776123, -0.5702875852584839, -0.39120766520500183, 0.2346777617931366, -0.0028329791966825724, -0.07701832056045532, 0.1101708635687828, -0.5170060396194458, 0.05858329311013222, -0.8240339756011963, -0.1452111452817917, -0.09030411392450333, -0.3872653841972351, -0.12519432604312897, -0.05726377293467522, -0.38963836431503296, -0.10287996381521225, 0.2708134353160858, -0.1538521945476532, 0.05404725670814514, -0.1714378148317337, 0.1428402066230774, 0.6490638852119446, -0.269156277179718, 0.28519609570503235, 0.13372355699539185, -0.016980942338705063, -0.24253879487514496, -0.26226818561553955, -0.25438812375068665, -0.9975655674934387, 0.0650399774312973,
0.02409178763628006, -0.43343350291252136, 0.05069493502378464, -0.02282692678272724, -0.09249874204397202, 0.2502727210521698, -0.4639258086681366, -0.2277134507894516, -0.07795725017786026, -0.1764824539422989, -0.15544462203979492, 0.013574096374213696, -0.1603039652109146, -0.3039279878139496, 0.16925771534442902, 0.0529942512512207, -0.6368435621261597, -0.10314955562353134, -0.14143836498260498, -0.29158103466033936, -0.5753150582313538, -0.24248571693897247, -0.1333097219467163, -0.20726662874221802, -0.3559369444847107, -0.34319403767585754, -0.12093741446733475, 0.1145748719573021, 0.024797756224870682, 0.03354059159755707, -0.2074042111635208, -0.3973503112792969, 0.13033388555049896, -0.20889081060886383, 0.4377230703830719, 0.07433828711509705, -0.08866012841463089, -0.03108173981308937, 0.006264738738536835, -0.26592206954956055, -0.16203247010707855, -0.08765135705471039, 0.17440204322338104, -0.36734074354171753, -0.2508361041545868, -0.5886408090591431, -0.0629044622182846, -0.39395302534103394, -0.234877809882164, -0.0779837965965271, -0.3332624137401581, -0.20421533286571503, -0.12830586731433868, -0.3736620247364044, 0.015518923290073872, -0.3471568524837494, -0.40319305658340454, -0.20362891256809235, -0.008571598678827286, -0.09592628479003906, -0.2161293923854828, 0.12936389446258545, 0.17700597643852234, -0.41266342997550964,
0.18973223865032196, -0.02835727483034134, 0.15033501386642456, 0.15914933383464813, 0.4811931252479553, -0.2698383927345276, -0.012456641532480717, -0.22771598398685455, 0.05702546611428261, 0.6661390066146851, -0.5893339514732361, -0.18237507343292236, 0.04880769923329353, -0.22422517836093903, 0.021209554746747017, 0.20032286643981934, 0.11617331951856613, -0.25825992226600647, -0.09449691325426102, -0.08299939334392548, -0.5705001950263977, -0.465192973613739, 0.29357674717903137, 0.41648972034454346, 0.05716415494680405, 0.255320280790329, 0.1276043951511383, -0.4038005471229553, 0.2842438220977783, 0.08076290786266327, 0.16182486712932587, 0.2535596787929535, -0.05665799602866173, -0.2419983148574829, -0.21452325582504272, 0.1397280991077423, -0.522807776927948, -0.8157583475112915, -0.6813048720359802, 0.2213665097951889, 0.15948523581027985, 0.003395645646378398, -0.326471209526062, 0.179314985871315, -0.11848532408475876, -0.19088788330554962, 0.21383142471313477, -0.011807634495198727, 0.08476050198078156, 0.4495157301425934, -0.06359762698411942, 0.6386928558349609, 0.03029698319733143, 0.028117358684539795, -0.1195911169052124, 0.2467426061630249, -0.6348370909690857, -0.05083329975605011, -0.019312048330903053, 0.6287096738815308, -0.34199798107147217, 0.07674526423215866, 0.000879008206538856, -0.1943032592535019,
-0.9083775281906128, -0.35971367359161377, -0.2913896441459656, -0.12460995465517044, 0.027652600780129433, -0.1549435257911682, 0.16182024776935577, -1.2414135932922363, 0.5803711414337158, 0.10635048896074295, -0.26979193091392517, 0.029768088832497597, -0.6015194654464722, -0.017643071711063385, -0.3912496864795685, -0.8958250284194946, -0.29224035143852234, -0.40840691328048706, -0.7716997861862183, -0.3211545944213867, 0.13996677100658417, -1.0534878969192505, 0.14141051471233368, 0.5921026468276978, 0.09564993530511856, -0.13628838956356049, -0.21096102893352509, -0.24273419380187988, -0.6255782842636108, -0.8147504329681396, 0.07753575593233109, 0.2552618682384491, 0.15694093704223633, -0.17178598046302795, -0.32778963446617126, -0.5814823508262634, -0.05541957914829254, -0.29831621050834656, -0.5816470980644226, 0.06380645185709, -0.003434826387092471, -0.06460005044937134, -0.9299350380897522, 0.15231938660144806, -0.8608516454696655, -0.9578695297241211, 0.37059280276298523, -0.08718543499708176, -0.08998425304889679, -0.22837640345096588, -0.07580532878637314, 0.2097431868314743, -0.38437381386756897, -0.7695716023445129, 0.0423874706029892, 0.10109172016382217, -0.3872252404689789, -1.2219908237457275, -1.0668911933898926, -0.6998360753059387, -1.1867964267730713, 0.14045394957065582, 0.2015993446111679, -0.9731981754302979,
-0.04411415383219719, -0.08586972206830978, 0.12069091945886612, -0.643551766872406, -0.2030855417251587, 0.7351840734481812, 0.016571667045354843, -0.31551456451416016, -0.1959485560655594, 0.47182708978652954, -0.9363413453102112, 0.029010580852627754, -0.5591029524803162, -0.6677635312080383, 0.14687485992908478, -0.12419750541448593, -0.2770252525806427, 0.3024064898490906, -1.1617915630340576, 0.010623980313539505, -0.06103447452187538, -0.29235219955444336, -0.4021227955818176, -0.5706489086151123, 0.2927665114402771, -0.4508093297481537, -0.05257190763950348, -0.07846643030643463, 0.06345810741186142, 0.324493408203125, 0.18843232095241547, -0.21902255713939667, 0.33584079146385193, 0.3690628707408905, -0.6746655106544495, -0.3467648923397064, 0.008554347790777683, -0.6718952059745789, -0.0015411942731589079, -0.26432621479034424, -0.17202505469322205, 0.04363497719168663, 0.17361831665039062, -0.5071627497673035, -0.22837622463703156, -0.4203750193119049, 0.059136003255844116, 0.2104852795600891, -0.4279693067073822, 0.31574463844299316, -0.17677178978919983, -0.07507827132940292, -0.17202523350715637, -0.3420981466770172, -0.5119286179542542, -0.15369276702404022, -0.8760250806808472, -0.09003716707229614, -0.7211300730705261, -0.22611689567565918, -0.24812756478786469, -0.0033521445002406836, 0.4435884952545166, -1.1124844551086426,
-0.08191244304180145, -0.23791095614433289, -0.03946932032704353, -0.046439751982688904, -0.6681464314460754, -0.13767042756080627, -0.3352435529232025, 0.19594387710094452, -0.1953793317079544, -0.3224608302116394, 0.5794625878334045, 0.25493377447128296, 0.3879331648349762, -0.13691312074661255, 0.08897467702627182, -0.2162138670682907, -0.03377493843436241, 0.05084598809480667, -0.05498914048075676, -0.24476242065429688, -0.3246137201786041, 0.19255924224853516, -0.3065851330757141, -0.02846596948802471, -0.6126662492752075, 0.1514330357313156, 0.21295812726020813, -0.10981158167123795, -0.5038215517997742, -0.223035529255867, 0.1777767539024353, 0.06321999430656433, 0.10979143530130386, -0.026080500334501266, 0.11565356701612473, 0.4928223490715027, 0.3792871832847595, -0.05739450454711914, 1.0085700750350952, 0.1620783507823944, -0.9872612953186035, 0.11989668756723404, 0.20780548453330994, -0.19161321222782135, 0.04886532947421074, -0.08764170110225677, 0.20036447048187256, -0.8355986475944519, -0.4607967436313629, 0.2487502098083496, -0.6673944592475891, 0.053895726799964905, 0.12206629663705826, 0.5824141502380371, -0.1305362433195114, 0.43104103207588196, 0.5621588230133057, 0.5104759931564331, 0.07786054909229279, 0.19680550694465637, 0.40606868267059326, -0.01892084814608097, 0.2371595799922943, -0.0409117192029953,
0.32825106382369995, -0.16612376272678375, 0.16144877672195435, -0.30863213539123535, -0.005152414087206125, 0.4753325581550598, -0.4631040692329407, -0.024860018864274025, -0.3342200219631195, 0.5502001643180847, -0.20018868148326874, -0.5452629923820496, -0.6486765146255493, 0.29673999547958374, -0.25711876153945923, 0.158681258559227, -0.27575987577438354, 0.1627996414899826, -0.12719948589801788, 0.07555963099002838, 0.35329192876815796, -0.1418229341506958, -0.44897446036338806, 0.029824892058968544, -0.3658393919467926, -0.05072896555066109, -0.14941628277301788, 0.40775761008262634, -0.35237792134284973, -0.3827980160713196, -0.29174068570137024, -0.06506682932376862, -0.9404953718185425, -0.7289400100708008, 0.12614405155181885, -0.14826449751853943, -0.30520784854888916, -0.7571184039115906, -0.16591031849384308, 0.29543179273605347, 0.18843770027160645, -0.2167341560125351, -0.12345796823501587, 0.14423613250255585, -0.8695750832557678, -0.2708381116390228, -0.1720512956380844, -0.053625449538230896, -0.2065633237361908, 0.09510456770658493, 0.19676567614078522, -0.21807855367660522, -0.3590085506439209, 0.03279191255569458, 0.43858587741851807, -0.20578135550022125, 0.0426783561706543, -0.1276807337999344, -0.22916126251220703, 0.2875937819480896, 0.0553106963634491, -0.18400180339813232, -0.4538504481315613, 0.2047874927520752,
-0.07025671005249023, 0.20688267052173615, -0.2593584656715393, 0.11298554390668869, 0.16848908364772797, -0.12450708448886871, 0.14972221851348877, -0.45991161465644836, -0.6748664975166321, -0.09465803951025009, -0.9397690296173096, -0.783906102180481, -0.1656797230243683, -0.5843530297279358, -0.022605352103710175, 0.20043008029460907, -0.40644001960754395, -0.10150415450334549, 0.19612255692481995, 0.05856790021061897, 0.16354700922966003, -0.0880708247423172, -0.17765633761882782, 0.16021940112113953, -0.269403874874115, -0.4664040207862854, -1.484658122062683, 0.13387621939182281, -0.30612123012542725, -0.19109512865543365, -0.03990396857261658, -0.40437978506088257, -0.7720670104026794, -0.12991854548454285, -0.9462889432907104, -0.5470835566520691, -0.35563963651657104, -0.5769301652908325, 0.022961024194955826, 0.09852730482816696, 0.41660067439079285, 0.018638193607330322, -0.844165563583374, -0.053945641964673996, 0.41568994522094727, 0.07144144922494888, 0.15801772475242615, 0.12513570487499237, -0.41504746675491333, -0.4793148338794708, 0.37772753834724426, 0.12450382858514786, -0.15661735832691193, -0.5896293520927429, 0.10695607215166092, -0.5338978171348572, -0.6943123936653137, 0.018115423619747162, 0.17012524604797363, -0.448652058839798, -0.6242750883102417, -0.23469161987304688, -0.5521932244300842, 0.11172410100698471,
-0.18490467965602875, 0.21097210049629211, 0.01450422964990139, -0.5497660040855408, -0.1193588525056839, -0.8407454490661621, -0.19649332761764526, 0.24463416635990143, -0.06118807569146156, -0.47786274552345276, 0.29001665115356445, -0.8351154923439026, -0.7446532249450684, 0.4778159558773041, -0.2388886660337448, -0.17706000804901123, -0.0980372205376625, 0.2184610515832901, 0.10516560822725296, -0.0724446177482605, 0.10165739804506302, -0.5267676711082458, -1.1542296409606934, 0.2174444943666458, 0.23466956615447998, 0.13414910435676575, -0.23425716161727905, -0.01386614516377449, -0.9416694045066833, -0.8534452319145203, 0.32808127999305725, 0.25483381748199463, 0.1880313605070114, 0.2952214181423187, 0.2437545359134674, 0.2869085371494293, -0.3451838195323944, -0.8660339713096619, -0.4874461591243744, -0.21630309522151947, -0.4233211874961853, -0.6947113275527954, 0.06493222713470459, 0.057922784239053726, 0.33638760447502136, 0.15603820979595184, 0.15995848178863525, -1.224674940109253, -0.5630856156349182, 0.2401309311389923, -1.006044626235962, -0.17555655539035797, -0.36171141266822815, -0.6663159728050232, -0.3622227609157562, -0.06270278990268707, 0.31425219774246216, -0.32695311307907104, -0.02791638672351837, -0.5959779620170593, -0.40965574979782104, 0.1039147675037384, -0.08196598291397095, -0.1770259141921997,
0.13806168735027313, 0.0736200287938118, -0.5872855186462402, -0.30765774846076965, -0.03682297468185425, 0.48366114497184753, 0.3024718463420868, 0.03931408002972603, 0.447858601808548, -0.4723832309246063, -0.3020094335079193, -0.03127109259366989, 0.36028802394866943, -0.3755612373352051, -0.28850671648979187, 0.08295343071222305, -0.7903016209602356, -0.20112593472003937, -0.4603703022003174, -0.4751282036304474, -0.5252575278282166, -0.5485537052154541, 0.38589683175086975, -0.04399006441235542, -0.10530064254999161, 0.3607422113418579, 0.4666765332221985, -0.015689238905906677, 0.09889721125364304, -0.20609579980373383, 0.26168540120124817, 0.4030722379684448, 0.07971807569265366, -0.07011726498603821, -0.46544137597084045, 0.0017648263601586223, -0.2490934282541275, 0.205215185880661, -0.39485639333724976, -0.8628125190734863, -0.2108178734779358, -0.8115240335464478, 0.2235870361328125, 0.05274606868624687, -0.08476206660270691, -0.004853507969528437, 0.026038935407996178, -0.5939463376998901, 0.5460767149925232, 0.2917639911174774, -0.45892536640167236, -0.3431071937084198, 0.7083337903022766, -0.39986515045166016, 0.3313320279121399, 0.20618918538093567, -0.3320454955101013, 0.23367424309253693, -0.012094182893633842, 0.546502947807312, -0.2851178050041199, 0.6260460019111633, 0.10284578800201416, -0.10069096088409424,
-0.18353264033794403, 0.13417574763298035, -0.4624195098876953, -0.3997389078140259, 0.10535228252410889, 0.4135740399360657, 0.13747446238994598, -0.27535322308540344, -0.39998161792755127, -0.07708373665809631, 0.11902092397212982, -0.45495498180389404, -0.06069156154990196, -0.5012924671173096, 0.12231102585792542, 0.7104416489601135, -0.5183506011962891, -0.40521180629730225, -0.27469828724861145, -0.08917678892612457, -0.7810542583465576, -0.6226812601089478, 0.26072725653648376, 0.40461987257003784, -0.42342862486839294, 0.21380113065242767, -0.029770174995064735, -1.1229876279830933, -0.13017062842845917, -0.24553421139717102, -0.26895034313201904, -0.0635724738240242, 0.49558278918266296, -0.11612514406442642, -0.42466115951538086, 0.14826878905296326, 0.06356509029865265, 0.15046511590480804, -0.889275848865509, 0.07082772254943848, 0.22559389472007751, -0.1728789508342743, 0.2189452052116394, -0.5935198068618774, -0.23233018815517426, -0.418827086687088, 0.050941042602062225, -0.2657735347747803, -0.03585030883550644, 0.23527860641479492, -0.13766071200370789, 0.20392820239067078, -0.37599503993988037, 0.10332871228456497, 0.4995991587638855, 0.2444942742586136, -0.2123340219259262, -0.3768628239631653, -0.12529976665973663, 0.6948900818824768, -0.43801912665367126, -0.4365030825138092, 0.2807161808013916, -0.40267375111579895,
0.13780413568019867, 0.0934043601155281, -0.31097742915153503, -0.021490275859832764, -0.11816955357789993, 0.052974577993154526, -0.06617886573076248, -0.4472285807132721, 0.0873645693063736, 0.001751260133460164, -0.43349960446357727, -0.7259118556976318, 0.14412271976470947, -0.042435891926288605, -0.25115150213241577, -0.4534461796283722, -0.15288101136684418, -0.2796516418457031, -0.2423793226480484, -0.21265554428100586, -0.048791781067848206, -0.36324793100357056, -0.19222453236579895, 0.3003406226634979, -0.9608665108680725, -1.105167031288147, -0.21043246984481812, -0.10413990914821625, -0.5760197043418884, 0.026166487485170364, -0.017941508442163467, 0.7624531388282776, -0.05102085694670677, 0.0676574632525444, -0.0017165589379146695, -0.33990156650543213, -0.19379517436027527, -0.20485270023345947, -0.2585533559322357, -0.06217439845204353, -0.283344566822052, 0.02884235605597496, -0.4822467565536499, -0.7142254114151001, -0.4935172200202942, 0.13521058857440948, 0.09428206086158752, -0.49819040298461914, -0.05466752126812935, -0.018269149586558342, -0.27976012229919434, 0.09794808179140091, -0.183823361992836, 0.26024556159973145, 0.5025845170021057, 0.08845245093107224, -0.46781790256500244, -0.5717286467552185, 0.06689571589231491, -0.0421566441655159, 0.29257673025131226, -0.01597597263753414, 0.13661271333694458, 0.4042796790599823,
-0.3257386088371277, -0.04116806015372276, 0.5497710704803467, -0.6804213523864746, -0.20554783940315247, -0.04615450277924538, 0.5572119355201721, 0.2646077573299408, -0.3976783752441406, 0.3862820565700531, -0.004763633944094181, -0.23922012746334076, -0.5308056473731995, 0.05722350627183914, -0.0967300534248352, 0.40247249603271484, -0.23353008925914764, 0.013664630241692066, 0.05291035771369934, -0.03465016558766365, -0.08660607784986496, 0.3072129786014557, -0.6427311301231384, 0.14421600103378296, 0.08764942735433578, 0.5715113282203674, 0.049994099885225296, 0.2313258945941925, -0.16983579099178314, -0.29607856273651123, 0.3025684058666229, 0.4953024089336395, -0.1721765100955963, 0.13397155702114105, -0.39642035961151123, -0.0102330157533288, 0.06925208121538162, 0.1936449110507965, -0.14094282686710358, 0.041997864842414856, 0.09643625468015671, -0.28482377529144287, -0.22283081710338593, 0.1846916824579239, 0.42345955967903137, -0.09365806728601456, 0.15098796784877777, -0.13587163388729095, -0.05168856307864189, -0.26107820868492126, -0.5631139874458313, -0.23998937010765076, 0.02198290452361107, -0.18704329431056976, 0.06627076119184494, -0.29587456583976746, -0.02556675113737583, 0.43711715936660767, -0.36730682849884033, 0.03631452098488808, -0.19161701202392578, 0.3912208080291748, 0.1894838511943817, -0.29744628071784973,
-0.45784497261047363, 0.23924089968204498, 0.1287703514099121, -0.4368762671947479, 0.1844327300786972, -0.6751911640167236, -0.2780192196369171, -0.04436399042606354, -0.5011286735534668, -0.030714092776179314, 0.23110011219978333, -0.855635941028595, 0.26090800762176514, -0.681908369064331, -0.2404354065656662, 0.367766410112381, -0.4673579931259155, 0.18891991674900055, -0.20073474943637848, 0.3764421045780182, 0.15461266040802002, -0.3422788679599762, -0.18646080791950226, 0.17153990268707275, -0.028894664719700813, 0.008483795449137688, -0.09629681706428528, -0.0754946768283844, -0.021083729341626167, -1.1711452007293701, -0.2701566815376282, -0.26811444759368896, 0.2424117475748062, 0.1934840828180313, -0.23771105706691742, 0.08892546594142914, -0.09866981953382492, -0.2624810039997101, 0.05730367824435234, -0.9539814591407776, -0.7976697087287903, -0.10308058559894562, 0.007311773020774126, 0.24813245236873627, -0.07141660153865814, 0.2542632520198822, 0.3030145466327667, -0.4698159098625183, -0.35594967007637024, -0.404069721698761, 0.14461083710193634, -0.01992788165807724, -0.06892938166856766, 0.38733136653900146, -0.4633840322494507, -0.04899352788925171, -0.12192033231258392, 0.2487005740404129, -0.263311505317688, -0.19252227246761322, -0.6273013949394226, -0.2569282650947571, 0.01976754516363144, -0.34981149435043335,
-0.40253061056137085, 0.3708566725254059, -0.3329971134662628, 0.25831839442253113, 0.22540487349033356, -0.05788825452327728, 0.16128721833229065, 0.48599544167518616, 0.250731498003006, -0.04520823806524277, -0.5040499567985535, 0.5559971332550049, 0.06700979173183441, -0.34781375527381897, 0.11599835753440857, -0.5760403275489807, -0.3260650038719177, -0.7473151683807373, 0.002543980721384287, 0.45143261551856995, -0.14986003935337067, -0.2842583954334259, 0.22987821698188782, 0.18788056075572968, -0.3582581877708435, -0.3515666723251343, 0.38362106680870056, 0.3738848567008972, 0.23566046357154846, -7.856728188926354e-05, 0.028545206412672997, -0.22024041414260864, 0.3940478265285492, -0.20525138080120087, -0.3365386426448822, -0.18563631176948547, -0.1424841284751892, -0.036661237478256226, -0.9217143058776855, 0.34194642305374146, 0.23732925951480865, 0.02065145969390869, -0.433532178401947, -0.011478899978101254, 0.09269081056118011, -0.7541425228118896, -0.03778073191642761, 0.029743025079369545, -0.30414438247680664, -0.1044701635837555, -0.210579976439476, 0.29290956258773804, 0.2610085606575012, 0.13493375480175018, 0.6475285887718201, 0.05071939155459404, -0.10628753155469894, -0.1995944380760193, -0.23170453310012817, -0.6647767424583435, -0.4468253254890442, -0.2500077188014984, 0.09688827395439148, -0.6124510169029236,
-0.2540906071662903, -0.23831690847873688, 0.046363797038793564, -0.22941474616527557, 0.24444609880447388, 0.20065486431121826, -0.3782810568809509, 0.13417015969753265, -0.01277176383882761, 0.4944267272949219, -0.2411719411611557, -0.5152639746665955, -0.5869831442832947, 0.24569131433963776, -0.06987887620925903, -0.3645229935646057, 0.014320665039122105, -0.4841306507587433, 0.18121188879013062, -0.491271048784256, -0.18893477320671082, -0.20506002008914948, -0.07531919330358505, 0.08283215016126633, -0.07371850311756134, 0.03962542861700058, 0.015595021657645702, -0.21236175298690796, -0.1989418864250183, -0.207790806889534, -0.10665331035852432, -0.2375231832265854, 0.05341377109289169, -0.44157662987709045, -0.29693111777305603, 0.6938346028327942, 0.24123099446296692, 0.4868146777153015, -0.05938032269477844, -0.14732107520103455, 0.13365612924098969, -0.2274390161037445, -0.13788948953151703, -0.9615001678466797, -0.8068414330482483, -0.08456242829561234, -0.7501620054244995, -0.26275956630706787, -0.37599894404411316, 0.03817956522107124, 0.08744708448648453, 0.00037427095230668783, -0.7592528462409973, -0.2517494857311249, 0.31222787499427795, 0.0240870863199234, -0.8032299280166626, -0.4988529682159424, -0.6075980067253113, -0.4721475839614868, -0.6048455834388733, -0.003001662902534008, -0.493375301361084, 0.8315253257751465,
0.6694589853286743, 0.00856489222496748, 0.4649690091609955, 0.04256734997034073, -0.15969336032867432, 0.05914832651615143, -0.12368208169937134, -0.473562091588974, 0.1914171576499939, -0.1628996580839157, 0.2828046679496765, -0.4652668535709381, 0.06802929192781448, -0.17429155111312866, -0.4148901700973511, -0.06219467148184776, 0.13702349364757538, -0.21506957709789276, -0.49345359206199646, -0.2599927484989166, -0.24108420312404633, -0.12784025073051453, -0.7985812425613403, 0.14386186003684998, -0.31067660450935364, 0.24728505313396454, -0.14674639701843262, -1.0610591173171997, 0.052199143916368484, -0.41451331973075867, -0.16587983071804047, 0.45565882325172424, -0.3765648603439331, 0.2867012619972229, -0.06182260066270828, -0.43836838006973267, -0.11492574214935303, 0.16034013032913208, -0.2557806968688965, -0.8469451069831848, -0.4674895405769348, -0.24812428653240204, -1.0534436702728271, 0.016801079735159874, 0.0071539864875376225, 0.3902103900909424, -0.033667512238025665, -0.053489960730075836, 0.03974628075957298, -0.03623102232813835, -0.18059462308883667, -0.2909221351146698, 0.14984743297100067, -0.4003034234046936, -0.5310585498809814, -0.5639843940734863, 0.21175073087215424, 0.669840395450592, -0.24874241650104523, 0.5299994945526123, 0.03118256852030754, 0.518385112285614, -0.20913629233837128, -0.5769761204719543,
0.028176557272672653, 0.294389933347702, -0.23540440201759338, -0.30512535572052, 0.5298567414283752, -0.6223312020301819, -0.7739068269729614, -0.10109524428844452, -0.7221739888191223, -0.6226894855499268, 0.08981141448020935, 0.024380894377827644, 0.18507161736488342, -0.6121047735214233, -0.7982503175735474, 0.08090944588184357, -0.8946295380592346, 0.9070934653282166, -0.24050728976726532, -0.025880116969347, 0.25817590951919556, -0.5191734433174133, -0.6478612422943115, -0.9762634634971619, 0.17920294404029846, -0.2716958522796631, -0.22727224230766296, 0.11744513362646103, -0.17377781867980957, 0.11271950602531433, 0.007224677130579948, -0.6808862686157227, -0.32142889499664307, 0.03404366597533226, 0.09826357662677765, -0.3166324198246002, -0.25809597969055176, -0.12773706018924713, 0.22323958575725555, -0.2167506366968155, -0.3086109459400177, -0.4546821415424347, 0.13368141651153564, -0.39175644516944885, -0.3775552213191986, -0.16939494013786316, 0.2049764096736908, -0.21592473983764648, 0.31368255615234375, -0.23107825219631195, -0.7626989483833313, -0.24396724998950958, -0.05922022461891174, -0.3591957688331604, -0.2305811494588852, -0.6312256455421448, 0.23411273956298828, -0.31902042031288147, 0.39254051446914673, -0.30949866771698, 0.045168474316596985, -0.7559503316879272, 0.17236675322055817, 0.252983421087265,
-0.08038295060396194, -0.788683295249939, -1.240554928779602, -0.3408370912075043, 0.04719670116901398, -0.4877070188522339, -0.42042097449302673, -0.18553426861763, 0.18569190800189972, 0.35276252031326294, -0.8139986991882324, 0.31569135189056396, -0.2632118761539459, -0.13959619402885437, -0.6298918128013611, -0.3581864535808563, 0.07706253230571747, 0.5741602778434753, -0.5823901295661926, -0.4273407459259033, -0.027195962145924568, -0.6046870350837708, -0.044709328562021255, -0.022741882130503654, -0.008248009718954563, 0.13787829875946045, 0.13448409736156464, -0.28754064440727234, -0.09578972309827805, -0.9441910982131958, 0.16570322215557098, 0.366534948348999, -0.2878880500793457, 0.10228355973958969, -0.9916881918907166, -0.12834754586219788, 0.14688041806221008, -0.47790876030921936, -0.3741929829120636, -0.18528585135936737, 0.2258756309747696, 0.123405322432518, -0.13117089867591858, -0.11897128820419312, -0.13268394768238068, -0.8550424575805664, -0.017561696469783783, -0.18237264454364777, -0.24723713099956512, -0.40041592717170715, 0.27932673692703247, 0.008809237740933895, -0.7835893034934998, -0.09526854008436203, 0.3577601909637451, 0.17242814600467682, -0.12350063771009445, -0.4717893600463867, -0.42903801798820496, -0.7602200508117676, 0.06300044059753418, -0.09730993211269379, 0.1843942105770111, -0.13836175203323364,
-1.0529742240905762, -0.21832425892353058, -0.33689019083976746, -0.17007090151309967, 0.18961554765701294, -1.2241311073303223, 0.04103235900402069, -0.052182506769895554, -0.26357948780059814, 0.4356709420681, 0.18975616991519928, 0.2886708676815033, 0.11359480023384094, -0.7214788198471069, 0.009149250574409962, -0.032706018537282944, 0.27463629841804504, 0.269015908241272, -1.3279266357421875, 0.10359205305576324, 0.12468372285366058, 0.2826932370662689, -0.5408179759979248, 0.011383112519979477, -0.05764949694275856, -0.5035011768341064, -0.6455876231193542, 0.33258843421936035, 0.050138361752033234, -0.3263099491596222, 0.10301326215267181, -0.04925161972641945, -0.09008970856666565, 0.22413256764411926, 0.3513419032096863, -0.2233828902244568, -0.06789824366569519, 0.4144129455089569, -0.07544094324111938, 0.06109989434480667, 0.5515331029891968, 0.2548553943634033, 0.010938843712210655, -0.13699139654636383, -0.19004109501838684, 0.5071505308151245, -0.2538072466850281, 0.1344614028930664, -0.5583118200302124, -0.2232985943555832, 0.14195723831653595, -0.3141656816005707, 0.09461135417222977, -0.5260493755340576, -0.21396683156490326, -0.08892298489809036, 0.07332884520292282, 0.06804215908050537, 0.322869211435318, -0.3981667459011078, -0.20928414165973663, 0.4683092534542084, 0.23905842006206512, -0.112137570977211,
-0.26531705260276794, -0.20986755192279816, -0.1511416733264923, 0.39375370740890503, 0.002062887651845813, -0.5129280090332031, -0.8451519012451172, 0.01898477040231228, 0.2757571339607239, -0.5545547008514404, -0.08912849426269531, -0.02316696010529995, 0.25303876399993896, -0.011179251596331596, -0.5043094158172607, -0.18018265068531036, -0.22052934765815735, 0.21775759756565094, 0.05333581566810608, -0.0019509530393406749, 0.10189047455787659, -0.10896371304988861, -0.10502168536186218, -0.08034995198249817, -0.6738921403884888, -0.14172522723674774, -0.6477448344230652, -0.10904720425605774, 0.17547228932380676, -0.519762396812439, 0.45662757754325867, -0.5910190343856812, 0.04180162400007248, -0.10125633329153061, 0.09502360224723816, -0.13844043016433716, -0.836110532283783, -0.26005181670188904, -0.48668456077575684, 0.034386154264211655, 0.18437227606773376, -0.17168712615966797, -0.13601483404636383, 0.12716729938983917, -0.35674747824668884, 0.05501699820160866, -0.1865503489971161, -0.04324876889586449, -0.191820427775383, -0.02099732495844364, 0.18829743564128876, -0.22209079563617706, 0.10905188322067261, -0.4943752586841583, 0.5926526188850403, 0.015927158296108246, -0.6382335424423218, -0.26448139548301697, -0.2686837911605835, -0.4408336579799652, -1.1037464141845703, -0.35132649540901184, 0.5130836367607117, 0.44227486848831177,
-0.11654505878686905, -0.0613274909555912, -0.3758827745914459, -0.3760879635810852, -0.23181134462356567, -1.1651986837387085, -0.2832144498825073, -0.6268890500068665, 0.08280517160892487, 0.19348354637622833, 0.0658843070268631, 0.3004922568798065, 0.11771783977746964, 0.15040571987628937, 0.0792599767446518, -0.6620405912399292, -0.2099847048521042, 0.19644227623939514, 0.05904597416520119, -0.7421043515205383, -1.029844045639038, -0.5645710825920105, 0.012647737748920918, 0.13604767620563507, 0.038835152983665466, -0.4557729959487915, -0.3789398670196533, -0.6413576006889343, 0.24221567809581757, 0.033871959894895554, -0.09144149720668793, -0.4075894355773926, 0.31248581409454346, -0.3171617090702057, 0.1228988841176033, 0.16123069822788239, -0.0742696076631546, 0.07755139470100403, 0.030258821323513985, 0.30590882897377014, 0.5231293439865112, -0.13792617619037628, 0.5109557509422302, -0.5650762319564819, -0.08328230679035187, 0.025547225028276443, 0.46844038367271423, 0.027635913342237473, -0.10831815749406815, -0.39727863669395447, 0.07496726512908936, 0.17282141745090485, 0.3435291051864624, -0.9613112211227417, -0.05140945687890053, 0.41977328062057495, 0.004014530684798956, -1.0525438785552979, 0.10370825231075287, -0.010859565809369087, 0.28499144315719604, -0.7834299802780151, 0.3740555942058563, 0.6254275441169739,
-0.14124426245689392, -0.13301648199558258, 0.09374677389860153, -0.3002762198448181, -0.036470528692007065, -0.06258925795555115, -0.0054757664911448956, -0.0172121524810791, 0.12275158613920212, 0.25781360268592834, 0.9318748712539673, 0.09938892722129822, -0.0014213435351848602, -0.2681005597114563, -0.04880031570792198, 0.25321218371391296, 0.17868323624134064, 0.40503522753715515, 0.2186497151851654, -0.06975028663873672, 0.030065570026636124, -0.060093723237514496, -0.3061528205871582, 0.044515423476696014, -0.7234518527984619, 0.08043037354946136, -0.026738081127405167, -0.10774106532335281, -0.2755484879016876, 0.2123071849346161, 0.12142672389745712, -0.10480991005897522, 0.21905076503753662, 0.3232630789279938, -0.2657885253429413, 0.3067314624786377, 0.1984540820121765, 0.22899770736694336, 0.485450804233551, -0.08259035646915436, -0.18450362980365753, 0.06754051148891449, 0.2164371758699417, 0.4447667896747589, 0.14322307705879211, -0.4056043326854706, -0.1394597291946411, -0.013669724576175213, 0.07075228542089462, 0.46579545736312866, -0.16945117712020874, -0.41868582367897034, 0.1575755476951599, 0.12899841368198395, 0.22186581790447235, -0.24659283459186554, 0.722981333732605, 0.08300136029720306, 0.25783345103263855, 0.109174944460392, 0.27538129687309265, -0.3755558729171753, -0.4260576665401459, -0.0337139368057251,
0.410400390625, -0.18068987131118774, -0.01103281695395708, -0.43393686413764954, -0.49067601561546326, 0.37238210439682007, -0.02976132184267044, -0.42273232340812683, -0.4356843829154968, 0.1735086292028427, -0.2491265833377838, -0.2397884875535965, 0.17950379848480225, 0.2695523798465729, 0.002449659863486886, -0.27798816561698914, 0.16203302145004272, -0.8021954894065857, -0.21772949397563934, -0.07576755434274673, -1.2062479257583618, 0.012634706683456898, -0.30216991901397705, -0.16578830778598785, -0.2852192223072052, 0.3226887583732605, -0.11882129311561584, -0.959987998008728, -0.3712852895259857, -0.08844000846147537, -0.32015079259872437, -0.0946572944521904, 0.0047636511735618114, -0.570845901966095, 0.18258027732372284, -0.15529778599739075, -0.8450783491134644, 0.2177111655473709, -0.35438793897628784, -0.11874905228614807, -0.3177769184112549, -0.18195129930973053, -0.8008652329444885, -0.2104255110025406, -0.43987220525741577, 0.21328683197498322, -0.004500450566411018, -0.6555308103561401, 0.19406627118587494, 0.06418988108634949, 0.18274250626564026, -0.4641668200492859, -0.19622690975666046, -0.5160677433013916, -0.35119128227233887, -0.08202757686376572, -0.2838839292526245, -0.013430911116302013, 0.35992464423179626, 0.004077561665326357, -0.07934059947729111, 0.2731679081916809, -0.7128501534461975, 0.33869993686676025,
0.518925130367279, -0.01916104555130005, -0.18907609581947327, -0.008962934836745262, 0.033500637859106064, -0.11284437775611877, -0.24664904177188873, -0.1830076277256012, 0.1448133885860443, -0.0549219585955143, -0.14128965139389038, -0.6019188165664673, -0.21472135186195374, 0.39895346760749817, -0.040218766778707504, 0.1259554773569107, -0.5642279982566833, 0.5211654901504517, 0.45141375064849854, -0.19748060405254364, 0.4006215035915375, 0.11520901322364807, -0.20016828179359436, -0.14215731620788574, 0.2562597095966339, 0.1332889348268509, -0.28998038172721863, -0.11036314070224762, -0.4228820204734802, 0.13105541467666626, 0.140359029173851, -0.06975408643484116, -1.0031541585922241, 0.06024843826889992, -0.8589759469032288, -0.12186595052480698, 0.07342080771923065, -0.6055089831352234, 0.3351593017578125, 0.059846315532922745, -0.0054671079851686954, 0.0499015673995018, -0.03458378463983536, 0.21008926630020142, 0.3950548470020294, -0.09501022845506668, -0.09626293927431107, -0.06833579391241074, -0.06231432035565376, -0.6048835515975952, 0.2655127942562103, -0.22972846031188965, -0.386903315782547, -0.16694341599941254, -0.16250908374786377, -0.6038267016410828, -0.1860724538564682, -0.12482299655675888, 0.12354443222284317, 0.18982736766338348, -0.18601852655410767, -0.19195400178432465, -0.11616803705692291, -0.08219622820615768,
-0.06269312649965286, 0.0881941020488739, 0.21748614311218262, -0.15418827533721924, 0.1569403111934662, 0.36697614192962646, -0.04325157031416893, 0.06209135800600052, 0.18431290984153748, -0.3170941174030304, -0.35976114869117737, -0.770903468132019, 0.16766254603862762, -0.1383538395166397, -0.17777372896671295, 0.47074374556541443, -0.5483459830284119, -0.06998269259929657, 0.002715275390073657, -0.044955626130104065, 0.31277766823768616, -0.18975061178207397, -0.4620458781719208, 0.054060645401477814, -0.06856217980384827, -0.04645593836903572, -0.08808744698762894, 0.18101723492145538, -0.20546506345272064, -0.17529414594173431, 0.23922762274742126, 0.21237647533416748, 0.14879418909549713, 0.6936149597167969, -0.5317854881286621, -0.5711442232131958, 0.39784982800483704, -0.2612910866737366, -0.18750929832458496, -0.12089794129133224, -0.2155507355928421, -0.35524097084999084, -0.655535876750946, 0.12386053800582886, 0.0695292204618454, 0.18007782101631165, 0.28814640641212463, 0.07560759782791138, -0.14098304510116577, 0.14900626242160797, 0.29514509439468384, 0.08957842737436295, -0.32987794280052185, -0.30500996112823486, 0.4458021819591522, -0.06557957828044891, 0.17040829360485077, 0.023470209911465645, -0.07001212984323502, -0.10727003216743469, -0.2238404005765915, -0.3653916120529175, 0.1575831025838852, -0.021685639396309853,
-0.09298788756132126, -0.0766763761639595, -0.9462096691131592, -0.7233088612556458, -0.2909359633922577, 0.2568250596523285, -0.11116493493318558, 0.03729311376810074, -0.7691534161567688, 0.07960989326238632, 0.3325340449810028, 0.5340847373008728, -0.8207571506500244, 0.258865088224411, -0.18267038464546204, -0.2328118532896042, -0.14072781801223755, 0.7143757343292236, 0.28296875953674316, -0.023652657866477966, -0.0054043009877204895, -0.3201583921909332, -0.7550519108772278, 0.02438497170805931, 0.10984250158071518, -0.45538321137428284, -0.11143828928470612, -0.19434629380702972, -0.032447803765535355, 0.041566915810108185, -0.12227996438741684, -0.8584771752357483, -0.30379655957221985, -0.5046518445014954, 0.02182251773774624, 0.13488273322582245, -0.027085548266768456, 0.10415738075971603, 0.5039916634559631, -0.1502300351858139, -0.4254879951477051, 0.11012209951877594, 0.23190291225910187, -0.1987503170967102, 0.02432561293244362, 0.0637805312871933, -0.054817210882902145, 0.28189617395401, 0.04348796606063843, 0.41181933879852295, -0.5120609402656555, -0.5366480350494385, 0.09474405646324158, 0.007810729555785656, -0.7103973627090454, -0.4810110628604889, -0.011438566260039806, -0.4182487428188324, 0.11326710134744644, 0.211339071393013, -0.13348649442195892, -0.26178380846977234, -0.12671677768230438, -0.3529326617717743,
0.21005593240261078, -0.12711985409259796, 0.41351932287216187, 0.048538051545619965, 0.005724271293729544, 0.1405411809682846, -0.06656011939048767, 0.3501955568790436, -0.40052294731140137, -0.6103734970092773, -0.6895437240600586, -0.5995470285415649, 0.4371936619281769, 0.30446648597717285, 0.31189846992492676, -0.04161868244409561, -0.5330219268798828, -0.11946912109851837, -0.12396232038736343, 0.3061489462852478, -0.043888479471206665, -0.8950257897377014, -0.012956059537827969, -0.23586790263652802, -0.07930479198694229, -0.3475121259689331, -0.06767508387565613, 0.22456678748130798, -0.11096686869859695, 0.14269524812698364, 0.038826365023851395, 0.2827853560447693, 0.6257812976837158, 0.6003767848014832, -0.5642378330230713, -0.49402278661727905, -0.8022091388702393, 0.39116230607032776, -0.586094081401825, -0.07783998548984528, -0.04424215108156204, -0.1353553980588913, -0.581982433795929, 0.3090008795261383, -0.058785904198884964, 0.029182950034737587, 0.060454025864601135, 0.08376797288656235, -0.3253035843372345, 0.16790787875652313, -0.30491945147514343, 0.2888188064098358, -0.2679857611656189, -0.380664587020874, 0.17674380540847778, 0.17376701533794403, 0.21526740491390228, -0.6128899455070496, -0.20615333318710327, -0.4043058753013611, -0.41209298372268677, -0.5951669812202454, 0.39813151955604553, 0.03658260405063629,
-0.44921615719795227, -0.7656489610671997, -0.14859618246555328, -0.24479559063911438, -0.19717633724212646, -0.1921227127313614, -0.4060240685939789, -0.02297830954194069, -0.31590235233306885, 0.06580595672130585, -0.03992043808102608, -0.21120381355285645, -0.13890673220157623, 0.07157182693481445, -0.27347052097320557, -0.19833682477474213, -0.4263449013233185, -0.32250306010246277, -0.008673523552715778, 0.07721531391143799, 0.21536046266555786, 0.12845182418823242, -0.35363128781318665, 0.24515381455421448, -0.2191673219203949, -0.6350565552711487, -0.5191532373428345, 0.22615116834640503, -0.31555256247520447, -0.2685779929161072, 0.08185353875160217, -0.0024358395021408796, 0.020911507308483124, 0.04380977526307106, -0.031802527606487274, -0.7159307599067688, -0.056994568556547165, -0.08318550884723663, -0.12642031908035278, -0.16680821776390076, -0.38004815578460693, -0.26541855931282043, -0.04798545688390732, -0.2831907570362091, -0.5014107823371887, -0.13965128362178802, -0.34175896644592285, -0.24343030154705048, -0.2004132866859436, 0.27207428216934204, -0.2745038866996765, -0.2922471761703491, -0.33387327194213867, -0.1305171251296997, -0.2645583748817444, -0.3110194206237793, -0.16816414892673492, -0.2629641890525818, -0.29497963190078735, -0.07020598649978638, -0.03050985187292099, -0.012440231628715992, 0.23314033448696136, -0.3225436508655548,
0.3275317847728729, 0.04622945189476013, -0.18877674639225006, -0.4692646563053131, -0.1023174598813057, 0.01401112973690033, 0.04927871376276016, 0.026989459991455078, -0.5121347904205322, -0.797888457775116, 0.059489525854587555, -0.14023993909358978, -0.06948845088481903, -0.17485299706459045, 0.025014616549015045, -0.044046271592378616, 0.35636845231056213, -0.1779700368642807, 0.26976895332336426, 0.013911695219576359, 0.31942176818847656, -0.0019229977624490857, -0.3701598048210144, -1.010516881942749, -0.33087992668151855, -0.13801512122154236, 0.2544819116592407, -0.40425431728363037, -0.05180741101503372, -0.0313352532684803, -0.719755232334137, -0.3846668601036072, -0.9303143620491028, -1.0955489873886108, -0.6317287683486938, -0.32387134432792664, -0.30889397859573364, -0.32078707218170166, 0.13292239606380463, -0.14296932518482208, -0.3318865895271301, 0.3133469820022583, -0.5371209383010864, 0.21762999892234802, -0.059729624539613724, 0.09797132015228271, -0.18564099073410034, -0.23104393482208252, -0.33909404277801514, 0.01661907508969307, -0.018626412376761436, -0.5779203772544861, 0.1300673484802246, 0.12443525344133377, -0.3177565336227417, -0.20220941305160522, -0.19986438751220703, -0.15696382522583008, -0.42189645767211914, -0.6358802914619446, 0.42377281188964844, -0.1888502985239029, -0.1084165871143341, 0.5510461926460266,
