#include "neural_network.h"
#include <stdio.h>
#include <math.h>

const float weights_fc1[] = {
0.03816435858607292, -0.007421327289193869, 0.02533598802983761, -0.12617430090904236, -0.37484535574913025, 0.09577225148677826, 0.08755240589380264, -0.10692346096038818, -0.07112890481948853, 0.06127821281552315, -0.18124622106552124, 0.0030915753450244665, -0.06572052836418152, -0.026346806436777115, -0.021114563569426537, -0.0727505087852478, -0.17015443742275238, 0.026178210973739624, -0.13426946103572845, 0.01406207773834467, 0.1543673723936081, 0.13184991478919983, -0.12456810474395752, -0.03823584318161011,
0.13594603538513184, -0.20736290514469147, -0.09167800098657608, -0.10935340821743011, 0.09245733916759491, -0.004307003226131201, -0.10646339505910873, -0.0036483020521700382, 0.04811669886112213, -0.09746614098548889, 0.10336354374885559, 0.049868326634168625, 0.11395281553268433, -0.0021487874910235405, 0.10802135616540909, 0.07152380794286728, 0.009608949534595013, -0.06398056447505951, -0.32164475321769714, -0.06537821888923645, -0.0014281485928222537, 0.045055191963911057, 0.20546658337116241, 0.007803306914865971,
-0.08763101696968079, -0.222317174077034, 0.09181153774261475, 0.038624946027994156, -0.20860962569713593, 0.023397527635097504, 0.21068933606147766, 0.033903371542692184, 0.12825432419776917, -0.2698991596698761, -0.03144218400120735, -0.05934184789657593, 0.11830813437700272, 0.0750596895813942, -0.2012982964515686, 0.2520463764667511, 0.0767948180437088, -0.1547866016626358, 0.06351178884506226, 0.01780090481042862, 0.023484529927372932, -8.738921314943582e-05, -0.15436023473739624, 0.03621776029467583,
-0.08979013562202454, 0.15216630697250366, -0.14575688540935516, 0.2828575372695923, -0.05584971234202385, -0.24345815181732178, 0.17455048859119415, 0.023602193221449852, -0.2177870273590088, 0.06890389323234558, -0.04176272079348564, 0.05086756870150566, 0.1109807938337326, -0.023718498647212982, -0.23640447854995728, 0.08426487445831299, 0.10534650087356567, 0.04501943290233612, -0.06875874847173691, -0.012030948884785175, 0.13514071702957153, -0.05209561064839363, -0.23705683648586273, -0.035758331418037415,
0.03904091939330101, 0.11437037587165833, 0.12645463645458221, -0.18806031346321106, 0.1702100932598114, 0.09462221711874008, 0.02522682398557663, 0.12227883189916611, -0.12194133549928665, 0.019919225946068764, 0.2168065309524536, -0.20864182710647583, 0.0652509331703186, 0.06554095447063446, 0.04031971096992493, 0.23181059956550598, -0.08747685700654984, 0.004837532993406057, -0.0959562361240387, -0.08533315360546112, 0.06776188313961029, -0.03855769336223602, -0.15310142934322357, 0.11884612590074539,
-0.18858154118061066, -0.059952739626169205, -0.09891670942306519, -0.19176922738552094, 0.10094945132732391, -0.09241306036710739, 0.04223310574889183, -0.15133273601531982, 0.1590806096792221, 0.10324694216251373, 0.15204155445098877, -0.03277714177966118, -0.09315617382526398, -0.023180950433015823, 0.056048762053251266, 0.05468013510107994, -0.14405173063278198, -0.2742726504802704, -0.01097932644188404, 0.01727335900068283, 0.20321525633335114, 0.029948420822620392, 0.042258042842149734, 0.008932767435908318,
-0.1363256573677063, -0.04082777351140976, -0.028905658051371574, 0.03475217893719673, 0.08694660663604736, -0.21434065699577332, -0.05376928672194481, -0.12010770291090012, 0.04339214041829109, 0.1662750393152237, 0.14047807455062866, 0.04841725528240204, 0.01761193573474884, -0.1257399618625641, -0.21635693311691284, 0.3152853846549988, -0.15701735019683838, 0.1969023197889328, 0.15650039911270142, -0.15388457477092743, 0.1132734939455986, 0.13089972734451294, -0.16530363261699677, 0.042878370732069016,
-0.176587775349617, 0.026018816977739334, 0.020023230463266373, 0.05796622112393379, -0.11212556064128876, 0.058236267417669296, -0.07864389568567276, -0.31901851296424866, -0.2272287905216217, 0.1398097425699234, 0.04256115108728409, 0.028061116114258766, -0.1363345831632614, -0.18970781564712524, -0.15263842046260834, 0.013429167680442333, 0.1056516095995903, 0.21494825184345245, 0.021987197920680046, 0.09116178750991821, -0.16661672294139862, -0.05917934328317642, -0.1651076376438141, 0.0025997685734182596,
-0.21329019963741302, -0.015447004698216915, 0.048018477857112885, -0.02798530086874962, 0.04120059683918953, -0.04069280996918678, -0.09673260897397995, -0.25045353174209595, 0.41131243109703064, -0.04585050046443939, -0.026411551982164383, -0.09972908347845078, 0.10280334949493408, 0.2937599718570709, 0.15823675692081451, 0.1005881205201149, 0.04751740023493767, 0.019764531403779984, -0.012507961131632328, 0.04727740213274956, -0.26827412843704224, 0.19268296658992767, -0.005495078861713409, 0.01752454601228237,
-0.0959252193570137, -0.0593661330640316, -0.3180575668811798, -0.0038637714460492134, -0.28736412525177, -0.0993737280368805, 0.06857524812221527, 0.1404167264699936, -0.17233607172966003, -0.10605889558792114, 0.1328025758266449, -0.020406395196914673, 0.01783933863043785, 0.02437429688870907, 0.1677195280790329, -0.11450762301683426, -0.1297282725572586, 0.0377894826233387, -0.07146568596363068, -0.14134646952152252, 0.02958948351442814, 0.21557658910751343, -0.03603237122297287, -0.12284308671951294,
-0.03451592102646828, 0.09953264892101288, 0.1443013697862625, 0.2152237594127655, 0.15674370527267456, 0.37181591987609863, -0.07060182839632034, 0.00819876603782177, 0.15754099190235138, 0.02097395993769169, 0.01209187414497137, 0.10860200971364975, -0.18665379285812378, 0.06694480031728745, 0.2702900171279907, -0.039770979434251785, -0.1403299868106842, 0.13612045347690582, 0.16868573427200317, 0.1717039942741394, -0.0839407667517662, 0.061347946524620056, 0.3449123203754425, 0.16354696452617645,
0.1788586676120758, -0.06612128764390945, -0.044805314391851425, -0.11852221935987473, -0.007490936201065779, -0.14022444188594818, 0.026279740035533905, -0.21511290967464447, -0.2141920030117035, 0.07782015204429626, 0.11541395634412766, -0.1433049440383911, 0.001478908583521843, -0.029222654178738594, 0.005402002949267626, 0.011420330964028835, -0.13745085895061493, -0.12479112297296524, -0.03267037495970726, -0.15041771531105042, 0.15571226179599762, 0.2230244129896164, -0.24256159365177155, 0.1622690111398697,
-0.07961564511060715, 0.006460191216319799, 0.13193629682064056, 0.04361464083194733, 0.17119595408439636, -0.03166518732905388, -0.08835461735725403, 0.13758932054042816, -0.07460559159517288, 0.06707240641117096, -0.050772178918123245, 0.1780836582183838, -0.015179301612079144, 0.12802045047283173, -0.13429982960224152, 0.3334310054779053, -0.0569024384021759, -0.09926816076040268, 0.15384705364704132, 0.14645788073539734, 0.2989010512828827, 0.05655309185385704, -0.18730272352695465, -0.14795158803462982,
0.014577805064618587, 0.06993725150823593, -0.19250260293483734, -0.18091216683387756, -0.27035948634147644, -0.012854339554905891, 0.13200554251670837, -0.02223614789545536, -0.06096594035625458, -0.09067490696907043, -0.2223406434059143, 0.10182803869247437, 0.24293850362300873, 0.009927112609148026, 0.10115548223257065, 0.24647659063339233, -0.30898386240005493, 0.10628805309534073, 0.07021113485097885, 0.0034882468171417713, 0.09419609606266022, 0.11165761947631836, -0.21012882888317108, -0.04702487215399742,
0.06177903339266777, 0.052774786949157715, 0.10256078839302063, -0.29805776476860046, -0.09386936575174332, 0.16305725276470184, -0.21482807397842407, 9.318664524471387e-05, 0.27183040976524353, -0.08582064509391785, -0.1202809289097786, -0.0627148225903511, 0.0004192244086880237, -0.05208080634474754, -0.22957256436347961, -0.05279292166233063, 0.25089865922927856, 0.052795182913541794, -0.06708226352930069, -0.2767203152179718, 0.24570362269878387, 0.23945584893226624, -0.06984715908765793, -0.09728379547595978,
-0.26998841762542725, 0.06195203214883804, -0.16287070512771606, -0.145035982131958, 0.003762709442526102, -0.1365402191877365, -0.08839114755392075, 0.23572111129760742, -0.04979890584945679, 0.08170496672391891, 0.17583876848220825, 0.04588580131530762, 0.13062341511249542, 0.15956440567970276, -0.1958787441253662, -0.13671356439590454, 0.0960487574338913, 0.08792398124933243, 0.027535900473594666, -0.2151254564523697, -0.028801042586565018, 0.1731225550174713, -0.1085292175412178, 0.06701302528381348,
-0.03144741803407669, -0.09430082142353058, -0.28239473700523376, -0.12706606090068817, -0.17742395401000977, 0.11362745612859726, 0.21298211812973022, -0.1751856505870819, 0.03118615224957466, 0.08670444786548615, -0.05226174369454384, 0.13977046310901642, -0.08183169364929199, 0.05989859253168106, 0.005879422649741173, 0.034972794353961945, -0.10420523583889008, 0.0038420329801738262, 0.31401029229164124, 0.0003472702519502491, 0.1187259703874588, 0.1640056073665619, 0.20097260177135468, -0.08312076330184937,
-0.060189615935087204, 0.232977032661438, 0.07254967838525772, 0.295744389295578, -0.03700115531682968, 0.0036441823467612267, 0.3963604271411896, -0.07838527113199234, 0.11059094220399857, 0.20294006168842316, -0.06252735108137131, 0.15925949811935425, 0.11821348965167999, 0.08921210467815399, -0.24733641743659973, 0.08255687355995178, 0.08488433063030243, -0.02461213432252407, 0.020911557599902153, 0.012716921977698803, 0.17326603829860687, 0.21926194429397583, 0.20818234980106354, -0.025996267795562744,
-0.08668795228004456, 0.06708741188049316, -0.05499761551618576, 0.31030571460723877, 0.08917877823114395, 0.024381358176469803, 0.03621140867471695, -0.3808012902736664, -0.2032547891139984, 0.04262430965900421, -0.19396407902240753, -0.09760546684265137, 0.18263864517211914, -0.2588435709476471, -0.20956028997898102, 0.19998039305210114, 0.030919427052140236, 0.16848747432231903, 0.10550893098115921, 0.1804935485124588, 0.1323215216398239, -0.10961448401212692, -0.02487538941204548, -0.054068613797426224,
0.1805783212184906, 0.017592499032616615, -0.20162665843963623, -0.07438787817955017, 0.2828000783920288, 0.026830051094293594, -0.007916290313005447, -0.31760862469673157, 0.07825890928506851, -0.03856071084737778, 0.017523538321256638, 0.14611521363258362, 0.0023569429758936167, -0.13928981125354767, -0.029221657663583755, 0.08814049512147903, -0.02576598711311817, 0.03774063289165497, 0.14716756343841553, 0.225719153881073, 0.020358361303806305, 0.13035301864147186, 0.08251389861106873, 0.21312212944030762,
-0.05238525569438934, -0.11080865561962128, 0.08321276307106018, -0.19960647821426392, -0.10641822963953018, 0.2212023138999939, 0.15487617254257202, 0.008707567118108273, 0.17229527235031128, -0.27246662974357605, 0.1290711909532547, 0.1399102360010147, -0.35181865096092224, -0.05291084572672844, 0.03204929828643799, -0.02118232659995556, 0.024210777133703232, -0.006190068554133177, 0.05820224806666374, -0.18876959383487701, -0.12062601000070572, 0.027236759662628174, 0.13205446302890778, -0.11602012068033218,
0.14360496401786804, 0.14073511958122253, 0.05714312940835953, 0.09546602517366409, -0.270173579454422, -0.0862385630607605, -0.0899885818362236, -0.24304476380348206, 0.2670493721961975, 0.13414901494979858, -0.043457094579935074, 0.1930193305015564, 0.015437581576406956, -0.008089047856628895, 0.06477974355220795, 0.15422511100769043, 0.04375455528497696, 0.11485813558101654, 0.033267710357904434, 0.002448468003422022, 0.06402397900819778, -0.14628536999225616, 0.019554942846298218, -0.036732420325279236,
0.015609989874064922, 0.13513371348381042, -0.07980065047740936, -0.10378656536340714, 0.42147842049598694, 0.09117081761360168, 0.09564930200576782, 0.05151372402906418, 0.016587698832154274, 0.055539097636938095, 0.13491447269916534, -0.20667652785778046, 0.405700147151947, -0.053516410291194916, -0.2730506360530853, 0.24185927212238312, 0.2841673791408539, -0.01126840990036726, 0.013016624376177788, -0.06401419639587402, 0.01815846376121044, 0.20131129026412964, -0.1713353395462036, -0.09305504709482193,
0.08223147690296173, 0.12433703243732452, -0.021337836980819702, 0.06201593577861786, 0.07392298430204391, -0.15028317272663116, 0.01621985249221325, 0.054508429020643234, 0.06438425928354263, 0.06618170440196991, 0.19396136701107025, -0.06889856606721878, 0.044624194502830505, 0.22896993160247803, -0.11600174009799957, -0.24726709723472595, -0.17354290187358856, -0.11248155683279037, 0.07920028269290924, 0.11154045164585114, -0.1875130534172058, 0.1534077674150467, -0.07622779160737991, -0.01472874078899622,
-0.0765296146273613, 0.08003567159175873, 0.03741925582289696, 0.04920632764697075, 0.0978991836309433, 0.19500911235809326, -0.2632127106189728, -0.1028691828250885, 0.11518985778093338, -0.018451619893312454, -0.048832062631845474, 0.003464160952717066, -0.09759192913770676, 0.1287900060415268, 0.013727808371186256, -0.090952068567276, 0.08920994400978088, -0.19414573907852173, -0.17475853860378265, 0.07065935432910919, -0.1762589067220688, 0.1762090027332306, 0.09964323788881302, -0.09718438982963562,
0.060515694320201874, 0.09725295007228851, 0.10624679923057556, 0.12239303439855576, -0.17237886786460876, 0.23730988800525665, -0.14805161952972412, 0.31928175687789917, -0.0500369556248188, -0.03689388930797577, -0.14133797585964203, -0.08652356266975403, -0.022528478875756264, -0.05729706957936287, -0.2378331422805786, 0.0003596265451051295, -0.020823759958148003, -0.34369957447052, 0.025591138750314713, -0.14250370860099792, -0.16550131142139435, 0.0909062996506691, -0.1652189940214157, 0.021338723599910736,
-0.13334278762340546, -0.033914219588041306, 0.13855524361133575, -0.11546354740858078, -0.09852167218923569, 0.17149968445301056, -0.07909752428531647, 0.12058878690004349, 0.040617719292640686, -0.2568601071834564, 0.11619410663843155, 0.1271139681339264, 0.07534947991371155, -0.04742768779397011, 0.006124922074377537, -0.2758949398994446, 0.03193884342908859, 0.08067721873521805, 0.07972974330186844, -0.03791990503668785, 0.09074883908033371, 0.18477921187877655, 0.09060250967741013, 0.34264394640922546,
-0.1741696298122406, 0.06403496116399765, -0.0955069288611412, -0.14503154158592224, -0.021682970225811005, -0.0319393090903759, -0.04676692932844162, 0.18685604631900787, -0.3416050970554352, 0.01604773849248886, 0.034160368144512177, -0.08048777282238007, -0.20691344141960144, 0.3180263638496399, 0.05558829754590988, -0.0326148122549057, 0.09287799894809723, 0.19153337180614471, 0.1691410392522812, 0.11030760407447815, 0.07081282138824463, 0.15830501914024353, 0.31686609983444214, 0.09231049567461014,
0.10896730422973633, 0.10824888199567795, -0.1013367772102356, 0.20744487643241882, -0.1297089159488678, -0.1305493712425232, 0.11164882034063339, -0.3241666257381439, 0.12039526551961899, -0.18944799900054932, -0.026716463267803192, -0.2076883316040039, -0.13779595494270325, 0.07890206575393677, -0.00313686765730381, 0.08647622168064117, 0.03763197734951973, -0.1318425089120865, 0.09638199210166931, 0.08880958706140518, 0.03182084485888481, -0.06859566271305084, 0.06206561252474785, -0.06835146248340607,
-0.09486104547977448, -0.06448374688625336, 0.10096745193004608, 0.10535230487585068, -0.0772949755191803, -0.11705520004034042, 0.17901258170604706, -0.2778722643852234, 0.10634086281061172, 0.05545473471283913, -0.14291612803936005, 0.08731197565793991, 0.38227564096450806, -0.25261223316192627, -0.07311902940273285, 0.2941938638687134, 0.19891664385795593, -0.022083507850766182, 0.07499188184738159, 0.26233842968940735, 0.123371921479702, -0.1685449630022049, 0.1439923644065857, -0.1614142507314682,
0.2280176877975464, -0.21272803843021393, -0.030909478664398193, 0.14746999740600586, -0.07696196436882019, -0.0594802163541317, -0.11798106878995895, 0.041072264313697815, 0.1602190136909485, 0.252834290266037, -0.015577645972371101, 0.06999825686216354, 0.12568768858909607, -0.143299400806427, -0.06539740413427353, -0.003325431142002344, 0.04162421077489853, 0.014370690099895, -0.028330929577350616, 0.17433056235313416, 0.09608609229326248, 0.05856332927942276, -0.12121658772230148, -0.09873071312904358,
-0.3611772060394287, -0.0357382670044899, 0.037564121186733246, 0.09335386753082275, -0.11522891372442245, -0.16511285305023193, 0.22193151712417603, 0.10859602689743042, 0.20824839174747467, -0.0542631670832634, -0.04084693640470505, 0.23490659892559052, -0.2768853008747101, -0.09494324028491974, 0.08009229600429535, -0.062059205025434494, -0.11575932800769806, 0.022001666948199272, -0.14771819114685059, -0.04194443300366402, 0.1784544587135315, 0.07649819552898407, 0.4091923236846924, -0.13208772242069244,
0.1706753969192505, -0.10843876004219055, -0.028812577947974205, 0.1957780122756958, -0.14467951655387878, 0.12822385132312775, 0.05277011916041374, -0.02036452665925026, 0.10809827595949173, 0.19658039510250092, -0.2873777151107788, -0.20042848587036133, -0.2454395592212677, 0.14710664749145508, -0.03665226325392723, -0.1881241798400879, 0.009871863760054111, -0.06433847546577454, 0.06446851789951324, -0.18861104547977448, 0.06996318697929382, -0.046170398592948914, 0.057567298412323, 0.07052934914827347,
0.24237403273582458, 0.07566147297620773, -0.0020294252317398787, 0.047496430575847626, 0.01078884769231081, -0.0071546584367752075, -0.054525915533304214, -0.13865844905376434, 0.15939980745315552, -0.03723427280783653, -0.1566350907087326, -0.07504355907440186, -0.21234862506389618, -0.12337344139814377, 0.0191841758787632, 0.09606592357158661, -0.16603393852710724, 0.09103187918663025, -0.07161249220371246, -0.20641815662384033, 0.0593312531709671, -0.07427993416786194, 0.08126931637525558, -0.03363775089383125,
-0.09443646669387817, 0.07305745780467987, -0.11279617249965668, -0.15257883071899414, -0.08212309330701828, -0.10490671545267105, -0.12173048406839371, -0.11970199644565582, -0.0025705022271722555, -0.10723459720611572, 0.14891602098941803, -0.03998995199799538, -0.06406095623970032, -0.22437305748462677, 0.08806631714105606, -0.13172177970409393, 0.01198231615126133, -0.19886237382888794, 0.030726255849003792, -0.09196537733078003, 0.010754730552434921, -0.274547815322876, 0.2165103256702423, 0.1744658648967743,
0.04326598346233368, 0.10892122238874435, 0.0652124360203743, -0.2597143054008484, 0.21850654482841492, 0.25333911180496216, 0.05430099740624428, 0.031259894371032715, -0.09733003377914429, -0.112239770591259, 0.0010298097040504217, -0.12420684099197388, 0.058790482580661774, 0.13455073535442352, -0.11305166035890579, -0.09689215570688248, -0.13527588546276093, -0.11859945207834244, -0.0011112802894786, 0.0292182769626379, 0.12790833413600922, 0.12632861733436584, 0.21311509609222412, 0.21469171345233917,
0.033044200390577316, 0.1545066386461258, -0.25994643568992615, 0.07938427478075027, 0.03309479355812073, 0.055236831307411194, -0.22093254327774048, -0.20204557478427887, 0.10473349690437317, -0.254868745803833, -0.12397132068872452, -0.09484778344631195, -0.13046075403690338, -0.03721955046057701, -0.05716240406036377, 0.0883249044418335, -0.0617276094853878, 0.08029957115650177, 0.09848061203956604, -0.029753820970654488, 0.002785351360216737, -0.22279928624629974, -0.20915472507476807, 0.009775721468031406,
-0.1529424637556076, 0.15328630805015564, 0.3033560812473297, -0.17549049854278564, -0.10652747750282288, -0.19506897032260895, 0.07470013946294785, -0.10060270130634308, -0.07869266718626022, -0.04100295528769493, -0.13724663853645325, 0.05611733719706535, 0.14911490678787231, -0.16485880315303802, 0.1079573854804039, 0.11179683357477188, -0.10902860760688782, -0.036419577896595, 0.12429548799991608, -0.24480795860290527, -0.0440637432038784, -0.20502640306949615, 0.01787864975631237, 0.033929407596588135,
-0.09741866588592529, 0.12184420228004456, 0.024016128852963448, 0.17468251287937164, -0.07352899014949799, 0.028670599684119225, -0.114569291472435, 0.009259520098567009, 0.06515350192785263, -0.01722683012485504, -0.04755529388785362, 0.1210184395313263, -0.07691780477762222, 0.017247388139367104, 0.26894405484199524, 0.03588809818029404, 0.22800470888614655, 0.12986043095588684, -0.08457718044519424, 0.03478223830461502, 0.1461569368839264, -0.06653335690498352, 0.27632319927215576, 0.09538584202528,
0.0822298526763916, -0.06344925612211227, 0.0017159655690193176, 0.07903719693422318, -0.10704103857278824, 0.08502768725156784, 0.021145140752196312, 0.10261652618646622, -0.13902121782302856, 0.030327828601002693, 0.30088359117507935, 0.13705895841121674, 0.09776952117681503, 0.053030144423246384, -0.040824439376592636, 0.3379264771938324, -0.028579283505678177, 0.056209784001111984, -0.03066898323595524, 0.037307191640138626, 0.10840178281068802, 0.3202534317970276, 0.22689709067344666, -0.04465557634830475,
-0.189949631690979, 0.1286620795726776, -0.06657131016254425, -0.051037732511758804, -0.1940876990556717, 0.04926497861742973, 0.019911814481019974, -0.008735059760510921, 0.11773452162742615, -0.05141665041446686, -0.1055198386311531, 0.24393680691719055, 0.2568146884441376, -0.13447870314121246, 0.07009845227003098, -0.21171914041042328, 0.09093137085437775, 0.09206520020961761, -0.27926933765411377, 0.06993966549634933, 0.025070779025554657, -0.09636625647544861, 0.3411768078804016, -0.07244643568992615,
-0.05936208739876747, -0.07298482954502106, -0.08682624995708466, 0.16115018725395203, 0.1209685280919075, -0.09067999571561813, 0.0040668281726539135, -0.11982513964176178, -0.060409318655729294, -0.1103116050362587, -0.17446455359458923, 0.027199793606996536, 0.07302184402942657, 0.15141373872756958, 0.11145651340484619, -0.09727200865745544, -0.17345590889453888, -0.03681798279285431, -0.01715797558426857, -0.22909697890281677, -0.24485637247562408, -0.18652844429016113, -0.02034793235361576, 0.00508453045040369,
-0.05336511507630348, -0.11058871448040009, -0.09151191264390945, 0.2786749005317688, 0.20004205405712128, 0.15256434679031372, -0.03346450254321098, -0.1350673884153366, 0.005783735308796167, -0.16652622818946838, 0.022116852924227715, 0.028026334941387177, 0.301323801279068, 0.00920957326889038, 0.047524914145469666, 0.08012115955352783, -0.05616002157330513, -0.11633801460266113, 0.028388667851686478, -0.25138458609580994, 0.05314968526363373, 0.17574124038219452, 0.048727601766586304, 0.015936601907014847,
0.239284485578537, 0.007362252101302147, 0.05751390382647514, 0.1575123369693756, 0.0573284737765789, 0.08087348937988281, 0.10650286823511124, 0.09684212505817413, 0.24152833223342896, -0.013260571286082268, 0.062487825751304626, 0.06444520503282547, -0.027391919866204262, 0.034569501876831055, -0.32699957489967346, -0.015605730004608631, -0.2811155915260315, -0.08421250432729721, -0.3330247402191162, -0.20606279373168945, 0.163226917386055, -0.118320532143116, 0.05933355167508125, -0.1094491109251976,
-0.006094945594668388, -0.04197792336344719, -0.21299991011619568, 0.2180262953042984, 0.10563447326421738, 0.11306797713041306, -0.005662593059241772, 0.009217158891260624, -0.05734811723232269, 0.1015312671661377, 0.04887563735246658, 0.04933370649814606, 0.18707552552223206, -0.19237695634365082, -0.1954929679632187, -0.09662073105573654, 0.031174378469586372, 0.12043178081512451, 0.03592140972614288, -0.009991173632442951, -0.06868153810501099, 0.13536329567432404, -0.0891137346625328, -0.1773137003183365,
0.319144606590271, 0.0766180008649826, 0.12321683764457703, -0.05005348101258278, 0.11529551446437836, 0.1271207183599472, 0.00025772699154913425, -0.04636091738939285, -0.1078471764922142, 0.04697342589497566, -0.12266813963651657, -0.03133922070264816, 0.06446228176355362, -0.015209579840302467, 0.14996539056301117, -0.17491070926189423, 0.09708655625581741, -0.05495139956474304, -0.1697123944759369, -0.11732656508684158, -0.004762574099004269, 0.15204185247421265, 0.07105296850204468, 0.17632174491882324,
0.09904835373163223, 0.08172155916690826, 0.007172652054578066, -0.33527371287345886, 0.007366751786321402, 0.2047390192747116, 0.1188279241323471, 0.12609660625457764, -0.04568953812122345, -0.09509272128343582, 0.06800642609596252, 0.033911094069480896, -0.011253654025495052, 0.13028083741664886, -0.23803173005580902, 0.062360506504774094, -0.07810075581073761, 0.04895465821027756, -0.023196950554847717, 0.0515323132276535, 0.06197752431035042, -0.10325098037719727, 0.08735743910074234, -0.030683094635605812,
-0.14014172554016113, -0.04645433649420738, 0.013754351995885372, -0.13677527010440826, -0.22545701265335083, -0.09691014140844345, 0.014888378791511059, -0.3613920509815216, -0.43346017599105835, 0.07201408594846725, 0.032525885850191116, 0.020360682159662247, -0.1360653042793274, -0.12719689309597015, 0.029755007475614548, 0.0872618779540062, -0.05780794471502304, -0.17180730402469635, 0.01990095153450966, 0.05898859724402428, 0.1638062596321106, -0.07444456219673157, 0.12417832762002945, 0.03022817336022854,
0.018665263429284096, -0.16083040833473206, -0.0870986133813858, 0.07864487171173096, -0.0379493422806263, -0.23372936248779297, 0.07945896685123444, -0.15536920726299286, 0.003727602306753397, -0.04049791768193245, -0.1111629530787468, -0.11151116341352463, -0.10020279139280319, 0.028627658262848854, -0.06538941711187363, 0.03269533812999725, -0.10222073644399643, 0.2207329273223877, -0.1653929352760315, -0.3233405351638794, 0.05909518152475357, 0.050947777926921844, 0.17954130470752716, 0.1074989065527916,
0.32420605421066284, 0.11162123829126358, 0.09920608252286911, -0.026083169505000114, -0.19338729977607727, -0.055787961930036545, 0.0439184345304966, -0.015999652445316315, -0.30155086517333984, 0.06577534228563309, 0.04137243703007698, -0.05411321297287941, -0.1663079857826233, 0.12118087708950043, 0.18166902661323547, -0.03475550562143326, 0.12289375066757202, 0.022482838481664658, 0.11876171082258224, -0.17283138632774353, -0.11592190712690353, 0.08207465708255768, -0.10996446013450623, 0.008075063116848469,
-0.2446414679288864, -0.11270751059055328, 0.10629640519618988, -0.062151405960321426, 0.1895543485879898, -0.07589313387870789, 0.08639846742153168, 0.1956503540277481, 0.05738464742898941, 0.21759873628616333, 0.045395419001579285, 0.015587563626468182, 0.08238157629966736, 0.09134291857481003, -0.06921761482954025, -0.08504564315080643, -0.13482530415058136, 0.07400438189506531, 0.003719375468790531, 0.04639098793268204, -0.17859487235546112, 0.037027377635240555, -0.0008214027038775384, 0.22383223474025726,
-0.17952845990657806, 0.022748393937945366, 0.19499877095222473, -0.1210041493177414, 0.07786639034748077, 0.09065298736095428, 0.13805535435676575, -0.26584604382514954, -0.23115210235118866, 0.08452371507883072, -0.044515836983919144, 0.009039265103638172, -0.20929564535617828, 0.18646852672100067, 0.37919360399246216, -0.08739714324474335, -0.19356872141361237, -0.06886637955904007, -0.11834022402763367, 0.14854271709918976, -0.21453171968460083, -0.2386813759803772, -0.0820593312382698, -0.05345030874013901,
-0.13241125643253326, 0.09177674353122711, 0.0009254839969798923, -0.10138928890228271, 0.061649221926927567, 0.13653461635112762, 0.12152085453271866, -0.07333040237426758, -0.24507027864456177, 0.15544214844703674, -0.0022238094825297594, 0.284661203622818, -0.042628344148397446, -0.30676141381263733, -0.09427077323198318, 0.33182060718536377, 0.17789828777313232, 0.11946520209312439, -0.08274205774068832, 0.028413865715265274, 0.0018712154123932123, 0.006401624996215105, -0.08333485573530197, 0.04930301755666733,
0.1548040211200714, -0.050518814474344254, -0.19807668030261993, 0.16724808514118195, -0.1478828489780426, -0.31173887848854065, -0.04016907885670662, -0.07113043963909149, -0.05621153488755226, 0.039162132889032364, -0.08259333670139313, 0.10673125088214874, -0.11460714787244797, -0.026717908680438995, 0.08409081399440765, 0.1547631174325943, -0.04852816089987755, 0.06303505599498749, 0.1707434207201004, -0.0001539693184895441, -0.18979647755622864, 0.11358625441789627, 0.10426260530948639, 0.04807004705071449,
0.030496573075652122, -0.03318139538168907, -0.21359658241271973, -0.036949239671230316, -0.09087856858968735, 0.3167774975299835, 0.09167078137397766, 0.15465323626995087, -0.38238322734832764, -0.0764060914516449, 0.017515188083052635, -0.06675826758146286, -0.027062054723501205, 0.17636075615882874, 0.09947461634874344, -0.08223740756511688, 0.06521385908126831, 0.17778462171554565, 0.17726103961467743, -0.044859498739242554, -0.03677574545145035, -0.03162246569991112, -0.13447660207748413, -0.06921663880348206,
0.08239130675792694, -0.09891029447317123, -0.06885547935962677, 0.041278351098299026, 0.21270273625850677, -0.15380233526229858, -0.19957834482192993, 0.1938144564628601, 0.09237518906593323, 0.11907994747161865, -0.19032491743564606, -0.038506343960762024, -0.0069841379299759865, 0.12336110323667526, -0.07449725270271301, -0.13080120086669922, -0.05192502588033676, 0.0879584550857544, 0.11508072167634964, -0.05797889456152916, -0.2428463101387024, 0.1533719152212143, 0.2425389289855957, 0.04601769149303436,
0.08573690801858902, 0.07873626053333282, 0.1319485455751419, 0.18212181329727173, -0.16705083847045898, -0.06875723600387573, -0.09713637083768845, 0.011927638202905655, -0.07039976865053177, 0.19524835050106049, 0.019959047436714172, 0.013503181748092175, -0.02468288317322731, -0.24354633688926697, -0.06878255307674408, 0.40774983167648315, 0.07862947136163712, 0.15013156831264496, -0.17233343422412872, 0.015002352185547352, -0.11468099057674408, -0.07803090661764145, 0.1895335167646408, -0.012364561669528484,
-0.03147977218031883, 0.009618532843887806, -0.09311570972204208, -0.22204935550689697, 0.030102817341685295, 0.24337328970432281, 0.3562051057815552, 0.11199971288442612, 0.13519693911075592, 0.1015586256980896, 0.010168724693357944, 0.19826330244541168, 0.11992033571004868, -0.10976564884185791, -0.17177730798721313, -0.05070723965764046, 0.3261512815952301, 0.07807709276676178, -0.11566159129142761, 0.045517560094594955, -0.1304282397031784, 0.01177950669080019, 0.1286565661430359, 0.06848140060901642,
-0.09746404737234116, 0.16703714430332184, -0.054719097912311554, -0.044113483279943466, 0.2025281935930252, 0.2313421070575714, 0.1268649846315384, 0.09155314415693283, -0.0878726989030838, 0.06472330540418625, 0.15613147616386414, 0.1272895187139511, 0.07760085165500641, -0.2328852117061615, 0.12379487603902817, 0.2717243432998657, 0.10859934240579605, -0.07947079837322235, 0.0005182846216484904, -0.3561619520187378, 0.07352913916110992, -0.16274772584438324, -0.08077896386384964, 0.20987986028194427,
-0.016842687502503395, 0.02148441970348358, -0.09971711039543152, 0.30587130784988403, 0.02378987707197666, -0.029090581461787224, 0.08610158413648605, 0.08225982636213303, -0.0756845623254776, -0.12606340646743774, 0.317554771900177, 0.31581220030784607, 0.04769355431199074, -0.01856854557991028, -0.03218403086066246, -0.22220255434513092, 0.3349720537662506, -0.08637837320566177, -0.03994235023856163, -0.10825192183256149, 0.17453977465629578, 0.23103682696819305, 0.009847074747085571, 0.021152058616280556,
-0.06494072824716568, 0.0765705332159996, 0.17195408046245575, 0.12308449298143387, 0.15766872465610504, -0.037160780280828476, -0.01821020245552063, 0.003110067918896675, -0.08810355514287949, 0.009045260958373547, -0.25473451614379883, 0.17495743930339813, -0.12593717873096466, -0.24045881628990173, -0.13224980235099792, 0.19812612235546112, 0.07790081202983856, 0.06228848919272423, -0.18259495496749878, -0.12890174984931946, 0.15875105559825897, 0.11378196626901627, 0.09012524038553238, 0.014441433362662792,
-0.14519256353378296, -0.09082058072090149, 0.020229624584317207, 0.12148195505142212, -0.13987699151039124, 0.12041910737752914, 0.1650334894657135, -0.0191733930259943, -0.049461863934993744, 0.08968619257211685, 0.07526922225952148, -0.3137083053588867, 0.289340615272522, 0.0019403656478971243, -0.2572481632232666, 0.08141739666461945, 0.0217664185911417, 0.008170935325324535, -0.3087177276611328, -0.059580180794000626, -0.008509970270097256, -0.10691630095243454, -0.0012363026617094874, -0.11168308556079865,
-0.09468746185302734, 0.11366131901741028, -0.27757135033607483, 0.0507805272936821, -0.27657854557037354, -0.06989544630050659, 0.014741618186235428, 0.15546134114265442, 0.2012997567653656, 0.0396605059504509, 0.17681661248207092, -0.050789736211299896, 0.13793450593948364, 0.08521800488233566, 0.14554256200790405, -0.13316616415977478, 0.15152308344841003, 0.13004998862743378, -0.13745607435703278, 0.17065688967704773, -0.19680370390415192, 0.10967416316270828, -0.08452515304088593, 0.06411796063184738,
-0.02754567191004753, 0.08022242784500122, -0.012609516270458698, -0.16430537402629852, 0.06366219371557236, 0.01750010810792446, -0.3085317611694336, 0.09456689655780792, 0.020111097022891045, 0.1112443208694458, -0.010766204446554184, -0.09348703920841217, -0.19389405846595764, 0.005542063154280186, -0.1035599485039711, 0.0685998946428299, -0.12915877997875214, -0.01534480694681406, -0.06771983951330185, -0.00913979671895504, -0.045388635247945786, -0.1765601933002472, 0.06690426170825958, -0.04222540184855461,
0.1857881098985672, 0.041461504995822906, -0.21494245529174805, 0.018360348418354988, 0.051661450415849686, -0.2761821746826172, -0.03272103890776634, 0.02057836763560772, -0.005644919816404581, 0.0702882930636406, 0.00976861733943224, -0.05731851980090141, 0.09825294464826584, -0.2182406187057495, -0.13525709509849548, 0.039642155170440674, 0.19537632167339325, 0.12888503074645996, -0.016665933653712273, 0.09748108685016632, 0.0766853541135788, -0.1433592289686203, 0.16944772005081177, -0.14790281653404236,
-0.13133488595485687, 0.018437331542372704, 0.09558725357055664, 0.0709260031580925, 0.008752170950174332, 0.10061746090650558, -0.19342726469039917, 0.01639395020902157, -0.05829073488712311, -0.03804956376552582, 0.2646944522857666, 0.12958912551403046, 0.3843202590942383, 0.2792728543281555, -0.14189760386943817, -0.00023201334988698363, -0.09748659282922745, 0.11090976744890213, -0.21455498039722443, -0.0665942132472992, 0.0015879198908805847, 0.08258947730064392, 0.26340487599372864, 0.09039737284183502,
0.1626860648393631, -0.35919347405433655, 0.05605853721499443, -0.19732871651649475, 0.16566911339759827, 0.11212194710969925, -0.0588935986161232, 0.08179793506860733, -0.19863654673099518, 0.24400530755519867, -0.12919315695762634, 0.1769171804189682, -0.09850502014160156, -0.14954780042171478, -0.1029629036784172, 0.03846827149391174, 0.1778562366962433, -0.18628738820552826, -0.10395719856023788, -0.009685580618679523, 0.03592761978507042, -0.11692170798778534, 0.04610713943839073, -0.12509660422801971,
0.03633522987365723, 0.28110596537590027, 0.06035461649298668, 0.18810918927192688, 0.01674969680607319, -0.17067787051200867, 0.1751091480255127, -0.1033688336610794, -0.017017202451825142, 0.0015423890436068177, 0.11664344370365143, 0.10227375477552414, 0.060472406446933746, -0.18487946689128876, 6.034951002220623e-05, -0.1340363323688507, 0.1707255244255066, 0.032018471509218216, 0.15617968142032623, -0.10733284056186676, 0.20964515209197998, -0.2031024992465973, 0.008438058197498322, 0.18717412650585175,
0.004773334600031376, 0.02596108987927437, 0.06396709382534027, 0.02322617545723915, -0.27036696672439575, -0.018020005896687508, -0.07048223912715912, -0.06527546048164368, 0.01871277578175068, -0.03646533936262131, 0.28360268473625183, 0.12020636349916458, 0.1274804174900055, 0.16895583271980286, -0.0843653678894043, -0.10817453265190125, 0.21247050166130066, 0.26466602087020874, 0.04593750834465027, 0.102180615067482, 0.20334583520889282, 0.013429240323603153, -0.22152580320835114, 0.2439212203025818,
-0.20570065081119537, -0.057718511670827866, 0.27896109223365784, 0.14891672134399414, -0.16614270210266113, -0.004484484437853098, -0.026556596159934998, 0.37026363611221313, 0.09570113569498062, -0.07469619810581207, 0.08099819719791412, -0.2572443187236786, 0.19733703136444092, 0.015811828896403313, -0.11731602996587753, 0.02795851044356823, 0.16685335338115692, -0.05676393583416939, 0.20299184322357178, 0.05083299055695534, 0.023930899798870087, 0.09682086855173111, -0.2074320912361145, 0.24979858100414276,
0.05194179713726044, 0.13222408294677734, -0.011653441935777664, 0.05435173586010933, 0.06847450137138367, 0.1364808827638626, -0.00753356609493494, 0.03437155857682228, -0.14826524257659912, -0.1951563060283661, -0.2525307834148407, 0.08315885812044144, -0.10881681740283966, -0.04518681764602661, 0.10546837002038956, 0.25880834460258484, -0.03683258965611458, -0.278629332780838, 0.09942573308944702, -0.19270038604736328, -0.07664544135332108, -0.15500584244728088, 0.14125365018844604, -0.2657460570335388,
0.07720731943845749, -0.11893495172262192, -0.015193617902696133, 0.03124702349305153, -0.2687603235244751, -0.02714831754565239, -0.04818451777100563, -0.05889282748103142, 0.23936086893081665, 0.06591847538948059, -0.02988222800195217, -0.14425651729106903, 0.014896322973072529, -0.3928956687450409, -0.07482431828975677, 0.07264001667499542, -0.07402399927377701, -0.011882112361490726, 0.1888708621263504, 0.09350141137838364, 0.05367453396320343, -0.20594635605812073, 0.026496008038520813, 0.0944829210639,
-0.00025209347950294614, 0.13752008974552155, -0.12804290652275085, -0.020419945940375328, 0.09063317626714706, -0.14332953095436096, -0.026961468160152435, 0.13941577076911926, 0.18202413618564606, -0.14595578610897064, -0.1076866090297699, 0.25775274634361267, -0.14181853830814362, 0.1373090296983719, 0.12398189306259155, -0.05669283866882324, 0.13756777346134186, -0.15682809054851532, -0.04349595680832863, 0.4217342138290405, 0.13592946529388428, 0.08401308208703995, 0.05830644816160202, 0.033546872437000275,
-0.15378406643867493, -0.2032894492149353, -0.03775719553232193, 0.1140311062335968, 0.08671443164348602, -0.2112506777048111, -0.040763985365629196, 0.03199801594018936, -0.025260742753744125, 0.05921350419521332, 0.07361119985580444, 0.11583995819091797, 0.1375999003648758, -0.1100907176733017, -0.0661134198307991, -0.0426131933927536, 0.008745727129280567, -0.06735244393348694, 0.2740478813648224, -0.23860573768615723, -0.05933579057455063, -0.22603639960289001, 0.07015886157751083, -0.36099907755851746,
-0.0561702623963356, -0.161293163895607, 0.08634242415428162, 0.03081336058676243, -0.32450252771377563, -0.14646901190280914, 0.012529140338301659, 0.08384007215499878, -0.012736099772155285, 0.1918541043996811, -0.009650063700973988, 0.04441879317164421, 0.027913350611925125, 0.1489797979593277, 0.020018987357616425, 0.1376563459634781, 0.29625120759010315, -0.12843312323093414, 0.08151845633983612, 0.08496064692735672, 0.04561271890997887, 0.18720722198486328, 0.34420245885849, 0.12248145043849945,
-0.06924648582935333, 0.21064187586307526, -0.031939797103405, -0.11237914115190506, -0.017955077812075615, -0.01219881884753704, -0.05377267301082611, 0.18312223255634308, -0.11817780882120132, 0.1279287487268448, 0.18546248972415924, 0.04514094814658165, -0.10361288487911224, -0.0507783405482769, -0.2947116196155548, 0.2738651633262634, -0.23438741266727448, -0.12897047400474548, 0.18759042024612427, -0.15343217551708221, -0.06470488011837006, -0.003431338584050536, 0.038470152765512466, -0.11767546087503433,
0.056927502155303955, -0.2243291139602661, 0.030024796724319458, 0.19351014494895935, 0.08785603940486908, 0.28897181153297424, 0.06227140501141548, -0.02244340069591999, -0.3577248752117157, -0.09034435451030731, 0.12425462901592255, -0.19805395603179932, -0.2331295758485794, -0.03184400871396065, 0.06231420859694481, -0.10922747105360031, 0.11941986531019211, 0.16744591295719147, -0.027319852262735367, 0.05389104411005974, -0.15718862414360046, 0.009052968584001064, -0.39784106612205505, -0.05739955976605415,
-0.037106480449438095, 0.1474931240081787, -0.08038467168807983, 0.1526573896408081, -0.015268311835825443, 0.059155259281396866, 0.05047525092959404, 0.36061733961105347, -0.12099876254796982, 0.16951122879981995, 0.005077128764241934, -0.042888347059488297, -0.008435430936515331, -0.25666892528533936, -0.0772126242518425, -0.10501055419445038, -0.2802748382091522, -0.25713229179382324, 0.0478176549077034, -0.05027363449335098, 0.03469480201601982, 0.08723852783441544, 0.04059973731637001, 0.07646136730909348,
-0.2288976013660431, 0.1641208529472351, 0.13426680862903595, -0.02241690456867218, -0.006980112288147211, -0.11271703988313675, -0.07702119648456573, 0.12405728548765182, -0.1157313734292984, -0.09471998363733292, -0.01632598228752613, -0.27373600006103516, -0.15073904395103455, 0.0005800693761557341, -0.039267100393772125, -0.27835962176322937, 0.04769468307495117, 0.32202163338661194, -0.017672138288617134, 0.15746670961380005, -0.1227109357714653, 0.15167570114135742, -0.22371916472911835, -0.05816807225346565,
-0.2528204023838043, 0.05495776981115341, -0.14225365221500397, -0.19703763723373413, -0.13315993547439575, 0.0946032702922821, -0.034892234951257706, -0.24064739048480988, 0.07979864627122879, -0.04909444600343704, -0.17820949852466583, -0.14094141125679016, -0.20680847764015198, 0.03469182178378105, 0.04821678623557091, 0.022773507982492447, 0.21951672434806824, -0.08846873790025711, 0.01691860519349575, -0.19537027180194855, -0.19963917136192322, -0.1110377237200737, -0.03511590510606766, 0.10046276450157166,
0.07507554441690445, 0.19104813039302826, -0.2026951164007187, 0.11127682030200958, 0.024232827126979828, -0.05572076886892319, 0.012076935730874538, -0.22332820296287537, 0.2203769087791443, 0.10990112274885178, 0.06335872411727905, 0.16285479068756104, -0.28306570649147034, -0.04216641187667847, 0.2918993830680847, -0.41796767711639404, 0.029547717422246933, -0.03870697319507599, 0.08315099030733109, 0.06727441400289536, -0.24795803427696228, 0.05739414319396019, 0.012919558212161064, -0.17769792675971985,
-0.0683806836605072, -0.2936724126338959, 0.03721931204199791, -0.04068482294678688, -0.2022581249475479, 0.017751092091202736, -0.027219196781516075, 0.038946181535720825, -0.11879044771194458, 0.2168784737586975, 0.14741066098213196, -0.08564270287752151, 0.10559947043657303, -0.13673165440559387, -0.057442449033260345, -0.20387035608291626, 0.21578846871852875, -0.17529241740703583, 0.09389689564704895, -0.03402794525027275, 0.05340958386659622, -0.09805358946323395, -0.10773942619562149, 0.021365828812122345,
-0.024725312367081642, 0.08435699343681335, 0.22268830239772797, -0.05314566567540169, 0.04560544341802597, -0.12483830749988556, 0.09235014766454697, 0.052475567907094955, -0.21020227670669556, 0.05659257620573044, 0.07374263554811478, 0.008671748451888561, 0.1268346905708313, 0.06191528961062431, -0.1383126974105835, -0.0469699427485466, 0.058581456542015076, 0.14274777472019196, -0.10368620604276657, 0.0656106248497963, 0.1902661770582199, 0.2779015600681305, -0.12409788370132446, 0.037183977663517,
-0.14178180694580078, 0.26510125398635864, -0.16292941570281982, 0.12137565016746521, -0.009531233459711075, 0.0030126029159873724, 0.06423962861299515, 0.4449993073940277, 0.017252033576369286, -0.05267900601029396, 0.13957101106643677, -0.03332151845097542, -0.02029305510222912, 0.118849977850914, -0.29285022616386414, 0.03750208020210266, 0.07287819683551788, -0.11338460445404053, 0.13483747839927673, 0.18774005770683289, 0.14176729321479797, 0.09054356813430786, -0.08836371451616287, -0.04106922075152397,
-0.12105438113212585, -0.05316238850355148, 0.1489068865776062, -0.23985332250595093, -0.08024931699037552, 0.017084700986742973, -0.13794343173503876, -0.29385286569595337, -0.18273195624351501, -0.31891578435897827, 0.12149906903505325, 0.2885226607322693, -0.1376044899225235, 0.0161382295191288, -0.057064272463321686, -0.3083013594150543, -0.06792096048593521, -0.05254226550459862, 0.12740175426006317, -0.005569104105234146, -0.12240885943174362, 0.16846628487110138, 0.11301583051681519, -0.20059654116630554,
0.02047143690288067, -0.1757514476776123, 0.013615545816719532, 0.13259920477867126, 0.12091188877820969, 0.02658747509121895, 0.2284233272075653, 0.07246064394712448, 0.06342242658138275, 0.08182672411203384, 0.17075078189373016, 0.08141104131937027, -0.1454271823167801, -0.08717631548643112, -0.08770902454853058, 0.07841994613409042, -0.18337950110435486, -0.014207727275788784, -0.10064009577035904, -0.02146303839981556, -0.15008020401000977, 0.2584168612957001, -0.005600502714514732, 0.08339112997055054,
0.13652148842811584, 0.28530314564704895, -0.14509759843349457, -0.08273705840110779, -0.019865944981575012, -0.01768994890153408, 0.2664914131164551, 0.33829066157341003, -0.09690213948488235, -0.04718393832445145, -0.06903797388076782, -0.04008165001869202, 0.23815231025218964, -0.08180859684944153, 0.21128028631210327, 0.09092854708433151, 0.006286951247602701, 0.06736373156309128, -0.16987068951129913, -0.09261411428451538, -0.150127112865448, 0.15645690262317657, 0.09072427451610565, -0.042545221745967865,
-0.11834757030010223, 0.053546421229839325, -0.09318660944700241, -0.057486604899168015, 0.024903729557991028, -0.1411527693271637, 0.16292542219161987, -0.19268810749053955, 0.09096350520849228, 0.07562670111656189, -0.13915134966373444, -0.34027037024497986, -0.11238154023885727, -0.344335675239563, 0.15600410103797913, 0.28418198227882385, 0.030699625611305237, -0.26550179719924927, -0.15007957816123962, 0.2284041792154312, 0.14680886268615723, -0.28179505467414856, -0.08351079374551773, 0.0716385543346405,
-0.13576070964336395, 0.020383106544613838, -0.04969406872987747, 0.18963941931724548, 0.03703911602497101, 0.1992744356393814, -0.052728425711393356, 0.1703432947397232, -0.04267425835132599, 0.0835406705737114, 0.017936620861291885, 0.06588587164878845, 0.10217678546905518, -0.25934356451034546, 0.009796492755413055, 0.06781672686338425, 0.06370563805103302, -0.23022502660751343, 0.002240322530269623, 0.1418515145778656, 0.05940951034426689, 0.20424363017082214, 0.15726330876350403, -0.13867323100566864,
0.005353694315999746, 0.10805416852235794, 0.1175178810954094, -0.02366894669830799, 0.011434955522418022, -0.02451440691947937, 0.007135163061320782, 0.16696377098560333, 0.09182600677013397, -0.14210645854473114, 0.15704034268856049, 0.13246800005435944, -0.1795763373374939, 0.22486074268817902, 0.44653233885765076, 0.12098734825849533, 0.008391077630221844, 0.0624777227640152, -0.10599552094936371, 0.08037836104631424, -0.1008487120270729, -0.32447174191474915, -0.02396937645971775, -0.16972361505031586,
-0.2377857267856598, 0.20565226674079895, -0.03600677102804184, 0.06779732555150986, 0.1308436095714569, -0.18871557712554932, -0.068492092192173, -0.14834848046302795, 0.01708993874490261, -0.163462832570076, 0.04500068351626396, 0.04397771507501602, -0.060514066368341446, 0.3265059292316437, 0.1706840544939041, -0.14644400775432587, 0.09869523346424103, -0.15248511731624603, -0.08313179761171341, 0.12523077428340912, -0.07448456436395645, 0.03568682074546814, -0.05041211470961571, 0.08312121778726578,
-0.16839084029197693, 0.1719595193862915, 0.025995885953307152, -0.029435139149427414, -0.10229430347681046, 0.2832525372505188, -0.06547555327415466, -0.11038234084844589, 0.059818267822265625, 0.1618795543909073, 0.1096799373626709, -0.044685930013656616, 0.0982670783996582, -0.08042535930871964, -0.3746040165424347, 0.03009440377354622, -0.0729931890964508, -0.10477667301893234, -0.07294778525829315, -0.08129774779081345, 0.05379916727542877, -0.003665352938696742, -0.5239951014518738, -0.014777043834328651,
-0.050373949110507965, 0.2214420586824417, -0.10658837109804153, -0.0949152484536171, 0.005718103144317865, 0.019130369648337364, -0.2612379789352417, -0.22655680775642395, -0.16844074428081512, -0.0005242395563982427, -0.006143935490399599, 0.05641758814454079, -0.19668741524219513, 0.17324326932430267, 0.2186063528060913, -0.14662522077560425, 0.15641406178474426, -0.04547092691063881, -0.04837625101208687, -0.2569798231124878, -0.11310897767543793, 0.04465097561478615, 0.10923432558774948, 0.07235032320022583,
0.05370159074664116, 0.10553325712680817, 0.2775461971759796, 0.07618488371372223, 0.24319539964199066, -0.1900150179862976, -0.047260068356990814, 0.06459325551986694, 0.07980170845985413, -0.1850217580795288, 0.05309261009097099, 0.2529680132865906, -0.12682569026947021, -0.01273294072598219, 0.012703516520559788, -0.13946093618869781, -0.031024135649204254, 0.14974062144756317, -0.047261595726013184, -0.0598655603826046, -0.18054024875164032, -0.13462582230567932, 0.040871985256671906, 0.08355796337127686,
0.037492502480745316, 0.12193978577852249, 0.15120713412761688, 0.06923700124025345, 0.05101068317890167, 0.18469737470149994, -0.10789918899536133, 0.21471329033374786, -0.06102366000413895, 0.05130458623170853, 0.019661331549286842, 0.048646554350852966, -0.10743171721696854, 0.32730019092559814, 0.17132139205932617, -0.04275913164019585, 0.09805772453546524, 0.07920819520950317, 0.03052232228219509, 0.03245957940816879, -0.28760263323783875, -0.037141770124435425, -0.10855061560869217, 0.07840519398450851,
0.13470330834388733, 0.05624771490693092, -0.04631797596812248, -0.17327715456485748, -0.049502987414598465, 0.09744169563055038, 0.028804952278733253, 0.15747389197349548, -0.14123310148715973, 0.004985394887626171, 0.03340885415673256, 0.14623840153217316, 0.3263464868068695, -0.07696357369422913, -0.15298764407634735, -0.10393138974905014, 0.02760465443134308, 0.30528342723846436, 0.06392207741737366, 0.13171008229255676, 0.03154192864894867, 0.10251764953136444, 0.33985117077827454, -0.07526107132434845,
-0.23381412029266357, 0.3070409297943115, 0.24007786810398102, 0.03080597147345543, -0.08735271543264389, 0.298295795917511, 0.022072073072195053, 0.1212134137749672, 0.18236848711967468, 0.05066146329045296, 0.0267782099545002, 0.014221853576600552, 0.15706029534339905, 0.06036913022398949, 0.14048483967781067, -0.15586814284324646, -0.12090437859296799, 0.19911381602287292, 0.06054367870092392, 0.10273624211549759, -0.026332765817642212, 0.00975151639431715, -0.007514743600040674, -0.10841402411460876,
-0.18884964287281036, 0.16376855969429016, 0.0350928008556366, 0.0352594330906868, -0.12133752554655075, -0.29902881383895874, -0.07809795439243317, -0.03495057299733162, -0.39400503039360046, -0.10808820277452469, -0.02358650416135788, 0.11293689161539078, -0.11892951279878616, 0.04609065130352974, -0.056890033185482025, 0.0455140694975853, 0.053097713738679886, -0.07261782139539719, -0.18782073259353638, 0.33607321977615356, -0.351339727640152, -0.007961018942296505, 0.023823436349630356, 0.013258361257612705,
-0.019130393862724304, 0.056958626955747604, -0.032842811197042465, 0.007474027574062347, 0.18177996575832367, -0.05501561984419823, -0.16956432163715363, -0.22525164484977722, 0.1457499861717224, 0.026919927448034286, -0.035223960876464844, -0.23233114182949066, -0.0002884209679905325, -0.02396084927022457, 0.2736372649669647, 0.011604742147028446, -0.006269610021263361, -0.019392823800444603, 0.001803459133952856, 0.04484366625547409, 0.2817922532558441, -0.025756778195500374, -0.19605645537376404, -0.19181419909000397,
-0.1542079597711563, -0.011526692658662796, 0.047896262258291245, 0.009344480000436306, 0.03110428899526596, -0.11653148382902145, -0.13588930666446686, 0.013178281486034393, 0.23467272520065308, 0.07131163030862808, -0.033495526760816574, 0.1568688005208969, 0.16150830686092377, 0.005465135909616947, 0.2637242376804352, 0.027599001303315163, 0.1884010285139084, -0.05327599123120308, -0.06247897073626518, -0.15183182060718536, -0.10597502440214157, 0.24909991025924683, -0.04352531582117081, -0.083328977227211,
0.15273724496364594, 0.14799705147743225, 0.06945071369409561, -0.14361368119716644, -0.11415184289216995, -0.029397374019026756, -0.04052801802754402, 0.22105412185192108, -0.03574521467089653, -0.07352982461452484, 0.0068132937885820866, -0.0549374483525753, 0.10940595716238022, -0.041383400559425354, -0.08422470837831497, -0.02005027048289776, 0.16640229523181915, -0.24919293820858002, 0.19458697736263275, 0.04626107215881348, -0.3021979033946991, 0.35749009251594543, 0.175249382853508, 0.05615466460585594,
0.058834418654441833, 0.02630605176091194, -0.08789101988077164, 0.17765550315380096, 0.21427933871746063, -0.14218318462371826, -0.040275171399116516, 0.3209763467311859, -0.0934797152876854, -0.058228928595781326, -0.05399871990084648, -0.03538845106959343, -0.19147028028964996, 0.08599215745925903, 0.017078205943107605, 0.042493149638175964, 0.11114546656608582, -0.07343805581331253, 0.09307616204023361, -0.18006113171577454, -0.19927945733070374, 0.027782374992966652, -0.0005367888952605426, -0.12241097539663315,
0.16989457607269287, 0.2567533254623413, 0.17035160958766937, -0.10685808211565018, -0.1750624030828476, 0.04229489713907242, 0.18600203096866608, -0.20173253118991852, 0.04316588491201401, 0.19899044930934906, 0.26629915833473206, -0.13950736820697784, -0.029659342020750046, -0.11536692827939987, 0.03716021776199341, 0.13382911682128906, 0.05633964017033577, -0.2145017385482788, 0.04682883620262146, -0.09785736352205276, 0.06554048508405685, -0.034479063004255295, 0.07027201354503632, -0.33890634775161743,
0.1387454867362976, -0.010853007435798645, -0.05751166120171547, 0.05535849183797836, -0.1382434070110321, 0.019801460206508636, -0.009431823156774044, -0.10920538753271103, -0.09142525494098663, -0.2212643176317215, -0.0035828016698360443, 0.2847673296928406, 0.24940943717956543, 0.0700964406132698, -0.0614665225148201, -0.29193830490112305, 0.007131276186555624, -0.14474022388458252, -0.10826712846755981, 0.10744046419858932, -0.24342277646064758, -0.0943715050816536, 0.010406093671917915, 0.06764300167560577,
0.15024136006832123, -0.17719396948814392, 0.1968056857585907, -0.050935957580804825, -0.31931665539741516, 0.059814076870679855, 0.03470798209309578, -0.11471355706453323, 0.01945279911160469, -0.15209104120731354, 0.026486797258257866, 0.1543877124786377, -0.13023310899734497, -0.005010618362575769, -0.023988744243979454, 0.25163784623146057, -0.033971600234508514, 0.023738622665405273, -0.07565369457006454, 0.07280156761407852, -0.2259248048067093, 0.29867345094680786, -0.30434414744377136, -0.06345517188310623,
-0.16841641068458557, -0.03005923144519329, 0.3100305497646332, -0.05647336691617966, 0.034219224005937576, -0.15455842018127441, 0.11345943063497543, 0.16030879318714142, 0.03446412459015846, -0.12367166578769684, -0.12299790233373642, 0.03676974028348923, 0.18778927624225616, -0.11444872617721558, -0.26337820291519165, -0.12382209300994873, 0.23282602429389954, 0.16382522881031036, 0.18623560667037964, -0.023943502455949783, 0.13095054030418396, 0.2609899640083313, -0.26937684416770935, -0.03221490979194641,
0.010610423050820827, 0.11185119301080704, -0.053911980241537094, -0.016306458041071892, 0.00971770379692316, 0.0013187159784138203, 0.18342351913452148, 0.04325033724308014, 0.06833595037460327, 0.1904250979423523, -0.030111882835626602, 0.17633968591690063, 0.17709589004516602, -0.1949695348739624, -0.00041876500472426414, -0.029364056885242462, -0.14740917086601257, -0.026576539501547813, 0.12086865305900574, -0.15019656717777252, 0.06905391812324524, 0.37219250202178955, -0.03975306451320648, 0.03628036752343178,
-0.13408198952674866, -0.11273710429668427, 0.0732114240527153, -0.05945894867181778, 0.028393644839525223, -0.007928150705993176, -0.04887602478265762, 0.3298860490322113, -0.010209482163190842, 0.1931503713130951, -0.030201449990272522, 0.22780507802963257, -0.05120309069752693, -0.14548508822917938, 0.253587007522583, -0.10071631520986557, -0.1866229623556137, 0.10536334663629532, 0.17620545625686646, -0.19357910752296448, 0.12689368426799774, -0.03240310773253441, -0.20961450040340424, -0.18571965396404266,
0.1452690064907074, -0.09407889097929001, 0.0708698034286499, 0.044525016099214554, 0.12714999914169312, 0.16886760294437408, 2.2859228920424357e-05, -0.15448765456676483, 0.21382874250411987, 0.1597682535648346, 0.23180148005485535, 0.03982890024781227, -0.16957129538059235, 0.23714210093021393, -0.07429565489292145, 0.1542753428220749, 0.0823751911520958, -0.08428369462490082, 0.15077130496501923, 0.05892938748002052, 0.10323933511972427, -0.11353279650211334, 0.13560588657855988, 0.09073778986930847,
-0.030443448573350906, 0.03936498984694481, -0.0825824961066246, -0.11145997047424316, -0.11249159276485443, 0.36117392778396606, -0.14166460931301117, -0.04258693754673004, -0.02904238924384117, 0.006759320851415396, -0.23702731728553772, -0.10782483220100403, -0.14845308661460876, 0.25077304244041443, 0.00469085993245244, 0.03194553405046463, -0.10227527469396591, 0.058873388916254044, 0.16833196580410004, -0.004806147422641516, -0.00259845401160419, -0.08468234539031982, -0.18435038626194, 0.016529716551303864,
-0.22014178335666656, -0.07192092388868332, -0.12395571172237396, 0.3690415024757385, -0.04938773810863495, -0.05372646078467369, -0.13164500892162323, -0.13154304027557373, -0.07237787544727325, -0.0006959533784538507, 0.016537073999643326, -0.1894589513540268, -0.19804805517196655, 0.2387121021747589, 0.23248401284217834, 0.0007783242617733777, -0.0371125191450119, -0.016814690083265305, -0.1339830607175827, 0.02181677520275116, 0.01011061854660511, 0.09803991764783859, 0.015793845057487488, -0.09491785615682602,
0.026438795030117035, 0.36347535252571106, 0.10443361848592758, -0.0498211644589901, 0.21040630340576172, -0.1959848552942276, 0.07099933922290802, 0.0721919983625412, 0.08685518801212311, -0.00962065439671278, 0.1974761188030243, -0.015881577506661415, 0.04125210642814636, -0.13472980260849, -0.16088280081748962, -0.16712039709091187, -0.030088897794485092, 0.059795018285512924, 0.1152418926358223, -0.08138834685087204, -0.11030710488557816, 0.058187540620565414, 0.275465190410614, 0.031714390963315964,
-0.19195391237735748, 0.19846107065677643, 0.07586473971605301, 0.07668823003768921, -0.22830262780189514, -0.010061201639473438, -0.13374190032482147, -0.16169661283493042, 0.069302037358284, -0.020205972716212273, -0.01970662735402584, 0.007587695959955454, -0.13507774472236633, -0.19428986310958862, 0.0359531044960022, 0.03467678278684616, -0.014490224421024323, -0.049118272960186005, -0.21946027874946594, -0.0019047975074499846, -0.08083393424749374, 0.08449520170688629, 0.1296108514070511, 0.10665830224752426,
-0.032547928392887115, 0.1722400039434433, -0.06624435633420944, 0.11608684062957764, 0.15938512980937958, -0.036450885236263275, -0.09089745581150055, -0.1188451424241066, 0.058631572872400284, -0.12981334328651428, -0.049563705921173096, -0.1562870740890503, -0.1953851282596588, -0.09933024644851685, 0.16608835756778717, 0.3721507489681244, 0.18567700684070587, 0.09150123596191406, 0.030193937942385674, 0.03653547912836075, 0.05106159299612045, 0.010350456461310387, 0.04679546132683754, 0.2817592918872833,
0.09092893451452255, 0.07971851527690887, 0.06099899485707283, 0.026626959443092346, -0.17043982446193695, -0.21727921068668365, -0.2032730132341385, 0.33676809072494507, 0.09831535071134567, -0.017914630472660065, 0.3282146453857422, -0.2206970751285553, -0.21318568289279938, 0.2612013816833496, 0.11502130329608917, -0.18117284774780273, 0.09655226022005081, 0.19534046947956085, -0.012519224546849728, -0.005599751602858305, -0.09719976037740707, 0.19109104573726654, -0.10187841206789017, -0.39078912138938904,
-0.09458336979150772, 0.19619812071323395, -0.0498078279197216, -0.05413755029439926, 0.15071022510528564, 0.040980059653520584, -0.3144078552722931, -0.20670859515666962, 0.1454533040523529, 0.10425277054309845, -0.043148286640644073, 0.17276491224765778, 0.12608583271503448, -0.19037239253520966, -0.03721475601196289, 0.18722420930862427, 0.03033326007425785, 0.06620857119560242, -0.17824043333530426, 0.017437351867556572, 0.22012369334697723, -0.005954997148364782, 0.16801658272743225, -0.06798785924911499,
0.01907108724117279, 0.0745314508676529, 0.1285659521818161, 0.13371272385120392, 0.2215438187122345, -0.03109295293688774, -0.03710317239165306, -0.1379808485507965, -0.21417774260044098, 0.06126195192337036, -0.08958343416452408, -0.01205509901046753, 0.10176839679479599, 0.0572945699095726, 0.20700839161872864, -0.10634709149599075, 0.008632475510239601, -0.16933901607990265, 0.15018266439437866, -0.07231556624174118, 0.10288252681493759, 0.014783547259867191, 0.05461238697171211, -0.1700465977191925,
-0.02349126525223255, -0.12784600257873535, -0.1545732170343399, -0.06270897388458252, -0.05611218139529228, -0.21585336327552795, 0.11874217540025711, -0.2033541053533554, 0.024813491851091385, 0.1629018634557724, -0.08220034837722778, 0.12863066792488098, 0.05721323937177658, 0.1635865867137909, -0.19812241196632385, 0.23932482302188873, 0.265580952167511, 0.0014015388442203403, -0.031070638447999954, -0.18297919631004333, 0.13627620041370392, -0.26393160223960876, 0.05876067280769348, 0.030681349337100983,
-0.01712142303586006, -0.06580641120672226, 0.07939539104700089, -0.11840088665485382, 0.08673536777496338, -0.06491076946258545, 0.2441829890012741, 0.27855589985847473, 0.0008622676250524819, 0.08517590165138245, 0.08390139043331146, -0.1379697024822235, -0.24647057056427002, 0.1583586186170578, -0.10573219507932663, -0.2432631552219391, -0.0049891965463757515, -0.025861363857984543, -0.2990186810493469, -0.046961989253759384, 0.0005617234273813665, 0.1859377920627594, -0.041514571756124496, -0.07101436704397202,
-0.051377300173044205, -0.17544859647750854, 0.25537633895874023, 0.1133461743593216, 0.06057685241103172, 0.23857614398002625, 0.24622757732868195, -0.2189902812242508, 0.03521781042218208, -0.13546636700630188, 0.05700557306408882, -0.15973614156246185, -0.066318579018116, -0.13566482067108154, 0.04221508651971817, 0.1617836058139801, 0.18952780961990356, 0.06384163349866867, 0.09490247070789337, -0.06520572304725647, -0.06587417423725128, 0.027359938248991966, 0.08775274455547333, -0.1193631961941719
};

const float biases_fc1[] = {
-0.019266817718744278, -0.019682789221405983, -0.02099791169166565, 0.029697999358177185, 0.013515057042241096, 0.0007090388680808246, 0.02532435767352581, 0.0349317230284214, 0.01555850449949503, -0.0032231423538178205, 0.009725483134388924, -0.002234897343441844, -0.012834684923291206, -0.012300018221139908, -0.005484621040523052, -0.021895907819271088, -0.02437247894704342, 0.024434009566903114, 0.01888309419155121, 0.012992218136787415, -0.06000525876879692, 0.005208166316151619, -0.008342962712049484, -0.019018393009901047, 0.038300931453704834, 0.009581944905221462, 0.03901771456003189, 0.02408442832529545, -0.013626178726553917, 0.002792558167129755, 0.03825787454843521, 0.027267612516880035, -0.0308955367654562, -0.05562077462673187, -0.03130548819899559, -0.011625026352703571, 0.011198506690561771, 0.0030659062322229147, 0.02910318411886692, 0.03829259052872658, 0.012421821244060993, -0.024972904473543167, -0.037169381976127625, -0.007932025007903576, 0.02462572045624256, -0.012175621464848518, 0.005758429411798716, 0.009898612275719643, -0.0286167673766613, -0.00627033319324255, 0.007171653676778078, -0.02623850479722023, -0.024769358336925507, -0.01353086531162262, -0.01868523471057415, 0.03811946138739586, 0.016088156029582024, -0.011883986182510853, -0.006553068291395903, 0.004758328665047884, -0.00857727974653244, 0.031226249411702156, 0.03497902676463127, -0.047356557101011276, 0.02211122028529644, 0.011806031689047813, 0.00184434384573251, 0.004189576022326946, 0.06017368286848068, 0.017519447952508926, -0.0024510144721716642, -0.013663528487086296, -0.009446583688259125, -0.011967451311647892, 0.028703873977065086, -0.03240521252155304, -0.018729832023382187, -0.04607939347624779, 0.04563596844673157, 0.031371861696243286, -0.005412351805716753, 0.03859904780983925, -0.004386615473777056, 0.0486912876367569, 0.03640161082148552, -0.012238346971571445, 0.03224169462919235, 0.0572890043258667, -0.0007262020371854305, 0.0372345969080925, 0.04175495728850365, -0.0004486256802920252, 0.030218621715903282, 0.004362700041383505, 0.011507611721754074, 0.04960446059703827, 0.01943633332848549, 0.039628561586141586, 0.02338336780667305, 0.03158785030245781, 0.026396380737423897, -0.03390873596072197, -0.028028128668665886, -0.01862095110118389, 0.07461187988519669, 0.04067309573292732, 0.003310049884021282, -0.057814180850982666, 0.00487085897475481, 0.009725979529321194, 0.05377116799354553, 0.028549667447805405, -0.0011304536601528525, 0.0062984321266412735, 0.022373579442501068, -0.012549863196909428, 0.018812719732522964, 0.0038248545024544, -0.026054909452795982, 0.021749045699834824
};

const float weights_fc2[] = {
0.022256728261709213, 0.23617085814476013, -0.024846844375133514, 0.01557865273207426, 0.0915098786354065, 0.1882622092962265, -0.3171018064022064, -0.08496542274951935, 0.01581193134188652, 0.18632569909095764, 0.24886122345924377, 0.09446181356906891, 0.08975323289632797, -0.023679854348301888, 0.12198185175657272, -0.03131696209311485, -0.28846126794815063, 0.03342019394040108, 0.2398872673511505, 0.0968436524271965, 0.01755386032164097, -0.07991059124469757, 0.046167515218257904, 0.0376754030585289, 0.31670013070106506, -0.07233015447854996, 0.22126451134681702, 0.19063694775104523, -0.11932850629091263, -0.14482492208480835, -0.10409730672836304, 0.11671535670757294, 0.01283793244510889, -0.2899281084537506, -0.10080474615097046, -0.16147968173027039, 0.036886148154735565, 0.015833910554647446, 0.001593726803548634, 0.15579892694950104, 0.03911662474274635, -0.0798085406422615, -0.030214570462703705, 0.08264687657356262, -0.04396611079573631, -0.07013194262981415, 0.11496993899345398, -0.08135473728179932, -0.23030388355255127, 0.030994947999715805, -0.01080516166985035, -0.22123005986213684, -0.19217033684253693, -0.13729655742645264, 0.020569559186697006, -0.012975270859897137, -0.004213197156786919, 0.000870328804012388, -0.04525568336248398, -0.22950422763824463, -0.06189719960093498, 0.10574212670326233, 0.08920632302761078, 0.0011578607372939587, -0.010457931086421013, -0.24393035471439362, -0.1659710556268692, -0.1651996523141861, 0.03941718116402626, 0.23019225895404816, -0.2361041009426117, 0.0294498261064291, -0.08168996870517731, 0.026514343917369843, 0.022838344797492027, 0.05572699010372162, -0.021355925127863884, -0.035736724734306335, -0.0681343674659729, -0.005183042958378792, 0.07624813914299011, -0.08096013218164444, 0.1778775453567505, -0.0012710164301097393, 0.06723281741142273, -0.1297776848077774, 0.17476871609687805, 0.08898657560348511, 0.29804500937461853, 0.18779028952121735, 0.08533482253551483, -0.03790295124053955, 0.054474279284477234, -0.314341276884079, -0.014266093261539936, -0.2717830538749695, -0.04263080283999443, -0.0025650591123849154, -0.1717422753572464, -0.03895241394639015, 0.07403762638568878, -0.07445282489061356, -0.005697066895663738, -0.014568091370165348, -0.06524982303380966, 0.08112777769565582, 0.04641250893473625, 0.1125163584947586, -0.08345897495746613, -0.24481303989887238, -0.12191382795572281, 0.0990724116563797, 0.14227183163166046, -0.14051547646522522, 0.05038531869649887, -0.18384534120559692, -0.11424250155687332, -0.02593093179166317, 0.07270417362451553, -0.02336198464035988,
0.054826442152261734, 0.1954115629196167, -0.060577716678380966, 0.27328553795814514, -0.1669580191373825, -0.03706567361950874, -0.09844762086868286, -0.0626264289021492, -0.19488054513931274, 0.18394678831100464, -0.1457732915878296, 0.05287093296647072, 0.07982105016708374, -0.11660664528608322, -0.16608738899230957, -0.2041199952363968, 0.023962177336215973, 0.1831057369709015, 0.11753445863723755, -0.0027772304601967335, 0.06294837594032288, -0.13964758813381195, -0.1946013867855072, 0.13463802635669708, -0.07256744801998138, 0.1287052482366562, 0.0792376920580864, 0.15068472921848297, 0.11943476647138596, -0.17592938244342804, -0.029681671410799026, -0.06514346599578857, -0.03958094120025635, 0.0780193954706192, -0.009778394363820553, -0.08913656324148178, 0.11403601616621017, 0.032927922904491425, -0.006479933857917786, 0.16368871927261353, 0.007361067458987236, 0.0003144464862998575, -0.09812673181295395, -0.18428130447864532, 0.15343980491161346, -0.03619128838181496, -0.09303464740514755, -0.09879490733146667, 0.18158802390098572, 0.08622092753648758, 0.2690125107765198, 0.1568513959646225, 0.08309342712163925, -0.04376542940735817, 0.0033946719486266375, 0.0089031420648098, 0.22582823038101196, 0.03419676423072815, 0.28757357597351074, -0.1237255185842514, -0.03198230266571045, -0.2630569636821747, -0.04774697497487068, 0.05114472284913063, 0.0500512532889843, 0.18786022067070007, 0.014119776897132397, 0.1729307621717453, -0.02021746337413788, -0.09800486266613007, -0.10458376258611679, 0.015136544592678547, 0.11129651218652725, 0.10948844999074936, 0.15669198334217072, -0.05468878895044327, -0.08055289834737778, -0.0117337079718709, 0.2227989137172699, 0.03237086161971092, 0.027984555810689926, 0.04267214983701706, 0.11783144623041153, -0.19641564786434174, 0.06187432259321213, -0.10404309630393982, -0.03511519357562065, -0.12387421727180481, 0.05868185684084892, -0.007399325259029865, -0.033171407878398895, -0.04007413983345032, 0.17162249982357025, 0.15361489355564117, 0.12481893599033356, -0.14725489914417267, -0.07464369386434555, 0.08274306356906891, -0.1206245869398117, -0.10309313982725143, 0.04414835199713707, -0.08785389363765717, -0.03889584168791771, -0.031787335872650146, -0.04074983298778534, 0.04173988848924637, 0.21870440244674683, -0.0171694103628397, -0.0907788872718811, -0.23947259783744812, -0.11393249034881592, -0.15947535634040833, -0.13205786049365997, 0.24721850454807281, -0.2727462351322174, 0.22766901552677155, 0.16304245591163635, 0.11456184089183807, 0.09611091762781143, 0.24340173602104187,
-0.06967593729496002, 0.0826447382569313, 0.0471234992146492, -0.01181644108146429, -0.05483235791325569, -0.1065167486667633, 0.021297093480825424, -0.09338150173425674, 0.04958449676632881, 0.024099426344037056, -0.04779268801212311, -0.04416521266102791, -0.01955914869904518, -0.13146428763866425, 0.09592708945274353, 0.01388045959174633, 0.13644489645957947, -0.1271870732307434, 0.11874382197856903, 0.23281995952129364, -0.1679057776927948, -0.34379813075065613, -0.013329834677278996, -0.20721392333507538, 0.04939688742160797, -0.06142581254243851, -0.25805750489234924, -0.021974684670567513, -0.12713845074176788, -0.08892729878425598, -0.029301857575774193, -0.020292941480875015, 0.1866787075996399, -0.07083634287118912, 0.12481854856014252, -0.3128068745136261, -0.25107094645500183, -0.18845568597316742, -0.0078119682148098946, -0.003788915229961276, -0.24746154248714447, -0.1364116221666336, 0.17093738913536072, 0.07684466987848282, 0.010796744376420975, -0.12905460596084595, 0.04932178929448128, 0.010215220041573048, -0.17838580906391144, 0.015207736752927303, 0.08229823410511017, -0.08834772557020187, 0.14587119221687317, -0.15468908846378326, -0.04600988328456879, 0.048829350620508194, -0.1139586791396141, 0.07013410329818726, -0.18051256239414215, -0.09373781830072403, -0.12514160573482513, -0.11672662198543549, -0.06944350898265839, -0.055232297629117966, -0.12381307780742645, -0.07453185319900513, -0.17456279695034027, 0.07528427243232727, 0.08427291363477707, -0.2588011920452118, 0.1845841407775879, -0.2640940248966217, -0.3027215898036957, -0.10792620480060577, -0.09575384110212326, 0.06498921662569046, 0.06987699121236801, 0.1148219183087349, -0.04250229895114899, -0.0004396717995405197, 0.03233638033270836, 0.07559077441692352, -0.16088499128818512, -0.0443398542702198, 0.18194302916526794, 0.09023842215538025, 0.08437879383563995, -0.1908731907606125, 0.10655707865953445, 0.2555358409881592, 0.1332138329744339, -0.008668944239616394, 0.16971929371356964, 0.07903297990560532, 0.09403426945209503, 0.10039974749088287, -0.02731514908373356, 0.05850508064031601, 0.05012374371290207, -0.2826175093650818, 0.007827085442841053, 0.1743512749671936, 0.12119368463754654, -0.14443771541118622, -0.0659719929099083, 0.05573614314198494, -0.04826902970671654, 0.017137696966528893, -0.0954660102725029, -0.13574716448783875, 0.1943517029285431, -0.11442765593528748, -0.21809740364551544, -0.08999577909708023, -0.17132894694805145, 0.09142147749662399, 0.05555471405386925, 0.12226734310388565, 0.044677603989839554, 0.025248754769563675,
0.016143426299095154, -0.06916304677724838, 0.13904838263988495, 0.2698962390422821, 0.05001811310648918, 0.002103424398228526, 0.13919492065906525, -0.03593248128890991, -0.09353992342948914, 0.08888684213161469, -0.14495421946048737, -0.07679056376218796, -0.06571462750434875, -0.03903548792004585, -0.06559544801712036, -0.0893421322107315, 0.07125355303287506, -0.24901537597179413, 0.19683104753494263, -0.02601887285709381, 0.19285887479782104, 0.10911485552787781, 0.10633253306150436, -0.17240983247756958, 0.07675247639417648, -0.17816391587257385, 0.0674302875995636, -0.041272830218076706, -0.08644874393939972, 0.21453237533569336, -0.011975199915468693, 0.19908025860786438, 0.19117005169391632, -0.08060410618782043, 0.21412722766399384, 0.18469618260860443, 0.03145189210772514, 0.09541822224855423, -0.12434985488653183, 0.2031182497739792, 0.20372110605239868, -0.03052196279168129, 0.043458372354507446, -0.010555615648627281, 0.07327740639448166, -0.2628065347671509, -0.052068836987018585, -0.12025729566812515, 0.18261203169822693, 0.057409100234508514, 0.022138549014925957, -0.20522722601890564, -0.21130673587322235, 0.14905400574207306, -0.23624546825885773, -0.19955524802207947, 0.09031499177217484, -0.02564503625035286, 0.08863285928964615, -0.21752126514911652, -0.10401330888271332, -0.1223970577120781, -0.08363751322031021, 0.06772355735301971, -0.0844770297408104, 0.07385046780109406, 0.18215864896774292, -0.0845976248383522, -0.09504250437021255, 0.020705940201878548, 0.18804048001766205, -0.06597229093313217, 0.08534155040979385, -0.06282386183738708, 0.15342645347118378, -0.06400547921657562, 0.04042671248316765, 0.025626646354794502, 0.04124761372804642, 0.047426968812942505, 0.15271657705307007, -0.11824729293584824, -0.17374032735824585, 0.07651536911725998, 0.06736662983894348, -0.10157418251037598, 0.04505094885826111, 0.07562253624200821, 0.05019146949052811, 0.0469878651201725, -0.050878096371889114, 0.025982046499848366, -0.041873376816511154, 0.12942254543304443, 0.06596166640520096, 0.08706209063529968, -0.1451406478881836, -0.07683960348367691, -0.2628980278968811, -0.1472780704498291, -0.1548701375722885, -0.1171380802989006, -0.017842276021838188, 0.16960251331329346, 0.2991698682308197, 0.07076698541641235, -0.2073388397693634, -0.058319367468357086, -0.0843430683016777, 0.09944424033164978, 0.019212396815419197, -0.15287527441978455, -0.23664948344230652, -0.16927598416805267, -0.0664384663105011, -0.09943348169326782, -0.04330559819936752, -0.2236437350511551, -0.10167030245065689, 0.24193435907363892,
0.028338950127363205, -0.2014325112104416, 0.05753961205482483, 0.12238956242799759, 0.013746943324804306, 0.19937917590141296, 0.030404023826122284, -0.13147954642772675, 0.27175259590148926, 0.1918124258518219, -0.027666116133332253, 0.01381963212043047, -0.08067271113395691, 0.04981600493192673, 0.03516605868935585, -0.27339547872543335, 0.00807829387485981, -0.14909830689430237, 0.01721685379743576, 0.1908247321844101, -0.24865342676639557, -0.19411328434944153, -0.09015080332756042, -0.20863616466522217, -0.06728827953338623, 0.021476980298757553, 0.14661777019500732, 0.08930956572294235, 0.18432332575321198, 0.2697547674179077, -0.22176533937454224, -0.144572451710701, 0.21195639669895172, 0.02933582104742527, 0.06295497715473175, 0.010213011875748634, 0.12314289063215256, 0.15251584351062775, -0.13753777742385864, -0.1876894235610962, -0.08561713248491287, -0.0525524728000164, -0.07982411980628967, 0.08647528290748596, -0.09036135673522949, -0.010848695412278175, 0.05707864835858345, 0.2554653584957123, 0.15467272698879242, -0.024954384192824364, -0.04100307822227478, 0.10616888850927353, -0.08313240855932236, 0.1532144546508789, 0.13759371638298035, 0.07703644782304764, 0.12705276906490326, 0.009031386114656925, 0.20887035131454468, -0.14671142399311066, 0.11752472817897797, 0.1603015959262848, -0.051246527582407, -0.06268070638179779, 0.11313554644584656, 0.07841015607118607, 0.14386969804763794, -0.23710396885871887, 0.14933431148529053, -0.034416474401950836, 0.06625624746084213, -0.02899656817317009, -0.1152590662240982, 0.004846884403377771, -0.18159444630146027, -0.007706341799348593, 0.014830578118562698, 0.08810938149690628, -0.21661926805973053, 0.021689968183636665, 0.0692630410194397, 0.02328321896493435, 0.1623925268650055, -0.05363158509135246, 0.27911075949668884, -0.03459158167243004, 0.0647796019911766, -0.1450885683298111, -0.23568186163902283, -0.05505402013659477, 0.0024579702876508236, 0.0847555547952652, 0.06566142290830612, -0.09781162440776825, 0.10001258552074432, 0.28231894969940186, -0.014527956023812294, -0.047576893121004105, 0.00898011028766632, 0.0502142459154129, 0.05110588297247887, -0.2737756371498108, -0.09441840648651123, 0.15790744125843048, -0.009984008967876434, -0.09235399961471558, -0.09067518264055252, 0.24354885518550873, -0.07603093981742859, -0.04951389878988266, -0.07839854061603546, -0.08670960366725922, 0.30528199672698975, 0.004564642906188965, -0.06400175392627716, 0.17229005694389343, 0.07483862340450287, 0.06272570043802261, 0.015622231177985668, 0.05150396376848221,
0.11699849367141724, 0.06482543796300888, 0.20919668674468994, 0.08549930155277252, 0.07495103031396866, 0.10589085519313812, -0.12484703212976456, 0.12399868667125702, -0.07198888808488846, -0.17424160242080688, 0.06847924739122391, 0.21166370809078217, -0.007410540711134672, -0.017204541712999344, -0.07471157610416412, -0.19321481883525848, 0.1448807418346405, 0.21617601811885834, -0.2133307009935379, 0.213406503200531, -0.17288435995578766, 0.17165814340114594, -0.028865622356534004, -0.0029945303685963154, 0.06767541170120239, 0.17139042913913727, -0.122593954205513, -0.07440599799156189, -0.019009701907634735, 0.04902935028076172, 0.05657229200005531, -0.007036926690489054, 0.0847257599234581, -0.03130600228905678, -0.039993349462747574, -0.024356873705983162, 0.08026909828186035, -0.16055822372436523, -0.17726846039295197, -0.06609431654214859, -0.11180925369262695, 0.07020886987447739, 0.047449879348278046, 0.16290046274662018, 0.14128071069717407, -0.11375943571329117, -0.06529849767684937, -0.0015454395906999707, -0.10498712956905365, 0.24184750020503998, 0.07667898386716843, -0.03916104882955551, -0.14755302667617798, -0.03777898848056793, -0.2326909303665161, -0.12394315749406815, 0.2149132490158081, 0.09559031575918198, -0.19421735405921936, -0.0675455629825592, 0.17349354922771454, -0.009701156057417393, -0.07780470699071884, -0.3627558648586273, 0.01688343659043312, 0.016498984768986702, 0.1284211426973343, -0.14283181726932526, 0.2154085636138916, -0.06636766344308853, 0.010934609919786453, -0.10943831503391266, 0.03910515457391739, 0.054151564836502075, 0.08203646540641785, 0.16434964537620544, -0.020957734435796738, 0.08919734507799149, 0.11381053179502487, -0.06637568771839142, 0.007832535542547703, 0.08777952939271927, -0.08214826881885529, -0.021687176078557968, -0.19866050779819489, -0.07579373568296432, 0.13592131435871124, -0.18457022309303284, 0.07143702358007431, -0.12264060974121094, -0.36042770743370056, -0.2640993595123291, -0.10088302940130234, -0.16830392181873322, -0.06345924735069275, -0.05117460712790489, 0.10428568720817566, -0.17093487083911896, -0.2825146019458771, 0.02288217283785343, 0.14056940376758575, 0.10369082540273666, -0.00479473639279604, -0.08864746987819672, -0.0497373528778553, -0.04108608886599541, -0.07253321260213852, 0.18324680626392365, 0.19024524092674255, -0.01770828478038311, 0.03665291890501976, 0.10988340526819229, -0.0920054167509079, 0.03955339267849922, 0.07445395737886429, 0.023636523634195328, 0.16447408497333527, -0.020414788275957108, -0.35416078567504883, 0.022782934829592705,
-0.03881761431694031, -0.09389712661504745, -0.1600767821073532, -0.1165241226553917, -0.025527283549308777, 0.12691761553287506, -0.10153206437826157, 0.13260267674922943, 0.05246913433074951, 0.04238370060920715, -0.11626095324754715, -0.11664760112762451, -0.08782962709665298, -0.20691511034965515, -0.10683711618185043, -0.11575763672590256, 0.052830297499895096, 0.024416333064436913, 0.13316191732883453, -0.0013529949355870485, -0.144609272480011, -0.09066993743181229, -0.015276062302291393, -0.029310980811715126, -0.06810406595468521, 0.01620822586119175, 0.037994105368852615, -0.09152888506650925, -0.11426523327827454, 0.0901762917637825, -0.23539507389068604, -0.06956053525209427, 0.1222354918718338, -0.025078626349568367, 0.020454922690987587, -0.09458977729082108, 0.12272943556308746, 0.0877615362405777, -0.08871189504861832, -0.12293917685747147, 0.033000409603118896, -0.22186914086341858, 0.07480181753635406, -0.007906859740614891, -0.15298625826835632, -0.03353499621152878, -0.15758007764816284, -0.09685632586479187, -0.14122767746448517, 0.10926661640405655, 0.1971837431192398, 0.14435572922229767, 0.23622791469097137, -0.16208285093307495, -0.164494127035141, 0.008128302171826363, -0.04573245346546173, 0.22399850189685822, 0.14000214636325836, -0.011508571915328503, -0.292269229888916, 0.06694786250591278, -0.0263604074716568, 0.0443631112575531, -0.032134052366018295, -0.0061676823534071445, -0.14699091017246246, 0.24323277175426483, 0.03755054250359535, -0.07092086970806122, -0.17335782945156097, 0.04682425037026405, 0.0909361019730568, -0.016857421025633812, 0.07538926601409912, -0.059556689113378525, -0.28556928038597107, -0.11062221229076385, 0.2271432727575302, 0.07202616333961487, -0.07302361726760864, 0.25036945939064026, -0.017620449885725975, 0.169356107711792, -0.028326252475380898, 0.025463391095399857, 0.016135117039084435, 0.17186883091926575, -0.047630395740270615, -0.07591842114925385, 0.11121378093957901, -0.004613206721842289, -0.16865740716457367, -0.3896719515323639, -0.33371371030807495, -0.25165700912475586, 0.17884600162506104, -0.010234341025352478, -0.018191518262028694, -0.05897321552038193, -0.02977130003273487, -0.039245158433914185, -0.19086092710494995, -0.035525381565093994, -0.2460971176624298, 0.10013499110937119, -0.25832992792129517, -0.022727632895112038, -0.08246803283691406, 0.30075603723526, 0.01700759120285511, -0.25432246923446655, 0.16188102960586548, 0.01643502712249756, 0.11631716042757034, 0.08747106045484543, -0.1079149842262268, -0.04174996539950371, -0.20586279034614563, 0.09508572518825531,
-0.07496368885040283, -0.11182017624378204, -0.23787473142147064, -0.05645059049129486, -0.08786290138959885, -0.01657848060131073, -0.07381775975227356, -0.1504301279783249, -0.02515280619263649, -0.11491156369447708, -0.07266439497470856, -0.13606153428554535, -0.0397067628800869, 0.17817366123199463, -0.1364949494600296, -0.0320541150867939, -0.007657317444682121, 0.16763025522232056, 0.09396935254335403, -0.40788495540618896, -0.0460759662091732, 0.014027774333953857, 0.12467639893293381, 0.10578513890504837, -0.024916870519518852, 0.0488228015601635, -0.09547558426856995, -0.05591588839888573, 0.05124146491289139, -0.19342845678329468, 0.02484782040119171, -0.03199740871787071, 0.15430931746959686, -0.1344340741634369, -0.15737015008926392, -0.016778305172920227, -0.060229040682315826, 0.20656760036945343, -0.23780567944049835, 0.031030796468257904, 0.12640759348869324, -0.16440699994564056, -0.15076944231987, 0.14994379878044128, 0.10325471311807632, 0.1021256297826767, -0.008550714701414108, 0.1809837818145752, -0.05925465002655983, -0.13306251168251038, 0.04137023165822029, -0.14601050317287445, -0.07550821453332901, -0.1309555619955063, -0.19246481359004974, 0.04576568678021431, -0.05431948974728584, -0.0599941611289978, 0.17914587259292603, 0.08451582491397858, -0.06224450841546059, 0.03379719331860542, -0.2740428149700165, -0.002559275133535266, 0.2174128144979477, -0.15369528532028198, 0.02331141196191311, 0.06420131772756577, -0.025272538885474205, 0.07134793698787689, -0.13248641788959503, 0.07052947580814362, 0.003105456242337823, -0.11277776211500168, -0.24427653849124908, 0.0670461431145668, 0.07214003801345825, 0.1770077496767044, 0.16838707029819489, -0.09785515069961548, -0.10069750249385834, 0.12563465535640717, -0.13523054122924805, -0.08501003682613373, -0.19779996573925018, 0.17710256576538086, 0.23474879562854767, -0.12825778126716614, -0.027334123849868774, 0.26145291328430176, 0.12722736597061157, 0.023584578186273575, -0.13372023403644562, -0.013470827601850033, 0.010314206592738628, 0.01615254022181034, -0.1719893366098404, -0.09610757231712341, 0.039631474763154984, -0.33355632424354553, -0.013514561578631401, -0.015417603775858879, -0.05761720612645149, 0.1955137401819229, 0.11294025927782059, -0.05139739811420441, 0.05331708863377571, 0.29764506220817566, -0.017368171364068985, -0.05093441531062126, 0.0048298598267138, 0.06706173717975616, -0.06293471902608871, 0.18111073970794678, -0.20696459710597992, 0.02789912186563015, 0.21382743120193481, -0.08118899166584015, -0.15690754354000092, -0.1998378038406372,
0.054111547768116, 0.014567028731107712, -0.07162246108055115, -0.1244073435664177, -0.2894248962402344, 0.047870781272649765, -0.09972073137760162, 0.09288030117750168, -0.14031574130058289, 0.2224179208278656, 0.2223558872938156, 0.24999946355819702, -0.05064740404486656, -0.14686459302902222, -0.05156504362821579, -0.07548029720783234, -0.053351785987615585, -0.03372136875987053, 0.05263406038284302, 0.05639943853020668, 0.037882473319768906, -0.1929483860731125, -0.12168872356414795, 0.14545124769210815, 0.017739221453666687, -0.1110038086771965, 0.2882649898529053, 0.05908307805657387, -0.15387755632400513, 0.053129199892282486, 0.1450461596250534, 0.02294231206178665, -0.01565260998904705, 0.020343629643321037, 0.008834595791995525, 0.16995878517627716, 0.07550690323114395, 0.06728662550449371, -0.11009126156568527, -0.38464540243148804, -0.24764563143253326, 0.18870224058628082, 0.054279033094644547, -0.10361956804990768, 0.08278632909059525, -0.02116403914988041, 0.16409263014793396, 0.12847685813903809, 0.04583202302455902, 0.19506840407848358, -0.17844966053962708, -0.06549903750419617, -0.16273224353790283, -0.161017507314682, -0.0747903436422348, 0.07187511026859283, -0.09042683243751526, 0.1717076301574707, 0.010725661180913448, -0.02074405364692211, 0.15688872337341309, -0.0022006426006555557, -0.09781484305858612, 0.15360088646411896, 0.009013641625642776, -0.12935306131839752, -0.01893305592238903, 0.11463253200054169, -0.2761269807815552, 0.1211765930056572, 0.12423524260520935, -0.04783562198281288, -0.1012217104434967, 0.06551084667444229, -0.13323020935058594, 0.03463039547204971, -0.15883000195026398, 0.12724320590496063, 0.054152101278305054, -0.12801942229270935, -0.058526452630758286, 0.12418285012245178, -0.06987043470144272, 0.10431388020515442, -0.03513118252158165, -0.1614571213722229, -0.12422096729278564, -0.018073933199048042, 0.08002422004938126, -0.18120403587818146, 0.09339407086372375, 0.13488000631332397, -0.09528500586748123, -0.10190141201019287, 0.02122529223561287, 0.38960355520248413, -0.03248690068721771, -0.08153115957975388, 0.10130611062049866, -0.1327228546142578, -0.14997272193431854, 0.2506859004497528, -0.010589170269668102, -0.007079857401549816, 0.18306082487106323, 0.12743012607097626, 0.04697196185588837, -0.049869176000356674, 0.007542284671217203, -0.005648470483720303, -0.10602350533008575, 0.045282479375600815, -0.1260736584663391, 0.18685109913349152, 0.06202658265829086, -0.08174464851617813, 0.046045396476984024, -0.007221346255391836, 0.010295865125954151, 0.2895675599575043,
-0.1198740303516388, 0.044443197548389435, 0.13858795166015625, 0.22279053926467896, -0.06532485783100128, 0.11302914470434189, -0.09891951829195023, 0.13174085319042206, -0.10399850457906723, -0.04838109761476517, -0.09599798172712326, -0.20320816338062286, 0.081123948097229, 0.05006958171725273, 0.14225853979587555, 0.05350729450583458, -0.16086730360984802, 0.21299244463443756, 0.09003327041864395, 0.13552221655845642, 0.020073607563972473, 0.16721373796463013, -0.0401131696999073, -0.12180189788341522, -0.24037031829357147, 0.04583306610584259, -0.16346271336078644, 0.03165070340037346, -0.029224542900919914, 0.16679929196834564, 0.010128909721970558, -0.09484048187732697, -0.02521473914384842, 0.08099017292261124, -0.00673547713086009, -0.004253558348864317, -0.26172274351119995, -0.24752174317836761, 0.09401145577430725, -0.11289800703525543, 0.019810279831290245, -0.03305976465344429, -0.15153463184833527, -0.23468749225139618, 0.0855746865272522, 0.15512943267822266, -0.12399236857891083, -0.3188115656375885, -0.036523692309856415, -0.058379437774419785, -0.030946867540478706, -0.12734851241111755, 0.03595585748553276, -0.01740414835512638, -0.03670632466673851, -0.09925492107868195, -0.12862111628055573, 0.24520651996135712, 0.017698274925351143, -0.038001686334609985, 0.025664927437901497, 0.0029112130869179964, 0.062213245779275894, 0.25531330704689026, 0.23496480286121368, 0.09454388916492462, 0.017389213666319847, 0.11584659665822983, 0.16673524677753448, 0.09151555597782135, -0.17030303180217743, 0.36025434732437134, -0.2619711458683014, -0.09175338596105576, 0.09349382668733597, 0.17050179839134216, 0.10559309273958206, -0.14796194434165955, -0.07428625971078873, 0.11929025501012802, -0.04466238245368004, -0.0019895173609256744, -0.01966908387839794, 0.1430402249097824, -0.11240199208259583, -0.25493571162223816, 0.14406955242156982, -0.025748884305357933, -0.04645854979753494, -0.0447390079498291, 0.014837730675935745, 0.09308589994907379, -0.24801799654960632, -0.2639511227607727, -0.17376509308815002, 0.26878756284713745, -0.12118366360664368, -0.05518467351794243, -0.04857626184821129, 0.05101071670651436, -0.0327962189912796, 0.031566061079502106, -0.016365500167012215, 0.02344491146504879, 0.006813392508774996, 0.14259250462055206, -0.13436289131641388, 0.11361999809741974, -0.18629035353660583, -0.3766094446182251, 0.12321257591247559, 0.15160445868968964, -0.023996815085411072, 0.14344102144241333, -0.04995758458971977, 0.2726445496082306, -0.12156495451927185, -0.23664847016334534, -0.14898520708084106, -0.050979141145944595,
0.23372294008731842, -0.17627350986003876, -0.10136827826499939, 0.11485996842384338, 0.13034552335739136, 0.004585606977343559, -0.055115435272455215, -0.06475776433944702, -0.026818303391337395, 0.03541586175560951, 0.19965606927871704, 0.19648157060146332, -0.24670881032943726, 0.08975548297166824, -0.09944427758455276, -0.12058818340301514, 0.3352610468864441, 0.10500340908765793, -0.250606507062912, 0.16294428706169128, 0.16651275753974915, 0.014006499201059341, 0.11645422875881195, 0.2718777060508728, 0.14740799367427826, 0.04810023680329323, 0.005616268143057823, -0.1480809450149536, 0.10070624947547913, -0.10372654348611832, -0.1357823759317398, -0.08491702377796173, 0.22621284425258636, -0.06820607930421829, -0.06192199885845184, 0.19890213012695312, -0.2750304043292999, 0.03052511066198349, 0.04204650595784187, 0.13810497522354126, -0.19686411321163177, 0.019104890525341034, 0.1377190202474594, -0.04344543442130089, -0.13796162605285645, -0.21483367681503296, 0.13118396699428558, 0.08911437541246414, -0.17301331460475922, -0.03908611834049225, -0.13410572707653046, -0.08360466361045837, -0.08213192969560623, 0.07939455658197403, -0.02140735276043415, -0.06469932943582535, -0.08754443377256393, -0.11969055235385895, 0.042297493666410446, 0.0020608382765203714, 0.15172737836837769, -0.05563625320792198, -0.3315103054046631, 0.22467274963855743, -0.02438218705356121, 0.0638047531247139, 0.02003132924437523, -0.12217036634683609, -0.05589717999100685, -0.012712319381535053, 0.016105135902762413, 0.23546157777309418, 0.030939090996980667, 0.009793947450816631, 0.11259498447179794, -0.10887933522462845, 0.04844283312559128, 0.07327419519424438, 0.064501091837883, 0.17974242568016052, -0.0031648017466068268, 0.03930282220244408, -0.08180681616067886, 0.05170651152729988, 0.12195579707622528, -0.027474647387862206, 0.017872843891382217, 0.180231511592865, 0.09039928019046783, -0.004175400361418724, 0.053316663950681686, 0.21274913847446442, -0.04173082485795021, 0.01967577636241913, 0.12270530313253403, 0.053539346903562546, 0.11695609241724014, 0.002909958828240633, -0.1514447033405304, -0.08783949911594391, 0.04082160443067551, -0.03451515734195709, 0.2861790657043457, -0.004959020297974348, -0.21142052114009857, -0.0131981261074543, 0.17949150502681732, -0.08919518440961838, -0.10076698660850525, 0.030539168044924736, 0.1347467601299286, -0.22297680377960205, 0.12837347388267517, 0.233769491314888, 0.12243437021970749, 0.11353639513254166, -0.22543078660964966, 0.15841498970985413, -0.01563928835093975, -0.10512049496173859,
0.04920794442296028, 0.3194962739944458, 0.1821192055940628, 0.0038845762610435486, 0.011785217560827732, 0.1653982698917389, 0.13146254420280457, -0.006053812801837921, 0.00799610186368227, -0.2136024832725525, 0.3090549409389496, 0.07304321974515915, -0.23730464279651642, -0.12536002695560455, -0.027793191373348236, 0.04847712442278862, -0.25394514203071594, 0.17533953487873077, -0.06166226044297218, -0.14388543367385864, 0.1388828307390213, -0.3961043357849121, 0.033582672476768494, -0.024104876443743706, -0.23122107982635498, 0.1362232267856598, -0.06805042922496796, -0.09679853171110153, 0.16441021859645844, -0.09031957387924194, -0.06165515258908272, -0.08302660286426544, -0.061212655156850815, 0.05074751004576683, 0.2873380184173584, 0.09013836085796356, 0.10247724503278732, 0.05563637241721153, -0.21873869001865387, 0.10770229995250702, -0.11187185347080231, -0.03844434767961502, 0.10535439848899841, -0.251819908618927, 0.020319009199738503, -0.17224252223968506, 0.06669355183839798, -0.18054641783237457, -0.04327753558754921, -0.15445029735565186, -0.17961956560611725, -0.015712028369307518, 0.07219745218753815, -0.3416702449321747, 0.1866721510887146, -0.12721729278564453, 0.019353503361344337, -0.03581676259636879, -0.019364073872566223, 0.11218965798616409, -0.029597153887152672, 0.021237226203083992, 0.13608825206756592, -0.2424415946006775, -0.32175716757774353, 0.0743972510099411, -0.0879075825214386, -0.03408617898821831, 0.00822389218956232, 0.13541963696479797, 0.0698443129658699, -0.0016404547495767474, 0.0063500734977424145, -0.09670481830835342, -0.21860893070697784, -0.1282452493906021, 0.05281351879239082, 0.029890315607190132, 0.09100059419870377, -0.07879452407360077, 0.08130671083927155, -0.1441936492919922, -0.055838894098997116, 0.15150262415409088, -0.15935705602169037, 0.08842970430850983, 0.16654479503631592, -0.13856209814548492, -0.14168061316013336, 0.12779010832309723, 0.09756891429424286, 0.02025992050766945, -0.022867372259497643, 0.05762254819273949, -0.12170770019292831, 0.0822039395570755, -0.012711146846413612, 0.15960200130939484, 0.060027290135622025, -0.050231631845235825, -0.043678462505340576, -0.12350920587778091, -0.12712755799293518, 0.23866838216781616, -0.0011923062847927213, 0.08098145574331284, 0.20810747146606445, -0.18109636008739471, -0.22618921101093292, -0.03163693845272064, 0.05107676610350609, -0.005882907658815384, 0.07444650679826736, -0.10443857312202454, 0.09011195600032806, 0.08545433729887009, -0.05788009241223335, 0.021504824981093407, -0.23398582637310028, -0.017445512115955353,
-0.2343042492866516, 0.15357233583927155, 0.06414512544870377, 0.022248918190598488, 0.19998294115066528, -0.09137430787086487, 0.013399907387793064, 0.1298460066318512, 0.03272952511906624, -0.06274989992380142, 0.08472877740859985, -0.15161095559597015, 0.0427892692387104, -0.007651288527995348, -0.1621398776769638, 0.1493532806634903, 0.1498308628797531, -0.02520870603621006, 0.12037964910268784, 0.21908462047576904, 0.06108439341187477, 0.14225506782531738, -0.16366486251354218, -0.0719623863697052, -0.009845402091741562, -0.008245917968451977, 0.03881584480404854, 0.08560531586408615, -0.10696613788604736, 0.016799993813037872, -0.095725417137146, 0.04980965331196785, 0.09482643008232117, 0.08814341574907303, -0.09903864562511444, 0.12624630331993103, 0.08003774285316467, 0.09917571395635605, -0.0839446410536766, -0.21022211015224457, -0.3669544458389282, -0.12429530173540115, 0.10798955708742142, -0.32553961873054504, -0.05878526344895363, 0.06645527482032776, -0.11600789427757263, 0.11967263370752335, -0.004437451716512442, -0.10326213389635086, 0.12281519919633865, 0.13117852807044983, -0.016357239335775375, -0.09347771108150482, 0.033962272107601166, -0.04613002389669418, 0.05373323708772659, -0.26780828833580017, -0.010141313076019287, 0.12090051919221878, -0.07727491110563278, 0.2513287365436554, 0.034235429018735886, 0.10276126861572266, 0.3632703423500061, -0.07205137610435486, 0.1337430775165558, 0.04492473602294922, -0.1439588963985443, -0.057358402758836746, -0.20277251303195953, -0.2543090879917145, 0.049886755645275116, 0.008631470613181591, -0.22373707592487335, -0.2125093936920166, 0.22587715089321136, 0.08118182420730591, 0.0983082726597786, 0.05876937881112099, 0.0903928130865097, -0.1651831418275833, 0.07328616827726364, 0.15356861054897308, -0.0901179164648056, 0.05096658691763878, 0.0922485962510109, -0.05058816447854042, 0.25396010279655457, -0.1210104301571846, -0.030400918796658516, -0.0692111998796463, -0.1347237378358841, -0.03897089138627052, 0.06340862810611725, -0.11683621257543564, 0.06136886030435562, 0.07462817430496216, -0.16170348227024078, -0.0028980313800275326, -0.12228024750947952, 0.07165103405714035, 0.1634065955877304, 0.12443970888853073, 0.2582111656665802, 0.0052032144740223885, -0.03908805921673775, -0.009628575295209885, -0.2151479572057724, -0.08309014141559601, 0.15265527367591858, -0.0510326586663723, 0.0048009054735302925, -0.10486254841089249, -0.01584630087018013, 0.028434298932552338, 0.14635252952575684, 0.22655659914016724, 0.09256265312433243, 0.0021109282970428467,
